SVM-light Version V6.20
0 # kernel type
3 # kernel parameter -d 
1 # kernel parameter -g 
1 # kernel parameter -s 
1 # kernel parameter -r 
empty# kernel parameter -u 
701 # highest feature index 
6 # number of training documents 
2 # number of support vectors plus 1 
0 # threshold b, each following line is a SV (starting with alpha*y)
1 1:0.0045952923 2:0.00046772647 3:0.016136752 4:0.0083092526 5:0.00075128418 6:0.02311057 7:0.010475409 8:0.025120609 9:0.011718323 10:-0.0003963816 11:0.004737772 13:0.0087567205 14:0.026973577 15:0.011508739 16:2.153375e-05 17:-0.0047695935 18:-0.00027018931 19:0.00020580298 20:0.015578747 21:-0.011453033 22:0.00022875829 23:0.0035925396 24:4.5235949e-05 25:0.0081022028 27:-0.0056485566 30:0.0035820322 31:0.0080357613 32:-0.0007177284 33:-0.00010241146 34:-0.00091251836 35:0.0023185641 36:-0.0013527783 37:0.016490418 38:-0.0030967987 40:0.0001427453 41:0.01685182 42:-7.492493e-05 43:0.0050307321 44:-0.0014165445 45:0.0014747131 47:0.00022875829 48:0.0010580751 49:0.013881267 50:0.0056803799 51:0.0022446497 54:-0.00035307353 55:0.000287256 56:0.00068928441 57:0.0093572447 59:0.00029686705 60:0.0079355575 61:0.010187164 62:0.003372089 64:0.0031284143 65:-0.00057072652 66:-0.00024859543 68:-0.00033190008 69:0.0003335097 70:0.0031818924 72:-0.00097633153 73:0.0063517694 74:0.0032720598 75:0.0012141449 76:0.0058238897 77:0.00024383963 79:0.0080344509 80:-0.00037367272 81:0.0069744941 82:1.8306226e-05 83:0.0081738494 84:-0.00032621683 85:0.0045822016 86:-0.00018115461 87:-1.4850213e-05 88:2.2615784e-05 91:0.018876148 92:0.00069591013 93:-2.4373496e-05 94:0.025149876 95:0.0015576866 96:0.016314637 97:0.0012309952 98:-0.00012028205 99:0.0021106158 100:0.01894306 101:0.0042876503 102:-0.0005653493 103:0.015765488 105:5.3366897e-05 106:-0.00037184806 108:0.0049007568 109:1.3996724e-05 112:0.00066338084 113:0.012842 114:0.0078046145 115:0.015299056 116:-0.001211776 117:-6.0672613e-05 118:0.0048520914 119:0.0053447518 120:0.027852163 121:0.0029952563 122:0.0015109152 123:0.0045150407 124:0.0062780255 126:0.0040473612 127:0.005490263 128:0.0036074652 129:0.007662836 130:0.011507618 133:0.0060890624 134:0.004123922 135:-4.6721398e-05 136:0.0062880781 137:0.0080357613 138:0.0095237261 139:0.00058295869 140:0.0063017067 142:-0.00033763357 143:0.0014591424 144:0.002748088 145:-0.0026984073 146:-0.00021826793 147:-8.0378213e-06 148:0.024380326 149:0.0040387418 150:0.006335191 151:0.02583145 152:0.015227048 153:0.028305495 154:0.0043989434 155:0.0038977175 158:0.00587918 159:0.0042592944 162:0.0083379922 163:-0.0019268368 164:0.02564403 165:0.0071707214 168:0.0036074652 171:-8.2012681e-05 172:0.0020781544 173:0.002376046 174:-0.00044354465 175:-0.0054161511 176:0.0049440796 177:0.0018974799 178:-0.011504475 179:0.0032008416 180:0.0094179148 183:-0.0011600527 185:-0.00068034464 186:0.015841186 187:-0.015255772 188:-0.00036680765 189:0.027527345 190:-0.0024534278 192:0.0061322837 193:-8.9836496e-05 194:0.0055353912 196:0.0079474347 197:-0.00042605976 198:-0.00037075247 200:-0.00085909653 201:0.0054989005 202:0.024642682 203:0.0077957534 204:0.0044683241 205:0.0036041157 206:-0.00037184806 207:0.019412844 208:0.0042426772 209:0.00063801766 210:0.011500788 211:4.1673691e-05 212:-0.00066597346 213:-0.0009585942 214:0.022236826 215:0.010691197 216:0.0099693872 218:0.012653675 219:0.0030991845 220:-0.014356587 221:0.0043504797 226:0.0012212904 228:3.3148848e-05 230:0.011333155 233:0.010377684 235:-0.009679202 236:0.002294241 237:0.022699188 239:-9.9171535e-05 241:0.016652169 242:0.00031032725 243:-0.00140235 244:-0.0037374713 245:0.0058419066 247:0.0023287938 248:0.026977591 249:0.0089807389 250:1.9685313e-05 251:5.3153421e-05 253:0.010383792 254:-0.0010477266 255:0.013550933 256:0.027444189 257:-0.0045160134 258:-0.0014243512 259:3.4631794e-05 260:0.027680384 261:0.017754462 262:0.00022875829 263:0.011302124 265:-0.00014992054 266:0.0040678033 267:-0.001055648 268:0.026237417 269:5.9472473e-05 270:0.013183358 272:-0.00050416938 273:0.00045570231 275:5.5380538e-06 276:0.0018744509 277:-0.0058642994 278:1.4153957e-05 279:0.0050181528 280:0.028909536 281:0.0012158082 282:0.0004019248 283:0.01063013 284:0.0080280658 285:0.010503067 286:-0.00027503938 290:0.0078046145 291:-0.00010241146 292:0.003135717 294:0.00022576946 295:0.00045597958 296:-0.00071599532 297:0.0034763913 298:-0.00059807277 299:-0.00049813255 300:0.0032332418 302:0.0051642279 303:-0.00097193971 304:0.007686879 305:-0.0043951091 306:0.0017967798 307:0.00024691108 308:0.0081022028 309:0.0060907588 310:0.006254565 311:0.00070119527 312:0.016207397 313:-0.00055188575 314:0.0025323522 315:0.0041504465 316:5.3153421e-05 317:0.0097582657 318:-7.037272e-05 319:-1.4850213e-05 322:0.0053649298 323:0.0014571968 324:-0.00046261557 325:0.011672235 326:0.007677427 327:0.0029555405 328:0.0055394936 329:-0.00051211304 330:0.0097440956 332:0.01237028 334:7.7147684e-05 335:0.027306747 336:3.2451526e-06 337:-0.00015207518 338:1.6170192e-05 340:5.3153421e-05 341:-0.0016233827 342:0.014993118 343:0.00044397157 345:0.028335979 346:0.0071332674 347:-0.0024643112 348:0.0018410098 349:0.0024422687 350:0.0011402648 351:0.0075193727 352:6.548396e-05 354:0.00022875829 355:0.015273958 356:0.0031268634 357:0.0012220618 358:0.00019331777 359:0.00069373782 360:0.0072354581 361:-0.00037347205 362:0.018590331 363:0.0086007034 365:0.02285281 366:0.026677165 368:0.017551467 369:-0.00037233307 371:0.02313214 372:0.016533902 373:-0.0014147869 375:0.0081022028 376:0.020337123 379:0.026390294 380:0.026267339 381:0.009992077 382:0.0010646356 383:0.010830774 384:-0.0043951091 385:0.0044002975 386:0.0034917588 387:-0.010843164 388:4.4715689e-05 389:-0.00059267279 390:0.0081071518 392:-0.00037184806 394:0.0024274725 395:-0.0028888984 396:0.025141042 397:0.0081000458 398:1.7371791e-05 399:-0.0069770915 400:0.0076103611 401:4.4715689e-05 402:-0.0017300398 403:0.0023211828 404:0.0052079977 405:0.0067090439 406:0.0039519668 407:-0.0043704733 408:0.017706005 409:0.0063258782 410:0.018452974 411:0.0063307318 413:-1.3807446e-06 415:0.0024700232 416:0.0015521913 417:-0.0013938099 418:-0.0074917418 419:0.01526779 420:-0.00096179417 421:0.0037573692 422:5.335782e-05 423:4.4715689e-05 424:0.00018167026 425:3.3148848e-05 426:0.020138461 427:0.0058614942 428:-0.0078740679 429:0.0039046395 431:0.00030369731 432:0.0086172903 433:0.002882597 434:8.4377367e-05 435:0.0087062381 436:0.0024143264 437:0.0013268043 438:0.0028211426 439:-0.0013670574 442:0.0039329221 443:-6.7536646e-05 444:0.018188188 445:0.0032078249 446:0.0057184733 448:5.3153421e-05 449:0.0014589749 450:0.0048146551 451:-0.011123362 452:-0.0018878139 453:0.010339749 454:-0.00032233101 455:-1.4850213e-05 457:0.016207397 458:-0.00013484759 459:-0.0017362437 461:0.02638289 462:0.0019628946 463:0.0053869025 464:-1.359507e-05 467:-0.00034849718 469:-1.4850213e-05 470:0.0022196048 471:-0.00061830936 473:0.0010909231 474:0.0025547093 476:0.0032754955 477:0.017499389 478:-6.0672613e-05 479:-6.0672613e-05 480:0.002395228 481:-0.00017506597 483:0.00037214212 484:0.021779971 485:0.011004699 486:0.0028371986 487:-0.00015313826 490:-0.00044988433 491:0.0040045558 492:0.01093656 493:-6.0672613e-05 494:0.01093656 495:-0.0052655935 496:0.01028035 497:0.016848214 498:0.0039693951 499:-0.0018498253 500:0.00071599137 503:0.026036611 504:-0.014778372 505:-0.0063956897 506:4.8636164e-05 508:0.0042266785 509:0.0087413201 510:0.00661529 511:0.016010044 513:0.0031898967 515:0.0015607296 517:3.3148848e-05 518:0.00039488229 520:0.014019195 521:0.0098103499 522:0.0047165137 523:0.00048173583 524:0.0030687226 526:-0.0018322511 527:-0.0058763577 528:-5.2744075e-05 530:0.0047240979 531:0.00071561622 533:0.0066885394 534:0.017964421 535:0.001445362 536:0.005565885 538:-0.0002531432 540:0.0021922842 541:0.0014415276 542:0.0047212183 543:0.014383256 545:-0.021994688 549:-4.4355738e-06 551:0.00014276672 552:5.3342883e-05 553:0.023403473 554:0.00071599137 555:-0.00010241146 556:0.018047091 558:0.0027283151 559:0.0081022028 560:0.0088646924 561:0.0014574199 562:0.028173584 564:9.924559e-06 565:0.0024274725 567:-0.00050028588 568:0.0082321428 569:0.0004549287 570:0.0027972108 571:-0.0003896073 572:0.0015167465 573:-0.0005027295 574:0.0023060706 575:0.0031084795 576:-1.5401874e-05 577:4.9007904e-05 578:0.0059385584 579:0.0038262948 580:-0.0013061623 581:0.0057695205 582:0.022457939 583:0.0031789474 584:-0.00043770045 585:-0.00055624382 586:-0.0024643112 587:0.0058331746 588:-7.0406859e-05 589:0.0039693951 591:4.4715689e-05 592:0.0002545348 594:0.0084419828 595:0.021601025 596:-0.012032812 597:-0.00021399617 599:0.026051415 600:0.009417058 601:0.0032277664 602:0.00011033826 604:0.027314764 605:0.026633583 606:0.0065680565 607:0.0015866827 609:0.00076914282 610:0.00038700207 611:0.008611884 613:0.0004540146 614:0.016769635 616:0.0033467889 617:-0.00010561781 619:0.0012789791 620:0.016242448 622:0.027680384 623:0.0019311851 625:2.3546423e-05 626:-2.6142534e-05 627:-0.021162059 628:0.0023647 629:-0.00037184806 631:0.0097743329 632:3.3574852e-05 634:0.0024371136 637:0.0055215023 638:0.021456284 640:0.00038289512 641:0.0034149201 642:0.0054112202 643:0.015839932 644:-0.00049779745 646:0.0051867822 649:0.024199847 650:0.0036068936 651:0.011301789 652:0.0050387299 653:0.003580638 654:0.0018616782 655:0.010855929 656:0.0032931806 657:0.004367156 658:0.0010980784 659:0.025742942 660:-0.00054847565 661:0.0012219758 662:0.00018027012 663:1.7130418e-05 665:-0.00018330906 666:0.0022259294 667:6.0619266e-05 668:0.0072028805 670:-0.0023056495 671:-0.00042485233 673:-0.0047030593 674:0.00064767321 675:-0.011767411 676:0.00145874 677:0.0058401618 678:0.0014591424 679:0.00058118894 680:0.00010480837 681:-0.00010241146 682:0.0034437189 684:-1.5175274e-05 686:-9.0275724e-05 687:-0.00089265913 688:3.3148848e-05 689:-0.00057188637 691:-0.0014487972 692:0.0078914259 693:0.0032331513 694:-0.00023525783 695:-0.0010441261 696:0.00073729834 697:-0.00018744321 698:-0.0019462492 699:0.012703543 700:0.0039669028 #
