SVM-light Version V6.20
0 # kernel type
3 # kernel parameter -d 
1 # kernel parameter -g 
1 # kernel parameter -s 
1 # kernel parameter -r 
empty# kernel parameter -u 
701 # highest feature index 
5 # number of training documents 
2 # number of support vectors plus 1 
0 # threshold b, each following line is a SV (starting with alpha*y)
1 1:0.0032157202 2:0.00039069544 3:0.013634699 4:0.0077662398 5:0.00062336813 6:0.020724081 7:0.01189679 8:0.021910047 9:0.011810242 10:-0.00043522278 11:0.0016611457 13:0.0068238135 14:0.024104718 15:0.011615071 16:2.5718149e-05 17:-0.0048161098 18:-0.00071336952 19:0.00026051173 20:0.013234927 21:-0.011268765 22:0.00021192836 23:0.0038327659 24:4.4109351e-05 25:0.0063540107 27:-0.00652966 30:-0.00012019889 31:0.0078884875 32:-0.0019948315 33:-0.00015719826 34:-0.00095580879 35:0.0031577197 36:-0.0011864218 37:0.01624761 38:-0.002970207 40:8.4327898e-05 41:0.016697962 42:-2.0642656e-06 43:0.0018523145 44:-0.0015833949 45:0.00098432996 47:0.00021192836 48:0.0015813793 49:0.013900631 50:0.0075416421 51:0.0018095319 54:-0.00064396078 55:0.0012304798 56:0.00068674359 57:0.010466758 59:0.00018978618 60:0.0056206915 61:0.0097684627 62:0.0034953796 64:0.0027566624 65:-0.00091522938 66:-0.0032449113 68:-0.00059383025 69:-0.0034461436 70:0.0038225646 72:-0.0010810076 73:0.0046066241 74:0.0010291642 75:0.00135104 76:0.0057097785 77:-7.9598227e-05 79:0.007882542 80:-7.9708348e-05 81:0.0051322393 82:2.5055426e-05 83:0.0079649361 84:-0.00058224006 85:0.0013134793 86:-0.00076884683 87:-9.0334906e-05 88:2.7677666e-05 91:0.017960709 92:0.00068668852 93:-3.8902919e-05 94:0.025229311 95:0.0017391439 96:0.016090525 97:0.0012394675 98:-0.0020931363 99:0.0016839827 100:0.016839283 101:0.0014669128 102:-0.00091413577 103:0.015986467 105:4.5422326e-05 106:-0.00067735446 108:0.0046687946 109:2.9867582e-05 112:0.00043298581 113:0.012810424 114:0.0060360474 115:0.013210989 116:-0.0028623871 117:-4.2312276e-05 118:0.003369119 119:0.0031363743 120:0.02710218 121:0.0020427618 122:0.00012458921 123:0.0042597433 124:0.0053551788 126:0.0021945029 127:0.0055761994 128:0.0038526675 129:0.0062064901 130:0.012671409 133:0.0053541274 134:0.0028483942 135:-7.6457043e-05 136:0.0054285158 137:0.0078884875 138:0.0085936021 139:0.00015512895 140:0.0083684055 142:-0.00072715548 143:0.0014840743 144:0.0026254719 145:-0.0047747744 146:-0.0014144677 147:-0.0013938956 148:0.02119698 149:0.0012825967 150:0.0044422299 151:0.025713634 152:0.013159079 153:0.027531095 154:0.0010600353 155:0.0041237748 158:0.004598238 159:0.0042050639 162:0.008437776 163:-0.0025419476 164:0.02464447 165:0.0053659035 168:0.0038526675 171:-0.00014650507 172:0.00087783817 173:-0.001880501 174:-0.00049163116 175:-0.0012744662 176:0.0031563018 177:0.00069509493 178:-0.010307197 179:0.00058885914 180:0.0084921336 183:-0.0027836112 185:-0.00064906868 186:0.01354669 187:-0.016694164 188:-0.00046323723 189:0.024596265 190:-0.0011677699 192:0.0062419698 193:-3.5909528e-05 194:0.0042163003 196:0.0074410597 197:-0.00045979436 198:-7.7837649e-05 200:-0.0013856337 201:0.0041556587 202:0.024660597 203:0.0076714191 204:0.0036544423 205:0.0038391035 206:-0.00067735446 207:0.016976865 208:0.0043269871 209:0.00083963055 210:0.012885267 211:3.2426338e-05 212:-0.0023613083 213:-0.0010615862 214:0.02200635 215:0.0095343115 216:0.0110832 218:0.012784611 219:0.002869175 220:-0.013380548 221:0.0035539293 226:0.0013547961 228:1.9223948e-05 230:0.01287997 233:0.011927182 235:-0.011914936 236:0.001997394 237:0.022729887 239:-0.00010029557 241:0.017621959 242:-0.0012708593 243:-0.0051803072 244:0.00029514541 245:0.0038675417 247:0.0016297913 248:0.026394935 249:0.007045255 250:1.7226048e-05 251:4.5240624e-05 253:0.010177989 254:-0.0011055412 255:0.013447621 256:0.026311446 257:-0.00089205086 258:-0.001204606 259:1.520105e-05 260:0.026960636 261:0.015740573 262:0.00021192836 263:0.0084200446 265:-0.0019971097 266:0.0048398678 267:-0.001015509 268:0.02515072 269:0.00015008521 270:0.013091254 272:0.0010633237 273:0.00062852912 275:2.8197293e-05 276:0.0013747016 277:-0.0020987254 278:3.0168461e-05 279:0.0034663437 280:0.02588346 281:0.00091476977 282:-1.4101858e-05 283:0.007917027 284:0.0078094504 285:0.010706747 286:-0.00024875873 290:0.0060360474 291:-0.00015719826 292:0.0029390804 294:0.00020867708 295:0.00062759977 296:-0.0020181183 297:0.0026639386 298:-0.00054041226 299:-0.00183656 300:0.0035271302 302:0.0049054325 303:-0.0010708068 304:0.0086225355 305:-0.0041593867 306:0.0019208493 307:0.00022847718 308:0.0063540107 309:0.004136547 310:0.004255611 311:0.00068883429 312:0.016013235 313:-0.00089597376 314:0.0029177382 315:0.0032554071 316:4.5240624e-05 317:0.0083035706 318:-2.9713996e-05 319:-9.0334906e-05 322:0.0036517985 323:0.0014820242 324:-0.00049056759 325:0.010215988 326:0.0071727452 327:0.00018593867 328:0.0046405378 329:-0.0035450954 330:0.0082826111 332:0.012923136 334:7.0966445e-05 335:0.026173802 336:1.5257822e-06 337:-0.00019845572 338:3.7756177e-05 340:4.5240624e-05 341:-0.0050050337 342:0.015539873 343:0.0010669926 345:0.02573951 346:0.0054000146 347:-0.0025674838 348:0.0018254301 349:-0.00066699449 350:-0.00075247406 351:0.0055293934 352:6.6211433e-05 354:0.00021192836 355:0.013248904 356:0.0034401673 357:0.0013612882 358:0.00019334356 359:0.0028477279 360:0.0051678712 361:-7.9802361e-05 362:0.016752193 363:0.0062564542 365:0.020268966 366:0.025789943 368:0.017066995 369:-8.1514248e-05 371:0.019958863 372:0.016196771 373:-0.0016129203 375:0.0063540107 376:0.019533807 379:0.026057905 380:0.025544221 381:0.011104114 382:-0.00037163077 383:0.0091023687 384:-0.0041593867 385:0.0035331375 386:0.00020409016 387:-0.010451878 388:4.3602045e-05 389:-0.0017439139 390:0.0078733945 392:-0.00067735446 394:0.002133576 395:0.00018023106 396:0.024071937 397:0.0074086701 398:2.4082397e-05 399:-0.0074622156 400:0.00596163 401:4.3602045e-05 402:-0.001640397 403:0.0020256564 404:0.0040827617 405:0.0056485003 406:0.0043519684 407:-0.0030827418 408:0.015381588 409:0.0045961202 410:0.016202591 411:0.0066894414 413:2.119652e-05 415:-0.00040906266 416:0.0015532812 417:-0.001579614 418:-0.0084517924 419:0.013183365 420:-0.0010611212 421:0.0025920998 422:5.059097e-05 423:4.3602045e-05 424:9.7836339e-05 425:1.9223948e-05 426:0.020593531 427:0.0058088093 428:-0.008218131 429:0.0034461811 431:0.00019277466 432:0.0064497413 433:0.0020971554 434:-1.1428635e-05 435:0.0079631545 436:0.0024305042 437:0.00028400446 438:0.00026426357 439:-0.0015696798 442:0.0040373392 443:-3.3141594e-05 444:0.016254077 445:0.00039953628 446:0.0060247905 448:4.5240624e-05 449:0.0014822448 450:0.0030090592 451:-0.012748064 452:-0.0012028298 453:0.010348516 454:-0.00075456762 455:-9.0334906e-05 457:0.016013235 458:-0.00036301513 459:0.00041651112 461:0.026192041 462:0.0018204985 463:0.0061173546 464:0.00021774159 467:-0.00036912429 469:-9.0334906e-05 470:0.0018359519 471:-0.00044275983 473:0.00072920416 474:0.00053303136 476:0.00043240449 477:0.015463607 478:-4.2312276e-05 479:-4.2312276e-05 480:0.001509367 481:-5.2198942e-05 483:-1.8328095e-05 484:0.021773392 485:0.0080685271 486:0.002110505 487:-0.00074990327 490:-0.001912664 491:0.0047190422 492:0.0093424041 493:-4.2312276e-05 494:0.0093424041 495:-0.0014176281 496:0.0070992596 497:0.01448496 498:0.0034798442 499:-0.0024312176 500:0.00070525403 503:0.023095516 504:-0.016482042 505:-0.0093059484 506:-0.001274619 508:0.002940862 509:0.0068971477 510:0.0070077525 511:0.016218608 513:3.16931e-05 515:0.00098117406 517:1.9223948e-05 518:5.670356e-05 520:0.014617094 521:0.0084238574 522:0.0040445132 523:0.00044269129 524:0.0028569719 526:-0.001988746 527:-0.0030329891 528:1.0634459e-05 530:0.0040437379 531:0.00070640235 533:0.0057998789 534:0.015610351 535:-0.00035537887 536:0.0063024722 538:-0.0020452761 540:0.0011564884 541:0.00096007745 542:0.0029511305 543:0.013549057 545:-0.020598968 549:2.0626662e-06 551:8.4340551e-05 552:4.5401881e-05 553:0.02088457 554:0.00070525403 555:-0.00015719826 556:0.017854683 558:0.00052728003 559:0.0063540107 560:0.0069023082 561:0.0014823365 562:0.02518139 564:3.3489978e-05 565:0.002133576 567:-0.00038915713 568:0.0064104781 569:0.00062910496 570:0.0013160646 571:-0.00042883799 572:0.0012965886 573:-0.00039106057 574:0.0011176607 575:0.0030327279 576:-9.2645241e-05 577:7.4231364e-05 578:0.0051120659 579:0.0027300254 580:-0.0011458157 581:0.0053881886 582:0.021802207 583:0.0029410534 584:-0.00079452363 585:-0.002668632 586:-0.0025674838 587:0.0046839267 588:-4.8523118e-05 589:0.0034798442 591:4.3602045e-05 592:-6.859046e-05 594:0.0095175095 595:0.021217057 596:-0.012602302 597:-0.0005324239 599:0.025852373 600:0.0068033515 601:0.0033958412 602:0.0011336937 604:0.026746918 605:0.025734171 606:0.0033499994 607:0.00053985778 609:0.0017268391 610:0.00041736304 611:0.0087461378 613:0.00062810699 614:0.014723933 616:0.0029872421 617:-0.00016210377 619:0.00094943267 620:0.014449602 622:0.026960636 623:0.0018018143 625:3.0831139e-05 626:0.00029789336 627:-0.020749148 628:0.0023309118 629:-0.00067735446 631:0.0083860923 632:1.9478908e-05 634:0.0021478138 637:0.0057778535 638:0.021520831 640:-0.0021902914 641:0.00049917493 642:0.0052231033 643:0.015484675 644:-0.0016128058 646:0.0036322055 649:0.023812745 650:0.0038512524 651:0.0084713362 652:0.0039593312 653:0.003822342 654:0.0022014813 655:0.012442218 656:0.0032045734 657:0.0034616659 658:0.00073294371 659:0.025675675 660:-0.00089917041 661:0.001359512 662:9.1891256e-05 663:3.8881033e-05 665:-0.0022579667 666:0.0019838645 667:-1.3178426e-05 668:0.0080277612 670:-0.0020939431 671:0.00072374457 673:-0.0035195225 674:-0.00062617107 675:-0.014293243 676:0.0014837502 677:0.0051731486 678:0.0014840743 679:0.00020721002 680:-1.8497984e-05 681:-0.00015719826 682:0.0028471095 684:-4.830262e-05 686:-3.7889127e-05 687:-0.00077995 688:1.9223948e-05 689:-0.0009253833 691:-0.0016347972 692:0.0072269207 693:6.8781279e-05 694:-0.0026101933 695:-0.0011871486 696:0.0006767296 697:-0.00017829417 698:-0.0029282516 699:0.013635146 700:0.0033812562 #
