SVM-light Version V6.20
0 # kernel type
3 # kernel parameter -d 
1 # kernel parameter -g 
1 # kernel parameter -s 
1 # kernel parameter -r 
empty# kernel parameter -u 
701 # highest feature index 
6 # number of training documents 
2 # number of support vectors plus 1 
0 # threshold b, each following line is a SV (starting with alpha*y)
1 1:0.002103403 2:0.00040513388 3:0.013437407 4:0.0077254404 5:0.00066896819 6:0.020559849 7:0.01235463 8:0.02154116 9:0.010444555 10:-0.00085158716 11:0.00040763413 13:0.0066533145 14:0.023922617 15:0.010230327 16:-1.5250882e-05 17:-0.0045493762 18:-0.0011057931 19:0.00037013498 20:0.013064696 21:-0.011163881 22:0.00031604621 23:0.0034977456 24:2.9937424e-05 25:0.00617678 27:-0.0065026991 30:-0.0011440535 31:0.0069314456 32:-0.0025463435 33:-0.0001450554 34:-0.0011820435 35:0.0038016164 36:-0.0013646748 37:0.015177089 38:-0.0025974754 40:5.387119e-05 41:0.015426124 42:7.6208169e-05 43:0.00068260595 44:-0.00092144578 45:0.00077804545 47:0.00031604621 48:0.0017077975 49:0.012438191 50:0.0085745454 51:0.0018936328 53:5.9856888e-05 54:-0.0011069147 55:0.0016458188 56:0.00040294192 57:0.010612613 59:0.00023662431 60:0.0051950873 61:0.0093661007 62:0.002965251 64:0.002001876 65:-0.00048675816 66:-0.0035918027 68:-0.00044698929 69:-0.0035751197 70:0.0038003365 72:-0.0014779997 73:0.0041331206 74:0.00069915794 75:0.0012408727 76:0.0053816922 77:0.00041636045 79:0.0069324165 80:-0.00024522012 81:0.0039317911 82:-1.7631319e-05 83:0.0074200695 84:-0.00043527075 85:0.00010448398 86:-0.00125688 87:8.7689819e-05 88:-1.3767713e-05 91:0.018002449 92:0.00039786089 93:-3.5897843e-05 94:0.025387732 95:0.0025361748 96:0.014749854 97:0.0012097501 98:-0.0017969088 99:0.0019839138 100:0.016724588 101:0.00022682679 102:-0.000493998 103:0.014140581 105:4.1913652e-05 106:-0.00083317963 108:0.0048400676 109:2.2965201e-05 112:0.00038282131 113:0.012649486 114:0.0045077628 115:0.01312249 116:-0.0035249807 117:0.00014392671 118:0.0027742686 119:0.0016245039 120:0.026185308 121:0.00213841 122:0.00021295236 123:0.0040700249 124:0.0042191814 126:0.00089885568 127:0.0051660999 128:0.003515054 129:0.0051575582 130:0.012762892 133:0.0042505097 134:0.0017994269 135:-0.00027643834 136:0.0052640908 137:0.0069314456 138:0.0085011432 139:-6.3761712e-05 140:0.0086383894 142:-0.00091653602 143:0.0014036079 144:0.0020839474 145:-0.0055860286 146:-0.0013966982 147:-0.0016691828 148:0.0215047 149:0.0002783344 150:0.0031256422 151:0.024274316 152:0.013070908 153:0.026447613 154:-0.00024261432 155:0.0036857508 158:0.0036094708 159:0.0036323846 162:0.0070606647 163:-0.0021596693 164:0.02380316 165:0.0039882152 168:0.003515054 171:6.2540101e-05 172:0.0005874245 173:-0.0016355765 174:-0.00087507459 175:0.00021510423 176:0.0017061287 177:-0.00024851755 178:-0.0088695772 179:8.3628853e-05 180:0.0083937021 183:-0.0035101664 185:-0.00048929086 186:0.013471153 187:-0.01737359 188:-0.00098118605 189:0.024429843 190:-4.0772604e-05 192:0.0057349694 193:4.7613474e-05 194:0.0029158196 196:0.00635939 197:-0.00085141772 198:-0.00024286043 200:-0.0016370729 201:0.0029085567 202:0.02377687 203:0.0066704871 204:0.0038519918 205:0.0035084372 206:-0.00083317963 207:0.016820736 208:0.0037248179 209:0.00050016871 210:0.012956999 211:2.3937242e-05 212:-0.0032037916 213:-0.0014352609 214:0.022064902 215:0.0089326901 216:0.011272158 218:0.012603614 219:0.0025493961 220:-0.013846884 221:0.0037542738 226:0.0012546236 228:1.182599e-05 230:0.013360007 233:0.012314707 235:-0.013561539 236:0.0017182397 237:0.021573985 239:-0.00026617915 241:0.018507605 242:-0.0019241036 243:-0.0058682291 244:0.0013906157 245:0.0029131535 247:0.0011992294 248:0.025085585 249:0.0068604411 250:2.2954941e-05 251:4.1745989e-05 253:0.0098422673 254:-0.00088342704 255:0.011961546 256:0.025457146 257:0.00084423908 258:-0.0014049575 259:-0.00013657557 260:0.026030015 261:0.01569207 262:0.00031604621 263:0.0066931439 265:-0.0017276155 266:0.0042378777 267:-0.0013374963 268:0.024218505 269:0.00022094563 270:0.0115729 272:0.0012480923 273:0.00054654182 275:-0.00028868939 276:0.0010554416 277:-0.001221542 278:2.3193676e-05 279:0.0028545014 280:0.025690462 281:0.0010327589 282:0.00054065237 283:0.0066984929 284:0.0068634963 285:0.0098762345 286:-0.00038545352 290:0.0045077628 291:-0.0001450554 292:0.002627573 294:6.6910761e-05 295:0.00054803106 296:-0.002789513 297:0.0018199934 298:-0.00064074586 299:-0.001580326 300:0.0034293004 302:0.00461839 303:-0.0014456111 304:0.0085732304 305:-0.0036718119 306:0.0022736343 307:0.00034090062 308:0.00617678 309:0.0026954683 310:0.002737191 311:0.00039934687 312:0.014643572 313:-0.0004726515 314:0.0030910508 315:0.0034974678 316:4.1745989e-05 317:0.0070081842 318:0.00022646454 319:8.7689819e-05 322:0.0030128474 323:0.0014019492 324:-0.00057731697 325:0.010483932 326:0.0071703028 327:-0.00055610912 328:0.0047250343 329:-0.0039805276 330:0.0069839479 332:0.012997719 334:0.00014017464 335:0.02540217 336:-4.167826e-05 337:-0.00028439294 338:-0.00029420544 340:4.1745989e-05 341:-0.0053418647 342:0.01366945 343:0.0018445933 345:0.024332415 346:0.0040412401 347:-0.0015793646 348:0.0017717236 349:-2.9013523e-05 350:-0.0011217473 351:0.0044144974 352:6.3785694e-05 354:0.00031604621 355:0.013230116 356:0.003069829 357:0.0012584237 358:0.00010823126 359:0.0041978182 360:0.0050430321 361:-0.00024507166 362:0.016731588 363:0.0060412353 365:0.020240486 366:0.024631135 368:0.017190384 369:-0.0002455487 371:0.019595867 372:0.014933029 373:-0.00093751482 375:0.00617678 376:0.019028213 379:0.025009869 380:0.026392423 381:0.012422299 382:-0.00089761888 383:0.0092250435 384:-0.0036718119 385:0.0026840223 386:-0.00081967964 387:-0.0094538555 388:2.9593115e-05 389:-0.0022429938 390:0.0069626076 392:-0.00083317963 394:0.0018622607 395:0.0010236113 396:0.02378422 397:0.0074311923 398:-1.8761713e-05 399:-0.0066339164 400:0.0045209224 401:2.9593115e-05 402:-0.0025219717 403:0.0017630884 404:0.0030885034 405:0.0044584991 406:0.0037691467 407:-0.001852171 408:0.015286904 409:0.0041112211 410:0.016075633 411:0.0066874414 413:-0.00030300571 415:-0.0014231451 416:0.0013448241 417:-0.00091576978 418:-0.0088868272 419:0.013093854 420:-0.0014329434 421:0.0013786273 422:3.5919878e-05 423:2.9593115e-05 424:5.9329421e-05 425:1.182599e-05 426:0.021155382 427:0.0051769684 428:-0.008898966 429:0.0026440485 431:0.00068889186 432:0.0063321088 433:0.0016660297 434:-3.6684309e-05 435:0.0077220569 436:0.0023328445 437:-0.0003291149 438:-0.00025128972 439:-0.00088854006 442:0.0034118644 443:0.00018778857 444:0.016217157 445:-0.0006471388 446:0.0058165407 448:4.1745989e-05 449:0.0014007336 450:0.0024098959 451:-0.01311436 452:-0.00088005239 453:0.0099773025 454:-0.0010921368 455:8.7689819e-05 457:0.014643572 458:-0.00054733298 459:0.0017818267 461:0.024887895 462:0.0015581874 463:0.0058434713 464:0.00053494127 467:-0.0007733641 469:8.7689819e-05 470:0.0015581507 471:-0.00044154137 473:0.00088472245 474:-0.00047107504 476:-0.00062190671 477:0.015439311 478:0.00014392671 479:0.00014392671 480:0.0010768092 481:-0.00011490641 483:0.00050044956 484:0.020972798 485:0.006773321 486:0.0016440399 487:-0.0012390653 490:-0.0024943608 491:0.0041098292 492:0.0083482703 493:0.00014392671 494:0.0083482703 495:-0.00023677979 496:0.005512109 497:0.014350943 498:0.0026654375 499:-0.0026457391 500:0.00041606455 503:0.022883199 504:-0.018140268 505:-0.011589943 506:-0.00078392721 508:0.0014406869 509:0.0065672775 510:0.0074858936 511:0.014423171 513:-0.00068188109 515:0.00097618764 517:1.182599e-05 518:0.00060388079 520:0.013707006 521:0.0070907557 522:0.0040435698 523:0.00043756809 524:0.0025419102 526:-0.0022215252 527:-0.001062568 528:8.2262282e-05 530:0.004046083 531:0.00041938218 533:0.0063650543 534:0.015471417 535:-0.00094899983 536:0.007255665 538:-0.0024412395 540:0.00076218566 541:0.00094734249 542:0.0018230443 543:0.01334875 545:-0.021023188 549:1.3734018e-05 551:5.3879277e-05 552:4.1894793e-05 553:0.020852096 554:0.00041606455 555:-0.0001450554 556:0.016847242 558:1.2287355e-05 559:0.00617678 560:0.0067301798 561:0.0014032265 562:0.025014872 564:-0.00028977043 565:0.0018622607 567:-0.00037920609 568:0.0057985396 569:0.00054822111 570:0.00063190935 571:-0.00084640837 572:0.0011124818 573:-0.00038106172 574:0.00088742009 575:0.002246012 576:8.9534624e-05 577:9.0123343e-05 578:0.0052348203 579:0.0017910445 580:-0.001105821 581:0.0052715368 582:0.021426208 583:0.0026169789 584:-0.00094937533 585:-0.0023298822 586:-0.0015793646 587:0.0037851757 588:0.00016777622 589:0.0026654375 591:2.9593115e-05 592:-0.00061474653 594:0.010098096 595:0.020929016 596:-0.012573228 597:-0.00061989058 599:0.025814233 600:0.0055363653 601:0.00325335 602:0.0017161689 604:0.025530012 605:0.024660306 606:0.0017117201 607:1.8677085e-05 609:0.0018630966 610:0.00042266928 611:0.0074336706 613:0.00054722553 614:0.014677254 616:0.0025350759 617:-0.00014958199 619:0.001075629 620:0.012899951 622:0.026030015 623:0.0016930359 625:-1.0869112e-05 626:0.0004632558 627:-0.020483645 628:0.0022728192 629:-0.00083317963 631:0.0070479382 632:1.198916e-05 634:0.0018820565 637:0.0054851468 638:0.021505918 640:-0.0019457797 641:-0.00068658328 642:0.0043612849 643:0.014105794 644:-0.002083377 646:0.0029883101 649:0.02409007 650:0.0035142479 651:0.0066716154 652:0.0028052467 653:0.0034794814 654:0.0021172676 655:0.012723477 656:0.0026491689 657:0.0036762091 658:0.00089120097 659:0.024829209 660:-0.00048001434 661:0.0012486682 662:0.00012569265 663:-0.00029346655 665:-0.0030095589 666:0.0017198755 667:-0.00012683627 668:0.0091449199 670:-0.0023716611 671:0.001660513 673:-0.0028591014 674:-7.3223513e-05 675:-0.015886398 676:0.0014034393 677:0.004380269 678:0.0014036079 679:0.00070303562 680:-8.3226238e-05 681:-0.0001450554 682:0.0020258755 684:-1.1947905e-05 686:4.619289e-05 687:-0.00097161112 688:1.182599e-05 689:-0.00050345005 691:-0.00096424663 692:0.0072278557 693:-0.00065936794 694:-0.0026352275 695:-0.0022085644 696:0.00053750409 697:-0.0001825863 698:-0.0036020491 699:0.013299052 700:0.0025448913 #
