SVM-light Version V6.20
0 # kernel type
3 # kernel parameter -d 
1 # kernel parameter -g 
1 # kernel parameter -s 
1 # kernel parameter -r 
empty# kernel parameter -u 
701 # highest feature index 
6 # number of training documents 
2 # number of support vectors plus 1 
0 # threshold b, each following line is a SV (starting with alpha*y)
1 1:0.00059607648 2:0.00038151367 3:0.010364353 4:0.0083516501 5:0.0007619987 6:0.018471166 7:0.012585029 8:0.021099748 9:0.0097560845 10:-0.0013402519 11:-0.001410788 13:0.0063233683 14:0.021850146 15:0.0095407143 16:-8.6722604e-05 17:-0.0045759012 18:-0.0024488121 19:0.00028202703 20:0.01002515 21:-0.010140542 22:0.00021869263 23:0.003669655 24:3.9591305e-05 25:0.0058862669 27:-0.0067619546 30:-0.0043832017 31:0.0070042955 32:-0.0033031679 33:-0.00015351389 34:-0.0012519282 35:0.0043509658 36:-0.0011340372 37:0.015931657 38:-0.0027321253 40:3.1673633e-05 41:0.014123947 42:-0.00011098802 43:-0.0019480578 44:-0.0010172463 45:-3.4268633e-05 47:0.00021869263 48:0.00198602 49:0.011443481 50:0.0094722668 51:0.0018116394 53:5.5441487e-05 54:-0.0023958297 55:0.00045067523 56:0.00038923227 57:0.011138865 59:0.00014589175 60:0.0036211514 61:0.008473129 62:0.0030783673 64:0.0012617856 65:-0.00057022832 66:-0.0061540166 68:-0.00071438565 69:-0.0048111323 70:0.0034297807 72:-0.0013399856 73:0.0027772356 74:-0.00054366305 75:0.001432743 76:0.0060008508 77:0.00024652039 79:0.0070129861 80:-0.00014891339 81:0.0024159721 82:-8.8152883e-05 83:0.0075137378 84:-0.00069703965 85:-0.0016510958 86:-0.0028111006 87:5.6552657e-05 88:-8.4440115e-05 91:0.018030629 92:0.00038866585 93:-4.5104971e-05 94:0.02466836 95:0.0019761375 96:0.013824477 97:0.0014758266 98:-0.0031179816 99:0.0014331071 100:0.013911717 101:-0.0015224149 102:-0.00057591172 103:0.013174335 105:4.2776053e-05 106:-0.0010424159 108:0.0044619325 109:3.2429103e-05 112:0.00029681955 113:0.012092883 114:0.0026784935 115:0.011368718 116:-0.0044961311 117:8.781394e-05 118:0.0015297106 119:0.00024166687 120:0.025321437 121:0.00290043 122:-0.0012250625 123:0.0036845175 124:0.0034711622 126:-0.00067307596 127:0.0043552266 128:0.0036916195 129:0.0034394723 130:0.013608419 133:0.0035578706 134:0.00038259086 135:-0.00014789091 136:0.0053515839 137:0.0070042955 138:0.0090386625 139:-0.00097374577 140:0.010105956 142:-0.0011738375 143:0.0016767838 144:0.0023351444 145:-0.0060810638 146:-0.0026001651 147:-0.0034094995 148:0.01843881 149:-0.0016770966 150:0.0013302309 151:0.023237417 152:0.010132149 153:0.025406089 154:-0.0030113736 155:0.0038143371 158:0.0018124845 159:0.0025751654 162:0.0063589918 163:-0.0033888831 164:0.023132056 165:0.0028384437 168:0.0036916195 171:0.00025826829 172:-0.00043276971 173:-0.0028994945 174:-0.0013094738 175:0.0037685027 176:-7.3300085e-05 177:-0.0022022375 178:-0.0071592531 179:-0.0025891447 180:0.008929817 183:-0.0044690603 185:2.7344353e-05 186:0.010686341 187:-0.017970191 188:-0.0017546689 189:0.022608897 190:0.0011988833 192:0.0058961185 193:-0.00014067969 194:0.0012681597 196:0.0058719297 197:-0.0013071406 198:-0.00014530533 200:-0.0023017225 201:0.0011280129 202:0.023670707 203:0.006710879 204:0.0041275457 205:0.0036801635 206:-0.0010424159 207:0.015183209 208:0.0036276167 209:0.00024468906 210:0.013829356 211:2.2171489e-05 212:-0.0044547287 213:-0.0012809208 214:0.021015478 215:0.0075711966 216:0.01172983 218:0.012107283 219:0.0021819531 220:-0.012437684 221:0.004025836 226:0.001443953 228:7.0487463e-06 230:0.013682661 233:0.012521164 235:-0.014428407 236:0.001574746 237:0.020896275 239:-0.00047498185 241:0.019709492 242:-0.0029733565 243:-0.008636089 244:0.0046278918 245:0.0024197171 247:0.00014486708 248:0.02407182 249:0.0065461323 250:2.1136988e-05 251:4.2604941e-05 253:0.0094788987 254:-0.00089120725 255:0.011246005 256:0.024861492 257:0.0047175912 258:-0.0013661659 259:-6.3709609e-05 260:0.025124302 261:0.012897296 262:0.00021869263 263:0.0037362168 265:-0.0033335132 266:0.0034627425 267:-0.0013303665 268:0.023509074 269:0.00019160991 270:0.010849436 272:0.0020930807 273:0.00068020355 275:-0.0007420117 276:0.00051695353 277:0.0025811284 278:3.2780728e-05 279:0.0015552114 280:0.023848142 281:0.0010808501 282:0.00029257734 283:0.004355893 284:0.0069070146 285:0.0096137896 286:-0.0002500315 290:0.0026784935 291:-0.00015351389 292:0.0022683525 294:-0.00017672063 295:0.0006829013 296:-0.0035572317 297:0.0010104855 298:-0.00078402646 299:-0.001693399 300:0.0030467797 302:0.0046614725 303:-0.0012946596 304:0.0095953327 305:-0.0023294513 306:0.0026712164 307:0.00023596257 308:0.0058862669 309:0.0015848301 310:0.00086780102 311:0.00038789303 312:0.013707951 313:-0.00055836391 314:0.002754716 315:0.003689985 316:4.2604941e-05 317:0.0051190145 318:0.0001892937 319:5.6552657e-05 322:0.0016373732 323:0.001674686 324:-0.00069685874 325:0.0099592246 326:0.0076380763 327:-0.0020031563 328:0.0047161123 329:-0.006416122 330:0.0050939443 332:0.013349452 334:0.00028003025 335:0.024874654 336:-5.8957696e-05 337:-0.00031226108 338:-0.00078049104 340:4.2604941e-05 341:-0.007764285 342:0.0130267 343:0.0022042766 345:0.021699391 346:0.0029228039 347:-0.00035696564 348:0.0011517211 349:-0.00060679449 350:-0.0022785042 351:0.0028169903 352:6.725976e-05 354:0.00021869263 355:0.01047828 356:0.0021419304 357:0.0014500964 358:0.00024106892 359:0.005517052 360:0.0048145247 361:-0.00014877714 362:0.013974399 363:0.0028424903 365:0.018092897 366:0.023296446 368:0.016462946 369:-0.00014979971 371:0.017691394 372:0.014130813 373:-0.0010140213 375:0.0058862669 376:0.017730171 379:0.024284398 380:0.026850076 381:0.01350047 382:-0.0020216852 383:0.008555959 384:-0.0023294513 385:0.00046162904 386:-0.0031855821 387:-0.0086517874 388:3.9135968e-05 389:-0.0029177202 390:0.0070423563 392:-0.0010424159 394:0.00173235 395:0.0043148734 396:0.022483049 397:0.0080125285 398:-8.9300011e-05 399:-0.0064829132 400:0.0026672604 401:3.9135968e-05 402:-0.0033064387 403:0.0016081878 404:0.001374211 405:0.0034060611 406:0.0027782349 407:0.0001122789 408:0.012493762 409:0.0027497404 410:0.013182834 411:0.0067736669 413:-0.00077138835 415:-0.0032709737 416:0.0015026566 417:-0.0010039789 418:-0.0093218116 419:0.011342006 420:-0.0012798504 421:-4.2591408e-05 422:4.5130797e-05 423:3.9135968e-05 424:-1.868742e-05 425:7.0487463e-06 426:0.021718731 427:0.0049932403 428:-0.0095558139 429:0.001873666 431:0.00036925066 432:0.0034009938 433:0.00031293029 434:-7.7471137e-05 435:0.0079762433 436:0.0023421166 437:-0.0017095887 438:-0.0018332546 439:-0.00097358442 442:0.0020563491 443:0.00013536027 444:0.013419187 445:-0.0026666373 446:0.0060046911 448:4.2604941e-05 449:0.0016728364 450:0.00087334606 451:-0.013227444 452:-0.00036900342 453:0.010860594 454:-0.0023937144 455:5.6552657e-05 457:0.013707951 458:-0.00048104787 459:0.0037914254 461:0.023758896 462:0.0015681011 463:0.0059653628 464:0.00030936248 467:-0.0011995696 469:5.6552657e-05 470:0.0017143659 471:-0.00012627665 473:0.00091127382 474:-0.0019507437 476:-0.0026691298 477:0.012665053 478:8.781394e-05 479:8.781394e-05 480:-0.00029113272 481:-3.5432931e-05 483:0.00025479562 484:0.020418849 485:0.0041961228 486:0.00093511346 487:-0.0028012847 490:-0.0032209677 491:0.0033030058 492:0.0068450207 493:8.781394e-05 494:0.0068450207 495:0.0035402584 496:0.0028166082 497:0.01146034 498:0.0018743689 499:-0.0035140847 500:0.00040792825 503:0.020895137 504:-0.019566692 505:-0.013018074 506:-0.0011058999 508:0.00080069603 509:0.0062647508 510:0.0081526497 511:0.013500527 513:-0.0023223197 515:0.00011604451 517:7.0487463e-06 518:0.00038091902 520:0.013759144 521:0.0051817643 522:0.0044008382 523:0.00036455473 524:0.00221691 526:-0.0025106661 527:0.0012523533 528:-0.00010331084 530:0.0044051474 531:0.00041358836 533:0.0057415655 534:0.012568862 535:-0.0021701269 536:0.0082303053 538:-0.003860564 540:-0.00088057539 541:-0.0002565207 542:0.00055278937 543:0.0119549 545:-0.019095132 549:1.7154636e-05 551:3.1678392e-05 552:4.2756805e-05 553:0.018635888 554:0.00040792825 555:-0.00015351389 556:0.016162174 558:-0.0015580942 559:0.0058862669 560:0.0063963565 561:0.0016763826 562:0.023095589 564:-0.00074913929 565:0.00173235 567:-0.00036043994 568:0.0044106096 569:0.00068332395 570:-0.0012212506 571:-0.0013368079 572:0.0010994662 573:-0.0003622036 574:-0.00026601236 575:0.002633245 576:5.7661127e-05 577:0.00012340541 578:0.004588536 579:0.00066896452 580:-0.0013708175 581:0.0053557837 582:0.020357044 583:0.0022442588 584:-0.0011757524 585:-0.0038750963 586:-0.00035696564 587:0.0021157751 588:0.00010263385 589:0.0018743689 591:3.9135968e-05 592:-0.00062763179 594:0.010160611 595:0.019860972 596:-0.011504491 597:-0.00094244594 599:0.024904903 600:0.0031218112 601:0.0027689424 602:0.0024288583 604:0.024410987 605:0.023408411 606:-0.00055259361 607:-0.0015704123 609:0.0023858149 610:0.00042792107 611:0.0067893467 613:0.00068203156 614:0.011896435 616:0.00252353 617:-0.000158305 619:0.0011635268 620:0.010993099 622:0.025124302 623:0.0013969204 625:-8.2408143e-05 626:0.00079969043 627:-0.019393805 628:0.0026134851 629:-0.0010424159 631:0.0051334542 632:7.1507657e-06 634:0.0017571838 637:0.0056561152 638:0.021555711 640:-0.0024499516 641:-0.0030019914 642:0.0037812036 643:0.013143153 644:-0.0027654707 646:0.0017040358 649:0.023329489 650:0.0036909482 651:0.0037679407 652:0.00099058833 653:0.0036532325 654:0.0018254695 655:0.013121243 656:0.0019817317 657:0.0038914103 658:0.00091918232 659:0.024771152 660:-0.00056504988 661:0.0014417848 662:0.00013357314 663:-0.00078036572 665:-0.0048781307 666:0.0015806922 667:7.7394334e-06 668:0.010193841 670:-0.0027196398 671:0.002592487 673:-0.0020247551 674:-0.00082243152 675:-0.017812772 676:0.0016768109 677:0.0040669758 678:0.0016767838 679:0.0005122514 680:-0.00031999321 681:-0.00015351389 682:0.0011839316 684:-3.2330034e-05 686:-0.00014187505 687:-0.00073530508 688:7.0487463e-06 689:-0.00058516714 691:-0.0010730497 692:0.0077824588 693:-0.0023133573 694:-0.0046439287 695:-0.0034083396 696:0.00064123137 697:-0.00018772535 698:-0.0042334716 699:0.013482106 700:0.0017395979 #
