SVM-light Version V6.20
0 # kernel type
3 # kernel parameter -d 
1 # kernel parameter -g 
1 # kernel parameter -s 
1 # kernel parameter -r 
empty# kernel parameter -u 
701 # highest feature index 
6 # number of training documents 
2 # number of support vectors plus 1 
0 # threshold b, each following line is a SV (starting with alpha*y)
1 1:0.001271729 2:0.00039484352 3:0.011146177 4:0.0078865327 5:0.00077691907 6:0.018760955 7:0.011919359 8:0.020439167 9:0.010084291 10:-0.0012263542 11:-0.00058578991 13:0.0062991641 14:0.021918198 15:0.0098686544 16:-5.1544652e-05 17:-0.0045986408 18:-0.002087774 19:0.00035706555 20:0.010756398 21:-0.010557581 22:0.00029580432 23:0.0035326874 24:3.3667944e-05 25:0.0058566593 27:-0.0059939129 30:-0.0024785891 31:0.0065879086 32:-0.0030859942 33:-0.00015337505 34:-0.0012570695 35:0.0039446345 36:-0.0012840362 37:0.015011805 38:-0.0026838703 40:2.8625711e-05 41:0.014758484 42:-7.8102843e-05 43:-0.00058874086 44:-0.0010716278 45:0.00029785684 47:0.00029580432 48:0.001638732 49:0.011880677 50:0.0085847164 51:0.0017908058 53:5.892881e-05 54:-0.0020614611 55:0.0012382 56:0.00038367475 57:0.010607262 59:0.00016050512 60:0.0042354306 61:0.0085182814 62:0.002911811 64:0.0014901824 65:-0.00062001485 66:-0.0047940318 68:-0.00043166833 69:-0.0041657612 70:0.003612391 72:-0.001535853 73:0.0033526074 74:5.8872651e-05 75:0.0013427669 76:0.0055938265 77:0.00017011177 79:0.0065893927 80:-0.00012512798 81:0.0030989393 82:-5.3423686e-05 83:0.0074872519 84:-0.00042131226 85:-0.00093641557 86:-0.0023612045 87:7.2405266e-05 88:-4.9876413e-05 91:0.017465536 92:0.00038131073 93:-4.1042265e-05 94:0.024582623 95:0.0022214111 96:0.014199273 97:0.0014151563 98:-0.0021473605 99:0.0016193559 100:0.014618493 101:-0.00077915745 102:-0.00062586548 103:0.013731363 105:4.1767162e-05 106:-0.0007875025 108:0.0043725823 109:2.2190303e-05 112:0.00032444525 113:0.012052613 114:0.0034695631 115:0.011667846 116:-0.0040819556 117:0.00010274602 118:0.0020590762 119:0.00095746404 120:0.024984956 121:0.0024781146 122:-0.00053905172 123:0.0037602396 124:0.0040163444 126:0.00010226826 127:0.004807489 128:0.0035531803 129:0.0041787396 130:0.012656649 133:0.0040196362 134:0.0010173667 135:-0.00031507632 136:0.0049812947 137:0.0065879086 138:0.0084226364 139:-0.00074199628 140:0.0092289858 142:-0.0008670988 143:0.0016845841 144:0.0022386631 145:-0.0062685604 146:-0.0016545739 147:-0.0021640705 148:0.018902231 149:-0.00055179308 150:0.0021902919 151:0.023084441 152:0.010904808 153:0.025110513 154:-0.0016325676 155:0.003614865 158:0.00260636 159:0.0033393425 162:0.0063235369 163:-0.002981052 164:0.02270744 165:0.0034526484 168:0.0035531803 171:0.00024063248 172:1.9994854e-05 173:-0.0023086001 174:-0.0012018639 175:0.0018078485 176:0.00074616517 177:-0.001398926 178:-0.0075255367 179:-0.00063500379 180:0.0083146272 183:-0.0040532784 185:-7.2629446e-05 186:0.01142405 187:-0.017322997 188:-0.0016616099 189:0.022601075 190:0.00069119432 192:0.0056678434 193:-0.00010648063 194:0.0020063568 196:0.005526572 197:-0.0011980407 198:-0.00012119321 200:-0.0017846347 201:0.001939086 202:0.023078138 203:0.0063123018 204:0.0039965045 205:0.0035445241 206:-0.0007875025 207:0.015236569 208:0.0035524883 209:6.8866619e-05 210:0.012869867 211:2.2895299e-05 212:-0.0040300777 213:-0.0014931195 214:0.021070983 215:0.0082528247 216:0.011243349 218:0.012033677 219:0.0021877894 220:-0.013120688 221:0.0038936764 226:0.001356825 228:9.6542235e-06 230:0.012980487 233:0.0119125 235:-0.014076072 236:0.0015158274 237:0.020551825 239:-0.00037178185 241:0.018911153 242:-0.0024573517 243:-0.0069329585 244:0.0029485864 245:0.0027310066 247:0.00071420101 248:0.023844955 249:0.0065107644 250:2.4225765e-05 251:4.1600084e-05 253:0.0095280381 254:-0.00090579846 255:0.01153754 256:0.024313238 257:0.0026721733 258:-0.0014210701 259:-8.203023e-05 260:0.024816101 261:0.013556552 262:0.00029580432 263:0.0049549332 265:-0.0022957644 266:0.0039066523 267:-0.0013038048 268:0.023049168 269:0.00016685546 270:0.011142082 272:0.0018625519 273:0.00072762679 275:-0.00066066033 276:0.00074225117 277:0.00093163975 278:2.2411237e-05 279:0.0021080184 280:0.023805859 281:0.00084283057 282:0.00035403564 283:0.0054319324 284:0.0065088291 285:0.0093903728 286:-0.00038105779 290:0.0034695631 291:-0.00015337505 292:0.0022623627 294:-4.3575194e-05 295:0.00072943122 296:-0.0033232737 297:0.0015969273 298:-0.00062954717 299:-0.0016399776 300:0.0031994183 302:0.0043358686 303:-0.0015037905 304:0.0086869625 305:-0.0030304363 306:0.0022501219 307:0.00031906291 308:0.0058566593 309:0.0020593344 310:0.0016423123 311:0.00038064265 312:0.014093459 313:-0.0006077523 314:0.0026955183 315:0.0035814752 316:4.1600084e-05 317:0.0058517656 318:0.0001951762 319:7.2405266e-05 322:0.0022409409 323:0.0016824874 324:-0.00055690808 325:0.0099318344 326:0.0072500343 327:-0.0014069453 328:0.0044095009 329:-0.0051332805 330:0.0058256467 332:0.013017774 334:0.0002519667 335:0.024338225 336:-5.2844134e-05 337:-0.00027071623 338:-0.00068911334 340:4.1600084e-05 341:-0.0063130776 342:0.013174159 343:0.0021588074 345:0.022447696 346:0.0035243023 347:-0.0010471984 348:0.0014772054 349:-0.0002467545 350:-0.0016739797 351:0.0036792448 352:7.0143833e-05 354:0.00029580432 355:0.011157926 356:0.0028942695 357:0.0013601601 358:0.00025457304 359:0.0038457871 360:0.0047487747 361:-0.00012496788 362:0.014607755 363:0.0038206871 365:0.018369239 366:0.023149235 368:0.016268527 369:-0.00012629014 371:0.017808216 372:0.014421427 373:-0.0010672315 375:0.0058566593 376:0.017865423 379:0.023869531 380:0.025555272 381:0.012580838 382:-0.0012637605 383:0.0086058015 384:-0.0030304363 385:0.0020258434 386:-0.0016498251 387:-0.0086261146 388:3.3280729e-05 389:-0.0027344993 390:0.0066217436 392:-0.0007875025 394:0.0016710835 395:0.0026703 396:0.022490064 397:0.0075653568 398:-5.4550084e-05 399:-0.0068835118 400:0.0034808125 401:3.3280729e-05 402:-0.0031821127 403:0.0015547306 404:0.002141817 405:0.0040217116 406:0.0032782552 407:-0.00097656727 408:0.013222937 409:0.003325681 410:0.013874874 411:0.0064591784 413:-0.00068288163 415:-0.0022352687 416:0.0014995266 417:-0.0010526782 418:-0.0089926468 419:0.011641203 420:-0.0014895189 421:0.00070891279 422:3.9389288e-05 423:3.3280729e-05 424:-4.1346048e-05 425:9.6542235e-06 426:0.02099492 427:0.0049051065 428:-0.0088856192 429:0.0020907605 431:0.00046742897 432:0.0042636427 433:0.0011016941 434:-9.0408539e-05 435:0.0076751965 436:0.0021999716 437:-0.001171928 438:-0.0011538442 439:-0.0010399793 442:0.0030129156 443:0.00015877841 444:0.014072539 445:-0.0015170921 446:0.005791388 448:4.1600084e-05 449:0.00168117 450:0.0016632735 451:-0.013111993 452:-0.00054547074 453:0.010193553 454:-0.0020353638 455:7.2405266e-05 457:0.014093459 458:-0.0005700069 459:0.0028213635 461:0.023662806 462:0.0015832754 463:0.0052678436 464:0.00045786108 467:-0.0011084031 469:7.2405266e-05 470:0.0016896569 471:-0.00021697735 473:0.00069306022 474:-0.0010554333 476:-0.0015051306 477:0.013325077 478:0.00010274602 479:0.00010274602 480:0.00078181148 481:-0.00012605467 483:0.00033546131 484:0.020022999 485:0.0053600874 486:0.0012489766 487:-0.002349036 490:-0.0029627718 491:0.0037657053 492:0.0075790752 493:0.00010274602 494:0.0075790752 495:0.0015399883 496:0.0040169954 497:0.012149169 498:0.0020974702 499:-0.0029415803 500:0.00040058029 503:0.021015571 504:-0.018945564 505:-0.012219927 506:-0.00097756705 508:0.0011938806 509:0.0062261131 510:0.0075981412 511:0.014018203 513:-0.0016120028 515:0.00057603157 517:9.6542235e-06 518:0.00043639497 520:0.013308578 521:0.0059386375 522:0.0041614776 523:0.00039622546 524:0.0021810974 526:-0.0023301984 527:0.00014462443 528:-7.0271999e-05 530:0.0041660122 531:0.00040633976 533:0.0058039427 534:0.013261181 535:-0.0013467241 536:0.0076125329 538:-0.002884066 540:-0.00041100153 541:0.00030201665 542:0.0012696744 543:0.01204468 545:-0.019488212 549:1.249747e-05 551:2.8630011e-05 552:4.1748368e-05 553:0.018939506 554:0.00040058029 555:-0.00015337505 556:0.016070278 558:-0.00089444185 559:0.0058566593 560:0.0063713803 561:0.0016842204 562:0.023095207 564:-0.00066740968 565:0.0016710835 567:-0.00035900556 568:0.0048085023 569:0.00073008792 570:-0.00053935312 571:-0.00122222 572:0.0011319774 573:-0.00036076238 574:0.00025344043 575:0.0023872918 576:7.388954e-05 577:0.00012238797 578:0.0048082336 579:0.0013469339 580:-0.0011384991 581:0.0052140038 582:0.020407474 583:0.0022508935 584:-0.00088021945 585:-0.0026581546 586:-0.0010471984 587:0.0028652849 588:0.00012001051 589:0.0020974702 591:3.3280729e-05 592:-0.00067132991 594:0.0097804787 595:0.019818055 596:-0.011724084 597:-0.00054776773 599:0.024895452 600:0.0041995575 601:0.0029840693 602:0.0019793236 604:0.02426376 605:0.023210617 606:0.00030073023 607:-0.00096269534 609:0.0021102882 610:0.00041897807 611:0.0067825429 613:0.00072873035 614:0.012547459 616:0.0027136519 617:-0.00015816078 619:0.00091058429 620:0.01193366 622:0.024816101 623:0.0013661809 625:-4.7808444e-05 626:0.00054430135 627:-0.019277602 628:0.0025624339 629:-0.0007875025 631:0.005892375 632:9.7894499e-06 634:0.0016967257 637:0.0054538632 638:0.020923458 640:-0.0020710791 641:-0.0016983632 642:0.0041629132 643:0.013532146 644:-0.0025725472 646:0.0022611402 649:0.023279829 650:0.0035525649 651:0.0049496018 652:0.0017634263 653:0.0035150375 654:0.0020192713 655:0.0124082 656:0.0022795564 657:0.0037730134 658:0.00070011348 659:0.024115322 660:-0.00061395322 661:0.0013516406 662:0.00015558787 663:-0.00068874884 665:-0.0036112226 666:0.0015272924 667:-6.4547996e-05 668:0.0094449008 670:-0.002507268 671:0.0021653029 673:-0.0024414144 674:-0.00017912028 675:-0.01650236 676:0.0016846063 677:0.0043035904 678:0.0016845841 679:0.0005263504 680:-0.00016249379 681:-0.00015337505 682:0.0014624298 684:-2.314644e-05 686:-0.00010771202 687:-0.00098066684 688:9.6542235e-06 689:-0.00063575781 691:-0.0011210146 692:0.0073525864 693:-0.001597269 694:-0.0032161176 695:-0.0030176302 696:0.0004807582 697:-0.00017980982 698:-0.0040981807 699:0.013384271 700:0.001952607 #
