SVM-light Version V6.20
0 # kernel type
3 # kernel parameter -d 
1 # kernel parameter -g 
1 # kernel parameter -s 
1 # kernel parameter -r 
empty# kernel parameter -u 
701 # highest feature index 
4 # number of training documents 
2 # number of support vectors plus 1 
0 # threshold b, each following line is a SV (starting with alpha*y)
1 1:0.002571187 2:0.00035047348 3:0.0130501 4:0.007469825 5:0.0005663092 6:0.019999841 7:0.011858269 8:0.021916712 9:0.011158489 10:-0.00048577524 11:0.0013343822 13:0.0070054457 14:0.023152802 15:0.010936156 16:9.257871e-05 17:-0.0042142263 18:-0.00080453983 19:0.00023438118 20:0.012666114 21:-0.011628268 22:0.00016328123 23:0.0034105112 24:3.9180006e-05 25:0.0065079527 27:-0.0066486006 30:-2.6241003e-05 31:0.0072689401 32:-0.0026152411 33:-0.00016288548 34:-0.0010074852 35:0.00345221 36:-0.0011748548 37:0.015954347 38:-0.0023891088 40:4.9354487e-05 41:0.01618273 42:0.00017246799 43:0.0013998523 44:-0.0015832278 45:0.00088827545 47:0.00016328123 48:0.0013819698 49:0.013128823 50:0.0082208449 51:0.0017034909 53:6.6196393e-05 54:-0.00075504056 55:0.0016778887 56:0.00059808808 57:0.010597514 59:0.00031565281 60:0.0057085804 61:0.008966947 62:0.0031160088 64:0.0021550187 65:-0.00077891391 66:-0.0030888587 68:-0.0010333061 69:-0.0034494505 70:0.0035247537 72:-0.0011524506 73:0.0044376245 74:0.0008480142 75:0.0010627238 76:0.0052682064 77:0.00012678361 79:0.0072704647 80:-1.9556001e-05 81:0.004795122 82:9.0881054e-05 83:0.0077922023 84:-0.001013789 85:0.00082179427 86:-0.00090495014 87:-7.3444993e-05 88:9.4162431e-05 91:0.017827459 92:0.00059616799 93:-3.7585829e-05 94:0.024431355 95:0.0021651997 96:0.01534515 97:0.00088467106 98:-0.0016648284 99:0.0020926846 100:0.016241608 101:0.0010352202 102:-0.0007809893 103:0.015039235 105:4.3884516e-05 106:-0.00099862076 108:0.0044662799 109:4.9187562e-05 112:0.00040159313 113:0.012092625 114:0.0052678813 115:0.012688559 116:-0.0035450053 117:-7.7697245e-05 118:0.003153787 119:0.0025452857 120:0.026441894 121:0.0017562461 122:0.00012513509 123:0.0039582904 124:0.0043834355 126:0.0016657769 127:0.005206502 128:0.0034292133 129:0.0054114242 130:0.012433195 133:0.004370566 134:0.0022501983 135:-0.00012796736 136:0.0054490268 137:0.0072689401 138:0.008609904 139:6.4562955e-05 140:0.0082439203 142:-0.0011160433 143:0.0013782441 144:0.0024790599 145:-0.0053108865 146:-0.0011736241 147:-0.0012559773 148:0.020937227 149:0.00071966305 150:0.003927161 151:0.024881627 152:0.012593115 153:0.026778851 154:0.00046742405 155:0.0039693192 158:0.004473886 159:0.0037914461 162:0.0076351878 163:-0.0021653788 164:0.023860391 165:0.0045572449 168:0.0034292133 171:-0.00011738052 172:0.00070708495 173:-0.001666338 174:-0.00054492726 175:-0.00066573021 176:0.0023627691 177:0.00047447727 178:-0.0095907552 179:0.00072330597 180:0.0085046915 183:-0.0034762828 185:-0.00058271299 186:0.013064368 187:-0.017171891 188:-0.00077939604 189:0.023643259 190:-0.00052271591 192:0.0059498399 193:0.00013967772 194:0.0034625796 196:0.0067455289 197:-0.00050739909 198:-1.7172915e-05 200:-0.0015798423 201:0.0033816909 202:0.024029473 203:0.007034902 204:0.0036801214 205:0.0034183231 206:-0.00099862076 207:0.016170088 208:0.0039689792 209:0.00077824818 210:0.012676446 211:2.7804415e-05 212:-0.0026231259 213:-0.0011353235 214:0.021187555 215:0.0095230807 216:0.011257352 218:0.011921363 219:0.0025188492 220:-0.013751681 221:0.0035814131 226:0.0010698121 228:1.1608892e-05 230:0.012855641 233:0.011888143 235:-0.013100575 236:0.0019465889 237:0.022005437 239:-7.1728835e-05 241:0.018046442 242:-0.0016432197 243:-0.004996141 244:0.00081043824 245:0.0027939929 247:0.0013467169 248:0.025584262 249:0.0072248811 250:1.7493201e-05 251:4.3708966e-05 253:0.009999658 254:-0.0012404652 255:0.012711179 256:0.025617797 257:-0.00026405009 258:-0.001314956 259:-2.9068784e-05 260:0.026288049 261:0.015185103 262:0.00016328123 263:0.0073953122 265:-0.0016471965 266:0.0043630311 267:-0.0010904372 268:0.024431961 269:0.00025107336 270:0.012300296 272:0.00092614238 273:0.00050986873 275:-8.5138032e-05 276:0.0011385301 277:-0.0017330605 278:4.9695755e-05 279:0.0032531645 280:0.024851834 281:0.00079361297 282:0.00011877527 283:0.0071403631 284:0.0072022416 285:0.010089323 286:-0.00037175824 290:0.0052678813 291:-0.00016288548 292:0.002586066 294:0.00020447254 295:0.00050959951 296:-0.0027993531 297:0.0022989837 298:-0.00064370851 299:-0.001876009 300:0.0032632584 302:0.0048132376 303:-0.0011448388 304:0.0083367079 305:-0.0038510766 306:0.0021232103 307:0.00017602085 308:0.0065079527 309:0.0033342429 310:0.0035678942 311:0.00059816084 312:0.015242245 313:-0.00075835129 314:0.0034021242 315:0.0032856811 316:4.3708966e-05 317:0.0079712206 318:-4.0588933e-05 319:-7.3444993e-05 322:0.0034341933 323:0.0013764666 324:-0.00057447987 325:0.01041062 326:0.0069070696 327:-0.00010979397 328:0.0050403103 329:-0.0033840318 330:0.0079489071 332:0.012784041 334:7.7027653e-05 335:0.025424441 336:1.3361001e-05 337:-0.00025079038 338:-7.8153513e-05 340:4.3708966e-05 341:-0.0047160578 342:0.014681299 343:0.0014880702 345:0.024879664 346:0.0045961826 347:-0.0019519455 348:0.001821187 349:-0.00029726003 350:-0.00090109126 351:0.0053237942 352:6.4128035e-05 354:0.00016328123 355:0.012766003 356:0.0031876955 357:0.0010760692 358:0.0001766749 359:0.0035458324 360:0.0054278909 361:-1.9743464e-05 362:0.016181337 363:0.0057712179 365:0.019633859 366:0.024963867 368:0.01691846 369:-2.111042e-05 371:0.019048033 372:0.015470524 373:-0.0015916838 375:0.0065079527 376:0.019246593 379:0.025370417 380:0.025393289 381:0.012097938 382:-0.00057325733 383:0.0091688633 384:-0.0038510766 385:0.0032920623 386:-0.00035209171 387:-0.0098025585 388:3.8729399e-05 389:-0.0023163736 390:0.0072923545 392:-0.00099862076 394:0.0020801632 395:0.00017212362 396:0.023305597 397:0.0070823045 398:9.0056754e-05 399:-0.0069394521 400:0.0052470444 401:3.8729399e-05 402:-0.002330408 403:0.0019845152 404:0.0039485553 405:0.0046565491 406:0.0037047556 407:-0.0024373026 408:0.014872009 409:0.0044245115 410:0.015616797 411:0.0064234701 413:-9.324104e-05 415:-0.0009235313 416:0.0014549165 417:-0.0015583296 418:-0.008580952 419:0.01266163 420:-0.0011344939 421:0.0019713754 422:4.544267e-05 423:3.8729399e-05 424:6.6956563e-05 425:1.1608892e-05 426:0.020998254 427:0.0054413136 428:-0.0083885128 429:0.0027749066 431:0.00043439411 432:0.0060162256 433:0.0017756418 434:-2.0337513e-05 435:0.0079877796 436:0.0023564089 437:0.00011111257 438:2.2627559e-05 439:-0.0015265666 442:0.003538403 443:8.8849556e-05 444:0.015677275 445:-0.00019966063 446:0.0057164687 448:4.3708966e-05 449:0.0013756267 450:0.0024960495 451:-0.012955466 452:-0.001112459 453:0.010096041 454:-0.00083204138 455:-7.3444993e-05 457:0.015242245 458:-0.00046050519 459:0.0010019664 461:0.025489178 462:0.0016928843 463:0.0061335019 464:0.00037054176 467:-0.00039845475 469:-7.3444993e-05 470:0.0016469209 471:-0.00045198028 473:0.00061955838 474:-9.1015288e-05 476:-0.00016733647 477:0.014951796 478:-7.7697245e-05 479:-7.7697245e-05 480:0.0011788626 481:-0.00010505308 483:0.00013339806 484:0.021126648 485:0.007272176 486:0.0017784789 487:-0.00088678236 490:-0.0024635154 491:0.0042449348 492:0.0092000244 493:-7.7697245e-05 494:0.0092000244 495:-0.00093510823 496:0.006117905 497:0.013949414 498:0.0028012339 499:-0.0024893139 500:0.00061413745 503:0.022199862 504:-0.017004764 505:-0.010619624 506:-0.0012770911 508:0.001955712 509:0.0070671323 510:0.0072929463 511:0.01529834 513:-0.00028500758 515:0.001046574 517:1.1608892e-05 518:0.00019693721 520:0.013893203 521:0.0080757942 522:0.0039922888 523:0.00041488325 524:0.0025125821 526:-0.0021361653 527:-0.0022137952 528:0.0001818548 530:0.0039947676 531:0.00061579415 533:0.0059661055 534:0.015064828 535:-0.00060671178 536:0.0068452605 538:-0.0021534378 540:0.0010571026 541:0.00095930148 542:0.0024855915 543:0.01281733 545:-0.021024846 549:3.1051798e-06 551:4.9361901e-05 552:4.3864766e-05 553:0.020215893 554:0.00061413745 555:-0.00016288548 556:0.017247587 558:0.00025302617 559:0.0065079527 560:0.0070873951 561:0.0013770883 562:0.024209315 564:-8.0639562e-05 565:0.0020801632 567:-0.0003996671 568:0.0056529506 569:0.00051054783 570:0.0012182108 571:-0.00048002644 572:0.0011976981 573:-0.00040162142 574:0.00092573528 575:0.0029218402 576:-7.5430289e-05 577:7.2247793e-05 578:0.005148239 579:0.0021342628 580:-0.001143498 581:0.0052354466 582:0.02086582 583:0.0025869138 584:-0.0011645665 585:-0.0021181619 586:-0.0019519455 587:0.0045731007 588:-8.9572444e-05 589:0.0028012339 591:3.8729399e-05 592:-0.00025750714 594:0.009250137 595:0.020914719 596:-0.012204031 597:-0.00086717331 599:0.024983056 600:0.0060064956 601:0.00313353 602:0.0014022019 604:0.026094049 605:0.025067134 606:0.0024780903 607:0.00039989882 609:0.0019910622 610:0.00039799573 611:0.0079383748 613:0.00050971494 614:0.014177604 616:0.0029145968 617:-0.00016796726 619:0.00082596851 620:0.013740437 622:0.026288049 623:0.0018563026 625:9.5591844e-05 626:0.00032514805 627:-0.020636162 628:0.002214296 629:-0.00099862076 631:0.0080365036 632:1.176745e-05 634:0.0020956886 637:0.0054755169 638:0.021287508 640:-0.0020834256 641:-5.3986932e-05 642:0.0044321246 643:0.014679048 644:-0.0021404848 646:0.0033784481 649:0.023063237 650:0.0034281432 651:0.0073728822 652:0.0037662543 653:0.0033951667 654:0.0025404922 655:0.012358819 656:0.0030039877 657:0.0034663454 658:0.00062256423 659:0.025064288 660:-0.00076470559 661:0.001069896 662:7.7537326e-05 663:-7.715384e-05 665:-0.0024696742 666:0.0019387633 667:2.7203416e-05 668:0.0087061878 670:-0.0022118634 671:0.00089025206 673:-0.0031930683 674:-0.00019385993 675:-0.014907173 676:0.0013779885 677:0.0049710865 678:0.0013782441 679:0.00037030122 680:-8.4417705e-05 681:-0.00016288548 682:0.0021661045 684:-2.6969485e-05 686:0.00013747637 687:-0.00082417222 688:1.1608892e-05 689:-0.00079157436 691:-0.0016413268 692:0.0069048149 693:-0.00025137598 694:-0.002207129 695:-0.0012981456 696:0.00065611961 697:-0.00018428674 698:-0.0035906241 699:0.013433634 700:0.0027124081 #
