SVM-light Version V6.20
0 # kernel type
3 # kernel parameter -d 
1 # kernel parameter -g 
1 # kernel parameter -s 
1 # kernel parameter -r 
empty# kernel parameter -u 
701 # highest feature index 
5 # number of training documents 
2 # number of support vectors plus 1 
0 # threshold b, each following line is a SV (starting with alpha*y)
1 1:0.0050611682 2:0.00049554813 3:0.016755231 4:0.0091290148 5:0.00092034624 6:0.022807747 7:0.010572609 8:0.026029529 9:0.012088267 10:-0.00046432746 11:0.0060601388 13:0.0081151286 14:0.027598342 15:0.011869739 16:0.0001968764 17:-0.004484911 18:-3.8573795e-05 19:-4.2862212e-05 20:0.01614292 21:-0.011361038 22:4.7564281e-06 23:0.0037485892 24:5.7742636e-05 25:0.0074703214 27:-0.0058581322 30:0.0048228423 31:0.0088638645 32:0.002024634 33:-0.00012123782 34:-0.00072225503 35:0.0026975451 36:-0.0010485834 37:0.018413045 38:-0.0033260167 40:0.00017488751 41:0.01783591 42:-0.00017319183 43:0.0062976615 44:-0.0012036015 45:0.001706726 47:4.7564281e-06 48:0.0016740098 49:0.014349218 50:0.0069117853 51:0.001749794 54:-0.00015165782 55:0.00034151427 56:0.00075378688 57:0.0083904229 59:-6.3239163e-06 60:0.0076006982 61:0.010186478 62:0.0033488141 64:0.0036731062 65:-0.0007973758 66:-1.6211308e-05 68:-0.00095745112 69:0.0014166686 70:0.0031613265 72:-0.00030706605 73:0.0062096799 74:0.0037880247 75:0.0007401093 76:0.0052986154 77:0.0002730625 79:0.008857796 80:-0.00042556776 81:0.0075631659 82:0.00019383103 83:0.0086720632 84:-0.00094511389 85:0.006047166 86:0.0001402201 87:-2.3174114e-05 88:0.00019901952 91:0.019734934 92:0.00075996411 93:-2.8854092e-05 94:0.024714528 95:0.0016266974 96:0.016895076 97:0.001780789 98:0.00040428824 99:0.0019476168 100:0.01959171 101:0.005582239 102:-0.00080423063 103:0.016598975 105:5.9456521e-05 106:-0.00069301203 108:0.0044185529 109:4.1751773e-05 112:0.00083805458 113:0.012287632 114:0.0087351156 115:0.015170612 116:0.001540107 117:-4.8659069e-05 118:0.00456932 119:0.0057935691 120:0.028099766 121:0.0035225058 122:0.00242712 123:0.004098413 124:0.0073018977 126:0.004424145 127:0.006297844 128:0.0037741552 129:0.0079401182 130:0.012037978 133:0.0070142238 134:0.0045899558 135:0.00039788461 136:0.0065860776 137:0.0088638645 138:0.010128474 139:0.00064746221 140:0.0056085829 142:-0.00070776959 143:0.0019192521 144:0.0031888327 145:-0.00013725513 146:0.00056885829 147:0.00080935686 148:0.025986627 149:0.0049267225 150:0.0070360177 151:0.025995564 152:0.015628573 153:0.029245483 154:0.0052684573 155:0.0040193768 158:0.0059435656 159:0.0041030208 162:0.0084143821 163:-0.0017197814 164:0.026214981 165:0.0081426892 168:0.0037741552 171:-0.00028818342 172:0.0021299671 173:0.0033967644 174:-0.00048065654 175:-0.0065807244 176:0.0057115313 177:0.002058784 178:-0.012363666 179:0.0048606084 180:0.010021226 183:0.0017070756 185:-0.00073496357 186:0.01650822 187:-0.016239271 188:-0.00036163852 189:0.027912565 190:-0.0028349238 192:0.0062581482 193:-0.00019369859 194:0.0061496506 196:0.0085325642 197:-0.00048241453 198:-0.00042140923 200:-0.0010014831 201:0.0061417404 202:0.02444265 203:0.0085808141 204:0.0045850817 205:0.0037505531 206:-0.00069301203 207:0.01968492 208:0.0041505429 209:0.00058214122 210:0.011947825 211:8.0371748e-05 212:-9.7254902e-05 213:-0.00029162774 214:0.021768272 215:0.010693546 216:0.0088273715 218:0.012317799 219:0.0026959637 220:-0.014490499 221:0.0044567334 226:0.00075935014 228:6.9909896e-05 230:0.011421687 233:0.010453433 235:-0.0086475862 236:0.0020509167 237:0.022537248 239:-0.00015535894 241:0.016529348 242:0.001059063 243:-0.00026187624 244:-0.0047275727 245:0.0068964721 247:0.0028301284 248:0.027444677 249:0.0082795555 250:8.3789455e-06 251:5.9218684e-05 253:0.010754261 254:-0.0016307085 255:0.01425917 256:0.028040461 257:-0.0050035962 258:-0.0013005666 259:5.903115e-05 260:0.027916469 261:0.018279869 262:4.7564281e-06 263:0.012130307 265:0.00020108455 266:0.004384561 267:-0.00063900359 268:0.026816657 269:0.00010930177 270:0.013799014 272:-0.0011041841 273:0.00047323361 275:-1.7999353e-05 276:0.001946484 277:-0.0065644304 278:4.2207306e-05 279:0.0047336565 280:0.029457776 281:0.0021335674 282:0.00042302418 283:0.011492671 284:0.0088227317 285:0.010462278 286:-0.00028389588 290:0.0087351156 291:-0.00012123782 292:0.0027841127 294:0.00024183925 295:0.00047407454 296:0.0023429156 297:0.0039345925 298:-0.00052924064 299:-0.00033916181 300:0.0033187321 302:0.0053439885 303:-0.00030493236 304:0.00653271 305:-0.0043794173 306:0.0021972083 307:5.1006109e-06 308:0.0074703214 309:0.0071483352 310:0.0071575884 311:0.00076335669 312:0.016782599 313:-0.00077631994 314:0.0020911247 315:0.0042868135 316:5.9218684e-05 317:0.010299171 318:-7.3885501e-05 319:-2.3174114e-05 322:0.0052074501 323:0.0019152996 324:-0.00033967957 325:0.012449596 326:0.0084441667 327:0.0038839928 328:0.0069900234 329:-0.00010212904 330:0.010287609 332:0.012523291 334:8.589615e-05 335:0.027879078 336:1.7333077e-05 337:-3.7482288e-05 338:-8.8692223e-06 340:5.9218684e-05 341:-0.00031047181 342:0.015885273 343:0.00050907623 345:0.028961837 346:0.0080834292 347:-0.0026121289 348:0.0016638533 349:0.002574926 350:0.0010819269 351:0.0078008021 352:6.9577363e-05 354:4.7564281e-06 355:0.015799014 356:0.0033141235 357:0.00074806454 358:4.7235448e-05 359:-0.00013858995 360:0.0066214716 361:-0.00042530042 362:0.019085927 363:0.0088575212 365:0.022994285 366:0.027217431 368:0.018044941 369:-0.00042229719 371:0.023785686 372:0.017180644 373:-0.0011935339 375:0.0074703214 376:0.020534486 379:0.026480954 380:0.026593229 381:0.011017189 382:0.0012345132 383:0.011405491 384:-0.0043794173 385:0.0053127985 386:0.0041147708 387:-0.010824369 388:5.7078534e-05 389:0.0020095531 390:0.0088708764 392:-0.00069301203 394:0.002192534 395:-0.0029464392 396:0.025222167 397:0.0089847511 398:0.00019310013 399:-0.0069593121 400:0.0084870923 401:5.7078534e-05 402:0.0010453836 403:0.0020763851 404:0.0052612196 405:0.0084174611 406:0.0038037407 407:-0.0045752814 408:0.018441141 409:0.0061741024 410:0.01905155 411:0.0061602457 413:-2.3899272e-05 415:0.0031517351 416:0.0020434326 417:-0.001168563 418:-0.0061411094 419:0.015140439 420:-0.00029992848 421:0.0044176183 422:6.7356974e-05 423:5.7078534e-05 424:0.00010453461 425:6.9909896e-05 426:0.020064814 427:0.0058697453 428:-0.0073151123 429:0.0045036352 431:0.0004940228 432:0.0089453608 433:0.0035628686 434:-0.00023919845 435:0.0092283348 436:0.0026088576 437:0.001781793 438:0.0037317618 439:-0.0011615236 442:0.0046227165 443:-1.379693e-05 444:0.018689431 445:0.0039912881 446:0.0056791878 448:5.9218684e-05 449:0.0019198033 450:0.0054817386 451:-0.0089194374 452:-0.0021003524 453:0.01132897 454:-9.9122321e-05 455:-2.3174114e-05 457:0.016782599 458:0.00025951845 459:-0.0010842204 461:0.026310641 462:0.0018578024 463:0.0058136894 464:-9.2088434e-05 467:-0.00040268892 469:-2.3174114e-05 470:0.0023384145 471:-0.00050087966 473:0.0020291151 474:0.0031324474 476:0.0040666312 477:0.018081363 478:-4.8659069e-05 479:-4.8659069e-05 480:0.0028689315 481:9.6355492e-05 483:0.00037600717 484:0.021446114 485:0.011883778 486:0.00275362 487:0.00016794381 490:0.0021750943 491:0.0043572905 492:0.011324019 493:-4.8659069e-05 494:0.011324019 495:-0.0064194631 496:0.011177895 497:0.017461637 498:0.0045637037 499:-0.0026019791 500:0.00078060461 503:0.026672885 504:-0.014941918 505:-0.0058716736 506:0.0001789776 508:0.0053996444 509:0.0080503421 510:0.007091199 511:0.01687838 513:0.004168123 515:0.0014179042 517:6.9909896e-05 518:0.00040676614 520:0.014064543 521:0.010395478 522:0.0050268616 523:0.00041855403 524:0.0026696387 526:-0.0019833394 527:-0.006421804 528:-0.00015815167 530:0.0050306325 531:0.00078029145 533:0.0059843138 534:0.018607406 535:0.0017210982 536:0.006206396 538:0.00077449181 540:0.0025363166 541:0.001202828 542:0.0050950064 543:0.014109037 545:-0.021440646 549:-1.1242794e-05 551:0.00017491376 552:5.9429763e-05 553:0.023655219 554:0.00078060461 555:-0.00012123782 556:0.018189291 558:0.0036827412 559:0.0074703214 560:0.0082139941 561:0.0019140858 562:0.028703192 564:-1.3477968e-05 565:0.002192534 567:-0.00046422088 568:0.009229172 569:0.00047165129 570:0.0031747711 571:-0.00045783675 572:0.0018945661 573:-0.00046648618 574:0.0022854558 575:0.0035128479 576:-2.3915487e-05 577:3.8940114e-05 578:0.0052442015 579:0.0040326715 580:-0.0012857044 581:0.0060215699 582:0.022223379 583:0.0027788095 584:-0.00085112511 585:0.00050259207 586:-0.0026121289 587:0.0059507629 588:-5.6528796e-05 589:0.0045637037 591:5.7078534e-05 592:0.00012935253 594:0.0075122667 595:0.021723893 596:-0.010550845 597:-0.00044304933 599:0.02591238 600:0.010140184 601:0.0033649616 602:0.00027639145 604:0.027473271 605:0.027271546 606:0.0064849472 607:0.002055153 609:0.00086052285 610:0.00037867602 611:0.0087213209 613:0.0004706544 614:0.017269325 616:0.0037972503 617:-0.00012503359 619:0.0022460988 620:0.017033825 622:0.027916469 623:0.0020331689 625:0.00019610283 626:6.488261e-05 627:-0.02050327 628:0.0027793909 629:-0.00069301203 631:0.010380125 632:7.0801485e-05 634:0.0022078659 637:0.0054897363 638:0.021362806 640:0.00077396852 641:0.0043141088 642:0.0062162802 643:0.016447652 644:0.0020056104 646:0.0050103446 649:0.023774015 650:0.0037739915 651:0.012158273 652:0.0052404287 653:0.0037360876 654:0.0019450464 655:0.010941098 656:0.0038082493 657:0.004511998 658:0.0020407296 659:0.025592577 660:-0.00077869627 661:0.00074792869 662:0.00012247683 663:-7.7371615e-06 665:0.00070959155 666:0.0020086931 667:1.8261408e-06 668:0.0081221387 670:-0.002440088 671:-0.00035832351 673:-0.0046991999 674:0.0009049052 675:-0.01124759 676:0.0019186126 677:0.0063349158 678:0.0019192521 679:0.00047457029 680:5.5527409e-05 681:-0.00012123782 682:0.0040002577 684:-3.3283399e-05 686:-0.00019265714 687:-0.00057686924 688:6.9909896e-05 689:-0.00081411563 691:-0.0012306713 692:0.0087675536 693:0.0042307638 694:0.00080184086 695:-0.0012478214 696:0.0010156886 697:-0.00021224532 698:0.00076787744 699:0.01267411 700:0.0045713894 #
