SVM-light Version V6.20
0 # kernel type
3 # kernel parameter -d 
1 # kernel parameter -g 
1 # kernel parameter -s 
1 # kernel parameter -r 
empty# kernel parameter -u 
701 # highest feature index 
5 # number of training documents 
2 # number of support vectors plus 1 
0 # threshold b, each following line is a SV (starting with alpha*y)
1 1:0.0019221316 2:0.00040112788 3:0.011347748 4:0.0076907598 5:0.0008225959 6:0.018687382 7:0.012293002 8:0.020669924 9:0.010033122 10:-0.0009913597 11:0.00040253601 13:0.0064817485 14:0.022116944 15:0.0098212492 16:4.7392932e-05 17:-0.0045659086 18:-0.0013636646 19:0.00036760868 20:0.010980586 21:-0.010791423 22:0.0003066487 23:0.0036363662 24:3.3451266e-05 25:0.0060246224 27:-0.0063280389 30:-0.0016754653 31:0.0067988881 32:-0.0024322046 33:-0.00015411302 34:-0.001165755 35:0.0036268514 36:-0.0013415691 37:0.0149762 38:-0.0027791024 40:5.2796298e-05 41:0.014789207 42:-1.2885067e-05 43:0.00053558714 44:-0.0011213657 45:0.00081195589 47:0.0003066487 48:0.0017104603 49:0.011897628 50:0.0085982271 51:0.0018635557 53:6.0032544e-05 54:-0.001305989 55:0.0012936728 56:0.00027397383 57:0.010594254 59:0.00022892655 60:0.0042505008 61:0.0080882991 62:0.0029682205 64:0.0015302048 65:-0.00050865265 66:-0.0041999691 68:-0.00040193013 69:-0.0039388333 70:0.003830943 72:-0.0014952413 73:0.0033424911 74:0.00038435173 75:0.0012688386 76:0.0057770642 77:0.00052971987 79:0.0067977938 80:-0.00021010559 81:0.0037084965 82:4.5192024e-05 83:0.0072995694 84:-0.00039126165 85:4.0565719e-05 86:-0.001560646 87:7.0844733e-05 88:4.8438706e-05 91:0.017560601 92:0.00026706367 93:-4.0659452e-05 94:0.023818268 95:0.0026221755 96:0.014196563 97:0.0013254059 98:-0.002079498 99:0.0017273639 100:0.014688519 101:0.00014331244 102:-0.00051568833 103:0.013632038 105:4.2447784e-05 106:-0.00077789655 108:0.0046564979 109:2.0915479e-05 112:0.00035488865 113:0.011348641 114:0.0042684833 115:0.011579973 116:-0.0034777343 117:0.00011215589 118:0.0019671514 119:0.0013818119 120:0.025256976 121:0.002176126 122:6.1319447e-06 123:0.0040918891 124:0.0043563279 126:0.00072916574 127:0.0050415038 128:0.0036579752 129:0.0046673082 130:0.012847302 133:0.0043531843 134:0.0016082404 135:-0.00029496886 136:0.0051424331 137:0.0067988881 138:0.008220694 139:-0.0004912329 140:0.0087156026 142:-0.00085217785 143:0.0015771243 144:0.0021329734 145:-0.0055611613 146:-0.0015449271 147:-0.0018592981 148:0.019350929 149:0.00010768668 150:0.002980262 151:0.023348745 152:0.011008165 153:0.02546721 154:-0.00044564623 155:0.0036312582 158:0.0026366997 159:0.0036611415 162:0.0064776968 163:-0.0026079114 164:0.022975134 165:0.0038284298 168:0.0036579752 171:0.00025871777 172:0.0003173119 173:-0.002185819 174:-0.00099197915 175:0.00065000809 176:0.0014737285 177:-0.00054323021 178:-0.0078868028 179:-0.00013356133 180:0.0081162406 183:-0.0034411643 185:-0.00030181734 186:0.011477819 187:-0.016883362 188:-0.0010428717 189:0.022710539 190:4.6318786e-05 192:0.005694089 193:-4.2680353e-05 194:0.0025566653 196:0.0057842475 197:-0.00098361145 198:-0.00020772014 200:-0.0016176316 201:0.0026693752 202:0.023199445 203:0.0065375078 204:0.0037101486 205:0.0036475298 206:-0.00077789655 207:0.015362424 208:0.003523017 209:0.00030350342 210:0.013094925 211:2.3459619e-05 212:-0.0036943224 213:-0.0014580917 214:0.02048425 215:0.0086776176 216:0.011258866 218:0.011357859 219:0.0021619734 220:-0.013628205 221:0.0036138908 226:0.0012807607 228:1.0236679e-05 230:0.013328162 233:0.012275249 235:-0.013567208 236:0.0014248587 237:0.020651875 239:-0.00038961894 241:0.018284058 242:-0.0024177788 243:-0.0062193209 244:0.0018543208 245:0.0030336347 247:0.0012361524 248:0.024114773 249:0.0066924416 250:2.336032e-05 251:4.2277981e-05 253:0.0095658395 254:-0.001145668 255:0.01152805 256:0.024574799 257:0.001311274 258:-0.0013834413 259:-8.9940222e-05 260:0.025102289 261:0.013620622 262:0.0003066487 263:0.0054399804 265:-0.0021158557 266:0.004122708 267:-0.0013126205 268:0.023319121 269:0.00022562651 270:0.011137823 272:0.0012077189 273:0.00065147976 275:-0.00044383373 276:0.00087897433 277:-0.00028544781 278:2.1122371e-05 279:0.0020161499 280:0.023932273 281:0.00059031113 282:0.00073164044 283:0.0056977454 284:0.0067181541 285:0.0094331531 286:-0.00037005084 290:0.0042684833 291:-0.00015411302 292:0.0022327269 294:-7.8620636e-05 295:0.00065165386 296:-0.0025928905 297:0.0018864078 298:-0.00061540958 299:-0.0014669393 300:0.0034405603 302:0.0045786593 303:-0.0014676721 304:0.0084293066 305:-0.0035192105 306:0.0021760382 307:0.00033076259 308:0.0060246224 309:0.0024664842 310:0.0024986907 311:0.00026727348 312:0.014091405 313:-0.00049745367 314:0.0030524947 315:0.0033160308 316:4.2277981e-05 317:0.0066598183 318:0.000205185 319:7.0844733e-05 322:0.0021341213 323:0.0015747885 324:-0.00055597286 325:0.010230034 326:0.0071009356 327:-0.00076218852 328:0.0046871314 329:-0.0045868582 330:0.0066345576 332:0.012707031 334:0.00019268153 335:0.024598885 336:-4.9356102e-05 337:-0.00029793754 338:-0.00045387121 340:4.2277981e-05 341:-0.0057671177 342:0.013124015 343:0.0018212656 345:0.022941677 346:0.0038901151 347:-0.0016199306 348:0.0015529215 349:-0.00050107954 350:-0.001404593 351:0.0042742887 352:6.5760178e-05 354:0.0003066487 355:0.011224194 356:0.0030403023 357:0.0012859555 358:9.0055764e-05 359:0.0039643501 360:0.0048810602 361:-0.00021003524 362:0.014654256 363:0.0039842897 365:0.018303415 366:0.023522839 368:0.016517209 369:-0.00021039556 371:0.017804185 372:0.014430644 373:-0.0011331147 375:0.0060246224 376:0.01833743 379:0.024109216 380:0.02556899 381:0.012677735 382:-0.0010129248 383:0.0089611784 384:-0.0035192105 385:0.00256223 386:-0.0010210464 387:-0.0089546908 388:3.3066543e-05 389:-0.0021231985 390:0.0068230648 392:-0.00077789655 394:0.0015699449 395:0.0018557074 396:0.022251135 397:0.0073494697 398:4.4291945e-05 399:-0.0068233437 400:0.004260859 401:3.3066543e-05 402:-0.0026155706 403:0.0014689771 404:0.0021771023 405:0.0044659502 406:0.003560164 407:-0.001820353 408:0.013269973 409:0.0033212546 410:0.014017212 411:0.0064849048 413:-0.00045888717 415:-0.0016606101 416:0.0013615595 417:-0.001108106 418:-0.0092305765 419:0.01155467 420:-0.0014551879 421:0.0012850151 422:3.9313774e-05 423:3.3066543e-05 424:-2.0918214e-05 425:1.0236679e-05 426:0.020636192 427:0.0048998143 428:-0.0088189971 429:0.0021073606 431:0.00056422845 432:0.0043489262 433:0.0017071338 434:-4.4029661e-05 435:0.0074659581 436:0.0022339302 437:-0.00056882465 438:-0.00034901674 439:-0.0010895341 442:0.0032135919 443:0.00016441195 444:0.014134955 445:-0.00093823875 446:0.0057052732 448:4.2277981e-05 449:0.001574148 450:0.0020688472 451:-0.013413503 452:-0.0007985296 453:0.010068166 454:-0.0013466872 455:7.0844733e-05 457:0.014091405 458:-0.00058345549 459:0.0018719821 461:0.023944914 462:0.0015273781 463:0.0055899783 464:0.00061052997 467:-0.00090594788 469:7.0844733e-05 470:0.0017550215 471:-0.00038298202 473:0.00041886096 474:-0.00063665461 476:-0.00091335707 477:0.013389111 478:0.00011215589 479:0.00011215589 480:0.0009984636 481:-0.00021035089 483:0.00066513155 484:0.020108705 485:0.0056852619 486:0.0014781934 487:-0.0015446871 490:-0.0024456116 491:0.0039831838 492:0.0081690233 493:0.00011215589 494:0.0081690233 495:0.00033621193 496:0.0044402783 497:0.01230493 498:0.0021157898 499:-0.002680965 500:0.00028369162 503:0.021021359 504:-0.018093636 505:-0.011517389 506:-0.00074660993 508:0.0015117262 509:0.0064106234 510:0.007781235 511:0.013917169 513:-0.00084048277 515:0.00072602724 517:1.0236679e-05 518:0.0007987665 520:0.013080357 521:0.0067583779 522:0.0038897216 523:0.00040051693 524:0.0021611529 526:-0.0023585807 527:-0.00076830678 528:-5.4179854e-06 530:0.0038897658 531:0.00028791741 533:0.0060309381 534:0.013415781 535:-0.0010584125 536:0.0074671512 538:-0.0025619667 540:0.00024102832 541:0.00058966468 542:0.0017522163 543:0.011878933 545:-0.020545807 549:1.2110115e-05 551:5.2804226e-05 552:4.2428685e-05 553:0.018887736 554:0.00028369162 555:-0.00015411302 556:0.016158544 558:-9.128324e-05 559:0.0060246224 560:0.0065562292 561:0.0015764399 562:0.023253048 564:-0.00044705751 565:0.0015699449 567:-0.00036941824 568:0.0054067657 569:0.00065303437 570:0.00017531881 571:-0.00098596979 572:0.001154925 573:-0.00037122599 574:0.00056082144 575:0.0022951942 576:7.2300892e-05 577:0.00010794737 578:0.0051342407 579:0.0016128635 580:-0.0010993934 581:0.0050775181 582:0.019948458 583:0.0022204462 584:-0.00086933433 585:-0.0026187336 586:-0.0016199306 587:0.0028687336 588:0.00013094342 589:0.0021157898 591:3.3066543e-05 592:-0.00053990819 594:0.0101135 595:0.020223232 596:-0.012264826 597:-0.00056187733 599:0.024279641 600:0.0045489557 601:0.0032439081 602:0.0021007208 604:0.0245608 605:0.023551963 606:0.0013552184 607:-0.00030809021 609:0.0019924182 610:0.0004136585 611:0.0068708039 613:0.00065195619 614:0.012619409 616:0.0025856227 617:-0.00015892186 619:0.00063183717 620:0.011899973 622:0.025102289 623:0.0014917633 625:4.9468541e-05 626:0.00055973267 627:-0.019780796 628:0.0025048906 629:-0.00077789655 631:0.0067171333 632:1.0379572e-05 634:0.0015942407 637:0.0053823502 638:0.0208546 640:-0.0022627332 641:-0.0008596048 642:0.0044397404 643:0.013562346 644:-0.0019848873 646:0.0021604805 649:0.022590321 650:0.003657181 651:0.0054492145 652:0.0017953627 653:0.0036221228 654:0.0019544666 655:0.01280928 656:0.0024305768 657:0.0035035396 658:0.00042163074 659:0.024234939 660:-0.00050204789 661:0.0012765793 662:2.605601e-05 663:-0.0004532056 665:-0.0031060928 666:0.0014472815 667:-0.00011574462 668:0.0093690893 670:-0.0024064202 671:0.0016072538 673:-0.0028345005 674:-0.00024950333 675:-0.015781341 676:0.0015769645 677:0.0043275477 678:0.0015771243 679:0.00089783355 680:-9.4571376e-05 681:-0.00015411302 682:0.0014829877 684:-2.1280592e-05 686:-4.4097011e-05 687:-0.00097204937 688:1.0236679e-05 689:-0.00052521273 691:-0.0011734624 692:0.0071450556 693:-0.00081880001 694:-0.0029529894 695:-0.0024785781 696:0.00051136053 697:-0.00017699385 698:-0.0034933372 699:0.013032587 700:0.0019854398 #
