SVM-light Version V6.20
0 # kernel type
3 # kernel parameter -d 
1 # kernel parameter -g 
1 # kernel parameter -s 
1 # kernel parameter -r 
empty# kernel parameter -u 
701 # highest feature index 
6 # number of training documents 
2 # number of support vectors plus 1 
0 # threshold b, each following line is a SV (starting with alpha*y)
1 1:0.0011959105 2:0.0003888699 3:0.01106293 4:0.0083294315 5:0.00077764876 6:0.018798865 7:0.012207322 8:0.02074318 9:0.0097532738 10:-0.0012581766 11:-0.00094024854 13:0.0062775868 14:0.02201616 15:0.0095356693 16:-4.9421087e-05 17:-0.0045400206 18:-0.0021162797 19:0.000351286 20:0.010696259 21:-0.010565731 22:0.00028512315 23:0.0036490823 24:3.6394991e-05 25:0.0058368267 27:-0.0062032952 30:-0.0031956295 31:0.0067627118 32:-0.0032949718 33:-0.00016073676 34:-0.001260556 35:0.0040170415 36:-0.0012798314 37:0.015369632 38:-0.002849977 40:2.8333612e-05 41:0.014538558 42:-0.00010044155 43:-0.0010689445 44:-0.0012284111 45:0.00026664732 47:0.00028512315 48:0.0017143899 49:0.011516344 50:0.0089122774 51:0.0018269775 53:5.9350721e-05 54:-0.0021478392 55:0.0011412906 56:0.00037992673 57:0.011051298 59:0.00015695731 60:0.0042130458 61:0.0085261399 62:0.0030228621 64:0.0014758686 65:-0.00059469242 66:-0.0052403104 68:-0.0004656479 69:-0.0047251447 70:0.0036440298 72:-0.0015306305 73:0.0033607341 74:7.1897201e-05 75:0.0014067342 76:0.0059612626 77:0.0001978942 79:0.0067666178 80:-0.00012026004 81:0.0028706323 82:-5.1124265e-05 83:0.00746935 84:-0.00045371789 85:-0.0011735322 86:-0.0024388484 87:7.0498252e-05 88:-4.7549798e-05 91:0.01772237 92:0.00037761551 93:-4.4714834e-05 94:0.024686567 95:0.0021133951 96:0.013891106 97:0.0014792735 98:-0.0023693834 99:0.0015574723 100:0.014573339 101:-0.0010529212 102:-0.00060042622 103:0.013379388 105:4.2364529e-05 106:-0.00077711564 108:0.0043628332 109:2.3617569e-05 112:0.00032309644 113:0.012118916 114:0.0033718473 115:0.011638512 116:-0.0043116054 117:6.0197821e-05 118:0.0020571603 119:0.00069950306 120:0.025213057 121:0.0026212279 122:-0.00066308409 123:0.0036761356 124:0.0037948983 126:-0.00011258387 127:0.0048078769 128:0.0036702666 129:0.0041295327 130:0.01306757 133:0.0038384991 134:0.00091391866 135:-0.00030297055 136:0.0052228249 137:0.0067627118 138:0.0087364148 139:-0.00073566689 140:0.0097676357 142:-0.00085415272 143:0.0017242177 144:0.0022619676 145:-0.0062405658 146:-0.0018811772 147:-0.00236078 148:0.018974971 149:-0.00080776575 150:0.0019618985 151:0.023316069 152:0.010804662 153:0.025452754 154:-0.0020075878 155:0.003763631 158:0.0025385485 159:0.003172552 162:0.006626863 163:-0.0033164481 164:0.023003524 165:0.0033014955 168:0.0036702666 171:0.00020900033 172:1.6672944e-05 173:-0.0029065998 174:-0.0012335167 175:0.002501531 176:0.00061899115 177:-0.001531755 178:-0.0074669369 179:-0.0014097005 180:0.0086256014 183:-0.0042789704 185:-0.00012672743 186:0.011354817 187:-0.017476216 188:-0.0015142754 189:0.022733139 190:0.0009379448 192:0.0058593419 193:-0.00012982424 194:0.0018715739 196:0.0057045179 197:-0.0012289628 198:-0.00011638478 200:-0.0020550974 201:0.0018325855 202:0.023481591 203:0.0064817271 204:0.0040484122 205:0.0036604835 206:-0.00077711564 207:0.015293395 208:0.0035490545 209:0.00032109866 210:0.013293699 211:2.2661674e-05 212:-0.0040721782 213:-0.0014869828 214:0.021129949 215:0.0080180066 216:0.011662132 218:0.012136013 219:0.002515862 220:-0.013139724 221:0.003944166 226:0.0014195759 228:8.5449119e-06 230:0.013250063 233:0.012171107 235:-0.014366886 236:0.0015331976 237:0.020951072 239:-0.00037251305 241:0.019183978 242:-0.0026047532 243:-0.0074891928 244:0.0034928925 245:0.0026301958 247:0.0006229764 248:0.02410242 249:0.0064908643 250:2.4091998e-05 251:4.2195064e-05 253:0.0095200622 254:-0.00091586873 255:0.011218618 256:0.024731828 257:0.00319231 258:-0.0014168238 259:-0.00012122253 260:0.025046304 261:0.01349136 262:0.00028512315 263:0.005025439 265:-0.0025164234 266:0.003851369 267:-0.0012984213 268:0.023419745 269:0.00017593398 270:0.010822407 272:0.0018680145 273:0.0007321192 275:-0.00066989433 276:0.00082927494 277:0.0015104762 278:2.3853941e-05 279:0.0021017946 280:0.023940226 281:0.00081552495 282:0.00031025879 283:0.0053533148 284:0.0066716569 285:0.0096193878 286:-0.00034959952 290:0.0033718473 291:-0.00016073676 292:0.0026036093 294:-4.9346232e-05 295:0.00073412183 296:-0.0035536659 297:0.0013813492 298:-0.0006013391 299:-0.0016598257 300:0.0032253927 302:0.0044643064 303:-0.0014975833 304:0.0090695024 305:-0.0028223973 306:0.002377132 307:0.0003075373 308:0.0058368267 309:0.0018573038 310:0.0015699802 311:0.00037697083 312:0.013783143 313:-0.00058292778 314:0.0028393287 315:0.0036197838 316:4.2195064e-05 317:0.0057299933 318:0.00015321057 319:7.0498252e-05 322:0.0022340317 323:0.0017220565 324:-0.00053245993 325:0.0098953163 326:0.007617224 327:-0.001711795 328:0.0043580267 329:-0.0056045619 330:0.0057041682 332:0.013108519 334:0.00025982517 335:0.024684383 336:-5.0366933e-05 337:-0.0002847531 338:-0.00069790997 340:4.2195064e-05 341:-0.0068768547 342:0.012764301 343:0.0021333823 345:0.022565302 346:0.0033784898 347:-0.00089298474 348:0.0015206842 349:-0.00062395405 350:-0.0016832765 351:0.0033454555 352:7.0874303e-05 354:0.00028512315 355:0.011089941 356:0.0026325793 357:0.0014235782 358:0.00024799354 359:0.0040190108 360:0.0047362214 361:-0.00012012262 362:0.014567039 363:0.0036758084 365:0.018360177 366:0.023386961 368:0.016426215 369:-0.00012140987 371:0.017872864 372:0.014124279 373:-0.0012331356 375:0.0058368267 376:0.017960098 379:0.024202168 380:0.026385538 381:0.012760271 382:-0.0015700185 383:0.0084977429 384:-0.0028223973 385:0.0013293133 386:-0.0022294619 387:-0.0087341201 388:3.5976413e-05 389:-0.0029323394 390:0.0067942427 392:-0.00077711564 394:0.0016897455 395:0.0031264159 396:0.022571642 397:0.0079723997 398:-5.2238545e-05 399:-0.0069023953 400:0.0033843576 401:3.5976413e-05 402:-0.0034095773 403:0.0015713872 404:0.0020728337 405:0.0038576019 406:0.0031867735 407:-0.00062327331 408:0.013165106 409:0.0033342277 410:0.013832986 411:0.0066719945 413:-0.00069159077 415:-0.0026928894 416:0.0015297853 417:-0.00120545 418:-0.0089761857 419:0.01161183 420:-0.001483242 421:0.00059045886 422:4.2057523e-05 423:3.5976413e-05 424:-4.744947e-05 425:8.5449119e-06 426:0.021203296 427:0.0049342648 428:-0.0090463543 429:0.0020848943 431:0.00037450119 432:0.0041436763 433:0.00091308303 434:-8.9604306e-05 435:0.0078088664 436:0.0022521592 437:-0.0013281447 438:-0.0013547497 439:-0.0011704261 442:0.0027249879 443:0.00014434852 444:0.014017968 445:-0.0017823053 446:0.006013683 448:4.2195064e-05 449:0.0017206625 450:0.0016014958 451:-0.012859298 452:-0.00056841242 453:0.010268085 454:-0.0020579363 455:7.0498252e-05 457:0.013783143 458:-0.00056372711 459:0.003240878 461:0.023876527 462:0.0014916563 463:0.0055932258 464:0.00047779386 467:-0.0011367118 469:7.0498252e-05 470:0.0017162208 471:-0.00020073076 473:0.00065384485 474:-0.0012218644 476:-0.0017747653 477:0.01327068 478:6.0197821e-05 479:6.0197821e-05 480:0.00054780039 481:-0.00015824044 483:0.00028818814 484:0.020368287 485:0.0052783531 486:0.0013030499 487:-0.002426839 490:-0.0031464768 491:0.0037057116 492:0.0073372149 493:6.0197821e-05 494:0.0073372149 495:0.0021827125 496:0.0039636646 497:0.012098311 498:0.0020859733 499:-0.0029515855 500:0.00039689898 503:0.021105094 504:-0.019037249 505:-0.012592988 506:-0.0010820694 508:0.00107637 509:0.0062056622 510:0.0076782228 511:0.013695288 513:-0.0018713471 515:0.00057635823 517:8.5449119e-06 518:0.00039432835 520:0.013725162 521:0.0058119167 522:0.0042750933 523:0.0003876492 524:0.0025367918 526:-0.0023427166 527:0.00044267121 528:-9.2557893e-05 530:0.0042791534 531:0.00040264471 533:0.0057527418 534:0.013214173 535:-0.0016828348 536:0.0076978547 538:-0.0031409988 540:-0.00054472033 541:0.00029080012 542:0.0010081953 543:0.0119615 545:-0.019328373 549:1.2462699e-05 551:2.8337867e-05 552:4.2345466e-05 553:0.018938547 554:0.00039689898 555:-0.00016073676 556:0.016256405 558:-0.001065169 559:0.0058368267 560:0.0063496139 561:0.0017237217 562:0.02321782 564:-0.00067639037 565:0.0016897455 567:-0.00035778631 568:0.0050417841 569:0.00073473837 570:-0.00067331572 571:-0.0012539792 572:0.0011307364 573:-0.00035953714 574:0.00026236119 575:0.0023851083 576:7.1937335e-05 577:0.0001199111 578:0.004642833 579:0.0012701669 580:-0.0011473169 581:0.0054707271 582:0.020523749 583:0.0025837428 584:-0.0008614753 585:-0.0029770033 586:-0.00089298474 587:0.0027933398 588:7.0555783e-05 589:0.0020859733 591:3.5976413e-05 592:-0.00067917159 594:0.0098115262 595:0.019930013 596:-0.011416028 597:-0.00066290307 599:0.025005817 600:0.0041728872 601:0.0029843959 602:0.002059333 604:0.024507584 605:0.023471806 606:-0.00012541769 607:-0.0011248278 609:0.0024080586 610:0.00042784592 611:0.0070991646 613:0.00073336612 614:0.012481083 616:0.0026525923 617:-0.00016575193 619:0.00088483718 620:0.011621954 622:0.025046304 623:0.001583998 625:-4.5656136e-05 626:0.00053810101 627:-0.019472133 628:0.002629254 629:-0.00077711564 631:0.0057645333 632:8.6660439e-06 634:0.0017155029 637:0.0056551876 638:0.021215351 640:-0.002403188 641:-0.0019267221 642:0.0040367418 643:0.013211348 644:-0.0027677875 646:0.0022686436 649:0.023333546 650:0.0036696265 651:0.0050282474 652:0.0016916249 653:0.0036312926 654:0.0019930999 655:0.012708185 656:0.0022157999 657:0.0038178277 658:0.00066111382 659:0.024554614 660:-0.00058877107 661:0.0014158526 662:0.00015101217 663:-0.00069750263 665:-0.0038268848 666:0.0015448441 667:-6.725033e-05 668:0.0095606865 670:-0.0025494942 671:0.0023146975 673:-0.0022669761 674:-0.0002029707 675:-0.016897982 676:0.0017242329 677:0.0042595733 678:0.0017242177 679:0.00054416701 680:-0.00016020336 681:-0.00016073676 682:0.0014295583 684:-2.4104012e-05 686:-0.00013104819 687:-0.00098360504 688:8.5449119e-06 689:-0.00061009015 691:-0.0012822133 692:0.0077536474 693:-0.0018605248 694:-0.0035221812 695:-0.0030644299 696:0.00067446177 697:-0.00018898562 698:-0.004284854 699:0.013540315 700:0.0019504001 #
