SVM-light Version V6.20
0 # kernel type
3 # kernel parameter -d 
1 # kernel parameter -g 
1 # kernel parameter -s 
1 # kernel parameter -r 
empty# kernel parameter -u 
701 # highest feature index 
5 # number of training documents 
2 # number of support vectors plus 1 
0 # threshold b, each following line is a SV (starting with alpha*y)
1 1:0.006656331 2:0.00013727065 3:0.018141566 4:0.0092389453 5:0.00070292479 6:0.023523957 7:0.0094730649 8:0.031237205 9:0.012217562 10:-2.5487989e-05 11:0.0066306279 13:0.0082899714 14:0.028323408 15:0.01200224 16:-0.00017802218 17:-0.0052505597 18:0.00090747373 19:-1.7831819e-05 20:0.017665617 21:-0.013301886 22:4.2045649e-05 23:0.0035671899 24:8.5987216e-05 25:0.0076467502 27:-0.0069049918 30:0.0073761893 31:0.0089202346 32:0.0030370536 33:-0.00015945075 34:-0.00036297104 35:0.0021253321 36:-0.00065781869 37:0.020099863 38:-0.0022271606 40:0.00026571911 41:0.017594373 42:-2.7603355e-05 43:0.0077432422 44:-0.00075614807 45:0.0020029966 47:4.2045649e-05 48:0.0016437814 49:0.015078644 50:0.0064552571 51:0.0015027815 54:0.00066740368 55:0.0030001162 56:0.00055378833 57:0.0089173159 59:0.00021280267 60:0.0075827925 61:0.010431743 62:0.0032668537 64:0.0042422442 65:-0.00052805402 66:0.00050636701 68:-0.00072514312 69:0.0020103478 70:0.0038703766 72:0.00044867166 73:0.006393638 74:0.0046047461 75:0.00095649541 76:0.0059699398 77:0.00012744023 79:0.0089193024 80:-0.00053088786 81:0.0095764641 82:-0.0001771395 83:0.0083286241 84:-0.00071564765 85:0.0067654378 86:0.00097103254 87:-3.4523255e-05 88:-0.00017538574 91:0.020138234 92:0.00055063231 93:-3.7948608e-05 94:0.024807807 95:0.0030218936 96:0.017813452 97:0.0028648654 98:0.0011085758 99:0.0017781063 100:0.02118005 101:0.0060947384 102:-0.00051157561 103:0.01650759 105:8.5989792e-05 106:-0.000516131 108:0.0052577369 109:3.2242868e-05 112:0.00090212835 113:0.011821295 114:0.010811686 115:0.015638895 116:0.0030610978 117:-9.9689794e-05 118:0.0051239547 119:0.0078722807 120:0.028471436 121:0.0028377017 122:0.0034027542 123:0.0046046739 124:0.0093652774 126:0.0059234896 127:0.0073707062 128:0.0035910739 129:0.009711531 130:0.011861634 133:0.0085830819 134:0.0060041905 135:0.00067661854 136:0.0058186608 137:0.0089202346 138:0.010734392 139:0.0012066013 140:0.0036783919 142:-0.0005584053 143:0.0018927826 144:0.0031266538 145:-0.00026140804 146:0.0019501206 147:0.0021463614 148:0.027014907 149:0.0055549997 150:0.009435839 151:0.026535399 152:0.016994329 153:0.030048368 154:0.007068566 155:0.0040540444 158:0.0068874564 159:0.0058141868 162:0.0079080202 163:-0.0015589154 164:0.026453998 165:0.009550212 168:0.0035910739 171:6.2338644e-05 172:0.0029395751 173:0.0040698517 174:-3.4515353e-05 175:-0.0092218621 176:0.007339905 177:0.0029468867 178:-0.012888921 179:0.0074263453 180:0.010630315 183:0.003279852 185:-0.0011954318 186:0.01800763 187:-0.016990267 188:0.0005649107 189:0.028423615 190:-0.0031833337 192:0.005966322 193:-5.4143391e-05 194:0.0072383275 196:0.0091832569 197:-6.6865054e-05 198:-0.00052775105 200:-0.0012428456 201:0.0074499911 202:0.024990944 203:0.0085749598 204:0.0044434438 205:0.0035674039 206:-0.000516131 207:0.019939059 208:0.0042784442 209:0.00050650991 210:0.012066748 211:7.0680231e-05 212:0.00017870417 213:0.00047698131 214:0.021574838 215:0.012610563 216:0.0093471762 218:0.012277508 219:0.0023114695 220:-0.017846549 221:0.004337851 226:0.00097538158 228:5.73383e-05 230:0.010374629 233:0.0095509598 235:-0.0083304839 236:0.0023125587 237:0.022465225 239:6.9500682e-05 241:0.016584726 242:0.00090100849 243:0.00081109448 244:-0.0070128851 245:0.0082530491 247:0.003575668 248:0.028106797 249:0.0084707085 250:-4.3353925e-06 251:8.5645821e-05 253:0.011016822 254:-0.0012283868 255:0.014079219 256:0.028268587 257:-0.0076550231 258:-0.0011924565 259:0.00020001414 260:0.028326249 261:0.019766577 262:4.2045649e-05 263:0.012818278 265:0.0012304694 266:0.0050608977 267:-0.00026194187 268:0.027147967 269:0.00027712344 270:0.013561053 272:-0.0012305951 273:0.00039779337 275:-0.00012171129 276:0.0025378352 277:-0.0092894249 278:3.2587799e-05 279:0.0052973852 280:0.030003533 281:0.0016935178 282:0.00041342725 283:0.013009571 284:0.0088674454 285:0.010157343 286:-0.00048320234 290:0.010811686 291:-0.00015945075 292:0.0023942499 294:0.00017642135 295:0.00040403445 296:0.0034782169 297:0.005170085 298:-0.00027524403 299:-0.0002976628 300:0.0043227957 302:0.005444943 303:0.00046166903 304:0.004668579 305:-0.0058611068 306:0.0014221268 307:4.5346533e-05 308:0.0076467502 309:0.0086477455 310:0.0092741847 311:0.00055710517 312:0.017684193 313:-0.0004832636 314:0.0022325406 315:0.0041572927 316:8.5645821e-05 317:0.012477573 318:-0.00014345052 319:-3.4523255e-05 322:0.0056770989 323:0.0018877042 324:-4.7240577e-05 325:0.013411005 326:0.0083057908 327:0.0048662815 328:0.0078231152 329:0.00034708125 330:0.012469566 332:0.012738667 334:3.867329e-05 335:0.027984712 336:-0.00018250068 337:0.00027752251 338:-0.00010430721 340:8.5645821e-05 341:0.00042882739 342:0.015536501 343:0.00046850293 345:0.029978231 346:0.0094716093 347:-0.0039268979 348:0.0029250132 349:0.0031221688 350:0.0015180685 351:0.0096637355 352:6.7902656e-05 354:4.2045649e-05 355:0.017105602 356:0.0042104712 357:0.00094761542 358:-2.714656e-05 359:-0.00065744709 360:0.0072999625 361:-0.00053028279 362:0.020521382 363:0.010080346 365:0.023758532 366:0.027847048 368:0.019261708 369:-0.00052877492 371:0.024485633 372:0.017848691 373:-0.00068825338 375:0.0076467502 376:0.020834535 379:0.026951171 380:0.026826503 381:0.010634472 382:0.0017349593 383:0.012338199 384:-0.0058611068 385:0.0082754716 386:0.0059122331 387:-0.010685872 388:8.4998275e-05 389:0.0029463975 390:0.0089166965 392:-0.000516131 394:0.0024472757 395:-0.0044271564 396:0.025699681 397:0.008888524 398:-0.00017804788 399:-0.0067244656 400:0.010640085 401:8.4998275e-05 402:0.0017981636 403:0.0023189217 404:0.0061423341 405:0.0094363941 406:0.0052732215 407:-0.006391386 408:0.020064976 409:0.0063444139 410:0.020588774 411:0.0054614758 413:-0.000120213 415:0.0043521589 416:0.0019516947 417:-0.0007552125 418:-0.0058161588 419:0.015611058 420:0.00046082729 421:0.0059232404 422:9.8630495e-05 423:8.4998275e-05 424:0.00016210998 425:5.73383e-05 426:0.020005686 427:0.0055433493 428:-0.0070606628 429:0.0050327159 431:-0.00023296829 432:0.010086022 433:0.0044446806 434:-0.00043175602 435:0.009458649 436:0.0027122411 437:0.0024694148 438:0.0048986627 439:-0.00076244224 442:0.0053502535 443:-4.4491393e-05 444:0.020169949 445:0.0052186968 446:0.0057183476 448:8.5645821e-05 449:0.0018945191 450:0.0060502244 451:-0.0079121571 452:-0.0024395289 453:0.011084327 454:0.00088092877 455:-3.4523255e-05 457:0.017684193 458:0.00080482283 459:-0.003040174 461:0.026951607 462:0.0016356099 463:0.0068158931 464:0.0011736401 467:6.3497541e-06 469:-3.4523255e-05 470:0.0027189371 471:-0.00068723154 473:0.0015452981 474:0.0041236519 476:0.0052950825 477:0.019494191 478:-9.9689794e-05 479:-9.9689794e-05 480:0.003371666 481:-0.00011861871 483:0.00029326807 484:0.021278471 485:0.013414713 486:0.0036430452 487:0.00099186366 490:0.0034372287 491:0.0050351974 492:0.013374472 493:-9.9689794e-05 494:0.013374472 495:-0.0086869579 496:0.012485959 497:0.018979372 498:0.0051052109 499:-0.0028499011 500:0.00057893299 503:0.027577916 504:-0.01562166 505:-0.0053069848 506:-0.00051058899 508:0.0067999768 509:0.0082256328 510:0.0067848288 511:0.016835792 513:0.0053625992 515:0.0025672675 517:5.73383e-05 518:0.00038561394 520:0.013732979 521:0.012659879 522:0.0045133466 523:0.00034284347 524:0.0022703335 526:-0.0018306243 527:-0.0088444902 528:-3.5704943e-05 530:0.0045175236 531:0.00057948352 533:0.0066815126 534:0.020169239 535:0.0024283126 536:0.005436141 538:0.0015511384 540:0.0033230851 541:0.0026407742 542:0.0063298582 543:0.014117223 545:-0.023321232 549:-8.1638937e-06 551:0.00026575898 552:8.5951098e-05 553:0.024529191 554:0.00057893299 555:-0.00015945075 556:0.018493753 558:0.0048233368 559:0.0076467502 560:0.0083966646 561:0.0018854841 562:0.029383451 564:-0.00011909204 565:0.0024472757 567:-0.00047396292 568:0.010939605 569:0.00040021478 570:0.0036151547 571:-2.0073909e-05 572:0.0017731962 573:-0.00047627671 574:0.0030892126 575:0.0032368365 576:-3.5592482e-05 577:3.9871498e-05 578:0.0055156164 579:0.0049878373 580:-0.00077074172 581:0.006259758 582:0.022674294 583:0.0023941675 584:-0.00065025123 585:0.0016859849 586:-0.0039268979 587:0.0069575813 588:-0.0001156186 589:0.0051052109 591:8.4998275e-05 592:-4.8957987e-05 594:0.0071198693 595:0.021889601 596:-0.011497507 597:-0.00031847219 599:0.026261147 600:0.011467493 601:0.0043751081 602:0.00039324292 604:0.02819219 605:0.027846403 606:0.0076264362 607:0.0025922495 609:0.00027304649 610:0.0004078825 611:0.0080734752 613:0.00039903127 614:0.018709192 616:0.0034546733 617:-0.00016444291 619:0.0018409215 620:0.018912807 622:0.028326249 623:0.0022313267 625:-0.00017129073 626:0.00062478444 627:-0.021180762 628:0.0035142142 629:-0.000516131 631:0.01266566 632:5.8073892e-05 634:0.002462381 637:0.0055850847 638:0.021846697 640:0.0012884146 641:0.0050677084 642:0.0075767641 643:0.017216401 644:0.0028011252 646:0.0055305003 649:0.023363102 650:0.0035913715 651:0.012828736 652:0.0061244904 653:0.0035302152 654:0.0022838998 655:0.010308308 656:0.0054530404 657:0.0043354966 658:0.0015507818 659:0.026087439 660:-0.00050786068 661:0.0009668087 662:-0.00018424042 663:-0.00010291845 665:0.0015486933 666:0.002278277 667:-0.00048686622 668:0.0073280428 670:-0.0027193096 671:-0.001095698 673:-0.0062771919 674:0.0019488079 675:-0.010407511 676:0.0018920739 677:0.0060955812 678:0.0018927826 679:0.00037133522 680:0.00029137373 681:-0.00015945075 682:0.0045472211 684:-6.0535909e-05 686:-5.3278141e-05 687:-9.5221214e-05 688:5.73383e-05 689:-0.00051777862 691:-0.00077131216 692:0.0087167602 693:0.0054188841 694:0.0020218513 695:-0.0015537221 696:0.001277443 697:-0.00021827183 698:0.0010488789 699:0.013691068 700:0.005107447 #
