SVM-light Version V6.20
0 # kernel type
3 # kernel parameter -d 
1 # kernel parameter -g 
1 # kernel parameter -s 
1 # kernel parameter -r 
empty# kernel parameter -u 
701 # highest feature index 
6 # number of training documents 
2 # number of support vectors plus 1 
0 # threshold b, each following line is a SV (starting with alpha*y)
1 1:0.0047788774 2:0.00046196501 3:0.017724112 4:0.0085156029 5:0.00094330293 6:0.024055835 7:0.010190357 8:0.026412381 9:0.011929498 10:-0.00053132558 11:0.0056582512 13:0.0085745603 14:0.028505933 15:0.011689313 16:0.00015803127 17:-0.0046011573 18:-0.00029401705 19:-4.0418567e-05 20:0.017084455 21:-0.011638901 22:4.175462e-06 23:0.003697898 24:5.4049189e-05 25:0.0078950217 27:-0.0059149843 30:0.0044277483 31:0.0085214702 32:0.0011294329 33:-0.00011348297 34:-0.00082617684 35:0.0024545346 36:-0.0011854678 37:0.018125307 38:-0.0034750211 40:0.00016209891 41:0.01767068 42:-0.00030871024 43:0.0060184291 44:-0.0013831586 45:0.0012476196 47:4.175462e-06 48:0.0013887486 49:0.01423959 50:0.0062196269 51:0.0021333953 54:-0.00034572923 55:-0.0005145559 56:0.00067080493 57:0.0084819319 59:0.00022698469 60:0.0078691682 61:0.010485387 62:0.0033778416 64:0.0033067458 65:-0.00073310354 66:-0.00013786582 68:-0.0010163711 69:0.0012591282 70:0.0032215561 72:-0.00063659484 73:0.0063375877 74:0.0035432947 75:0.00096792605 76:0.006017399 77:0.00026828123 79:0.0085245902 80:-0.00039330468 81:0.0075136838 82:0.00015518474 83:0.0086085163 84:-0.0010038648 85:0.0056919227 86:-0.00013253988 87:-1.9054944e-05 88:0.00016007658 91:0.02008008 92:0.0006761835 93:-2.7008469e-05 94:0.025059421 95:0.00062650174 96:0.016841931 97:0.0015774218 98:0.00015417812 99:0.0023297439 100:0.020489685 101:0.0052569821 102:-0.00073748967 103:0.016456651 105:6.1559476e-05 106:-0.00074406958 108:0.0045835814 109:4.4451801e-05 112:0.00079184852 113:0.012789099 114:0.0081943432 115:0.016253421 116:0.00070519221 117:-5.671796e-05 118:0.0046040933 119:0.0058325273 120:0.028178046 121:0.0028159961 122:0.0018884788 123:0.0040026591 124:0.0069792368 126:0.0044247075 127:0.0056794994 128:0.0037226954 129:0.0078069693 130:0.011464655 133:0.0066684545 134:0.0043051802 135:0.00020305277 136:0.0069787977 137:0.0085214702 138:0.010155363 139:0.00048650274 140:0.0059812446 142:-0.00077744934 143:0.0018638405 144:0.0029140203 145:-0.0010800557 146:0.00028802862 147:0.0004069664 148:0.026228501 149:0.0047813319 150:0.006905023 151:0.026127689 152:0.016673915 153:0.029188342 154:0.0048459377 155:0.0039899829 158:0.005981443 159:0.0037516686 162:0.008393473 163:-0.0019616794 164:0.026214449 165:0.0079866238 168:0.0037226954 171:-0.00031409302 172:0.0018431863 173:0.0036182865 174:-0.00055515516 175:-0.0060724304 176:0.0052683349 177:0.0019479226 178:-0.012333469 179:0.004379116 180:0.010048159 183:0.00084556377 185:-0.00050658424 186:0.01739567 187:-0.016629828 188:-0.00068226352 189:0.028858023 190:-0.0026536961 192:0.0061508738 193:-0.00032984398 194:0.0057306704 196:0.0082912995 197:-0.00054956705 198:-0.00038941921 200:-0.00054088578 201:0.0057397587 202:0.02502046 203:0.0082341963 204:0.0042158728 205:0.0037009704 206:-0.00074406958 207:0.020473706 208:0.0041849166 209:5.3005955e-05 210:0.011404932 211:7.9531841e-05 212:-0.0005331703 213:-0.00061610353 214:0.022069409 215:0.010853173 216:0.0089759976 218:0.012725011 219:0.0030179387 220:-0.014099722 221:0.0040931422 226:0.00098928856 228:6.9687914e-05 230:0.010950213 233:0.01003131 235:-0.0089959456 236:0.0022161638 237:0.022774119 239:-0.00024507384 241:0.016979853 242:0.00085481239 243:-0.00059485738 244:-0.0043527558 245:0.0065816832 247:0.0022773494 248:0.027517596 249:0.0087519335 250:1.3819052e-05 251:6.1313229e-05 253:0.010710085 254:-0.0015738673 255:0.013960902 256:0.028256252 257:-0.0046718726 258:-0.0013566671 259:-1.5053464e-05 260:0.027982635 261:0.019265797 262:4.175462e-06 263:0.012327246 265:-6.2128051e-06 266:0.004051412 267:-0.00082051498 268:0.027032251 269:6.8540547e-05 270:0.013486021 272:-0.00021352252 273:0.00040931092 275:-7.1129049e-05 276:0.0016381625 277:-0.0062218807 278:4.4935648e-05 279:0.0047786292 280:0.030394863 281:0.0016525247 282:0.00048062051 283:0.011332618 284:0.0084960526 285:0.010539681 286:-0.00022871545 290:0.0081943432 291:-0.00011348297 292:0.0031108076 294:0.00022940723 295:0.00041049995 296:0.0013165849 297:0.0039473483 298:-0.00060677476 299:-0.0001278197 300:0.0031935745 302:0.0051721022 303:-0.00062857312 304:0.0071564796 305:-0.0043777968 306:0.0019030097 307:4.4693688e-06 308:0.0078950217 309:0.0069666314 310:0.0066317762 311:0.00067931478 312:0.016722018 313:-0.00071680179 314:0.0021963501 315:0.0038887351 316:6.1313229e-05 317:0.010183505 318:-7.6260469e-05 319:-1.9054944e-05 322:0.0052332273 323:0.001859994 324:-0.00038338371 325:0.012333912 326:0.0078167478 327:0.0034615935 328:0.0063199382 329:-0.00029392052 330:0.010170459 332:0.012796268 334:0.00011288899 335:0.027924724 336:1.0386688e-05 337:-0.00015041287 338:-6.4814805e-05 340:6.1313229e-05 341:-0.00063784036 342:0.015659867 343:0.00040629995 345:0.028778197 346:0.0079339724 347:-0.0021474268 348:0.0014237937 349:0.0032169316 350:0.0008558472 351:0.0080421213 352:6.7001325e-05 354:4.175462e-06 355:0.016729785 356:0.002887879 357:0.00098713231 358:1.3182595e-05 359:0.00094261632 360:0.0068816105 361:-0.00039307153 362:0.02004632 363:0.0098743141 365:0.024259327 366:0.027300673 368:0.018337948 369:-0.00039042858 371:0.024673246 372:0.017107738 373:-0.0013639097 375:0.0078950217 376:0.020578178 379:0.026933186 380:0.027227603 381:0.010897974 382:0.0012438111 383:0.011361321 384:-0.0043777968 385:0.0048361928 386:0.0039345683 387:-0.010788214 388:5.3427568e-05 389:0.001142703 390:0.0085677998 392:-0.00074406958 394:0.0023637502 395:-0.0029688878 396:0.025558518 397:0.008306982 398:0.00015444399 399:-0.0070848381 400:0.00795044 401:5.3427568e-05 402:0.00012953229 403:0.002259647 404:0.0052828197 405:0.0078101759 406:0.0036216297 407:-0.004492763 408:0.019313473 409:0.0063062371 410:0.019989166 411:0.0062439991 413:-7.7600453e-05 415:0.0029250414 416:0.0019836931 417:-0.0013484396 418:-0.0064833136 419:0.016219983 420:-0.00062102289 421:0.0040627862 422:6.3048552e-05 423:5.3427568e-05 424:7.5077944e-05 425:6.9687914e-05 426:0.020672962 427:0.0058988156 428:-0.0076635666 429:0.0040947138 431:0.0002819665 432:0.0099056792 433:0.0029813591 434:1.3680208e-05 435:0.0092254905 436:0.0025102126 437:0.0015849373 438:0.0031855989 439:-0.001336948 442:0.0043875645 443:-5.910049e-05 444:0.019677062 445:0.0037525471 446:0.0057011694 448:6.1313229e-05 449:0.0018641223 450:0.0051849508 451:-0.010070119 452:-0.0017769507 453:0.011122652 454:-0.00037039741 455:-1.9054944e-05 457:0.016722018 458:6.2933432e-05 459:-0.00082796207 461:0.026640886 462:0.0019115537 463:0.0058380109 464:-0.00021868944 467:-0.00047933985 469:-1.9054944e-05 470:0.0020792226 471:-0.00048821495 473:0.0015534202 474:0.0029283597 476:0.0038274466 477:0.019001104 478:-5.671796e-05 479:-5.671796e-05 480:0.0024492866 481:0.00015190133 483:0.00043008744 484:0.021637527 485:0.011672134 486:0.0025442448 487:-0.00010502925 490:0.0013312048 491:0.0040079462 492:0.011376536 493:-5.671796e-05 494:0.011376536 495:-0.0058147158 496:0.010973179 497:0.018386085 498:0.0041496083 499:-0.002408745 500:0.00069610373 503:0.027652338 504:-0.015183115 505:-0.0059062811 506:0.00029971893 508:0.0049028946 509:0.0085091796 510:0.0069166315 511:0.016722387 513:0.0036925874 515:0.0012062469 517:6.9687914e-05 518:0.00045459421 520:0.014083139 521:0.010279578 522:0.0045207343 523:0.00039179192 524:0.0030128174 526:-0.0019263893 527:-0.0063088392 528:-0.00029144302 530:0.0045230291 531:0.00069612102 533:0.0065701129 534:0.019525724 535:0.0016805431 536:0.0059057618 538:0.00027696305 540:0.002357905 541:0.001000441 542:0.0051298449 543:0.014753597 545:-0.022387611 549:-4.5077886e-06 551:0.00016212324 552:6.1531777e-05 553:0.024932181 554:0.00069610373 555:-0.00011348297 556:0.018277967 558:0.0030450299 559:0.0078950217 560:0.0086781606 561:0.0018590738 562:0.029635014 564:-6.8220012e-05 565:0.0023637502 567:-0.00049038965 568:0.0093397275 569:0.00040796847 570:0.0030054133 571:-0.0005257501 572:0.0017320542 573:-0.00049278309 574:0.002017912 575:0.0033697528 576:-1.9693525e-05 577:4.2809705e-05 578:0.005582381 579:0.003795126 580:-0.0012791104 581:0.0063843131 582:0.02244832 583:0.0030994096 584:-0.00088938605 585:0.00019619789 586:-0.0021474268 587:0.0059912521 588:-6.5840351e-05 589:0.0041496083 591:5.3427568e-05 592:-0.0001460468 594:0.00840538 595:0.021868071 596:-0.011325865 597:-0.00040767391 599:0.026188944 600:0.010059829 601:0.0032252404 602:5.8867623e-05 604:0.027689032 605:0.027438814 606:0.0070151421 607:0.0018212291 609:0.00060046546 610:0.00038932014 611:0.0087153679 613:0.00040706489 614:0.018273365 616:0.0037124446 617:-0.00011703595 619:0.0017643165 620:0.016977303 622:0.027982635 623:0.0020471846 625:0.00015769592 626:-0.00011185898 627:-0.021226168 628:0.0027003055 629:-0.00074406958 631:0.010257859 632:7.0576141e-05 634:0.0023814065 637:0.0054965569 638:0.021886133 640:0.00086010742 641:0.0039201891 642:0.0058448706 643:0.016331246 644:0.0011799313 646:0.0050007217 649:0.024207255 650:0.0037226293 651:0.012282204 652:0.0051861918 653:0.0036863161 654:0.0020771127 655:0.0105859 656:0.0037941199 657:0.0041215778 658:0.0015600626 659:0.026176639 660:-0.0007131719 661:0.0009747544 662:0.00019064551 663:-6.3771942e-05 665:0.00017697462 666:0.0021678703 667:1.3350691e-05 668:0.0077064359 670:-0.0021447337 671:-0.0002708369 673:-0.0045645102 674:0.00065970427 675:-0.011740271 676:0.0018632474 677:0.0062270947 678:0.0018638405 679:0.00058165868 680:0.00014444426 681:-0.00011348297 682:0.0036157761 684:-2.8459883e-05 686:-0.00032863367 687:-0.00078822387 688:6.9687914e-05 689:-0.00074704894 691:-0.0014107702 692:0.0081167184 693:0.0037557282 694:0.00042643369 695:-0.00151109 696:0.00091852108 697:-0.00020954502 698:-0.000121088 699:0.012770844 700:0.0041454392 #
