SVM-light Version V6.20
0 # kernel type
3 # kernel parameter -d 
1 # kernel parameter -g 
1 # kernel parameter -s 
1 # kernel parameter -r 
empty# kernel parameter -u 
701 # highest feature index 
4 # number of training documents 
2 # number of support vectors plus 1 
0 # threshold b, each following line is a SV (starting with alpha*y)
1 1:0.0057972833 2:9.891668e-05 3:0.017939769 4:0.0088556446 5:0.00057611422 6:0.023711352 7:0.0097816009 8:0.029792555 9:0.012806441 10:-0.00045360095 11:0.0069425893 13:0.0091721984 14:0.028426461 15:0.012579045 16:-0.00025619904 17:-0.0050263936 18:0.00032908178 19:-5.5456618e-05 20:0.017347481 21:-0.013708377 23:0.0040482678 24:6.6734821e-05 25:0.0084561519 27:-0.0067325709 30:0.0069488822 31:0.009463001 32:0.0026597241 33:-0.00014011802 34:-0.00046709823 35:0.0027161371 36:-0.00074736908 37:0.019962389 38:-0.0025630877 40:0.0002112635 41:0.018512374 42:-0.00015105872 43:0.0074687083 44:-0.00096931378 45:0.0019994809 48:0.0020749585 49:0.015431318 50:0.0066669472 51:0.0016486928 54:0.0001991912 55:0.0014247911 56:0.00060486887 57:0.0090953754 59:-0.00028362134 60:0.0074502914 61:0.010251449 62:0.003685348 64:0.0042226757 65:-0.00056996802 66:-0.00028765327 68:-0.0005921417 69:0.0019456 70:0.0028163642 72:0.0003373673 73:0.006117091 74:0.0040899809 75:0.00068616116 76:0.0051943236 77:0.0007033436 79:0.0094525227 80:-0.00059898908 81:0.0095613124 82:-0.00025466218 83:0.0084071336 84:-0.00058514747 85:0.0069149737 86:0.00044982831 87:-2.1719243e-05 88:-0.00025307786 91:0.02058232 92:0.00060629362 93:-3.3347496e-05 94:0.024916677 95:0.0023708486 96:0.018085472 97:0.0025857971 98:0.00026752378 99:0.0015821621 100:0.020928686 101:0.0063536172 102:-0.00057229114 103:0.017302226 105:7.7859622e-05 106:-0.0004163486 108:0.0047112769 109:2.6363292e-05 112:0.00081110187 113:0.012038052 114:0.010067049 115:0.015947118 116:0.0026059307 117:-5.7291654e-05 118:0.0047793551 119:0.0077485978 120:0.02924737 121:0.0030599479 122:0.0033735961 123:0.0046237819 124:0.0089646224 126:0.0056478013 127:0.0066216863 128:0.0040767509 129:0.0090066232 130:0.011835498 133:0.0080898181 134:0.0052403407 135:0.00071140361 136:0.0060269963 137:0.009463001 138:0.010684541 139:0.0008278545 140:0.0047323033 142:-0.00044344916 143:0.0019873267 144:0.0033925725 145:-0.00017254538 146:0.0010043361 147:0.0015936873 148:0.027164742 149:0.0052593313 150:0.0090356162 151:0.027151633 152:0.016762234 153:0.030452721 154:0.0064569642 155:0.0037106166 158:0.0061603384 159:0.005002162 162:0.0088181626 163:-0.00066131278 164:0.02726944 165:0.0089570582 168:0.0040767509 171:-0.00032059607 172:0.0018913755 173:0.0044159638 174:-0.00042923709 175:-0.0077007208 176:0.0066457237 177:0.0026902405 178:-0.013345556 179:0.0068760477 180:0.010576381 183:0.0028414922 185:-0.00096651894 186:0.017886238 187:-0.017232276 188:0.00064048765 189:0.028593743 190:-0.0033735933 192:0.0058202026 193:-0.00017081056 194:0.0066171056 196:0.0093430588 197:-0.00045858882 198:-0.00059712795 200:-0.00053210818 201:0.0068064253 202:0.025403736 203:0.0091570606 204:0.004490891 205:0.0040494259 206:-0.0004163486 207:0.020213544 208:0.0039745034 209:0.00097838137 210:0.011866895 211:6.6699438e-05 212:-0.00020618804 213:0.00035291669 214:0.021937041 215:0.01278517 216:0.0095080296 218:0.0123489 219:0.002382698 220:-0.015945761 221:0.0043806881 226:0.00070607208 228:5.4920471e-05 230:0.010638122 233:0.0097106919 235:-0.009094012 236:0.0019700255 237:0.023195814 239:-9.2671027e-05 241:0.016981773 242:0.0012000878 243:0.00057351543 244:-0.0057804398 245:0.0075619505 247:0.0030385789 248:0.028725727 249:0.0093649318 250:-1.9791435e-06 251:7.7548168e-05 253:0.011155581 254:-0.0015027123 255:0.014682213 256:0.02897599 257:-0.0062280102 258:-0.0010614801 259:0.00014463582 260:0.029084248 261:0.019595463 263:0.011759227 265:0.00020389759 266:0.004819483 267:-0.00030372725 268:0.027787181 269:0.0002044724 270:0.014196495 272:-0.00080089574 273:5.4123484e-05 275:-5.5378408e-05 276:0.0018526133 277:-0.0076516462 278:2.6645328e-05 279:0.0049473802 280:0.030143229 281:0.0022376948 282:0.00072324916 283:0.012038873 284:0.0094063375 285:0.010741715 286:-0.00014259899 290:0.010067049 291:-0.00014011802 292:0.0024732696 294:0.00015225849 295:6.1867257e-05 296:0.0032183058 297:0.0049434989 298:-0.00036314104 299:-0.00025427531 300:0.0030721528 302:0.0054425723 303:0.00033811532 304:0.0059439051 305:-0.0054839728 306:0.002202675 307:-4.3163308e-08 308:0.0084561519 309:0.007871788 310:0.0084140059 311:0.00061277533 312:0.017970495 313:-0.0005496862 314:0.0028315338 315:0.0041782958 316:7.7548168e-05 317:0.012227813 318:-7.7503777e-05 319:-2.1719243e-05 322:0.0054182233 323:0.001981833 324:-0.00016544016 325:0.013000302 326:0.0080417255 327:0.0046588825 328:0.0085871574 329:-0.00041269514 330:0.012217056 332:0.012786027 334:0.00016502111 335:0.028907571 336:-0.00015391747 337:0.00013973605 338:-4.7774622e-05 340:7.7548168e-05 341:0.00016975577 342:0.016505051 343:0.00066462194 345:0.030122917 346:0.0089038685 347:-0.003098594 348:0.0019874682 349:0.0033685835 350:0.00081631559 351:0.0098674493 352:6.651826e-05 355:0.017049158 356:0.0041932259 357:0.00067958626 358:-7.6704891e-05 359:-0.00058756553 360:0.0079276199 361:-0.00059840397 362:0.020374753 363:0.0098932013 365:0.0239657 366:0.028313696 368:0.018552013 369:-0.00059628807 371:0.024490448 372:0.018241391 373:-0.00093028479 375:0.0084561519 376:0.021142554 379:0.027522063 380:0.026758788 381:0.012135449 382:0.0014549871 383:0.012043945 384:-0.0054839728 385:0.0075593358 386:0.0050092964 387:-0.011288235 388:6.5967295e-05 389:0.0026080266 390:0.0094372062 392:-0.0004163486 394:0.002102199 395:-0.0034515217 396:0.025413973 397:0.0086320136 398:-0.00025555436 399:-0.0071602445 400:0.0097825583 401:6.5967295e-05 402:0.0014476191 403:0.0019735734 404:0.0054872353 405:0.0090856729 406:0.0038506421 407:-0.005649318 408:0.019870281 409:0.0060697752 410:0.020315126 411:0.0057934932 413:-4.7839032e-05 415:0.0039498969 416:0.0020379489 417:-0.00095524604 418:-0.006328817 419:0.015916919 420:0.00033957933 421:0.0053462167 422:7.784638e-05 423:6.5967295e-05 424:0.0001034672 425:5.4920471e-05 426:0.020702867 427:0.0053661098 428:-0.0074001802 429:0.0051037772 431:0.00043749381 432:0.0099703418 433:0.0040884935 434:-0.00066757499 435:0.0096373465 436:0.0027720951 437:0.0021967092 438:0.0045518214 439:-0.00098500308 442:0.0054414361 443:-4.433603e-05 444:0.019979157 445:0.0042573861 446:0.0057096062 448:7.7548168e-05 449:0.0019893041 450:0.0053396886 451:-0.0087312516 452:-0.0017412466 453:0.011857845 454:0.00024285659 455:-2.1719243e-05 457:0.017970495 458:0.00070773461 459:-0.0022085481 461:0.027487919 462:0.0017141664 463:0.0069832085 464:0.00024256158 467:-0.00036436922 469:-2.1719243e-05 470:0.0024247051 471:-0.00033113413 473:0.0021186152 474:0.0031466817 476:0.0043426678 477:0.01938979 478:-5.7291654e-05 479:-5.7291654e-05 480:0.0030568412 481:-2.0471334e-06 483:0.00066421292 484:0.021978855 485:0.01241557 486:0.0027586343 487:0.00047667415 490:0.0031252278 491:0.0047982093 492:0.013527567 493:-5.7291654e-05 494:0.013527567 495:-0.0073318295 496:0.011427819 497:0.018795462 498:0.0051826579 499:-0.0019455414 500:0.00063429936 503:0.027454179 504:-0.015359904 505:-0.0059304531 506:0.00015478599 508:0.0063653318 509:0.0091124875 510:0.0080180187 511:0.017626159 513:0.0049962723 515:0.0015288398 517:5.4920471e-05 518:0.00069416279 520:0.014475332 521:0.012378096 522:0.0047144261 523:0.00027499534 524:0.0023510985 526:-0.0021374892 527:-0.008200841 528:-0.00014880646 530:0.0047220071 531:0.00063494267 533:0.0063620373 534:0.019938219 535:0.0020042369 536:0.0064769699 538:0.00094959 540:0.0029001574 541:0.0014443338 542:0.0062127393 543:0.013889231 545:-0.022867078 549:-1.8667743e-05 551:0.00021129521 552:7.7824581e-05 553:0.024818562 554:0.00063429936 555:-0.00014011802 556:0.018800704 558:0.0044955458 559:0.0084561519 560:0.0092892312 561:0.001979779 562:0.029472979 564:-4.998453e-05 565:0.002102199 567:-0.00052440201 568:0.0098961154 569:5.632281e-05 570:0.0035855756 571:-0.000447784 572:0.0018009302 573:-0.0005269621 574:0.001998205 575:0.0036143949 576:-2.2469738e-05 577:2.2887316e-05 578:0.0059067518 579:0.0040769223 580:-0.00094550202 581:0.0064114654 582:0.022818163 583:0.0024594858 584:-0.00051532662 585:0.00088500971 586:-0.003098594 587:0.0061602485 588:-6.654828e-05 589:0.0051826579 591:6.5967295e-05 592:0.00016480476 594:0.0067666788 595:0.022219902 596:-0.011411304 597:-0.00021726807 599:0.026306227 600:0.010589289 601:0.0031795732 602:0.0002407648 604:0.028790355 605:0.028276963 606:0.0075500314 607:0.0024184824 609:0.00066132861 610:0.00040475116 611:0.0090230145 613:5.5474746e-05 614:0.01856987 616:0.0038705806 617:-0.0001445049 619:0.0023766763 620:0.018343275 622:0.029084248 623:0.0022445684 625:-0.00024977222 626:-0.00011229543 627:-0.02124179 628:0.0032962409 629:-0.0004163486 631:0.012367579 632:5.5624136e-05 634:0.0021140012 637:0.0055189775 638:0.022053976 640:0.0011496585 641:0.0046919635 642:0.0072007771 643:0.017553933 644:0.0025559915 646:0.0052371747 649:0.023622157 650:0.004076289 651:0.011703878 652:0.005399019 653:0.0040239608 654:0.0024588341 655:0.010385374 656:0.0046663452 657:0.0043740524 658:0.0021281054 659:0.02651871 660:-0.00055449369 661:0.00069564092 662:-7.7025114e-05 663:-4.656332e-05 665:0.0011241381 666:0.0019347327 667:-0.00010732466 668:0.0086162779 670:-0.0027360234 671:-0.00061955571 673:-0.0056487829 674:0.0010505193 675:-0.01090685 676:0.0019865301 677:0.0065100533 678:0.0019873267 679:0.00076919398 680:4.4064058e-05 681:-0.00014011802 682:0.0045560868 684:-3.3291992e-05 686:-0.00017012168 687:-0.00031466462 688:5.4920471e-05 689:-0.00057960744 691:-0.00099176937 692:0.0084526828 693:0.00505753 694:0.001561482 695:-0.0015144376 696:0.0010070624 697:-0.00021547027 698:0.0012544484 699:0.013474656 700:0.0051951981 #
