SVM-light Version V6.20
0 # kernel type
3 # kernel parameter -d 
1 # kernel parameter -g 
1 # kernel parameter -s 
1 # kernel parameter -r 
empty# kernel parameter -u 
701 # highest feature index 
5 # number of training documents 
2 # number of support vectors plus 1 
0 # threshold b, each following line is a SV (starting with alpha*y)
1 1:0.00099988421 2:0.00037630121 3:0.010769617 4:0.0085186847 5:0.00075646222 6:0.018684944 7:0.012505627 8:0.02082327 9:0.00987723 10:-0.0013607402 11:-0.0013127718 13:0.0063065272 14:0.021974685 15:0.0096557382 16:-7.4568525e-05 17:-0.0046381867 18:-0.0021497519 19:0.0003396293 20:0.010407861 21:-0.010416999 22:0.000279272 23:0.0036180164 24:3.7578455e-05 25:0.0058765737 27:-0.0065766731 30:-0.0037399216 31:0.0067573106 32:-0.003102737 33:-0.00015511201 34:-0.0012134833 35:0.0040442562 36:-0.0012396974 37:0.015896467 38:-0.0030676739 40:2.8975881e-05 41:0.01425108 42:-9.510808e-05 43:-0.0017330596 44:-0.0010924385 45:0.00014436162 47:0.000279272 48:0.0017497799 49:0.011632262 50:0.0091733253 51:0.0018251087 53:6.0474675e-05 54:-0.0021721688 55:0.00068761682 56:0.00038689061 57:0.011062378 59:0.00015616541 60:0.0038482274 61:0.0087564886 62:0.0030259776 64:0.001644105 65:-0.00056579348 66:-0.0057747248 68:-0.00051686174 69:-0.0049922951 70:0.0034073512 72:-0.0014270963 73:0.00302898 74:-0.0002247434 75:0.0014371077 76:0.0060568843 77:0.00059978879 79:0.0067657949 80:-0.00012213344 81:0.0027665698 82:-7.5813805e-05 83:0.0074467775 84:-0.00050355325 85:-0.0015275076 86:-0.0025135218 87:5.4667351e-05 88:-7.2152674e-05 91:0.018131169 92:0.00038634895 93:-4.7228903e-05 94:0.024984524 95:0.0019064241 96:0.014008513 97:0.0015046275 98:-0.002814973 99:0.0014938099 100:0.014273859 101:-0.0013940466 102:-0.00057212397 103:0.01332179 105:4.2694195e-05 106:-0.0008802017 108:0.0042931139 109:2.5776148e-05 112:0.00029610132 113:0.012428556 114:0.0031493888 115:0.011538709 116:-0.0041136458 117:0.00013758818 118:0.0018930533 119:0.00067172281 120:0.025474612 121:0.0027858524 122:-0.0009314426 123:0.0034967116 124:0.0035060144 126:-0.00028337192 127:0.004434763 128:0.0036400885 129:0.0036495458 130:0.013477894 133:0.0036090508 134:0.00074062689 135:-0.00024784231 136:0.0051489137 137:0.0067573106 138:0.009138844 139:-0.00083944929 140:0.010094864 142:-0.00097950851 143:0.0016665296 144:0.0023042189 145:-0.0060817222 146:-0.0023237378 147:-0.0030706848 148:0.018769838 149:-0.0014122713 150:0.0017763306 151:0.023445589 152:0.010591549 153:0.025665136 154:-0.0026618859 155:0.0037909718 158:0.0022965411 159:0.0027032092 162:0.006781863 163:-0.0034379011 164:0.023252178 165:0.0030509681 168:0.0036400885 171:0.00024064006 172:-0.00025888256 173:-0.0032090547 174:-0.0013297879 175:0.0034080762 176:0.00041074422 177:-0.0019264139 178:-0.0075985063 179:-0.0021283973 180:0.0090307659 183:-0.0040763146 185:-8.7310436e-05 186:0.011039002 187:-0.017870085 188:-0.0013810173 189:0.022702556 190:0.0012619263 192:0.0058506033 193:-0.0001256594 194:0.0017030516 196:0.0057609673 197:-0.0013268727 198:-0.00011862491 200:-0.0021485919 201:0.0016167363 202:0.023692267 203:0.0064815814 204:0.0041124872 205:0.0036291995 206:-0.0008802017 207:0.015276214 208:0.0036216266 209:0.00046305277 210:0.013693681 211:2.235749e-05 212:-0.0041740309 213:-0.0013721007 214:0.021421591 215:0.0078028985 216:0.0116399 218:0.012402048 219:0.0023063731 220:-0.012499598 221:0.0040097916 226:0.0014483557 228:6.5329314e-06 230:0.013582837 233:0.012455557 235:-0.014381943 236:0.001562504 237:0.021173446 239:-0.0004838953 241:0.019514177 242:-0.0028638656 243:-0.0083084889 244:0.0043632607 245:0.0024775574 247:0.00032254079 248:0.024267787 249:0.0065357508 250:2.248802e-05 251:4.2523414e-05 253:0.0094880126 254:-0.00096218823 255:0.011340133 256:0.024956746 257:0.0042385077 258:-0.0011526245 259:-7.4364973e-05 260:0.025290621 261:0.013285613 262:0.000279272 263:0.0042750253 265:-0.0029994235 266:0.0034700574 267:-0.0012816946 268:0.023657776 269:0.00019895032 270:0.010927425 272:0.0020221469 273:0.00067997759 275:-0.00075321866 276:0.00059675303 277:0.0022301297 278:2.6036088e-05 279:0.0019308615 280:0.023909945 281:0.00092615723 282:0.00067764177 283:0.0047524348 284:0.0066677108 285:0.0098364102 286:-0.00032302624 290:0.0031493888 291:-0.00015511201 292:0.0023936846 294:-0.00017798496 295:0.00068270136 296:-0.003320632 297:0.0012015031 298:-0.00057654775 299:-0.001539611 300:0.0030757743 302:0.0043724538 303:-0.0013835676 304:0.0094614057 305:-0.0024333787 306:0.0024692554 307:0.00030122889 308:0.0058765737 309:0.0018046841 310:0.0013716624 311:0.00038520517 312:0.013899283 313:-0.00055395666 314:0.0030461461 315:0.0036841345 316:4.2523414e-05 317:0.0055216141 318:0.00024089395 319:5.4667351e-05 322:0.002021929 323:0.001664416 324:-0.00050015649 325:0.0097957505 326:0.0078014135 327:-0.0020009854 328:0.0046047415 329:-0.0060579241 330:0.0054962179 332:0.013278347 334:0.0002835941 335:0.024934856 336:-6.0500141e-05 337:-0.00029002846 338:-0.00079104915 340:4.2523414e-05 341:-0.0074785016 342:0.012951354 343:0.0020623768 345:0.022380795 346:0.0031305614 347:-0.00051324436 348:0.0011810518 349:-0.0009046793 350:-0.0020614234 351:0.0031739133 352:6.7415596e-05 354:0.000279272 355:0.010829022 356:0.0021960614 357:0.0014546372 358:0.00023810672 359:0.0046474035 360:0.0047933711 361:-0.00012205193 362:0.014341062 363:0.0033211752 365:0.018277436 366:0.023521334 368:0.016585773 369:-0.00012314359 371:0.017788829 372:0.014264734 373:-0.0010842411 375:0.0058765737 376:0.017864224 379:0.024402102 380:0.026958721 381:0.013196129 382:-0.0020227549 383:0.0083456775 384:-0.0024333787 385:0.0007155459 386:-0.0029905094 387:-0.0088587729 388:3.7146263e-05 389:-0.0027403671 390:0.0067912461 392:-0.0008802017 394:0.0017205855 395:0.0039428542 396:0.02270807 397:0.0081849732 398:-7.6938959e-05 399:-0.0065556294 400:0.0031426963 401:3.7146263e-05 402:-0.0032904919 403:0.0015970594 404:0.0018441065 405:0.0035671857 406:0.0028308728 407:2.1299733e-05 408:0.012854084 409:0.0030009467 410:0.013545628 411:0.0067287399 413:-0.00078191829 415:-0.0031697548 416:0.0014890601 417:-0.001070468 418:-0.0090739522 419:0.011511944 420:-0.0013696054 421:0.00039748693 422:4.3164746e-05 423:3.7146263e-05 424:-1.9234742e-05 425:6.5329314e-06 426:0.021820577 427:0.0049730483 428:-0.0093830479 429:0.0022862169 431:0.00040932378 432:0.0038255453 433:0.00052252843 434:-8.0175436e-05 435:0.0080513787 436:0.0022456197 437:-0.0015347665 438:-0.0016618966 439:-0.0010380306 442:0.0020893547 443:0.00013116203 444:0.013805847 445:-0.0025117125 446:0.0060185771 448:4.2523414e-05 449:0.0016622905 450:0.0010838455 451:-0.012909067 452:-0.00048564395 453:0.010402346 454:-0.0020926292 455:5.4667351e-05 457:0.013899283 458:-0.00051838142 459:0.0036487065 461:0.023978842 462:0.0015420888 463:0.0058553643 464:0.00051308796 467:-0.0012204685 469:5.4667351e-05 470:0.0017105535 471:-0.00011597179 473:0.0007612168 474:-0.001844105 476:-0.0025109383 477:0.013034117 478:0.00013758818 479:0.00013758818 480:-0.00010182671 481:-0.00020244734 483:0.00062624906 484:0.0206271 485:0.0046276976 486:0.0010445955 487:-0.00250279 490:-0.0028710095 491:0.0033170977 492:0.0070839077 493:0.00013758818 494:0.0070839077 495:0.0030500148 496:0.0032244958 497:0.011812798 498:0.0022894258 499:-0.0033215249 500:0.00040554177 503:0.021026351 504:-0.019339906 505:-0.012666071 506:-0.00091914227 508:0.00095257646 509:0.0062497794 510:0.0080350181 511:0.013642586 513:-0.002159938 515:0.00023024483 517:6.5329314e-06 518:0.00075416395 520:0.013945648 521:0.0055909101 522:0.0043482804 523:0.0003518103 524:0.0023363947 526:-0.0024934474 527:0.00067284249 528:-8.7810433e-05 530:0.0043526758 531:0.00041133538 533:0.0055847596 534:0.012928254 535:-0.002153941 536:0.0080487598 538:-0.0035569803 540:-0.00069149659 541:-0.00010077856 542:0.0007999721 543:0.012128466 545:-0.018781945 549:1.4260955e-05 551:2.8980232e-05 552:4.2674987e-05 553:0.018865691 554:0.00040554177 555:-0.00015511201 556:0.016410548 558:-0.0013632938 559:0.0058765737 560:0.0063792164 561:0.001666213 562:0.023192614 564:-0.00075991778 565:0.0017205855 567:-0.00035946345 568:0.0046818433 569:0.00068311481 570:-0.0010021871 571:-0.0013571775 572:0.0011118815 573:-0.00036122237 574:-6.2248044e-05 575:0.0024707173 576:5.572693e-05 577:0.00012357491 578:0.0043437495 579:0.00073038106 580:-0.001171817 581:0.0056463932 582:0.020740211 583:0.0023696485 584:-0.00098783651 585:-0.0035222645 586:-0.00051324436 587:0.002579628 588:0.00016040125 589:0.0022894258 591:3.7146263e-05 592:-0.00065035216 594:0.010106301 595:0.019828808 596:-0.011559873 597:-0.00075217016 599:0.025195805 600:0.0035269342 601:0.0028112391 602:0.0021948842 604:0.024652984 605:0.023673106 606:-0.00066071009 607:-0.0013356284 609:0.0024631035 610:0.0004265063 611:0.0072151651 613:0.00068181276 614:0.012271122 616:0.0025135602 617:-0.00015995336 619:0.0010091788 620:0.011441444 622:0.025290621 623:0.0015178963 625:-7.0284499e-05 626:0.00061919505 627:-0.019459927 628:0.0026224302 629:-0.0008802017 631:0.0055411132 632:6.6285747e-06 634:0.0017458478 637:0.0056661414 638:0.021542687 640:-0.0025932414 641:-0.0026497873 642:0.0038021829 643:0.013323171 644:-0.0026093903 646:0.0020690199 649:0.023642888 650:0.0036395167 651:0.0042585158 652:0.0014292765 653:0.0036012109 654:0.0018836651 655:0.013085092 656:0.0022916491 657:0.0038825881 658:0.00076956535 659:0.024771253 660:-0.00056107185 661:0.001446183 662:0.00014129763 663:-0.00079089409 665:-0.0045090336 666:0.0015706983 667:1.617001e-05 668:0.0099854125 670:-0.0026715468 671:0.0024473881 673:-0.002118736 674:-0.00066103443 675:-0.017639028 676:0.0016665717 677:0.0041122925 678:0.0016665296 679:0.00091912859 680:-0.00017356245 681:-0.00015511201 682:0.00161265 684:-3.89909e-05 686:-0.00012698412 687:-0.00087454187 688:6.5329314e-06 689:-0.00058155973 691:-0.00114662 692:0.0079586403 693:-0.0021516848 694:-0.0042918371 695:-0.0032840655 696:0.00068246661 697:-0.0001971876 698:-0.0041196225 699:0.01355682 700:0.0021476462 #
