SVM-light Version V6.20
0 # kernel type
3 # kernel parameter -d 
1 # kernel parameter -g 
1 # kernel parameter -s 
1 # kernel parameter -r 
empty# kernel parameter -u 
701 # highest feature index 
4 # number of training documents 
2 # number of support vectors plus 1 
0 # threshold b, each following line is a SV (starting with alpha*y)
1 1:0.0051724268 2:0.00050548185 3:0.016650705 4:0.0089540463 5:0.00084018707 6:0.02244786 7:0.0099402443 8:0.026700027 9:0.012553752 10:-0.00047813664 11:0.0062400484 13:0.0084001776 14:0.026922951 15:0.012337656 16:-0.00011384513 17:-0.0046896092 18:4.5472058e-05 19:-6.0737668e-05 20:0.016064959 21:-0.012256771 22:-4.8409866e-12 23:0.0038225905 24:6.090822e-05 25:0.0077357348 27:-0.0058096834 30:0.0057406281 31:0.0091459397 32:0.0024989576 33:-0.00012788437 34:-0.00062678405 35:0.0027133697 36:-0.00097937731 37:0.018340828 38:-0.002886846 40:0.00018266983 41:0.017970424 42:-0.0001634217 43:0.0064223348 44:-0.00078551011 45:0.0019204291 47:-4.8409866e-12 48:0.0022729943 49:0.01485341 50:0.0066473372 51:0.0014953533 54:-0.00015271595 55:0.0010332604 56:0.00075763295 57:0.0085536018 59:-0.00026869259 60:0.0074872687 61:0.0094199898 62:0.0034435696 64:0.0039796997 65:-0.00049872661 66:-0.00024178885 68:-0.00081752311 69:0.0016878829 70:0.0030079782 72:-0.0001342649 73:0.0062273638 74:0.0040294086 75:0.00076430565 76:0.0051343944 77:0.00049455604 79:0.0091377189 80:-0.00052687759 81:0.0083601661 82:-0.00011339584 83:0.0086439392 84:-0.00080594269 85:0.0062780506 86:0.00013693004 87:-1.9822943e-05 88:-0.00011139156 91:0.019692106 92:0.00076461671 93:-3.043594e-05 94:0.023805961 95:0.0021814918 96:0.017438859 97:0.0022064019 98:0.00030342312 99:0.0014673145 100:0.019485837 101:0.0057705473 102:-0.00050218572 103:0.017051145 105:7.1061724e-05 106:-0.00060303928 108:0.0046408935 109:3.6311027e-05 112:0.00094299985 113:0.01127518 114:0.0089712627 115:0.014876447 116:0.0021527202 117:-4.3574619e-05 118:0.0046973573 119:0.0067456746 120:0.028057206 121:0.00300834 122:0.0028803132 123:0.0041945386 124:0.00799351 126:0.0049700085 127:0.0062592737 128:0.0038491739 129:0.0083990274 130:0.011846989 133:0.0073982328 134:0.0046851635 135:0.00048973714 136:0.0062861703 137:0.0091459397 138:0.010165232 139:0.00070369436 140:0.0050579421 142:-0.00067524309 143:0.0020276066 144:0.0030401326 145:-0.00033045645 146:0.0008550816 147:0.0013487753 148:0.025888715 149:0.0048570689 150:0.0078415265 151:0.026131012 152:0.015517564 153:0.029559501 154:0.0055396189 155:0.0039427783 158:0.0062011462 159:0.0043904977 162:0.0085811028 163:-0.0011631701 164:0.026151566 165:0.0080423132 168:0.0038491739 171:-0.00038123823 172:0.0019722157 173:0.0037361949 174:-0.00045102023 175:-0.0068869884 176:0.0059287739 177:0.0022921932 178:-0.012773348 179:0.00570531 180:0.010059198 183:0.0023691757 185:-0.00078034139 186:0.016426774 187:-0.016164726 188:0.00038948664 189:0.027175341 190:-0.0033035334 192:0.0060585914 193:-0.00018275654 194:0.0063356841 196:0.0088139279 197:-0.000480508 198:-0.00052421162 200:-0.00044382617 201:0.006394736 202:0.024443474 203:0.0088507347 204:0.0046305517 205:0.0038226852 206:-0.00060303928 207:0.019106971 208:0.003964413 209:0.0010581909 210:0.011832689 211:7.1021917e-05 212:-0.00017982323 213:-0.00012054874 214:0.02094445 215:0.011524958 216:0.0090055075 218:0.011488408 219:0.0026969903 220:-0.015267307 221:0.0044998094 226:0.00077845715 228:6.0150462e-05 230:0.010801941 233:0.0098859696 235:-0.0087188873 236:0.0018090956 237:0.022363717 239:-0.00012424494 241:0.016147858 242:0.00090828561 243:0.00011266067 244:-0.0049458966 245:0.0068416088 247:0.0030432271 248:0.027612407 249:0.0085652778 250:5.7474617e-06 251:7.0777467e-05 253:0.010950569 254:-0.0015492343 255:0.014322478 256:0.028062414 257:-0.005369165 258:-0.0012678829 259:0.00010387493 260:0.027888129 261:0.018186223 262:-4.8409866e-12 263:0.012193333 265:0.00019442989 266:0.0046459497 267:-0.00054933073 268:0.026837321 269:0.0001765418 270:0.013851707 272:-0.00090065837 273:0.00061543979 275:2.8737055e-05 276:0.0019232472 277:-0.0068848366 278:3.6699479e-05 279:0.0048446413 280:0.028663892 281:0.0022534758 282:0.00064804486 283:0.011724461 284:0.009096154 285:0.010382546 286:-0.00018044619 290:0.0089712627 291:-0.00012788437 292:0.0027708004 294:0.00019979145 295:0.0006154204 296:0.0028793176 297:0.0043506976 298:-0.00044211655 299:-0.00015119978 300:0.003112383 302:0.0054342733 303:-0.00013350834 304:0.0058673923 305:-0.0047549666 306:0.0023153261 307:-2.6193367e-08 308:0.0077357348 309:0.0069626505 310:0.0074882824 311:0.00076883507 312:0.017321991 313:-0.00048570946 314:0.0026746253 315:0.004303921 316:7.0777467e-05 317:0.010965823 318:-7.0736955e-05 319:-1.9822943e-05 322:0.0053336159 323:0.0020232883 324:-0.0002822059 325:0.012772781 326:0.0081814649 327:0.0043696743 328:0.0073350179 329:-0.00032933505 330:0.010953516 332:0.012348877 334:9.2119153e-05 335:0.027807333 336:3.0102647e-05 337:9.960715e-06 338:3.6935653e-05 340:7.0777467e-05 341:-0.00013287217 342:0.016311996 343:0.0010782254 345:0.028708886 346:0.0080007277 347:-0.0028704866 348:0.0018535625 349:0.0029394904 350:0.00085410511 351:0.0087734936 352:7.4023577e-05 354:-4.8409866e-12 355:0.01573286 356:0.0036974428 357:0.00076354615 358:5.1522748e-05 359:-0.00092616456 360:0.0071965093 361:-0.00052667921 362:0.019026486 363:0.0088836681 365:0.022591781 366:0.027208654 368:0.018100373 369:-0.0005235073 371:0.023174124 372:0.017628618 373:-0.0007573613 375:0.0077357348 376:0.020660875 379:0.026523532 380:0.026449313 381:0.011000155 382:0.0013064247 383:0.01159595 384:-0.0047549666 385:0.0062182695 386:0.0043668021 387:-0.010899419 388:6.0207713e-05 389:0.0024498985 390:0.0091171069 392:-0.00060303928 394:0.0019392984 395:-0.002786695 396:0.024361692 397:0.0087488797 398:-0.00011415115 399:-0.0067944787 400:0.0087323524 401:6.0207713e-05 402:0.0013140521 403:0.001820872 404:0.0055283601 405:0.0085997973 406:0.0039159385 407:-0.0046615759 408:0.01834142 409:0.0061878865 410:0.018894212 411:0.0059497873 413:2.6758176e-05 415:0.0033117768 416:0.0021147043 417:-0.00076697016 418:-0.0061137569 419:0.014847375 420:-0.00012997095 421:0.0046016495 422:7.1049639e-05 423:6.0207713e-05 424:0.00015729353 425:6.0150462e-05 426:0.01999338 427:0.005437044 428:-0.007155478 429:0.0048004077 431:0.00025197468 432:0.008934469 433:0.0039464422 434:-0.00053987483 435:0.0092179831 436:0.0026904459 437:0.0019146032 438:0.0042313272 439:-0.00078108063 442:0.005068087 443:0.00010652732 444:0.018598627 445:0.0039235274 446:0.005566827 448:7.0777467e-05 449:0.0020288185 450:0.0052638911 451:-0.0092014261 452:-0.002152289 453:0.011887952 454:1.1061785e-05 455:-1.9822943e-05 457:0.017321991 458:0.00035998118 459:-0.0013376207 461:0.026490606 462:0.0018407587 463:0.0058638374 464:0.00018612677 467:-0.00039770937 469:-1.9822943e-05 470:0.0023461382 471:-0.00024546366 473:0.0021389981 474:0.0028806126 476:0.0040017455 477:0.018012451 478:-4.3574619e-05 479:-4.3574619e-05 480:0.0030929216 481:6.9050788e-05 483:0.00053679832 484:0.021113258 485:0.01214899 486:0.0026820451 487:0.00016200138 490:0.0027665929 491:0.0046189888 492:0.012161254 493:-4.3574619e-05 494:0.012161254 495:-0.006683839 496:0.011321856 497:0.017329955 498:0.0048721437 499:-0.0016838018 500:0.00078771182 503:0.026135987 504:-0.014451483 505:-0.005641141 506:0.00018248266 508:0.0056141992 509:0.0083361771 510:0.0067914873 511:0.017339958 513:0.0046923743 515:0.0014914065 517:6.0150462e-05 518:0.00061019929 520:0.013888427 521:0.011086158 522:0.0049635763 523:0.0004214173 524:0.0026732117 526:-0.0018490613 527:-0.0073685669 528:-0.00015786377 530:0.0049698907 531:0.00078741292 533:0.0061372682 534:0.018451266 535:0.0017930685 536:0.0058622058 538:0.0008122811 540:0.0025797111 541:0.0013722919 542:0.0056756949 543:0.01349045 545:-0.021607732 549:-1.6091321e-05 551:0.00018269726 552:7.1029746e-05 553:0.023319216 554:0.00078771182 555:-0.00012788437 556:0.018090269 558:0.0041811299 559:0.0077357348 560:0.008506597 561:0.0020216149 562:0.027995624 564:3.3339718e-05 565:0.0019392984 567:-0.00048026521 568:0.0094860271 569:0.00061285612 570:0.00327258 571:-0.00047262243 572:0.0015932826 573:-0.00048260976 574:0.0020706595 575:0.0034377149 576:-2.0507914e-05 577:2.7242331e-05 578:0.0052121347 579:0.0038350183 580:-0.0010434403 581:0.0061783893 582:0.021475172 583:0.002773291 584:-0.00074613671 585:0.00071442628 586:-0.0028704866 587:0.0061752554 588:-5.065665e-05 589:0.0048721437 591:6.0207713e-05 592:0.00037956666 594:0.0069280281 595:0.021600209 596:-0.010906748 597:-0.00044617159 599:0.025026154 600:0.010492108 601:0.0031925356 602:0.0002851031 604:0.027758121 605:0.027264265 606:0.0068332148 607:0.0021871417 609:0.00098940171 610:0.00037521773 611:0.0088344784 613:0.00061185 614:0.017178221 616:0.0037092736 617:-0.00013188823 619:0.0023893237 620:0.01753162 622:0.027888129 623:0.0021862946 625:-0.0001101458 626:0.00014788489 627:-0.020309696 628:0.0028877014 629:-0.00060303928 631:0.011056439 632:6.0919287e-05 634:0.0019511814 637:0.0054024477 638:0.021094061 640:0.0011638731 641:0.0043106829 642:0.0066879792 643:0.016932156 644:0.0023745345 646:0.005199451 649:0.022797858 650:0.00384884 651:0.0122139 652:0.0055257617 653:0.0038055319 654:0.0026412299 655:0.010548549 656:0.0043419581 657:0.0045173196 658:0.0021480741 659:0.025567377 660:-0.00048651639 661:0.00077298528 662:-0.00015102261 663:3.794222e-05 665:0.00091776974 666:0.0017731364 667:-4.975409e-05 668:0.0077694501 670:-0.0024774796 671:-0.00022648487 673:-0.0051346533 674:0.0010129794 675:-0.010809077 676:0.00202692 677:0.0063879518 678:0.0020276066 679:0.00067150849 680:-3.0296971e-05 681:-0.00012788437 682:0.0043328102 684:-3.0385281e-05 686:-0.00018187026 687:-0.0005086452 688:6.0150462e-05 689:-0.00050850882 691:-0.00080850162 692:0.0085549988 693:0.0047571347 694:0.0012523677 695:-0.0011924624 696:0.001020251 697:-0.00021414572 698:0.00098394183 699:0.012726039 700:0.0049033444 #
