SVM-light Version V6.20
0 # kernel type
3 # kernel parameter -d 
1 # kernel parameter -g 
1 # kernel parameter -s 
1 # kernel parameter -r 
empty# kernel parameter -u 
701 # highest feature index 
7 # number of training documents 
2 # number of support vectors plus 1 
0 # threshold b, each following line is a SV (starting with alpha*y)
1 1:0.0064212969 2:0.00089697161 3:0.014243571 4:0.009401802 5:0.0011323772 6:0.026927849 7:0.013396287 8:0.03262959 9:0.012460323 10:-0.00065855804 11:0.0054152729 13:0.011087318 14:0.030613298 15:0.012154766 16:0.00056997762 17:-0.0081848996 18:-0.0010644307 19:0.00031121849 20:0.01361231 21:-0.015773287 22:0.00023133602 23:0.0039593871 24:4.0735089e-05 25:0.010318475 27:-0.0097005488 30:0.0037152441 31:0.0094095245 32:-0.0022518032 33:-0.00021894817 34:-0.0018723697 35:0.0037529217 36:-0.00285831 37:0.023385264 38:-0.0030332091 40:0.00020637795 41:0.019748462 42:0.00061852811 43:0.0050548096 44:-0.0019651384 45:0.0028610784 47:0.00023133602 48:0.00066385849 49:0.014498772 50:0.0082841497 51:0.0031979932 54:-0.001174718 55:0.0035720316 56:0.0012356632 57:0.018798845 59:0.00020064368 60:0.007288272 61:0.0076007759 62:0.0038718469 64:0.005268577 65:0.00012811735 66:-0.001901664 68:0.00051990408 69:0.0021278008 70:0.0071938764 72:-0.0031281887 73:0.0048551713 74:0.0024786908 75:0.00074229797 76:0.0078868428 77:-0.00064947846 79:0.0094215255 80:-0.00034574073 81:0.0085312305 82:0.00056174805 83:0.010202679 84:0.00050865888 85:0.0040981541 86:-0.0011366393 87:-5.7709523e-05 88:0.00056949782 91:0.023517286 92:0.0012309717 93:-7.6334778e-05 94:0.030360669 95:0.0036736131 96:0.018069698 97:0.00098126277 98:-0.0024728305 99:0.0020715627 100:0.01900306 101:0.0043727751 102:0.00011416278 103:0.017591266 105:9.5434356e-05 106:0.00033713583 108:0.0093695484 109:-2.5502173e-05 112:0.00040326978 113:0.012044946 114:0.011264146 115:0.015705323 116:-0.0032264688 117:-0.00014980852 118:0.0033016107 119:0.006750559 120:0.034351602 121:0.0029881345 122:0.0023760614 123:0.0085765347 124:0.010066918 126:0.0050020809 127:0.0076197963 128:0.0039733122 129:0.011271501 130:0.014439955 133:0.0096073113 134:0.005854853 135:-0.00085873867 136:0.0091800243 137:0.0094095245 138:0.012041324 139:0.00030857328 140:0.0054361946 142:0.00058134104 143:0.0010846835 144:0.0036959732 145:-0.0069263661 146:0.00019263134 147:0.00022853648 148:0.028352154 149:0.0042409594 150:0.0078813089 151:0.031643607 152:0.013468676 153:0.035551645 154:0.0041051623 155:0.0047690128 158:0.0045503704 159:0.007740621 162:0.0069869761 163:-0.0037157163 164:0.030545799 165:0.009226243 168:0.0039733122 171:-0.00023022495 172:0.0025824986 173:0.0039531463 174:-0.00076763442 175:-0.0077159223 176:0.0071656383 177:0.0017976904 178:-0.012987965 179:0.0043476471 180:0.011888296 183:-0.0033345066 185:-0.0003903773 186:0.014046933 187:-0.017828228 188:-0.00019548941 189:0.031182861 190:-0.0025752308 192:0.0073052309 193:0.00059800659 194:0.0079052746 196:0.0090151737 197:-0.0007040957 198:-0.00033584551 200:-0.0013611487 201:0.0075329165 202:0.031417057 203:0.0091053853 204:0.0041042459 205:0.0039953156 206:0.00033713583 207:0.020350223 208:0.0050829547 209:0.0011420265 210:0.014701658 211:-3.1172276e-05 212:-0.0022483349 213:-0.003113253 214:0.026238319 215:0.014145018 216:0.019706821 218:0.012209272 219:0.0029247196 220:-0.025511954 221:0.0040132958 226:0.00077370519 228:-3.0800784e-05 230:0.014905762 233:0.013701152 235:-0.014299003 236:0.0031082151 237:0.026355907 239:0.00010598121 241:0.022085341 242:0.00034593488 243:-0.0034548831 244:-0.0044488064 245:0.0073269047 247:0.0031012695 248:0.03312593 249:0.011413665 250:5.8688991e-05 251:9.5052608e-05 253:0.013198047 254:-0.0016058851 255:0.014748026 256:0.033487376 257:-0.00552567 258:-0.0022762753 259:0.00011329855 260:0.034058891 261:0.017510271 262:0.00023133602 263:0.011891621 265:-0.0026690171 266:0.0076550352 267:-0.0025838234 268:0.031709131 269:0.00044864279 270:0.014169313 272:-0.00045202809 273:0.00013488095 275:0.00020487797 276:0.0029310063 277:-0.0078495461 278:-2.5747342e-05 279:0.003457834 280:0.033336442 281:0.0006034064 282:-0.00064358854 283:0.011522211 284:0.0093524326 285:0.010995876 286:-0.00033670713 290:0.011264146 291:-0.00021894817 292:0.003005978 294:0.00036723347 295:0.00013425776 296:-0.0020491951 297:0.0048240367 298:-0.00099161523 299:-0.0036873387 300:0.0063526486 302:0.0079241544 303:-0.0031286976 304:0.0062279482 305:-0.0048933951 306:0.0027569116 307:0.00024979061 308:0.010318475 309:0.0071688942 310:0.0088651897 311:0.0012403013 312:0.017915983 313:0.00011796194 314:0.0042507551 315:0.0035516424 316:9.5052608e-05 317:0.013285791 318:-3.7584032e-05 319:-5.7709523e-05 322:0.0036958016 323:0.0010841065 324:-0.00066773588 325:0.017825253 326:0.0088733034 327:0.003182675 328:0.0055906172 329:-0.0022211804 330:0.013243683 332:0.016064648 334:-8.8001711e-05 335:0.033102639 336:-5.2383239e-05 337:-0.00072860549 338:0.0002395417 340:9.5052608e-05 341:-0.0030934706 342:0.016452683 343:0.001795464 345:0.03481983 346:0.0092374263 347:-0.0029281294 348:0.0035167865 349:0.0043992526 350:0.00049666298 351:0.0091774203 352:9.6021373e-05 354:0.00023133602 355:0.013544693 356:0.0060224556 357:0.00078703417 358:0.00046235326 359:0.0020256052 360:0.0085775834 361:-0.00034574745 362:0.018803982 363:0.0027828 365:0.02583926 366:0.0331323 368:0.022800289 369:-0.00034061185 371:0.024672529 372:0.018464465 373:-0.0020169429 375:0.010318475 376:0.026912784 379:0.03345361 380:0.034280542 381:0.013140104 382:0.0017399023 383:0.016536741 384:-0.0048933951 385:0.0092709539 386:0.0047846562 387:-0.011754383 388:4.026659e-05 389:-0.0019394712 390:0.0095186103 392:0.00033713583 394:0.0032918027 395:-0.0032947459 396:0.03033117 397:0.0092309359 398:0.00056115258 399:-0.011507126 400:0.011024443 401:4.026659e-05 402:-0.0024509642 403:0.0031484398 404:0.0038002795 405:0.0092043281 406:0.0069685676 407:-0.0040195915 408:0.016965793 409:0.0048381365 410:0.01805903 411:0.0085851504 413:0.00019512148 415:0.0030232696 416:0.0012413806 417:-0.0019413925 418:-0.013917889 419:0.01567035 420:-0.0031046078 421:0.0058868695 422:5.1331397e-05 423:4.026659e-05 424:0.00020174161 425:-3.0800784e-05 426:0.02689092 427:0.0074828332 428:-0.013670058 429:0.0063330517 431:0.00082797551 432:0.0030698532 433:0.0042853612 434:0.00017394035 435:0.01112536 436:0.0032214287 437:0.0014585482 438:0.0026148069 439:-0.001985742 442:0.0073034693 443:0.00020901579 444:0.01818274 445:0.0029657469 446:0.0074043046 448:9.5052608e-05 449:0.001078676 450:0.005432494 451:-0.018940026 452:-0.0023678038 453:0.013115012 454:-0.0010655841 455:-5.7709523e-05 457:0.017915983 458:-0.0013448485 459:-0.0031144856 461:0.032266591 462:0.0025790541 463:0.0097433571 464:-6.8834292e-05 467:-0.00059887051 469:-5.7709523e-05 470:0.0030164304 471:-0.0014658873 473:0.00037964966 474:0.0023809443 476:0.0030574964 477:0.017022191 478:-0.00014980852 479:-0.00014980852 480:0.0045518982 481:-9.2837057e-05 483:-0.00051443535 484:0.025135186 485:0.011829468 486:0.0042047077 487:-0.0010956934 490:-0.0021910425 491:0.0075295866 492:0.014554456 493:-0.00014980852 494:0.014554456 495:-0.0080270907 496:0.010576043 497:0.015528656 498:0.0063762902 499:-0.0025410694 500:0.0012578841 503:0.029157529 504:-0.021510962 505:-0.010063964 506:-0.0021088861 508:0.0055276924 509:0.011149785 510:0.0080248453 511:0.018060986 513:0.0027843344 515:0.0026193582 517:-3.0800784e-05 518:-0.00051846565 520:0.014427995 521:0.013354397 522:0.0050417394 523:0.00077228132 524:0.0029298957 526:-0.00224434 527:-0.0069429837 528:0.00066519663 530:0.0050464734 531:0.0012579621 533:0.010855143 534:0.017321447 535:0.0021390568 536:0.0072724586 538:-0.00038945116 540:0.0025558795 541:0.0021721825 542:0.0059458204 543:0.013535201 545:-0.033529274 549:5.6112481e-06 551:0.00020640891 552:9.5391413e-05 553:0.026750438 554:0.0012578841 555:-0.00021894817 556:0.021129483 558:0.0027733566 559:0.010318475 560:0.011217578 561:0.0010881581 562:0.03219445 564:0.00022323208 565:0.0032918027 567:-0.00063393975 568:0.0094120987 569:0.00012951602 570:0.0031752079 571:-0.00064792001 572:0.002871525 573:-0.0006370343 574:0.0027680073 575:0.00430363 576:-5.933932e-05 577:0.00013978977 578:0.0091732536 579:0.005389729 580:-0.0015555042 581:0.0073730978 582:0.026170177 583:0.0030201506 584:0.00054615736 585:-0.0021462932 586:-0.0029281294 587:0.0047500525 588:-0.000173685 589:0.0063762902 591:4.026659e-05 592:0.00040229186 594:0.012079263 595:0.028662546 596:-0.018565169 597:0.00052090472 599:0.031560808 600:0.0097251413 601:0.0062623988 602:0.00077925465 604:0.033565536 605:0.032743029 606:0.0092679895 607:0.0021198399 609:0.0017873853 610:0.00050655863 611:0.0074775205 613:0.00012878611 614:0.015869634 616:0.0043662097 617:-0.00022579548 619:0.00057777524 620:0.017020347 622:0.034058891 623:0.0025075797 625:0.00056816009 626:-0.0011073499 627:-0.027362475 628:0.002398289 629:0.00033713583 631:0.013276882 632:-3.1184754e-05 634:0.0033097384 637:0.0069363429 638:0.027400292 640:0.0028011405 641:0.0032441143 642:0.0090717543 643:0.017438525 644:-0.0018267571 646:0.003408741 649:0.029458277 650:0.0039720358 651:0.011919328 652:0.0033614745 653:0.0039520292 654:0.0022158776 655:0.013946258 656:0.0038305444 657:0.003769492 658:0.00038673161 659:0.032967784 660:0.0001502079 661:0.00075006671 662:0.00046811899 663:0.00024144337 665:-0.00098742859 666:0.003132029 667:-0.00014527181 668:0.0091798967 670:-0.0038364348 671:-0.00095369172 673:-0.005822781 674:-0.00088706909 675:-0.01711411 676:0.0010845248 677:0.0072861305 678:0.0010846835 679:-0.00036971449 680:0.00037015098 681:-0.00021894817 682:0.0054919133 684:-4.0304916e-05 686:0.00059447688 687:-0.0021474382 688:-3.0800784e-05 689:0.00010602735 691:-0.0020303868 692:0.0089199739 693:0.0028303082 694:-0.0017118823 695:-0.00057463511 696:0.00096295995 697:-0.00022856778 698:-0.0040594088 699:0.018886331 700:0.0064410721 #
