SVM-light Version V6.20
0 # kernel type
3 # kernel parameter -d 
1 # kernel parameter -g 
1 # kernel parameter -s 
1 # kernel parameter -r 
empty# kernel parameter -u 
701 # highest feature index 
5 # number of training documents 
2 # number of support vectors plus 1 
0 # threshold b, each following line is a SV (starting with alpha*y)
1 1:0.0073487693 2:6.0990544e-05 3:0.018943874 4:0.0050701466 5:0.00024301762 6:0.024630779 7:0.005139601 8:0.039424855 9:0.011877433 10:0.0001192882 11:0.0071804267 13:0.0086571127 14:0.031148801 15:0.011624742 16:-0.0009086685 17:-0.0051051085 18:0.0011525574 19:-0.00016147531 20:0.018261787 21:-0.013053363 22:-0.00014995303 23:0.0029834383 25:0.0080500906 27:-0.0050243251 30:0.0083974581 31:0.0086899716 32:0.0039187749 34:0.00014488511 35:1.9120069e-05 36:0.0001173557 37:0.019571694 38:0.00072828849 40:-4.047004e-05 41:0.019138593 42:0.0012764225 43:0.0070279371 44:-0.0007872592 45:0.0010310764 47:-0.00014995303 48:0.0015805603 49:0.013840806 50:0.0047469437 51:0.001544201 54:0.00093171594 55:0.00041722818 56:0.0009440743 57:0.0065880259 59:-0.0002766182 60:0.011307232 61:0.011844502 62:0.0031107587 64:0.0045475722 65:-0.00073225866 66:-0.0010417576 68:-0.0011430053 69:0.0031044888 70:0.001923775 72:0.0012224282 73:0.011032785 74:0.0038050706 75:0.002254857 76:0.0048988191 77:-0.00062034599 79:0.0086626494 80:-4.3022377e-05 81:0.010760097 82:-0.00090417673 83:0.010307648 84:-0.0011303631 85:0.0089714145 86:0.0013198886 87:-0.000158102 88:-0.00090071018 91:0.020085521 92:0.00097587763 94:0.024860967 95:0.0020564939 96:0.017179243 97:0.0049362797 98:-0.00095578074 99:0.00083049439 100:0.022136075 101:0.0073698536 102:-0.00069378619 103:0.016833603 106:-0.00066515844 108:-0.00052521401 109:5.0927498e-05 112:0.0011270628 113:0.010038398 114:0.011686173 115:0.01591244 116:0.0039152629 117:-0.00020852308 118:0.0089938408 119:0.0074654692 120:0.028684393 121:0.0019193598 122:0.0035079939 123:-0.00071033894 124:0.011236305 126:0.0062845103 127:0.0068101082 128:0.0030179045 129:0.010768552 130:0.0077797789 133:0.010661563 134:0.0068164035 135:0.00052191736 136:0.0048980662 137:0.0086899716 138:0.0078206779 139:0.0014185749 140:0.0021489107 142:-0.00080143206 143:0.002659783 144:0.0045370907 145:0.00039594251 146:0.0025012479 147:0.0011477938 148:0.027183596 149:0.0051853778 150:0.010446222 151:0.026573667 152:0.016573386 153:0.030111087 154:0.0055657928 155:0.00453411 158:0.0093869353 159:0.0052155629 162:0.0069178469 163:0.00038286383 164:0.026069019 165:0.011940017 168:0.0030179045 171:-0.00028785004 172:0.00065123057 173:0.0029499759 174:0.00012565825 175:-0.007379435 176:0.0081598703 177:0.0019653528 178:-0.011503334 179:0.0088165244 180:0.0077284281 183:0.0039220848 185:-0.0010214441 186:0.018957624 187:-0.020168155 188:-0.0010346366 189:0.030091558 190:-0.0045908424 192:0.0065034577 193:0.0012891738 194:0.0080263782 196:0.0083669284 197:1.7118049e-05 198:-4.2680422e-05 200:-0.0022097521 201:0.0078967577 202:0.024720995 203:0.0081896689 204:0.0015792395 205:0.002992816 206:-0.00066515844 207:0.020942776 208:0.004190906 209:0.0010966919 210:0.0082343575 211:0.00025912578 212:-0.0010989349 213:0.0012356096 214:0.02235104 215:0.013248409 216:0.0075726728 218:0.0116008 219:0.0041709663 220:-0.025457844 221:0.0016496941 226:0.0022635835 228:0.00025603769 230:0.0057343994 233:0.0052368985 235:-0.0069233291 236:0.0015907109 237:0.0212598 239:0.00051312451 241:0.017837653 242:-0.00043036579 243:0.00058425497 244:-0.0055053397 245:0.0091855582 247:0.0036498513 248:0.028119052 249:0.0089757107 250:-1.8726081e-05 253:0.01100168 254:-0.0036534567 255:0.013479654 256:0.027922623 257:-0.0058716568 258:-0.0022062142 259:-6.3349333e-05 260:0.02854152 261:0.020041052 262:-0.00014995303 263:0.011645786 265:-0.00085690134 266:0.002922402 267:0.00058516162 268:0.02646265 269:0.00039182417 270:0.012619837 272:-0.0015925446 273:0.00078947359 275:-0.00038043223 276:0.00085569086 277:-0.0069202618 278:5.1472318e-05 279:0.0092982715 280:0.032293294 281:0.0029787456 282:-0.000842801 283:0.011588781 284:0.0084390687 285:0.0084982235 286:-0.0012627245 290:0.011686173 292:0.0042620338 294:0.00027719905 295:0.00079798279 296:0.004572019 297:0.0046668095 298:-0.00094201701 299:-8.652657e-06 300:0.0028433842 302:0.0051655117 303:0.0012290273 304:0.00026774401 305:-0.0024572802 306:4.6137189e-05 307:-0.0001618676 308:0.0080500906 309:0.011274247 310:0.0095052663 311:0.00098268711 312:0.017092403 313:-0.00068778894 314:0.0028038158 315:0.0015240158 317:0.01274895 318:-0.0002014919 319:-0.000158102 322:0.0096449722 323:0.0026512549 324:-0.00082406629 325:0.016287401 326:0.0045817387 327:0.0045910254 328:0.0077031758 329:-0.0020166584 330:0.012747546 332:0.012709458 334:0.00027532454 335:0.027832745 336:-0.00020007489 337:0.00078539056 338:-0.00036875196 341:0.0011118256 342:0.015284982 343:-0.0010440972 345:0.028314276 346:0.011835282 347:-0.0027999552 348:-1.9653027e-05 349:0.0011085282 350:-0.0012516823 351:0.010378078 352:7.5880678e-05 354:-0.00014995303 355:0.017418891 356:0.0045221355 357:0.0022130341 358:-0.00019984007 359:-0.00053876697 360:0.0080511011 361:-4.2851811e-05 362:0.021101968 363:0.010127844 365:0.024885841 366:0.026877973 368:0.017260637 369:-4.8028156e-05 371:0.026448175 372:0.016993523 373:-0.00082228897 375:0.0080500906 376:0.02123533 379:0.026449246 380:0.024763552 381:0.0086942147 382:0.0017271393 383:0.013587262 384:-0.0024572802 385:0.010132987 386:0.0048112972 387:-0.0093397293 389:0.0036844641 390:0.0084920414 392:-0.00066515844 394:0.0017133262 395:-0.0019591996 396:0.027874762 397:0.004940283 398:-0.00090626255 399:-0.0067455168 400:0.011282071 402:0.0022577362 403:0.0015310585 404:0.0082503129 405:0.011020093 406:0.0039343624 407:-0.0031629826 408:0.021292409 409:0.010949682 410:0.021444311 411:0.0049217516 413:-0.00039687863 415:0.0040052678 416:0.0028403697 417:-0.00075359142 418:-0.0031950469 419:0.015877435 420:0.0012198363 421:0.0060704793 424:-5.9441856e-05 425:0.00025603769 426:0.021039413 427:0.0049434686 428:-0.0057188543 429:0.0053624571 431:-0.00098728784 432:0.0097041186 433:0.0047215698 434:-0.00067394087 435:0.0078453803 436:0.0028606781 437:0.0017908091 438:0.0044469382 439:-0.00078155525 442:0.0045730285 443:0.00034940851 444:0.020437332 445:0.0039896811 446:0.006080288 449:0.0026581131 450:0.0050834366 451:-0.0050985343 452:-0.0050846902 453:0.010591798 454:0.0013743344 455:-0.000158102 457:0.017092403 458:0.0010081042 459:-0.0026567164 461:0.02647204 462:0.0012596771 463:0.0050622229 464:0.0027848501 467:0.00016212004 469:-0.000158102 470:0.0026539075 471:4.3003423e-05 473:0.0029079723 474:0.0031411005 476:0.0040627602 477:0.020197993 478:-0.00020852308 479:-0.00020852308 480:0.0038249886 481:-0.00068348058 483:-0.0010766023 484:0.020487631 485:0.012059147 486:0.0014806471 487:0.0013398704 490:0.0033914517 491:0.0029127854 492:0.014528222 493:-0.00020852308 494:0.014528222 495:-0.006629942 496:0.010222564 497:0.019781927 498:0.0054711606 499:-0.000160645 500:0.0010047841 503:0.028588161 504:-0.016396403 505:-0.005346586 506:-0.0010626401 508:0.0097333202 509:0.0086085396 510:0.006537097 511:0.017293865 513:0.0050088288 515:0.00097436615 517:0.00025603769 518:-0.00086545263 520:0.011625375 521:0.012987266 522:0.002213984 523:-8.0133599e-05 524:0.0041145626 526:-0.0016613133 527:-0.010735055 528:0.0012761026 530:0.0022413484 531:0.0010022224 533:-0.001301368 534:0.021099875 535:0.0024412628 536:0.0039176634 538:0.0020511388 540:0.0020389538 541:0.0012831348 542:0.0071183126 543:0.014782008 545:-0.027014649 549:-1.2480561e-05 551:-4.0476112e-05 553:0.025947003 554:0.0010047841 556:0.018531056 558:0.0043869717 559:0.0080500906 560:0.0087723434 561:0.0026472295 562:0.031395562 564:-0.00039141925 565:0.0017133262 567:-0.00049552135 568:0.0049801799 569:0.00079095573 570:0.002141393 571:0.0001262305 572:0.0010728228 573:-0.00049793819 574:0.0013148368 575:0.0049468246 576:-0.00016205343 577:2.5897087e-05 578:-0.0010145454 579:0.0036288486 580:-0.0009150909 581:0.0036108745 582:0.02490882 583:0.0043023624 584:-0.0007583641 585:0.00056794117 586:-0.0027999552 587:0.0094326697 588:-0.00024147975 589:0.0054711606 592:-0.00058768538 594:0.0022296158 595:0.023207158 596:-0.0083942404 597:-0.00028433657 599:0.027047902 600:0.0092310691 601:0.0029384897 602:-0.0016129903 604:0.028100815 605:0.027202509 606:0.0092471624 607:0.0013946347 609:-0.00037610202 610:0.00032804857 611:0.0071351384 613:0.0007893148 614:0.018838504 616:0.006987235 619:0.0031318527 620:0.01762487 622:0.02854152 623:0.0031811446 625:-0.00089553383 626:-5.2114374e-05 627:-0.021462262 628:0.0050265826 629:-0.00066515844 631:0.012897559 632:0.00025927098 634:0.0017046292 637:0.0062747523 638:0.021677401 640:0.0011718929 641:0.0042951526 642:0.0087059056 643:0.016292697 644:0.0032369329 646:0.0095172832 649:0.023142666 650:0.0030170737 651:0.01107466 652:0.0080380822 653:0.0029062326 654:0.00086923433 655:0.0059741563 656:0.0026808439 657:0.0013563441 658:0.0029243897 659:0.026028462 660:-0.00069796108 661:0.0022729628 662:-9.5159849e-05 663:-0.00036836779 665:0.00083210389 666:0.0014301438 667:-0.00080367055 668:0.0055605378 670:-0.0021588111 671:-0.0020244203 673:-0.0045860074 674:-0.0011719376 675:-0.0096113756 676:0.0026588037 677:0.0090358388 678:0.002659783 679:-0.0013779975 680:-0.00015812417 682:0.0050084544 684:-0.00024234415 686:0.001285208 687:0.0013033802 688:0.00025603769 689:-0.00069731841 691:-0.00080530404 692:0.0048419768 693:0.0050548729 694:-0.00016704325 695:-0.0029537792 696:0.00083229959 697:-0.00014143894 698:0.0011298766 699:0.014259188 700:0.0053909412 #
