SVM-light Version V6.20
0 # kernel type
3 # kernel parameter -d 
1 # kernel parameter -g 
1 # kernel parameter -s 
1 # kernel parameter -r 
empty# kernel parameter -u 
701 # highest feature index 
5 # number of training documents 
2 # number of support vectors plus 1 
0 # threshold b, each following line is a SV (starting with alpha*y)
1 1:0.0072879004 2:0.00019170564 3:0.019866027 4:0.0070226029 5:0.00073724793 6:0.024826877 7:0.007191685 8:0.036129337 9:0.012446803 10:-0.0001486651 11:0.0063728527 13:0.009223124 14:0.030327702 15:0.012273551 16:-0.0011023263 17:-0.0050025345 18:0.0009357846 19:-0.00012288328 20:0.019087901 21:-0.013032133 22:-1.6302116e-05 23:0.003998131 25:0.0085142367 27:-0.0059091356 30:0.010574167 31:0.0097418642 32:0.0041112322 33:-0.00015353397 34:-0.00047294967 35:0.0015788894 36:-0.00061646325 37:0.020164555 38:-0.0029045069 40:0.00043996918 41:0.017185032 42:0.0006425021 43:0.007217716 44:-0.00093171844 45:0.0018344739 47:-1.6302116e-05 48:0.0018023723 49:0.015098107 50:0.0051917918 51:0.0016428842 54:0.00087660842 55:0.0026688341 56:0.00063605921 57:0.0078363055 59:0.00057683169 60:0.0073708212 61:0.010067428 62:0.0038715296 64:0.0040914365 65:-0.00097085087 66:0.0011261462 68:-0.0019323564 69:0.0036293315 70:0.0012555341 72:-4.3965956e-06 73:0.0054862853 74:0.0039112773 75:0.0016453605 76:0.0055237035 77:-0.00036506527 79:0.0097369915 80:-0.00031717904 81:0.010723463 82:-0.001100066 83:0.0082345363 84:-0.0019027968 85:0.0068259616 86:0.0010501137 87:-5.1564082e-05 88:-0.0010953936 91:0.020897619 92:0.00062481762 94:0.025209179 95:0.0020134663 96:0.017857749 97:0.0030531429 98:0.00082017697 99:0.0010169022 100:0.022745948 101:0.0059516849 102:-0.00093875406 103:0.016446691 105:1.7604578e-05 106:-0.0013609251 108:0.0029461205 109:8.5728803e-05 112:0.00079160347 113:0.010490426 114:0.011066766 115:0.016413018 116:0.0039672866 117:-9.0678164e-05 118:0.0045131417 119:0.0089701349 120:0.029039903 121:0.0025845657 122:0.0040938114 123:0.0026067996 124:0.0090796705 126:0.006847728 127:0.0066790851 128:0.0040197386 129:0.0083349524 130:0.0096755391 133:0.0077211731 134:0.0065632407 135:0.00013921372 136:0.0050913556 137:0.0097418642 138:0.0099261906 139:0.00081845408 140:0.0034385484 142:-0.0015586062 143:0.0023367628 144:0.0031554075 145:0.00069536822 146:0.0014552177 147:0.0013003178 148:0.028546438 149:0.0047350363 150:0.010473881 151:0.026459537 152:0.017804645 153:0.029918196 154:0.0068088495 155:0.0043396642 158:0.0059096054 159:0.003902314 162:0.0081953229 163:0.00076900265 164:0.027330466 165:0.0096088853 168:0.0040197386 171:6.341705e-05 172:0.0007581418 173:0.0057259602 174:-0.00012455636 175:-0.0098237125 176:0.0076180156 177:0.0030456018 178:-0.013144356 179:0.011842403 180:0.0098276958 183:0.0041319011 185:-0.0010685624 186:0.019522455 187:-0.018380517 188:0.0004340306 189:0.029887879 190:-0.0025441241 192:0.0064314599 193:0.00061422831 194:0.0077716424 196:0.0095638772 197:-0.00018039574 198:-0.00031491637 200:-0.0002654797 201:0.0080365539 202:0.025754593 203:0.0094410153 204:0.0033129454 205:0.0039923186 206:-0.0013609251 207:0.020905869 208:0.0041134339 209:0.00097821816 210:0.010170051 211:0.00017594718 212:0.00017271789 213:2.6842992e-05 214:0.022398403 215:0.013202799 216:0.0082445452 218:0.010946762 219:0.0017130001 220:-0.01834368 221:0.0032910651 226:0.0016594168 228:0.00017385036 230:0.007881036 233:0.0071062194 235:-0.0069246511 236:0.0026253131 237:0.022768436 239:0.00024780937 241:0.017737681 242:0.00017731862 243:0.0024288597 244:-0.0069088251 245:0.0071837218 247:0.0029722131 248:0.028302144 249:0.00944045 250:2.5629404e-06 251:1.7534157e-05 253:0.010646548 254:-0.0013865175 255:0.014497046 256:0.029191537 257:-0.0079962863 258:-0.0011243778 259:4.878662e-05 260:0.028850183 261:0.020888172 262:-1.6302116e-05 263:0.010183167 265:0.00084483711 266:0.0022709162 267:-0.00043307466 268:0.027875526 269:0.00014995859 270:0.014036524 272:-0.0015403334 273:0.00048843509 275:-0.00020249134 276:-0.00039046927 277:-0.0098828645 278:8.664593e-05 279:0.0046544136 280:0.03157679 281:0.0021786846 282:-0.00015006073 283:0.01056028 284:0.0096326889 285:0.010176524 286:-0.00050481351 290:0.011066766 291:-0.00015353397 292:0.0018146989 294:0.00016926124 295:0.00049555837 296:0.0046902467 297:0.0063607949 298:-0.00045261759 299:-0.0007991785 300:0.0017544669 302:0.0051212423 303:1.3602824e-05 304:0.0049191792 305:-0.0045701149 306:0.0011965034 307:-1.7667444e-05 308:0.0085142367 309:0.0087870602 310:0.0094568115 311:0.00063125021 312:0.017701985 313:-0.00091839314 314:0.0028147704 315:0.0033442178 316:1.7534157e-05 317:0.013246026 318:-0.00019284418 319:-5.1564082e-05 322:0.0052228826 323:0.0023319458 324:-0.0001043229 325:0.013746087 326:0.0061540063 327:0.0053746281 328:0.0073500704 329:0.00072597712 330:0.013235477 332:0.012949681 334:5.2059811e-05 335:0.029006697 336:-0.00029581497 337:0.00020948258 338:-0.00019058274 340:1.7534157e-05 341:0.0022388743 342:0.015310272 343:4.6300334e-05 345:0.029697914 346:0.0095409211 347:-0.0026027444 348:-0.00020683103 349:0.0039138952 350:0.000219669 351:0.011159859 352:8.296797e-05 354:-1.6302116e-05 355:0.018230541 356:0.0023337211 357:0.001622921 358:-6.8634501e-05 359:-0.0025098359 360:0.007987787 361:-0.00031669647 362:0.021737339 363:0.011269638 365:0.025184598 366:0.027789088 368:0.018151464 369:-0.00031921882 371:0.026048532 372:0.017953467 373:-0.00089671509 375:0.0085142367 376:0.02058172 379:0.027739635 380:0.027646093 381:0.0098726368 382:0.002056173 383:0.012613225 384:-0.0045701149 385:0.010531044 386:0.005934108 387:-0.010512862 389:0.0039166473 390:0.0096406229 392:-0.0013609251 394:0.0027839569 395:-0.0047366498 396:0.027272325 397:0.0066817058 398:-0.0011031062 399:-0.0075623863 400:0.010879415 402:0.0032020351 403:0.0026502984 404:0.0051358128 405:0.0092880465 406:0.0029500655 407:-0.0060754595 408:0.021738736 409:0.0054331245 410:0.02211369 411:0.005231116 413:-0.00022631109 415:0.0047885533 416:0.0023910985 417:-0.00094746618 418:-0.0045288187 419:0.016382901 420:1.7337703e-05 421:0.0063901041 424:0.00023389228 425:0.00017385036 426:0.019845964 427:0.0052620508 428:-0.0058865696 429:0.0048115868 431:-0.0010008358 432:0.010836387 433:0.004492213 434:-0.00024378047 435:0.0096882181 436:0.0025608751 437:0.0025252753 438:0.0045699012 439:-0.00090989971 442:0.0037474132 443:0.00011905864 444:0.021232324 445:0.0041685835 446:0.0057507544 448:1.7534157e-05 449:0.002340022 450:0.0046595912 451:-0.0077038947 452:-0.003440696 453:0.011354782 454:0.00091951602 455:-5.1564082e-05 457:0.017701985 458:0.00051105989 459:-0.0025113202 461:0.026855061 462:0.0015899871 463:0.0055145649 464:0.0011764157 467:-0.00012023401 469:-5.1564082e-05 470:0.0026971793 471:-0.00030233449 473:0.0020861421 474:0.0025359569 476:0.0042814664 477:0.020804754 478:-9.0678164e-05 479:-9.0678164e-05 480:0.0025904432 481:0.00012816842 483:-0.00030243257 484:0.021787167 485:0.010671125 486:0.00095957762 487:0.001072115 490:0.003795563 491:0.0023211557 492:0.01405936 493:-9.0678164e-05 494:0.01405936 495:-0.0091055445 496:0.010217631 497:0.020443464 498:0.0048713731 499:-0.0036593995 500:0.00066034577 503:0.028990321 504:-0.016270651 505:-0.0037036606 506:-0.001777532 508:0.007713689 509:0.009135209 510:0.0066967811 511:0.01680563 513:0.0052505047 515:0.0001511052 517:0.00017385036 518:-0.00014345575 520:0.013973426 521:0.013584481 522:0.0032508117 523:3.473433e-05 524:0.001605424 526:-0.0017810612 527:-0.010586478 528:0.00062029628 530:0.0032541591 531:0.00066226779 533:0.0045121713 534:0.021731511 535:0.0027880031 536:0.0049914559 538:0.0016518044 540:0.0032487137 541:0.00032001632 542:0.0072107702 543:0.01446001 545:-0.022482909 549:1.9697536e-06 551:0.00044003519 552:1.7596656e-05 553:0.02603754 554:0.00066034577 555:-0.00015353397 556:0.01902028 558:0.0044331281 559:0.0085142367 560:0.0093404874 561:0.0023294142 562:0.030905046 564:-0.00020590438 565:0.0027839569 567:-0.0005279191 568:0.0087374412 569:0.00049042288 570:0.0033760145 571:-0.00014211098 572:0.0012831151 573:-0.00053049403 574:0.0011708422 575:0.0032517365 576:-5.2988551e-05 577:3.2651067e-05 578:0.0040193452 579:0.0027836806 580:-0.00085289509 581:0.0052047949 582:0.024205327 583:0.0017905607 584:-0.0017156608 585:0.0020950232 586:-0.0026027444 587:0.0059639853 588:-0.00010522272 589:0.0048713731 592:-0.00038899752 594:0.0053927661 595:0.021780131 596:-0.01042197 597:-0.001220775 599:0.027193913 600:0.0095504457 601:0.001978124 602:-0.00089927955 604:0.028293574 605:0.028048031 606:0.007564527 607:0.0025159076 609:-0.00052979274 610:0.00045834697 611:0.0085510435 613:0.00048908306 614:0.019716218 616:0.0037891357 617:-0.00015830812 619:0.0023295088 620:0.0185786 622:0.028850183 623:0.002216778 625:-0.0010821783 626:0.00052710163 627:-0.021084035 628:0.0044214549 629:-0.0013609251 631:0.013549761 632:0.00017605335 634:0.0028006954 637:0.005597055 638:0.022132508 640:0.0019345641 641:0.0044554891 642:0.0061843456 643:0.0172932 644:0.0035554769 646:0.0051733637 649:0.023368502 650:0.004019754 651:0.010091227 652:0.0049293963 653:0.0039532254 654:0.0013264805 655:0.0081032701 656:0.0047287229 657:0.0033745226 658:0.0020946134 659:0.026942398 660:-0.0009418595 661:0.0016582032 662:0.00014002695 663:-0.00018913698 665:0.0014131399 666:0.0025812062 667:-0.00066672795 668:0.0068055065 670:-0.0029324184 671:-0.0018132235 673:-0.0053647887 674:0.00058847258 675:-0.0088759121 676:0.0023358867 677:0.0062171556 678:0.0023367628 679:-0.00024708177 680:-0.00024469683 681:-0.00015353397 682:0.0042912685 684:-0.00010538557 686:0.00061350001 687:-3.6914615e-05 688:0.00017385036 689:-0.00094615261 691:-0.00093892135 692:0.0065704375 693:0.0053191637 694:0.0021210953 695:-0.0013674675 696:0.0010386877 697:-0.00017147671 698:0.0017165671 699:0.014238925 700:0.0048329025 #
