SVM-light Version V6.20
0 # kernel type
3 # kernel parameter -d 
1 # kernel parameter -g 
1 # kernel parameter -s 
1 # kernel parameter -r 
empty# kernel parameter -u 
701 # highest feature index 
6 # number of training documents 
2 # number of support vectors plus 1 
0 # threshold b, each following line is a SV (starting with alpha*y)
1 1:0.0045177741 2:0.00048807685 3:0.016726311 4:0.0080921492 5:0.00081545254 6:0.023176698 7:0.0095183877 8:0.025379799 9:0.01158274 10:-0.00051868544 11:0.005164423 13:0.0080971764 14:0.027494991 15:0.011366175 16:0.00011554366 17:-0.0048971418 18:-0.00058870332 19:6.8647845e-05 20:0.01608571 21:-0.011360582 22:0.00010359277 23:0.003753003 24:5.1630464e-05 25:0.0074519352 27:-0.0054645725 30:0.003611028 31:0.0083622579 32:0.00029950283 33:-0.00010840456 34:-0.00088089361 35:0.0026974122 36:-0.0012959742 37:0.017145529 38:-0.0031168833 40:0.00014624241 41:0.017182697 42:-0.00024615307 43:0.0054910984 44:-0.0016378937 45:0.0011828783 47:0.00010359277 48:0.0014194968 49:0.013848356 50:0.0061094556 51:0.0021090843 54:-0.000641878 55:-0.00042297348 56:0.00067547575 57:0.0085943891 59:0.00030010121 60:0.0076984121 61:0.0097827138 62:0.0034758754 64:0.0032875673 65:-0.00064601382 66:-0.00047340759 68:-0.00091813016 69:0.00084955117 70:0.0034095696 72:-0.00083947711 73:0.0060793175 74:0.0032483528 75:0.0010785316 76:0.0057643866 77:6.5201486e-05 79:0.0083607854 80:-0.00051547232 81:0.0071132104 82:0.00011258303 83:0.008262923 84:-0.00090541743 85:0.0050799521 86:-0.00047628058 87:-2.5205163e-05 88:0.00011690251 91:0.019210966 92:0.00068154797 93:-2.5799829e-05 94:0.024174083 95:0.0012350619 96:0.016347291 97:0.0012985847 98:-0.00015012591 99:0.0023316923 100:0.019438831 101:0.004721398 102:-0.00064872741 103:0.015984915 105:6.0237347e-05 106:-0.00074926706 108:0.0047512148 109:4.0051083e-05 112:0.00075641298 113:0.01195311 114:0.0079209022 115:0.015350722 116:-0.00036482033 117:-6.6486915e-05 118:0.0043856981 119:0.0056001488 120:0.027311403 121:0.0028327079 122:0.0015844743 123:0.0041749422 124:0.0069996738 126:0.0042204307 127:0.0054559456 128:0.0037723926 129:0.0080066361 130:0.010765981 133:0.0067244889 134:0.0040664421 135:9.4470124e-05 136:0.0065376298 137:0.0083622579 138:0.0096726371 139:0.00040288945 140:0.0060367896 142:-0.00078808627 143:0.0016358692 144:0.0028569275 145:-0.0019916706 146:0.00012487013 147:0.00027325479 148:0.024926197 149:0.0044009825 150:0.006519055 151:0.025432734 152:0.015736021 153:0.028268855 154:0.004457145 155:0.0037504975 158:0.0057263104 159:0.0040699616 162:0.0079893712 163:-0.0015012 164:0.02536197 165:0.0076070819 168:0.0037723926 171:-0.00031422966 172:0.0018560343 173:0.0029633916 174:-0.00055126724 175:-0.0055773989 176:0.0049980739 177:0.0017137122 178:-0.011589389 179:0.0036254483 180:0.0095674982 183:-0.00024532975 185:-0.00046354494 186:0.016401816 187:-0.015599421 188:-0.00073927059 189:0.027835222 190:-0.0027674541 192:0.0060643167 193:-0.00026499078 194:0.0055194944 196:0.0081512639 197:-0.00054187462 198:-0.00051203498 200:-0.00083913212 201:0.0054833521 202:0.024484444 203:0.008099176 204:0.0040048435 205:0.0037628568 206:-0.00074926706 207:0.019668056 208:0.0038424563 209:0.00038897927 210:0.010707659 211:7.7404642e-05 212:-0.00087956036 213:-0.00081923994 214:0.021156006 215:0.010535173 216:0.0091020297 218:0.011948116 219:0.0030450793 220:-0.013210368 221:0.003890231 226:0.0010901563 228:6.7984169e-05 230:0.010256927 233:0.0094263665 235:-0.0090809641 236:0.0022819631 237:0.022098662 239:-0.00020607366 241:0.016428655 242:0.00062517164 243:-0.0010614266 244:-0.003929174 245:0.0064207418 247:0.0022445312 248:0.026701102 249:0.008261255 250:1.7260758e-05 251:5.9996386e-05 253:0.010449448 254:-0.0013886979 255:0.013510542 256:0.027314175 257:-0.0043928423 258:-0.0013809422 259:-7.8880199e-05 260:0.027126957 261:0.018271856 262:0.00010359277 263:0.011900655 265:-0.00023198973 266:0.0043155504 267:-0.00092271005 268:0.026094198 269:4.0346884e-05 270:0.013110771 272:-0.00020693916 273:0.00033389975 275:-5.8840971e-05 276:0.0017949336 277:-0.0059280032 278:4.0487488e-05 279:0.004536028 280:0.029325128 281:0.0013330563 282:0.00021857081 283:0.011037434 284:0.0083294408 285:0.010237531 286:-0.00022993165 290:0.0079209022 291:-0.00010840456 292:0.0031092884 294:0.00018657761 295:0.00033522441 296:0.00042409819 297:0.0037199345 298:-0.00055410725 299:-0.00045858964 300:0.0032364067 302:0.0048898538 303:-0.00083018199 304:0.0072719199 305:-0.0042957668 306:0.0018773713 307:0.0001118025 308:0.0074519352 309:0.0065667653 310:0.0063382615 311:0.00068464177 312:0.01623532 313:-0.00063561159 314:0.002462999 315:0.0037823347 316:5.9996386e-05 317:0.0098831598 318:-7.7132616e-05 319:-2.5205163e-05 322:0.0049148453 323:0.0016326315 324:-0.00041047847 325:0.012018183 326:0.0075021219 327:0.0032266513 328:0.0060009146 329:-0.00071984931 330:0.0098707955 332:0.012376385 334:0.00011519485 335:0.027037265 336:5.9271348e-05 337:-0.0002013347 338:-4.9554626e-05 340:5.9996386e-05 341:-0.0011705622 342:0.015191087 343:0.0004349706 345:0.027773743 346:0.0075605037 347:-0.0023292787 348:0.001677313 349:0.0029593452 350:0.00073173695 351:0.0076604118 352:6.6554065e-05 354:0.00010359277 355:0.015812054 356:0.003176962 357:0.0010951661 358:-3.2715136e-05 359:0.00083193043 360:0.0065708356 361:-0.0005151254 362:0.019063802 363:0.009108834 365:0.023075884 366:0.026413813 368:0.017870473 369:-0.00051261636 371:0.023566741 372:0.016581196 373:-0.0016315903 375:0.0074519352 376:0.020033374 379:0.026286459 380:0.026364164 381:0.010539378 382:0.0011322408 383:0.010987509 384:-0.0042957668 385:0.0046228119 386:0.0038964897 387:-0.010520309 388:5.1036659e-05 389:0.00036669651 390:0.0084082736 392:-0.00074926706 394:0.002432643 395:-0.0025518721 396:0.024570659 397:0.0079560205 398:0.00011177188 399:-0.0070466469 400:0.0076992284 401:5.1036659e-05 402:-0.00057112554 403:0.0023211094 404:0.0050538112 405:0.0074630259 406:0.0038847225 407:-0.0042416449 408:0.018262623 409:0.006051525 410:0.018946445 411:0.0060338243 413:-6.2566338e-05 415:0.0027533802 416:0.0017088582 417:-0.0016134763 418:-0.0070602405 419:0.015320342 420:-0.00082206249 421:0.0038423194 422:6.0227107e-05 423:5.1036659e-05 424:6.8734007e-05 425:6.7984169e-05 426:0.020055093 427:0.0056111855 428:-0.0075597214 429:0.0040744049 431:0.00019993199 432:0.009129311 433:0.002824168 434:1.3088559e-05 435:0.0088139232 436:0.0024318525 437:0.0012571629 438:0.0029051837 439:-0.001589478 442:0.0044433535 443:-7.5835276e-05 444:0.018683972 445:0.0034512023 446:0.0054939352 448:5.9996386e-05 449:0.0016358271 450:0.0048505156 451:-0.010221825 452:-0.0015196709 453:0.010668621 454:-0.00064029917 455:-2.5205163e-05 457:0.01623532 458:-0.00010135863 459:-0.0011800114 461:0.025922211 462:0.0018934323 463:0.0054249819 464:-0.00038485957 467:-0.00045099726 469:-2.5205163e-05 470:0.0021735509 471:-0.00050608191 473:0.0012079941 474:0.002791123 476:0.0035238785 477:0.01802649 478:-6.6486915e-05 479:-6.6486915e-05 480:0.0025619024 481:7.1247865e-05 483:0.00018691469 484:0.020995915 485:0.011426875 486:0.002697973 487:-0.00044879943 490:0.00035418826 491:0.0042554084 492:0.010989301 493:-6.6486915e-05 494:0.010989301 495:-0.0053969193 496:0.010621803 497:0.017373484 498:0.004126573 499:-0.0020081669 500:0.00070213206 503:0.026477164 504:-0.01457518 505:-0.0058474843 506:-2.9172201e-05 508:0.0044959127 509:0.0080397027 510:0.0066555077 511:0.016246168 513:0.0032787465 515:0.0013515628 517:6.7984169e-05 518:0.0002135848 520:0.013717461 521:0.0099661928 522:0.004331925 523:0.00039934978 524:0.0030502947 526:-0.0018354986 527:-0.0059699966 528:-0.00022486577 530:0.0043399259 531:0.00070324569 533:0.0065603312 534:0.018480647 535:0.0015529834 536:0.0058223186 538:-0.00011690008 540:0.0020986989 541:0.0012094777 542:0.0048591201 543:0.014006188 545:-0.021720538 549:-1.1233134e-06 551:0.00014626437 552:6.0210241e-05 553:0.023744173 554:0.00070213206 555:-0.00010840456 556:0.017650658 558:0.0028457192 559:0.0074519352 560:0.0081958119 561:0.0016323598 562:0.02857432 564:-5.4644992e-05 565:0.002432643 567:-0.00046300553 568:0.0091680875 569:0.00033203224 570:0.0026803866 571:-0.00051167107 572:0.0016326807 573:-0.00046526559 574:0.0020904557 575:0.0032610469 576:-2.5988291e-05 577:3.2447668e-05 578:0.0055950936 579:0.0038707254 580:-0.0013183015 581:0.005755472 582:0.021545615 583:0.003120299 584:-0.00088584109 585:-0.00021132316 586:-0.0023292787 587:0.0056902873 588:-7.7154393e-05 589:0.004126573 591:5.1036659e-05 592:4.7938094e-05 594:0.0078384522 595:0.021245116 596:-0.011740213 597:-0.00047066025 599:0.025227999 600:0.0098145436 601:0.0032398645 602:0.0002573175 604:0.026895046 605:0.026479891 606:0.0069310456 607:0.0015099735 609:0.00075450027 610:0.00038871643 611:0.0082441187 613:0.00033127985 614:0.017311541 616:0.0035878988 617:-0.00011179854 619:0.001426666 620:0.016251083 622:0.027126957 623:0.0022169054 625:0.00011578433 626:-0.00022584628 627:-0.020577446 628:0.002507895 629:-0.00074926706 631:0.0099407248 632:6.885051e-05 634:0.0024484971 637:0.0052856286 638:0.021288972 640:0.00081642059 641:0.0035633682 642:0.0059694834 643:0.015823793 644:0.00042800934 646:0.0047327904 649:0.02318459 650:0.0037717386 651:0.011883844 652:0.0049020355 653:0.0037442858 654:0.0017572953 655:0.0098961145 656:0.003560707 657:0.0040100273 658:0.0012133357 659:0.025632458 660:-0.0006269752 661:0.0010850513 662:0.00016360045 663:-4.8497426e-05 665:-0.00013974185 666:0.0022276791 667:0.00012125793 668:0.0075538158 670:-0.0021834385 671:-0.00017471859 673:-0.0043047885 674:0.00057848601 675:-0.011665158 676:0.0016353619 677:0.0060663964 678:0.0016358692 679:0.00029088196 680:0.00012801969 681:-0.00010840456 682:0.003579394 684:-2.5756884e-05 686:-0.00026420489 687:-0.00087302102 688:6.7984169e-05 689:-0.00065704266 691:-0.0016725785 692:0.0077520986 693:0.0033393118 694:6.1795879e-05 695:-0.0015933581 696:0.00078974798 697:-0.00019433476 698:-0.00094624911 699:0.012499242 700:0.00413157 #
