SVM-light Version V6.20
0 # kernel type
3 # kernel parameter -d 
1 # kernel parameter -g 
1 # kernel parameter -s 
1 # kernel parameter -r 
empty# kernel parameter -u 
701 # highest feature index 
5 # number of training documents 
2 # number of support vectors plus 1 
0 # threshold b, each following line is a SV (starting with alpha*y)
1 1:0.0031559074 2:0.00038297632 3:0.013269057 4:0.0075885388 5:0.0006069637 6:0.020404067 7:0.011485041 8:0.022365229 9:0.011205396 10:-0.00042975179 11:0.0021853845 13:0.0070553478 14:0.024065878 15:0.011015653 16:9.0581016e-06 17:-0.0047912435 18:-0.00066923012 19:0.0002641493 20:0.012861827 21:-0.011218502 22:0.00021471085 23:0.0037114907 24:4.2205556e-05 25:0.0065639289 27:-0.0064236755 30:0.00030445022 31:0.0075883423 32:-0.0014882991 33:-0.00016031932 34:-0.00088282669 35:0.0031564669 36:-0.0011228055 37:0.016119491 38:-0.0027424847 40:9.9233286e-05 41:0.01601987 42:-0.00012676574 43:0.0020445911 44:-0.001602341 45:0.0010999548 47:0.00021471085 48:0.0015065942 49:0.013219401 50:0.0073344023 51:0.0018110363 54:-0.00063221541 55:0.001147097 56:0.00070061628 57:0.01024115 59:0.0001586115 60:0.0057433443 61:0.0091790296 62:0.0033784548 64:0.0027070718 65:-0.0010097974 66:-0.0027830298 68:-0.00069909042 69:-0.0024914884 70:0.0036670989 72:-0.00097570801 73:0.0044820737 74:0.001442801 75:0.0013215315 76:0.0055721677 77:-0.00016615077 79:0.0075827693 80:-0.00011002191 81:0.0051758452 82:7.9983856e-06 83:0.007749605 84:-0.00068433234 85:0.0018941294 86:-0.00069153326 87:-5.5231718e-05 88:1.0877897e-05 91:0.017859848 92:0.00070071337 93:-3.9675317e-05 94:0.024348758 95:0.0018209772 96:0.01544788 97:0.00094921526 98:-0.0017915389 99:0.0016690317 100:0.016306497 101:0.0019483885 102:-0.0010107649 103:0.015252577 105:4.1078867e-05 106:-0.00079017325 108:0.0048896219 109:3.4313391e-05 112:0.00043880322 113:0.012194948 114:0.0059369463 115:0.012972672 116:-0.0024615794 117:-2.0368139e-05 118:0.0032172804 119:0.003209214 120:0.026629735 121:0.0019219668 122:0.00023496445 123:0.004480605 124:0.0052908594 126:0.0023755848 127:0.0054312744 128:0.0037307555 129:0.0062233107 130:0.012151174 133:0.0052877925 134:0.0027990432 135:-1.1469366e-05 136:0.0053520696 137:0.0075883423 138:0.0085465945 139:0.00024622059 140:0.0078188581 142:-0.00085859129 143:0.0013734 144:0.0026728506 145:-0.0044059372 146:-0.0011412946 147:-0.0011268874 148:0.020838009 149:0.0013542052 150:0.0044783237 151:0.025238438 152:0.01267513 153:0.027190074 154:0.0013344486 155:0.0039690617 158:0.004524414 159:0.0039803879 162:0.0081062457 163:-0.0024988595 164:0.024177972 165:0.0052128783 168:0.0037307555 171:-0.0001590192 172:0.00099408301 173:-0.00090436375 174:-0.00049200677 175:-0.0018997589 176:0.0031133515 177:0.00090835168 178:-0.0101114 179:0.00093790749 180:0.00844419 183:-0.0023662525 185:-0.0006256355 186:0.013021762 187:-0.016120128 188:-0.00026490155 189:0.0245458 190:-0.0012463091 192:0.0060880939 193:-0.00016188517 194:0.0041293534 196:0.0072115031 197:-0.0004547291 198:-0.00010801756 200:-0.0010896226 201:0.0040508625 202:0.024109922 203:0.0073571205 204:0.0034249728 205:0.0037174008 206:-0.00079017325 207:0.01695466 208:0.0040463889 209:0.00063731644 210:0.012322545 211:2.2585438e-05 212:-0.0023597644 213:-0.00095745031 214:0.021229884 215:0.0095878812 216:0.010863881 218:0.012102034 219:0.0027529737 220:-0.014281326 221:0.0033258684 226:0.0013245034 228:9.2458686e-06 230:0.012454314 233:0.011538477 235:-0.011868132 236:0.0019924291 237:0.022170793 239:-0.0001212811 241:0.017262653 242:-0.0013407007 243:-0.0046995152 244:-0.00029551756 245:0.0041327472 247:0.0017544505 248:0.025976522 249:0.0072758971 250:1.5534768e-05 251:4.091454e-05 253:0.01000893 254:-0.001255655 255:0.012808154 256:0.025932239 257:-0.0014139188 258:-0.001157455 259:2.3188655e-05 260:0.026489545 261:0.015219128 262:0.00021471085 263:0.0082707331 265:-0.0017489528 266:0.0046900222 267:-0.00097472785 268:0.024762509 269:9.6880809e-05 270:0.012466987 272:0.00095482229 273:0.00057214114 275:4.5321482e-05 276:0.001266914 277:-0.0027608399 278:3.4662786e-05 279:0.0033194672 280:0.025797499 281:0.00086467253 282:-0.00014876809 283:0.0076839388 284:0.0075056641 285:0.010303651 286:-0.00026815821 290:0.0059369463 291:-0.00016031932 292:0.0028144829 294:0.00021295968 295:0.00057122455 296:-0.0014471706 297:0.0026889471 298:-0.00055595959 299:-0.0017775781 300:0.0034501939 302:0.0047878306 303:-0.00096608087 304:0.0080677383 305:-0.0036868965 306:0.0018943381 307:0.00023148535 308:0.0065639289 309:0.0039965026 310:0.0041831145 311:0.00070293597 312:0.01536939 313:-0.00098733976 314:0.0028941813 315:0.0030497094 316:4.091454e-05 317:0.0083530853 318:1.3600235e-06 319:-5.5231718e-05 322:0.0035283223 323:0.0013715735 324:-0.00050648378 325:0.010491082 326:0.0070280763 327:0.00059022271 328:0.0046993662 329:-0.0030385584 330:0.0083316229 332:0.012516879 334:7.0574148e-05 335:0.025724063 336:1.5588581e-05 337:-0.00015900879 338:5.5955879e-05 340:4.091454e-05 341:-0.0045468528 342:0.014793225 343:0.0010106384 345:0.025728263 346:0.005244026 347:-0.0020932981 348:0.0017671793 349:0.00023606703 350:-0.00047657583 351:0.0057027317 352:6.436649e-05 354:0.00021471085 355:0.012717279 356:0.0032003184 357:0.001331104 358:0.00019009906 359:0.0022176856 360:0.0054215267 361:-0.00011008282 362:0.016208921 363:0.0057772556 365:0.019971583 366:0.025458483 368:0.016893845 369:-0.00011175254 371:0.019656569 372:0.015537224 373:-0.001627001 375:0.0065639289 376:0.019426366 379:0.025584247 380:0.02520513 381:0.011107015 382:-0.00042190077 383:0.0093693789 384:-0.0036868965 385:0.0035703655 386:0.00050743279 387:-0.010137074 388:4.1720148e-05 389:-0.0012710536 390:0.0075732116 392:-0.00079017325 394:0.0021343087 395:-0.00029886386 396:0.023473734 397:0.0072583896 398:6.9571111e-06 399:-0.0073831594 400:0.0058758389 401:4.1720148e-05 402:-0.0011383513 403:0.0020246864 404:0.0039994088 405:0.0057482971 406:0.004128085 407:-0.0026843776 408:0.014867541 409:0.0044722576 410:0.015758932 411:0.0066377856 413:3.9154729e-05 415:-0.00029453321 416:0.0014529608 417:-0.0015988215 418:-0.0082717277 419:0.012945521 420:-0.00095748401 421:0.0025179705 422:4.8816259e-05 423:4.1720148e-05 424:9.6143696e-05 425:9.2458686e-06 426:0.020021854 427:0.0055690981 428:-0.0082354397 429:0.0034237427 431:0.00018444726 432:0.0059865727 433:0.0022854041 434:5.9312202e-05 435:0.0079145357 436:0.0024006204 437:0.00047647173 438:0.00067825045 439:-0.0015962378 442:0.004052287 443:-0.000112603 444:0.015730822 445:0.00057657756 446:0.0059814248 448:4.091454e-05 449:0.0013716891 450:0.0031085603 451:-0.01228697 452:-0.0012291562 453:0.010182261 454:-0.00069092721 455:-5.5231718e-05 457:0.01536939 458:-0.00032063288 459:0.00017328774 461:0.025723649 462:0.0018021429 463:0.006000788 464:0.0001109283 467:-0.00036516035 469:-5.5231718e-05 470:0.0017772075 471:-0.00046705126 473:0.00068802643 474:0.00057567301 476:0.00061166019 477:0.014931724 478:-2.0368139e-05 479:-2.0368139e-05 480:0.0014683432 481:7.0765083e-05 483:-0.0001635634 484:0.021194693 485:0.0078569716 486:0.0020182452 487:-0.00067357888 490:-0.0016230047 491:0.0045683053 492:0.0094180219 493:-2.0368139e-05 494:0.0094180219 495:-0.0021282006 496:0.0068914737 497:0.014059749 498:0.0034595025 499:-0.0023175802 500:0.00071900635 503:0.022772422 504:-0.015946411 505:-0.0088871224 506:-0.0012566178 508:0.0027908888 509:0.0071055586 510:0.0070850425 511:0.015491332 513:0.00051847269 515:0.0010906197 517:9.2458686e-06 518:-8.1946841e-05 520:0.014017158 521:0.0084759481 522:0.0038220033 523:0.00045895914 524:0.0027352271 526:-0.0019883967 527:-0.0033134341 528:-0.00011425612 530:0.0038209686 531:0.00071999297 533:0.0061240643 534:0.015185409 535:-0.00036142717 536:0.0062926062 538:-0.0017696678 540:0.0013800329 541:0.0010184278 542:0.0031125199 543:0.013003399 545:-0.021077394 549:1.2698314e-06 551:9.924818e-05 552:4.1060379e-05 553:0.020559087 554:0.00071900635 555:-0.00016031932 556:0.017442182 558:0.00094048074 559:0.0065639289 560:0.0071374583 561:0.0013719833 562:0.025156934 564:5.1044779e-05 565:0.0021343087 567:-0.00040261526 568:0.0062976978 569:0.00057231472 570:0.001570257 571:-0.000422988 572:0.0012536822 573:-0.00040458358 574:0.0012059776 575:0.0030216803 576:-5.6725115e-05 577:6.7438414e-05 578:0.0054329745 579:0.0027078912 580:-0.0011553834 581:0.0053279246 582:0.021112012 583:0.0028254341 584:-0.00092336466 585:-0.0023868165 586:-0.0020932981 587:0.0045825327 588:-2.3142675e-05 589:0.0034595025 591:4.1720148e-05 592:-5.7883572e-05 594:0.0093303481 595:0.02103132 596:-0.012250604 597:-0.00072327693 599:0.025034858 600:0.0066396939 601:0.0033370161 602:0.00096085441 604:0.026351534 605:0.02538514 606:0.0037004331 607:0.00077988999 609:0.0016666432 610:0.00041038234 611:0.0084451046 613:0.0005713859 614:0.014199929 616:0.0030593243 617:-0.00016532224 619:0.00090481533 620:0.014326995 622:0.026489545 623:0.0017263078 625:1.3947651e-05 626:0.00025963737 627:-0.020605419 628:0.0022704399 629:-0.00079017325 631:0.0084350435 632:9.375065e-06 634:0.0021488119 637:0.0057061585 638:0.021070242 640:-0.0013376413 641:0.00065889728 642:0.0050374148 643:0.014821738 644:-0.0011785909 646:0.0034914508 649:0.023030477 650:0.0037293155 651:0.0082978178 652:0.0038200547 653:0.0037014631 654:0.0020795506 655:0.011919364 656:0.0032428978 657:0.0032554404 658:0.00069261272 659:0.02510906 660:-0.00099162525 661:0.0013296166 662:2.3098972e-05 663:5.7076424e-05 665:-0.0019991724 666:0.0019805334 667:8.2250472e-06 668:0.0080343951 670:-0.0021072798 671:0.00068334391 673:-0.0036394859 674:-0.0004854626 675:-0.01365247 676:0.0013730939 677:0.0052018068 678:0.0013734 679:6.0273178e-05 680:-1.1821596e-05 681:-0.00016031932 682:0.0028272003 684:-3.1399679e-05 686:-0.00016312973 687:-0.00073101139 688:9.2458686e-06 689:-0.0010223937 691:-0.0016533663 692:0.0070746555 693:0.00055586925 694:-0.002299733 695:-0.0012860065 696:0.00066075951 697:-0.00017688578 698:-0.0025249356 699:0.013219952 700:0.0033550039 #
