SVM-light Version V6.20
0 # kernel type
3 # kernel parameter -d 
1 # kernel parameter -g 
1 # kernel parameter -s 
1 # kernel parameter -r 
empty# kernel parameter -u 
701 # highest feature index 
8 # number of training documents 
2 # number of support vectors plus 1 
0 # threshold b, each following line is a SV (starting with alpha*y)
1 1:0.0052793282 2:0.00094948418 3:0.013543413 4:0.009423268 5:0.0015747435 6:0.02597273 7:0.013386227 8:0.032546692 9:0.012291717 10:-0.0006633887 11:0.0036520467 13:0.0130115 14:0.03086438 15:0.012060068 16:0.0011174922 17:-0.0084849121 18:-0.0015138828 19:0.00057872321 20:0.012775119 21:-0.014783178 22:0.00047058388 23:0.003534381 24:5.0667688e-05 25:0.012149249 27:-0.0097848056 30:0.0018414088 31:0.010439239 32:-0.002452035 33:-0.00030105267 34:-0.0015599057 35:0.0048142858 36:-0.0021076212 37:0.026455605 38:-0.0033416485 40:0.0004196798 41:0.018235365 42:-0.00034018263 43:0.0044622561 44:-0.0020084963 45:0.0013949123 47:0.00047058388 48:0.0027077107 49:0.01448242 50:0.010196328 51:0.0026405631 54:-0.0015082168 55:0.00077610934 56:0.0011237985 57:0.018519215 59:0.00050039578 60:0.0061208899 61:0.0055131246 62:0.0033898612 64:0.0053501423 65:-0.00077667838 66:-0.0021666789 68:-0.001462856 69:-0.0023672618 70:0.0062355986 72:-0.0020999741 73:0.0035879987 74:0.0033194683 75:0.0010889773 76:0.0074375565 77:-0.00026238518 79:0.010437041 80:-0.00022148652 81:0.0075924532 82:0.00110391 83:0.009501447 84:-0.0014343953 85:0.0033701288 86:-0.0014433808 87:-6.0243769e-05 88:0.0011118328 91:0.024690107 92:0.0011238161 93:-0.00010143267 94:0.030432288 95:0.002682789 96:0.018024188 97:0.00063731178 98:-0.0015105737 99:0.0023201539 100:0.018251769 101:0.0035021624 102:-0.0007974492 103:0.016704246 105:9.2207585e-05 106:-0.0015350195 108:0.0085431943 109:7.4371485e-05 112:0.0010308573 113:0.01066059 114:0.0094078956 115:0.015377918 116:-0.0036582439 117:-3.6061672e-05 118:0.0016612598 119:0.0062072119 120:0.033567186 121:0.0013106365 122:-0.00014612988 123:0.007200418 124:0.0075196419 126:0.0044768495 127:0.0079778805 128:0.0035675638 129:0.011244079 130:0.01469237 133:0.0078831231 134:0.004858911 135:-0.00013664619 136:0.0087837866 137:0.010439239 138:0.013420294 139:0.00035990562 140:0.0054275426 142:-0.0017790239 143:0.0010606261 144:0.0036769938 145:-0.0084286947 146:-0.0012633422 147:-0.00068365602 148:0.027553175 149:0.0030743564 150:0.0065642069 151:0.031370021 152:0.012881281 153:0.035220478 154:0.0044786041 155:0.0049845506 158:0.0043580071 159:0.0059548276 162:0.0080479588 163:-0.0037886184 164:0.029674551 165:0.0069313953 168:0.0035675638 171:-0.00092660874 172:0.0013415798 173:-0.00015646248 174:-0.0008607175 175:-0.00440177 176:0.0056080236 177:0.0024615931 178:-0.013427176 179:0.0028946996 180:0.013249584 183:-0.0035377028 185:-0.00044585881 186:0.013293554 187:-0.0219809 188:0.00034779534 189:0.031531669 190:-0.0014216058 192:0.0083535267 193:-0.00036569787 194:0.0076956586 196:0.010278272 197:-0.00078185671 198:-0.00021664806 200:0.00023586569 201:0.0075884885 202:0.030540762 203:0.010130016 204:0.0027964679 205:0.003555225 206:-0.0015350195 207:0.020479409 208:0.0047732932 209:0.0016747135 210:0.015242141 211:-7.319836e-05 212:-0.003083512 213:-0.0020862974 214:0.026311645 215:0.013890211 216:0.019417828 218:0.010938674 219:0.0041753072 220:-0.025644261 221:0.0027696362 226:0.0010959911 228:-8.2335471e-05 230:0.014323399 233:0.01342481 235:-0.015918689 236:0.0031923726 237:0.02634988 239:-0.0004298774 241:0.024170261 242:-0.00053563848 243:-0.0055336794 244:-0.0024013489 245:0.0067839767 247:0.0026723519 248:0.032483131 249:0.013486394 250:4.0525683e-05 251:9.1838738e-05 253:0.013804654 254:-0.0013170458 255:0.014744191 256:0.032840859 257:-0.0041824118 258:-0.0026964864 259:9.2200593e-05 260:0.033291575 261:0.016853545 262:0.00047058388 263:0.0082064709 265:-0.0016783811 266:0.006985384 267:-0.0017226607 268:0.03107971 269:0.00071328122 270:0.014297846 272:0.00034118071 273:0.00080132746 275:0.00028814678 276:0.0014100486 277:-0.0058858311 278:7.5118929e-05 279:0.0017256187 280:0.033764802 281:0.001832793 282:-0.00043851824 283:0.0068282844 284:0.010258463 285:0.01083816 286:-0.00061014137 290:0.0094078956 291:-0.00030105267 292:0.0042329589 294:0.00048129263 295:0.00079950225 296:-0.0020245586 297:0.0039226799 298:-0.00050948485 299:-0.0033581913 300:0.0052974671 302:0.00753508 303:-0.0021011347 304:0.0050526103 305:-0.0049480693 306:0.0030629395 307:0.00050772831 308:0.012149249 309:0.0050710989 310:0.0071169008 311:0.0011356425 312:0.017861703 313:-0.00072358345 314:0.0053769965 315:0.0023039018 316:9.1838738e-05 317:0.012534602 318:-8.9246103e-05 319:-6.0243769e-05 322:0.002142478 323:0.0010600155 324:-0.00073041714 325:0.017718343 326:0.0086126123 327:0.0024589843 328:0.0066307476 329:-0.0025455006 330:0.012491026 332:0.016370727 334:0.00022443885 335:0.032089122 336:0.00010698365 337:-0.00026471927 338:0.00034515912 340:9.1838738e-05 341:-0.0057642958 342:0.016097564 343:0.0011386232 345:0.032624833 346:0.0069938782 347:-0.0027619747 348:0.0027233697 349:0.00051079295 350:-0.00019956466 351:0.0088199563 352:9.4455703e-05 354:0.00047058388 355:0.012785812 356:0.0049409112 357:0.0011092735 358:0.00030088981 359:0.0036942167 360:0.010146843 361:-0.00022087741 362:0.018146263 363:0.0017201198 365:0.025515443 366:0.032314971 368:0.025999174 369:-0.00022296011 371:0.02481767 372:0.018302394 373:-0.0020968777 375:0.012149249 376:0.027301708 379:0.032971893 380:0.034043968 381:0.015415994 382:-0.00014194202 383:0.01540855 384:-0.0049480693 385:0.005421455 386:0.0022373374 387:-0.011296303 388:5.0084956e-05 389:-0.002072209 390:0.010388351 392:-0.0015350195 394:0.0033780884 395:-0.0027397876 396:0.029029999 397:0.0089431871 398:0.0011037827 399:-0.013294828 400:0.0094862189 401:5.0084956e-05 402:-0.0016730444 403:0.0032611308 404:0.0036698342 405:0.0087442687 406:0.0061931144 407:-0.0053989482 408:0.016164906 409:0.0035750663 410:0.017362338 411:0.0093476633 413:0.00028495502 415:0.00059874274 416:0.0013558849 417:-0.0020082982 418:-0.014601498 419:0.015346541 420:-0.0020890867 421:0.0041506235 422:6.602591e-05 423:5.0084956e-05 424:0.00031835597 425:-8.2335471e-05 426:0.027214322 427:0.0079756062 428:-0.014517619 429:0.0067122467 431:0.00049352006 432:0.0018686533 433:0.0033959332 434:0.00033305577 435:0.012151491 436:0.0035708938 437:0.001142056 438:0.0023180519 439:-0.0020348362 442:0.0067055887 443:-0.00018243821 444:0.017540991 445:0.0021225968 446:0.0078049446 448:9.1838738e-05 449:0.0010586948 450:0.004739318 451:-0.020339772 452:-0.0018380665 453:0.01497115 454:-0.0016326453 455:-6.0243769e-05 457:0.017861703 458:-0.0010205902 459:-0.0014832978 461:0.032319892 462:0.0028260327 463:0.0087591056 464:-0.0012158847 467:-0.00075219042 469:-6.0243769e-05 470:0.0029759936 471:-0.0021139416 473:0.001602867 474:0.0022011017 476:0.0021986102 477:0.016227188 478:-3.6061672e-05 479:-3.6061672e-05 480:0.003098021 481:-8.1093549e-06 483:-0.00043501981 484:0.025013963 485:0.0068415697 486:0.0028758945 487:-0.001405076 490:-0.0023687356 491:0.0068128053 492:0.013667268 493:-3.6061672e-05 494:0.013667268 495:-0.0050146133 496:0.0049722604 497:0.014813041 498:0.0067380015 499:-0.0022603241 500:0.0011513883 503:0.029503312 504:-0.023656569 505:-0.0098595647 506:-0.0021949275 508:0.0034142388 509:0.013121483 510:0.009207529 511:0.017186714 513:0.0023957973 515:0.0020535348 517:-8.2335471e-05 518:-0.00029481595 520:0.014379377 521:0.012545343 522:0.003874568 523:0.0013486053 524:0.0041134283 526:-0.002608676 527:-0.0059340424 528:-0.00029286061 530:0.003863951 531:0.0011496807 533:0.010761827 534:0.016604945 535:0.00014682322 536:0.0087646702 538:-0.0024293209 540:0.0029438692 541:0.0017277353 542:0.0055217408 543:0.011978067 545:-0.03215649 549:6.1604578e-06 551:0.00041974275 552:9.2166083e-05 553:0.02654873 554:0.0011513883 555:-0.00030105267 556:0.021003747 558:0.0022353064 559:0.012149249 560:0.01316516 561:0.0010623143 562:0.032515246 564:0.00029982143 565:0.0033780884 567:-0.00074453087 568:0.0056374092 569:0.00080046902 570:0.0034582587 571:-0.00064724707 572:0.0023570668 573:-0.00074816315 574:0.0019688078 575:0.003827987 576:-6.1885577e-05 577:8.2064544e-05 578:0.0090173455 579:0.0046308138 580:-0.0020385024 581:0.0073237931 582:0.025385672 583:0.0042934171 584:-0.0018829955 585:-0.0027133652 586:-0.0027619747 587:0.0045757401 588:-4.0942443e-05 589:0.0067380015 591:5.0084956e-05 592:0.00049154926 594:0.011708406 595:0.029401576 596:-0.019321127 597:-0.0013263534 599:0.030844888 600:0.0052474141 601:0.0051508737 602:0.00015912054 604:0.033651553 605:0.032094002 606:0.0065374528 607:0.001911277 609:0.0018073666 610:0.00051280094 611:0.0087573742 613:0.0007990147 614:0.015234493 616:0.0046384353 617:-0.00031045522 619:0.0018367687 620:0.017683592 622:0.033291575 623:0.0035516038 625:0.0011072324 626:0.00051336159 627:-0.027374679 628:0.0026926764 629:-0.0015350195 631:0.012483785 632:-8.3365412e-05 634:0.0033954193 637:0.0070786672 638:0.027483165 640:-0.0019536845 641:0.0027133026 642:0.0070698112 643:0.017224953 644:-0.0019486914 646:0.0020928157 649:0.029396787 650:0.0035669229 651:0.008228044 652:0.003195392 653:0.0035542888 654:0.0025331425 655:0.013975524 656:0.0039706454 657:0.0024958735 658:0.001619714 659:0.031950668 660:-0.00074290729 661:0.0010967858 662:0.00037774182 663:0.00034697275 665:-0.0023629076 666:0.0031410048 667:-0.0012909909 668:0.011147483 670:-0.0030792586 671:-0.00073527842 673:-0.006707856 674:0.00013670449 675:-0.018742692 676:0.0010605149 677:0.0067475829 678:0.0010606261 679:4.4752567e-05 680:-0.00046562726 681:-0.00030105267 682:0.00574181 684:-4.6875859e-05 686:-0.00036833837 687:-0.001255195 688:-8.2335471e-05 689:-0.00081130827 691:-0.002077691 692:0.0087449215 693:0.0024530606 694:-0.0020767923 695:-0.00037618319 696:0.00055742211 697:-0.00027241503 698:-0.0041901637 699:0.020514615 700:0.0066577876 #
