SVM-light Version V6.20
0 # kernel type
3 # kernel parameter -d 
1 # kernel parameter -g 
1 # kernel parameter -s 
1 # kernel parameter -r 
empty# kernel parameter -u 
701 # highest feature index 
6 # number of training documents 
2 # number of support vectors plus 1 
0 # threshold b, each following line is a SV (starting with alpha*y)
1 1:0.0031681899 2:0.00037321396 3:0.013986492 4:0.0076370216 5:0.00060188753 6:0.0208016 7:0.011901399 8:0.022283291 9:0.011425677 10:-0.00041720088 11:0.0016850092 13:0.0068325996 14:0.024180884 15:0.01122699 16:-3.9041999e-05 17:-0.0045461822 18:-0.00064382091 19:0.00024190231 20:0.013628562 21:-0.011490181 22:0.00018070878 23:0.0036213007 24:3.7521648e-05 25:0.0063308254 27:-0.0067022154 30:-0.00045322438 31:0.0073447637 32:-0.0023024241 33:-0.00015468869 34:-0.0010044384 35:0.0033666731 36:-0.0012255256 37:0.016354578 38:-0.0025008272 40:7.0215254e-05 41:0.016317986 42:-8.570822e-05 43:0.0018036861 44:-0.0016726259 45:0.0010368432 47:0.00018070878 48:0.0014824386 49:0.013498947 50:0.0078966757 51:0.0017646585 53:6.662924e-05 54:-0.00054905761 55:0.0014370056 56:0.00067856652 57:0.010692406 59:0.00020376785 60:0.0054346034 61:0.0095780939 62:0.0032935112 64:0.002626264 65:-0.00097341673 66:-0.0032755265 68:-0.00058646698 69:-0.0033930105 70:0.0042274222 72:-0.001147435 73:0.0042298865 74:0.00097403425 75:0.0012857066 76:0.0054011527 77:-0.00017125935 79:0.0073427493 80:-0.00015284929 81:0.005021269 82:-4.046526e-05 83:0.007742608 84:-0.00057528121 85:0.0011483799 86:-0.00068714563 87:-5.6528643e-05 88:-3.7338035e-05 91:0.018143188 92:0.00067856611 93:-3.8281865e-05 94:0.025123663 95:0.0019925826 96:0.015676031 97:0.0010013107 98:-0.001805724 99:0.0018616131 100:0.017222458 101:0.0014056501 102:-0.00097223511 103:0.015450026 105:4.4697194e-05 106:-0.00064949715 108:0.0050781621 109:2.9496023e-05 112:0.00043374463 113:0.012578307 114:0.0059604556 115:0.013279435 116:-0.0033524255 117:-4.6624784e-05 118:0.0030261839 119:0.002929331 120:0.026915725 121:0.0019551467 122:0.00017321276 123:0.0045899707 124:0.0053458479 126:0.0020636101 127:0.0057347436 128:0.0036404619 129:0.0063249273 130:0.012646873 133:0.0053694663 134:0.0028076111 135:-0.00010788628 136:0.005402504 137:0.0073447637 138:0.0088086538 139:0.00012585841 140:0.008324204 142:-0.0006887237 143:0.0013388328 144:0.0025285317 145:-0.0051074568 146:-0.0012398465 147:-0.0012755359 148:0.02174977 149:0.0012508336 150:0.0043708417 151:0.025444003 152:0.013514495 153:0.027223887 154:0.00094558182 155:0.00394635 158:0.0041882591 159:0.0044663753 162:0.0082326001 163:-0.0021201498 164:0.024425341 165:0.005221894 168:0.0036404619 171:-0.00012492994 172:0.0010805897 173:-0.0018379672 174:-0.00047792666 175:-0.0013037247 176:0.0030661684 177:0.00068693561 178:-0.010070024 179:0.00052141066 180:0.0087058982 183:-0.003263524 185:-0.00063399051 186:0.01396924 187:-0.017016765 188:-0.00055421487 189:0.024711618 190:-0.00071335671 192:0.0059847967 193:-0.00011886124 194:0.0041497201 196:0.0068701459 197:-0.00044400513 198:-0.00015054598 200:-0.001537342 201:0.0040984699 202:0.024389165 203:0.0071162428 204:0.0037219503 205:0.0036283769 206:-0.00064949715 207:0.017055191 208:0.0039643301 209:0.00079064147 210:0.012826867 211:3.1908679e-05 212:-0.0023103766 213:-0.0011250012 214:0.021854265 215:0.0095917722 216:0.011307756 218:0.012566019 219:0.0026567939 220:-0.013163064 221:0.0036092175 226:0.0012889015 228:1.8917051e-05 230:0.012871631 233:0.011915287 235:-0.012345818 236:0.0019615528 237:0.022535328 239:-9.9300989e-05 241:0.017851552 242:-0.0011225697 243:-0.0052647581 244:0.00016203338 245:0.0038537453 247:0.0016886849 248:0.026142552 249:0.0070244404 250:1.7293291e-05 251:4.4518394e-05 253:0.010027708 254:-0.0010603331 255:0.012994147 256:0.025998065 257:-0.00081417634 258:-0.0012098157 259:-2.5862322e-05 260:0.02677701 261:0.016129434 262:0.00018070878 263:0.0076997573 265:-0.0017889234 266:0.0051805982 267:-0.0010454396 268:0.024840048 269:0.00014597387 270:0.01263548 272:0.00093957194 273:0.00059072388 275:3.9394588e-05 276:0.0016607252 277:-0.0021681928 278:2.9793222e-05 279:0.0031119217 280:0.025983119 281:0.0007295463 282:-5.9686052e-05 283:0.0073845163 284:0.0072857058 285:0.010574642 286:-0.00023343523 290:0.0059604556 291:-0.00015468869 292:0.0027234508 294:0.00020485505 295:0.00058983878 296:-0.0024232869 297:0.0025523426 298:-0.00054560386 299:-0.0017761927 300:0.0038228466 302:0.0048182895 303:-0.0011343276 304:0.0086931316 305:-0.0042200782 306:0.0020862373 307:0.00019483171 308:0.0063308254 309:0.0040707933 310:0.0042246943 311:0.0006807989 312:0.015588713 313:-0.00095264002 314:0.0028147008 315:0.0032828739 316:4.4518394e-05 317:0.0083335023 318:-1.6736971e-05 319:-5.6528643e-05 322:0.0032885149 323:0.0013369188 324:-0.0004894567 325:0.010101804 326:0.0070463885 327:0.00016627094 328:0.0049223071 329:-0.003562052 330:0.0083109075 332:0.01278923 334:6.3601001e-05 335:0.02593042 336:1.6748925e-05 337:-0.00021245328 338:5.0667408e-05 340:4.4518394e-05 341:-0.0050580255 342:0.014974345 343:0.0012241355 345:0.025582066 346:0.0052554905 347:-0.0025522879 348:0.0022239692 349:-0.0004820532 350:-0.00068976241 351:0.0053937593 352:6.3312436e-05 354:0.00018070878 355:0.013670439 356:0.0038292988 357:0.0012958796 358:0.00018116148 359:0.0032839635 360:0.0052214437 361:-0.00015284357 362:0.01713592 363:0.0066457866 365:0.020317102 366:0.025603611 368:0.01687813 369:-0.00015410726 371:0.020242395 372:0.015752822 373:-0.0016872892 375:0.0063308254 376:0.019369557 379:0.025757292 380:0.025719695 381:0.011721121 382:-0.00041067533 383:0.0090598194 384:-0.0042200782 385:0.0036190257 386:0.00015008409 387:-0.010267072 388:3.7090107e-05 389:-0.002035914 390:0.0073597194 392:-0.00064949715 394:0.0020946662 395:0.00021893703 396:0.023926359 397:0.0072655738 398:-4.1531664e-05 399:-0.0073247072 400:0.0059028217 401:3.7090107e-05 402:-0.0020765723 403:0.0019895106 404:0.0036872753 405:0.0056108348 406:0.0044436161 407:-0.0030310815 408:0.015801469 409:0.004220495 410:0.016599368 411:0.0065450636 413:3.4859819e-05 415:-0.00042963348 416:0.0014129266 417:-0.0016537575 418:-0.0084238695 419:0.013251493 420:-0.0011240168 421:0.002511679 422:4.3900622e-05 423:3.7090107e-05 424:9.0693335e-05 425:1.8917051e-05 426:0.020918971 427:0.0054370402 428:-0.0082622785 429:0.0032980833 431:0.00015213196 432:0.0068561393 433:0.0021360915 434:4.5520128e-06 435:0.008189586 436:0.0023496258 437:0.00032257978 438:0.00024380915 439:-0.0016418834 442:0.0042782933 443:-2.3083052e-05 444:0.016630899 445:0.00035511173 446:0.0059069721 448:4.4518394e-05 449:0.0013371232 450:0.0029055392 451:-0.012782886 452:-0.0013880952 453:0.010129002 454:-0.00066777231 455:-5.6528643e-05 457:0.015588713 458:-0.00040265248 459:0.00043520419 461:0.0259667 462:0.0017578665 463:0.0063120802 464:0.00033792693 467:-0.00035356128 469:-5.6528643e-05 470:0.0017646562 471:-0.00048513108 473:0.00053808198 474:0.00051428279 476:0.00038288307 477:0.01588783 478:-4.6624784e-05 479:-4.6624784e-05 480:0.0017719446 481:-7.504387e-05 483:-5.8133024e-05 484:0.021714298 485:0.0075146509 486:0.0023452116 487:-0.00066839514 490:-0.002351799 491:0.0050548338 492:0.0093896426 493:-4.6624784e-05 494:0.0093896426 495:-0.0014996094 496:0.006473992 497:0.014891739 498:0.0033323418 499:-0.0025244362 500:0.00069676351 503:0.023414923 504:-0.016878523 505:-0.0098498333 506:-0.0012377903 508:0.002651951 509:0.006876105 510:0.0071822675 511:0.015690794 513:2.2799677e-06 515:0.0013275986 517:1.8917051e-05 518:8.01839e-06 520:0.014481665 521:0.0084429486 522:0.0040952368 523:0.00043597372 524:0.002642002 526:-0.0020702779 527:-0.0029033236 528:-7.2156799e-05 530:0.004093864 531:0.00069775869 533:0.006373147 534:0.016021457 535:-0.00038727635 536:0.0066353274 538:-0.0020135497 540:0.0012058318 541:0.001219179 542:0.0028456354 543:0.01332364 545:-0.020435907 549:1.5546449e-06 551:7.0225797e-05 552:4.4677075e-05 553:0.020957351 554:0.00069676351 555:-0.00015468869 556:0.017680962 558:0.00056620396 559:0.0063308254 560:0.0069117616 561:0.0013373982 562:0.025301678 564:4.5341978e-05 565:0.0020946662 567:-0.00038955468 568:0.0062700454 569:0.00059121806 570:0.0013346524 571:-0.00041102624 572:0.0012270554 573:-0.00039146049 574:0.0012764208 575:0.0029301627 576:-5.8119338e-05 577:6.1907456e-05 578:0.0055697593 579:0.0028949413 580:-0.0011405952 581:0.0053516123 582:0.021568054 583:0.0027270238 584:-0.00076016405 585:-0.0024365648 586:-0.0025522879 587:0.0042879814 588:-5.3502765e-05 589:0.0033323418 591:3.7090107e-05 592:-0.00010137537 594:0.0093166446 595:0.021036411 596:-0.012622439 597:-0.00049344619 599:0.02567808 600:0.0062633557 601:0.0036807803 602:0.0013458678 604:0.026505776 605:0.025511371 606:0.0032241696 607:0.00060293573 609:0.0018979883 610:0.00040476298 611:0.0085362522 613:0.00059028005 614:0.015107432 616:0.0029331702 617:-0.00015951591 619:0.00076325278 620:0.014082218 622:0.02677701 623:0.0018252393 625:-3.443957e-05 626:0.00022719266 627:-0.020738941 628:0.002201207 629:-0.00064949715 631:0.00840584 632:1.9167941e-05 634:0.0021086896 637:0.005649203 638:0.021427616 640:-0.0019932366 641:0.00042807634 642:0.0053268666 643:0.015033039 644:-0.0018725174 646:0.0032807663 649:0.023675989 650:0.003639177 651:0.0077429838 652:0.0035084961 653:0.0036102906 654:0.0023347868 655:0.012419699 656:0.0030671752 657:0.0035105813 658:0.00054126518 659:0.025401494 660:-0.00095634517 661:0.0012937412 662:0.00010185696 663:5.1730764e-05 665:-0.0023010995 666:0.0019485423 667:-3.5658813e-05 668:0.0084471582 670:-0.0021195784 671:0.00083870773 673:-0.0034431594 674:-0.00027830122 675:-0.014698768 676:0.001338543 677:0.0050555142 678:0.0013388328 679:0.00012561976 680:-2.1833046e-05 681:-0.00015468869 682:0.0027154125 684:-9.5921951e-06 686:-0.00012037606 687:-0.00082664273 688:1.8917051e-05 689:-0.00098370784 691:-0.0017294909 692:0.0070824698 693:3.3341923e-05 694:-0.0024419972 695:-0.0011942029 696:0.00069365074 697:-0.00018529939 698:-0.0033437596 699:0.013721363 700:0.003244275 #
