SVM-light Version V6.20
0 # kernel type
3 # kernel parameter -d 
1 # kernel parameter -g 
1 # kernel parameter -s 
1 # kernel parameter -r 
empty# kernel parameter -u 
701 # highest feature index 
6 # number of training documents 
2 # number of support vectors plus 1 
0 # threshold b, each following line is a SV (starting with alpha*y)
1 1:0.0025038249 2:0.00036791337 3:0.013112181 4:0.0076694507 5:0.00058086182 6:0.020232221 7:0.012015951 8:0.021455679 9:0.010667234 10:-0.00055126945 11:0.0012345484 13:0.0071585313 14:0.023308786 15:0.010454561 16:5.7506281e-06 17:-0.0042567649 18:-0.00078504125 19:0.00024881627 20:0.012728292 21:-0.011122729 22:0.00019114779 23:0.003408086 24:3.388508e-05 25:0.0066385884 27:-0.0064446907 30:-0.00043547637 31:0.007215939 32:-0.002930837 33:-0.00014934802 34:-0.0010635458 35:0.0032040069 36:-0.0012578547 37:0.015429909 38:-0.0025666875 40:5.5465411e-05 41:0.015560345 42:7.4040865e-05 43:0.001259565 44:-0.0016158163 45:0.00087705103 47:0.00019114779 48:0.0012725461 49:0.012517994 50:0.0080493372 51:0.0018261254 53:6.4689033e-05 54:-0.00071534043 55:0.0014107666 56:0.00059342897 57:0.010510223 59:0.00030691101 60:0.0057467758 61:0.0090020029 62:0.0031106051 64:0.0021748128 65:-0.00088359974 66:-0.0029991935 68:-0.0011735084 69:-0.0033045451 70:0.0037480532 72:-0.0012313345 73:0.0044639092 74:0.00099275028 75:0.0011233735 76:0.0056166747 77:0.00045772511 79:0.00721775 80:-0.00012690981 81:0.0043741795 82:3.3436654e-06 83:0.0073016179 84:-0.001149784 85:0.00069286802 86:-0.00085867016 87:0.00010535245 88:7.2523094e-06 91:0.01768804 92:0.00059224048 93:-3.6960173e-05 94:0.024633806 95:0.0023451748 96:0.01479368 97:0.0009476578 98:-0.0015008522 99:0.0019587306 100:0.016298268 101:0.00090787566 102:-0.0008844703 103:0.014390871 105:4.0050956e-05 106:-0.001228929 108:0.0045254719 109:5.5256227e-05 112:0.00040950868 113:0.012292793 114:0.0051476303 115:0.012862147 116:-0.0038411962 117:4.7666606e-05 118:0.0031716991 119:0.0020673419 120:0.026188234 121:0.0018538521 122:0.00027709285 123:0.0040051867 124:0.004177772 126:0.001309061 127:0.0052698757 128:0.0034244165 129:0.0052431165 130:0.012472712 133:0.0041966308 134:0.0021917867 135:-0.00012677663 136:0.0055060624 137:0.007215939 138:0.00854766 139:0.00012042288 140:0.0081993062 142:-0.0013939453 143:0.0012944676 144:0.0022221326 145:-0.0054210625 146:-0.0012269854 147:-0.0013487726 148:0.021080326 149:0.00068513834 150:0.0035627908 151:0.024491709 152:0.012692836 153:0.026627913 154:0.00045492436 155:0.0037901672 158:0.0043908581 159:0.0036949713 162:0.0072878199 163:-0.0021249296 164:0.023674341 165:0.0042547374 168:0.0034244165 171:-2.2610691e-05 172:0.00075185025 173:-0.0014511792 174:-0.00060651673 175:-0.00067145575 176:0.0022800611 177:0.00047824197 178:-0.0093826121 179:0.00056821719 180:0.0084404806 183:-0.0037863273 185:-0.0005692569 186:0.013083818 187:-0.017184312 188:-0.00070430868 189:0.023884188 190:-0.00028487225 192:0.0057860641 193:4.5039124e-05 194:0.0034101147 196:0.0067591481 197:-0.00057213625 198:-0.00012458363 200:-0.0017752916 201:0.0033260256 202:0.023790615 203:0.0069802525 204:0.0038835017 205:0.0034166933 206:-0.001228929 207:0.016359182 208:0.0038717324 209:0.00066702469 210:0.012649059 211:2.7746932e-05 212:-0.0027658904 213:-0.0012063497 214:0.021403173 215:0.0090018902 216:0.011146462 218:0.012124128 219:0.0025300791 220:-0.013906328 221:0.0037765466 226:0.0011300334 228:1.5240312e-05 230:0.01300615 233:0.011981647 235:-0.013026999 236:0.0019095696 237:0.02173469 239:-7.9721736e-05 241:0.018117936 242:-0.0017363039 243:-0.005093982 244:0.00077001908 245:0.0027832291 247:0.001426499 248:0.025236888 249:0.0073692654 250:1.8854904e-05 251:3.9890747e-05 253:0.0098691974 254:-0.0008269886 255:0.012195122 256:0.025382532 257:-0.00013318993 258:-0.0013587428 259:-6.1043429e-05 260:0.026038818 261:0.01530378 262:0.00019114779 263:0.0073254658 265:-0.0014930835 266:0.0043127234 267:-0.001200887 268:0.024194062 269:0.00026646644 270:0.01181601 272:0.0013374292 273:0.00055697758 275:-0.00017322344 276:0.0011078793 277:-0.001830549 278:5.5829641e-05 279:0.0032686873 280:0.025109004 281:0.00070989889 282:0.00054400775 283:0.0071825017 284:0.0071601388 285:0.0099338759 286:-0.00040012589 290:0.0051476303 291:-0.00014934802 292:0.0025928912 294:0.00021448721 295:0.00055718649 296:-0.0031794836 297:0.0020369645 298:-0.0006659262 299:-0.0018553536 300:0.0034139408 302:0.0047074608 303:-0.0012161756 304:0.0082380138 305:-0.0037221434 306:0.0021407732 307:0.00020609632 308:0.0066385884 309:0.0030160742 310:0.0034429799 311:0.00059398328 312:0.014687009 313:-0.00085775345 314:0.0036423032 315:0.0034764616 316:3.9890747e-05 317:0.0074910475 318:8.8988716e-05 319:0.00010535245 322:0.0034446667 323:0.0012933724 324:-0.00058528665 325:0.010479543 326:0.0070721828 327:2.3286661e-05 328:0.0048659104 329:-0.0033232158 330:0.0074676285 332:0.012694396 334:8.6719941e-05 335:0.025236735 336:1.1994333e-05 337:-0.00020946912 338:-0.0001709483 340:3.9890747e-05 341:-0.00474519 342:0.013967947 343:0.0016151817 345:0.024673034 346:0.0043011755 347:-0.0017519433 348:0.0017644969 349:1.4409743e-05 350:-0.00081187603 351:0.0046924376 352:6.2018153e-05 354:0.00019114779 355:0.012879599 356:0.0031185709 357:0.0011357014 358:0.00018144783 359:0.0035638618 360:0.005496176 361:-0.00012688752 362:0.016327769 363:0.0058432552 365:0.019869622 366:0.024788566 368:0.016888767 369:-0.00012810578 371:0.019185282 372:0.014964317 373:-0.0016365588 375:0.0066385884 376:0.018992826 379:0.02511061 380:0.025488788 381:0.011888969 382:-0.00079772586 383:0.0092600435 384:-0.0037221434 385:0.0029690794 386:-0.00057741586 387:-0.0096220188 388:3.3495366e-05 389:-0.0026119302 390:0.0072525865 392:-0.001228929 394:0.0020442076 395:0.00010343274 396:0.023252357 397:0.0073247831 398:2.2415297e-06 399:-0.0066557568 400:0.0051526981 401:3.3495366e-05 402:-0.0026105749 403:0.0019498761 404:0.0038541933 405:0.004544734 406:0.0036417465 407:-0.0023246042 408:0.014882563 409:0.0044419845 410:0.015690899 411:0.0064708032 413:-0.00018331947 415:-0.0010213376 416:0.0013935615 417:-0.0016021885 418:-0.0083712367 419:0.012834368 420:-0.0012055981 421:0.0018983575 422:4.0044146e-05 423:3.3495366e-05 424:8.6969048e-05 425:1.5240312e-05 426:0.020842575 427:0.0053304583 428:-0.0086201299 429:0.0028135723 431:0.00045787549 432:0.0061115897 433:0.0019147488 434:4.6050468e-06 435:0.0077580945 436:0.0023398823 437:0.00014803743 438:0.00020723061 439:-0.0015693493 442:0.0035710272 443:8.8116205e-05 444:0.015813723 445:-0.00032613272 446:0.0057389108 448:3.9890747e-05 449:0.00129148 450:0.0024309556 451:-0.012803678 452:-0.0011723975 453:0.010093951 454:-0.00081950176 455:0.00010535245 457:0.014687009 458:-0.00043423116 459:0.001077132 461:0.025114663 462:0.0015952538 463:0.0060341232 464:0.00041685635 467:-0.00048200513 469:0.00010535245 470:0.0016643972 471:-0.00046022161 473:0.00054698071 474:-0.00021022125 476:-0.00029570697 477:0.015072979 478:4.7666606e-05 479:4.7666606e-05 480:0.0010664379 481:-9.0687186e-05 483:0.00053255109 484:0.020946102 485:0.0072974274 486:0.0017454569 487:-0.00083977921 490:-0.0027558471 491:0.004195373 492:0.0086001987 493:4.7666606e-05 494:0.0086001987 495:-0.00099714682 496:0.0060935966 497:0.013994843 498:0.002839095 499:-0.0023721007 500:0.00061062968 503:0.022374399 504:-0.01716928 505:-0.010852691 506:-0.0011877817 508:0.0017832277 509:0.0070538954 510:0.0073305201 511:0.014660868 513:-6.2512117e-05 515:0.0010441155 517:1.5240312e-05 518:0.00061811809 520:0.01373474 521:0.0075822677 522:0.0039083371 523:0.00044154297 524:0.002515221 526:-0.002148269 527:-0.0017393754 528:8.5875981e-05 530:0.003911017 531:0.00061299489 533:0.0061582592 534:0.015106924 535:-0.00081843731 536:0.0067261127 538:-0.0021625874 540:0.0011388066 541:0.00094633026 542:0.0021178948 543:0.012965868 545:-0.02099272 549:8.6306864e-06 551:5.5473734e-05 552:4.0032934e-05 553:0.020438762 554:0.00061062968 555:-0.00014934802 556:0.017017573 558:0.00039675727 559:0.0066385884 560:0.0072420714 561:0.0012944925 562:0.024437368 564:-0.00017072707 565:0.0020442076 567:-0.00040824406 568:0.0057576648 569:0.00055818295 570:0.0013060761 571:-0.00054587791 572:0.0011549055 573:-0.00041024087 574:0.0010007856 575:0.0024258725 576:0.00010763169 577:7.8854544e-05 578:0.005323838 579:0.0020343401 580:-0.0011354398 581:0.0052654366 582:0.020883923 583:0.0025978843 584:-0.0014534316 585:-0.0020588231 586:-0.0017519433 587:0.0044879573 588:5.585251e-05 589:0.002839095 591:3.3495366e-05 592:-0.00030684719 594:0.0096857026 595:0.020746481 596:-0.012077029 597:-0.0011168106 599:0.02513817 600:0.006051383 601:0.0032678107 602:0.0013159702 604:0.02574127 605:0.024800327 606:0.0021835985 607:0.00047028923 609:0.0018623045 610:0.00039278631 611:0.007589567 613:0.00055726967 614:0.014293632 616:0.0025360291 617:-0.00015400858 619:0.00073714642 620:0.013323022 622:0.026038818 623:0.0019091521 625:1.0182824e-05 626:0.00042463149 627:-0.020564394 628:0.0022529841 629:-0.001228929 631:0.0075403647 632:1.5445674e-05 634:0.0020611687 637:0.0054617357 638:0.021179108 640:-0.0018427433 641:-0.0001578091 642:0.0042531495 643:0.014163471 644:-0.0024252702 646:0.0034040613 649:0.023356063 650:0.0034234191 651:0.0072920658 652:0.0036391332 653:0.0033909101 654:0.0023172558 655:0.012435759 656:0.0028513437 657:0.0036776324 658:0.00055151206 659:0.024842825 660:-0.00086622639 661:0.0011308958 662:4.6132845e-05 663:-0.00017008376 665:-0.0025712939 666:0.001901336 667:5.2625026e-05 668:0.0085551618 670:-0.0022084457 671:0.001223847 673:-0.0032495083 674:-7.2891322e-05 675:-0.015037046 676:0.0012942877 677:0.0045080702 678:0.0012944676 679:0.00075019209 680:-8.5689157e-05 681:-0.00014934802 682:0.0022068841 684:-6.1095902e-06 686:4.3092114e-05 687:-0.00083078787 688:1.5240312e-05 689:-0.00089599931 691:-0.0016726971 692:0.0071399189 693:-3.4593013e-05 694:-0.0022065786 695:-0.0016048868 696:0.00059865072 697:-0.00018664346 698:-0.0038332827 699:0.013045645 700:0.002733764 #
