SVM-light Version V6.20
0 # kernel type
3 # kernel parameter -d 
1 # kernel parameter -g 
1 # kernel parameter -s 
1 # kernel parameter -r 
empty# kernel parameter -u 
701 # highest feature index 
6 # number of training documents 
2 # number of support vectors plus 1 
0 # threshold b, each following line is a SV (starting with alpha*y)
1 1:0.0072666509 2:0.00018353903 3:0.018395463 4:0.0084090801 5:0.0006642206 6:0.023726245 7:0.0091611845 8:0.03260855 9:0.01230575 10:-5.9626102e-05 11:0.006433818 13:0.0083479946 14:0.028931467 15:0.012096424 16:-0.00035084976 17:-0.0053687505 18:0.00089276937 19:-4.2855736e-05 20:0.017660584 21:-0.013333159 22:2.9328794e-05 23:0.0036496611 24:9.7257136e-05 25:0.0076855514 27:-0.0060765068 30:0.0085297776 31:0.0092990873 32:0.0029774858 33:-0.00017754028 34:-0.00032457171 35:0.0023183764 36:-0.00049421063 37:0.0196348 38:-0.0027723468 40:0.00032938435 41:0.017595531 42:0.00027408195 43:0.0074455915 44:-0.0011929603 45:0.0019887786 47:2.9328794e-05 48:0.00151159 49:0.015018144 50:0.0063074399 51:0.0015473512 54:0.00061288319 55:0.0024833083 56:0.00071581732 57:0.0084303133 59:0.00027253112 60:0.0072926618 61:0.0095360037 62:0.003423813 64:0.0044112601 65:-0.00051369471 66:0.00072136178 68:-0.001194626 69:0.0023517059 70:0.0027740633 72:0.00030847691 73:0.0058779502 74:0.0044701039 75:0.0011868939 76:0.0056590005 77:0.00077029801 79:0.0092934025 80:-0.00049389806 81:0.01007914 82:-0.00035130532 83:0.0085555706 84:-0.0011776095 85:0.0068078772 86:0.00094764645 87:-5.2998286e-05 88:-0.00034809922 91:0.020417344 92:0.00071312743 93:-4.2950433e-05 94:0.024369029 95:0.0023400225 96:0.017720778 97:0.0032676659 98:0.0011074662 99:0.0019267594 100:0.021180043 101:0.0061123227 102:-0.00049082335 103:0.0167027 105:0.00010028051 106:-0.00087852293 108:0.0044021867 109:5.3056145e-05 112:0.0010265103 113:0.010581976 114:0.011399373 115:0.015725829 116:0.0032948405 117:-9.7719632e-05 118:0.0048762644 119:0.0080784708 120:0.028742179 121:0.0025633618 122:0.0032007112 123:0.0035437371 124:0.0093075689 126:0.0061992607 127:0.0070083914 128:0.0036695395 129:0.0089090373 130:0.011220442 133:0.0083674369 134:0.006569176 135:0.00051105244 136:0.0053907558 137:0.0092990873 138:0.010807429 139:0.001058215 140:0.0037199552 142:-0.00098405033 143:0.0019256338 144:0.003161625 145:-0.00029944963 146:0.0017487467 147:0.0016627508 148:0.026914023 149:0.0054344102 150:0.009812953 151:0.026503362 152:0.016922802 153:0.029876266 154:0.0067848093 155:0.0042724083 158:0.0062547005 159:0.0050043277 162:0.0080256909 163:-0.0019116499 164:0.02687324 165:0.0099123418 168:0.0036695395 171:0.00013959981 172:0.002493026 173:0.0044517168 174:-5.5524815e-05 175:-0.0096863667 176:0.0078438101 177:0.0028214983 178:-0.012876491 179:0.0086861616 180:0.010703654 183:0.0035353086 185:-0.0011456298 186:0.018033331 187:-0.017435377 188:0.00021739528 189:0.02883428 190:-0.0029988911 192:0.0062493398 193:0.00024888632 194:0.0078758067 196:0.0094094984 197:-9.8044482e-05 198:-0.00049133337 200:-0.00096138607 201:0.0079828473 202:0.025324928 203:0.0089707905 204:0.0041715708 205:0.0036489037 206:-0.00087852293 207:0.020177364 208:0.004289574 209:0.00042965147 210:0.011596112 211:8.2887811e-05 212:-0.00017408199 213:0.00033580116 214:0.021371916 215:0.012847181 216:0.0089020589 218:0.011007314 219:0.0016819735 220:-0.017697038 221:0.0040895157 226:0.001197525 228:8.190002e-05 230:0.010037638 233:0.0092478925 235:-0.0076537924 236:0.0027788612 237:0.022659577 239:0.00012397823 241:0.01716084 242:0.00011389759 243:0.00081169565 244:-0.0072622527 245:0.0083808629 247:0.0034760267 248:0.028189884 249:0.0085119857 250:-2.5365077e-06 251:9.9879369e-05 253:0.010941487 254:-0.00079511851 255:0.014255274 256:0.028654503 257:-0.0077248821 258:-0.0011716634 259:0.00022261955 260:0.028592009 261:0.019703368 262:2.9328794e-05 263:0.010839907 265:0.0011424294 266:0.0039677075 267:-3.0566054e-05 268:0.027408326 269:0.00035793521 270:0.013704892 272:-0.0015714589 273:0.00039063478 275:-0.0001978384 276:0.0016469863 277:-0.0098146265 278:5.3623742e-05 279:0.0050500142 280:0.030397464 281:0.0019892023 282:0.00098234636 283:0.011456624 284:0.0091968523 285:0.010220361 286:-0.00063493202 290:0.011399373 291:-0.00017754028 292:0.0017413166 294:0.0001287449 295:0.00039601742 296:0.003473385 297:0.0056378264 298:-0.00041391037 299:-0.00030258633 300:0.0033967495 302:0.0056379642 303:0.00032373329 304:0.0049901018 305:-0.0053054234 306:0.0012934717 307:3.1677235e-05 308:0.0076855514 309:0.0089718085 310:0.0099088028 311:0.00071834144 312:0.01758587 313:-0.00045678229 314:0.003343157 315:0.0039683776 316:9.9879369e-05 317:0.01303908 318:-0.000162168 319:-5.2998286e-05 322:0.0054796175 323:0.0019213329 324:-0.00021308124 325:0.01338582 326:0.0075698565 327:0.0050833579 328:0.0067537175 329:0.00042671018 330:0.01303015 332:0.012889227 334:2.4140756e-05 335:0.028515333 336:-0.0001497893 337:0.00037715587 338:-0.000179471 340:9.9879369e-05 341:0.00054836372 342:0.015715156 343:0.00025639785 345:0.029894887 346:0.009836344 347:-0.0033101321 348:0.0018360702 349:0.0035703599 350:0.00129723 351:0.0101071 352:7.2642855e-05 354:2.9328794e-05 355:0.017057447 356:0.0032083427 357:0.0011717158 358:-8.4284111e-05 359:-0.001656118 360:0.0071523525 361:-0.00049334508 362:0.020502741 363:0.010114674 365:0.024082925 366:0.027966961 368:0.017878415 369:-0.00049320428 371:0.024842111 372:0.017819423 373:-0.0011741649 375:0.0076855514 376:0.020830397 379:0.027353609 380:0.027353974 381:0.010165318 382:0.0017230044 383:0.012545416 384:-0.0053054234 385:0.0085440911 386:0.0059753815 387:-0.010661344 388:9.6138581e-05 389:0.002878177 390:0.0092324745 392:-0.00087852293 394:0.0029121607 395:-0.0038189443 396:0.025664613 397:0.0080585601 398:-0.00035282888 399:-0.0069799651 400:0.011186998 401:9.6138581e-05 402:0.0019878731 403:0.0027722453 404:0.005513886 405:0.009472481 406:0.0047752145 407:-0.0060951477 408:0.020089896 409:0.0058179209 410:0.020574048 411:0.0054029967 413:-0.00020289056 415:0.0044284221 416:0.0019314212 417:-0.0012154472 418:-0.0052401554 419:0.01569975 420:0.00032075832 421:0.0064605894 422:0.00011156687 423:9.6138581e-05 424:0.00022750543 425:8.190002e-05 426:0.020026533 427:0.00566888 428:-0.0065218448 429:0.0052402746 431:-0.00047991189 432:0.0098518319 433:0.0047717108 434:-0.00033047015 435:0.010284504 436:0.0027585197 437:0.0025254018 438:0.0047762166 439:-0.001190352 442:0.0047923704 443:-0.00013279857 444:0.020106409 445:0.0051746233 446:0.0056821443 448:9.9879369e-05 449:0.0019272304 450:0.0057710186 451:-0.0079034381 452:-0.0027030455 453:0.010844123 454:0.00090355927 455:-5.2998286e-05 457:0.01758587 458:0.00056551152 459:-0.0029539955 461:0.026864337 462:0.0016461589 463:0.0058572879 464:0.0015669613 467:-4.1558811e-05 469:-5.2998286e-05 470:0.0029635914 471:-0.00082556228 473:0.0018624926 474:0.0039873398 476:0.0052490523 477:0.019489715 478:-9.7719632e-05 479:-9.7719632e-05 480:0.0031412558 481:-0.00016208671 483:0.00076440896 484:0.021583401 485:0.011729877 486:0.0028672165 487:0.00096672605 490:0.0034794058 491:0.0039661513 492:0.013614129 493:-9.7719632e-05 494:0.013614129 495:-0.009088832 496:0.010882512 497:0.018940313 498:0.0053229462 499:-0.0028117998 500:0.00074105768 503:0.027981151 504:-0.015731422 505:-0.0049307449 506:-0.00077592896 508:0.0071975375 509:0.0082778586 510:0.0060802437 511:0.017039858 513:0.0053463532 515:0.0017220374 517:8.190002e-05 518:0.00094794971 520:0.013943023 521:0.013269476 522:0.0042347489 523:0.00041928072 524:0.0016063626 526:-0.0016693608 527:-0.0093021169 528:0.00025632422 530:0.0042405324 531:0.00074070663 533:0.0056221387 534:0.020150932 535:0.0024751741 536:0.0051837317 538:0.001755776 540:0.0034665309 541:0.0018505751 542:0.0065272651 543:0.013750597 545:-0.023138203 549:-1.9118881e-06 551:0.00032943379 552:0.00010023539 553:0.024972148 554:0.00074105768 555:-0.00017754028 556:0.018866498 558:0.0046808408 559:0.0076855514 560:0.0084532918 561:0.0019193904 562:0.029839151 564:-0.00019721861 565:0.0029121607 567:-0.00047721586 568:0.0095204702 569:0.00039188206 570:0.0035036532 571:-5.4836077e-05 572:0.0019026368 573:-0.00047954576 574:0.0027944136 575:0.0032660929 576:-5.4438915e-05 577:3.7605354e-05 578:0.0044977264 579:0.0045339298 580:-0.00079011405 581:0.0057487972 582:0.022518396 583:0.0017562545 584:-0.0011021289 585:0.001750398 586:-0.0033101321 587:0.0063219257 588:-0.00011333792 589:0.0053229462 591:9.6138581e-05 592:1.6263337e-07 594:0.0074536125 595:0.0220288 596:-0.010964508 597:-0.00060155906 599:0.025911439 600:0.01013571 601:0.0035037361 602:0.00020657574 604:0.028225893 605:0.027906565 606:0.006787003 607:0.002656423 609:0.00011843805 610:0.00041465808 611:0.0081704678 613:0.00039080021 614:0.018616932 616:0.0034846733 617:-0.00018309943 619:0.0021486711 620:0.019030066 622:0.028592009 623:0.0021107777 625:-0.00034082541 626:0.00021396586 627:-0.021145685 628:0.0037740108 629:-0.00087852293 631:0.013275217 632:8.2940431e-05 634:0.0029170811 637:0.0055362033 638:0.022034328 640:0.0016599285 641:0.0049169422 642:0.0071019833 643:0.017156787 644:0.0026743878 646:0.0053523802 649:0.022785299 650:0.0036698871 651:0.010749711 652:0.0054302332 653:0.0036059264 654:0.0024699133 655:0.0099815596 656:0.0050703017 657:0.0040704045 658:0.0018716763 659:0.026525415 660:-0.00049467327 661:0.0011969685 662:-4.3948286e-05 663:-0.00017852048 665:0.0014445148 666:0.0027257712 667:-0.00051963195 668:0.0069238911 670:-0.0027242485 671:-0.0010662855 673:-0.0055363453 674:0.0016444983 675:-0.0093391817 676:0.0019248759 677:0.0061894124 678:0.0019256338 679:0.00099492935 680:0.00028419826 681:-0.00017754028 682:0.0046864576 684:-6.8451358e-05 686:0.00024951191 687:8.0554346e-05 688:8.190002e-05 689:-0.0004972301 691:-0.0012118856 692:0.0079120509 693:0.0054097101 694:0.0018761797 695:-0.0024530927 696:0.0008487766 697:-0.00020606464 698:0.00095041632 699:0.014049236 700:0.0052819238 #
