SVM-light Version V6.20
0 # kernel type
3 # kernel parameter -d 
1 # kernel parameter -g 
1 # kernel parameter -s 
1 # kernel parameter -r 
empty# kernel parameter -u 
701 # highest feature index 
6 # number of training documents 
2 # number of support vectors plus 1 
0 # threshold b, each following line is a SV (starting with alpha*y)
1 1:0.0056197378 2:0.0011572028 3:0.015367731 4:0.0099002616 5:0.0011927574 6:0.026858117 7:0.01327096 8:0.035105646 9:0.01204009 10:-0.00024874893 11:0.0068167062 13:0.012299555 14:0.030770987 15:0.011699996 16:0.00073853991 17:-0.0072976896 18:-0.0015009888 19:-0.00019889305 20:0.014905175 21:-0.01438724 22:-0.00020659721 23:0.00375462 24:8.6760083e-05 25:0.011337659 27:-0.008068488 30:0.0023025107 31:0.0091407569 32:-0.00044268425 33:-0.00013117558 34:-0.0017536695 35:0.0032405604 36:-0.0027954846 37:0.026130572 38:-0.002318477 40:0.00033745027 41:0.019547619 42:0.00063459633 43:0.0064284252 44:-0.0029390326 45:0.0026385779 47:-0.00020659721 48:0.0010906955 49:0.014113614 50:0.0072603496 51:0.0025142054 54:-0.0017165393 55:-0.001866489 56:0.001130969 57:0.016168581 59:0.0006084253 60:0.008281298 61:0.0079848506 62:0.0036903289 64:0.0042672888 65:-0.0010575575 66:-0.00092892128 68:-0.00036810452 69:0.0010966766 70:0.0066566165 72:-0.0029182087 73:0.0057720239 74:0.0038368937 75:0.0015098228 76:0.0060772467 77:-0.0014151125 79:0.0091442531 80:-0.00016510297 81:0.0070845545 82:0.00073171704 83:0.011149794 84:-0.00037159081 85:0.0051271017 86:-0.0014180448 87:-1.8222247e-05 88:0.00073803175 91:0.023673665 92:0.0011434883 93:-3.2515618e-05 94:0.030069292 95:0.0041548866 96:0.017766561 97:0.00026072783 98:-0.0007266312 99:0.0023175913 100:0.02013666 101:0.00585113 102:-0.0010519699 103:0.017438093 105:6.5072018e-05 106:-7.6037315e-05 108:0.0067027574 109:1.4758786e-05 112:0.0010922424 113:0.012182138 114:0.0098692542 115:0.016248159 116:-0.0016210856 117:-9.2274444e-05 118:0.0031014471 119:0.0051035848 120:0.033757504 121:0.0041515892 122:0.00076018611 123:0.0063778772 124:0.0081586521 126:0.0037909236 127:0.006200341 128:0.0037675395 129:0.0098477369 130:0.015281069 133:0.0077548889 134:0.0050121951 135:-0.00069754454 136:0.0081404392 137:0.0091407569 138:0.012853744 139:0.00070779881 140:0.0060046194 142:-5.436171e-05 143:0.0015634332 144:0.0036435451 145:-0.0044659409 146:0.00063346874 147:0.00082186551 148:0.028821357 149:0.0058179894 150:0.0065392102 151:0.030851955 152:0.01453023 153:0.034802485 154:0.0054849959 155:0.0052437275 158:0.0041837627 159:0.005349223 162:0.0070438073 163:-0.0047005867 164:0.030314818 165:0.0084657473 168:0.0037675395 171:-5.5517299e-05 172:0.0033944885 173:0.0037798563 174:-0.00035486833 175:-0.0069560488 176:0.0059107705 177:0.0025013662 178:-0.012392348 179:0.0012859007 180:0.012687933 183:-0.0015849384 185:-0.00040498792 186:0.015511693 187:-0.019204823 188:-0.00035940771 189:0.031657338 190:-0.003433509 192:0.0082103116 193:0.00060166139 194:0.0071620452 196:0.0090304408 197:-0.00028458692 198:-0.00016068092 200:-0.0028225295 201:0.0068951878 202:0.030663289 203:0.0088369399 204:0.0052596917 205:0.0037808069 206:-7.6037315e-05 207:0.020693742 208:0.0050842664 209:0.0005908208 210:0.015248581 211:0.00012525918 212:-0.0015370608 213:-0.0028997071 214:0.026116006 215:0.013143027 216:0.017042443 218:0.012119563 219:0.0047590239 220:-0.023699125 221:0.0051419307 226:0.001539555 228:0.00011179217 230:0.01433004 233:0.013077008 235:-0.013468204 236:0.0034406211 237:0.026494388 239:0.00010544372 241:0.021750765 242:-0.00048939051 243:-0.0019681179 244:-0.0041481927 245:0.0080260392 247:0.0027899495 248:0.032416351 249:0.012570381 250:5.4999633e-05 251:6.4811713e-05 253:0.013111822 254:-0.0017468992 255:0.014683176 256:0.033026379 257:-0.005471325 258:-0.0022797624 259:-0.00031799971 260:0.03345586 261:0.018504627 262:-0.00020659721 263:0.011746544 265:-0.00081822672 266:0.0063920775 267:-0.0025584288 268:0.031311508 269:0.00014751636 270:0.014085376 272:-0.00080924277 273:0.00078299979 275:0.00012055301 276:0.0031955717 277:-0.0075832335 278:1.4937886e-05 279:0.0032256746 280:0.033788208 281:0.0011469326 282:-0.0013791895 283:0.010925071 284:0.0091021033 285:0.01097289 286:-0.00055468967 290:0.0098692542 291:-0.00013117558 292:0.0047401055 294:0.00028375242 295:0.00077887712 296:-0.00035572541 297:0.0039503225 298:-0.0010933478 299:-0.002832738 300:0.006234603 302:0.0072460501 303:-0.0029130401 304:0.0059979437 305:-0.0043798941 306:0.00087050005 307:-0.00022295042 308:0.011337659 309:0.0064648204 310:0.0073330938 311:0.0011505606 312:0.017595354 313:-0.0010246169 314:0.0034949018 315:0.0046909177 316:6.4811713e-05 317:0.011800832 318:-3.4623186e-05 319:-1.8222247e-05 322:0.0039533423 323:0.0015625734 324:-0.00085424044 325:0.017761778 326:0.0092125246 327:0.0044707591 328:0.0069985366 329:-0.0012236068 330:0.01176066 332:0.015808126 334:-2.4783159e-05 335:0.032647211 336:0.00029098973 337:-0.0006679566 338:0.00013976319 340:6.4811713e-05 341:-0.001865051 342:0.015996767 343:0.0020674013 345:0.034491926 346:0.0084516006 347:-0.0017579261 348:0.0033469375 349:0.0037099889 350:0.0017585852 351:0.0079052858 352:8.9553745e-05 354:-0.00020659721 355:0.01481278 356:0.0031582015 357:0.001560458 358:0.00044024014 359:0.0025051176 360:0.0098159295 361:-0.00016551359 362:0.019857522 363:0.0041898102 365:0.026460478 366:0.032060243 368:0.022027658 369:-0.00016263104 371:0.025068194 372:0.018250838 373:-0.0029723342 375:0.011337659 376:0.026530225 379:0.032817546 380:0.03521584 381:0.013957165 382:0.0012467479 383:0.015941909 384:-0.0043798941 385:0.0042476389 386:0.0046171723 387:-0.011859739 388:8.5762258e-05 389:-0.00023308962 390:0.0092997327 392:-7.6037315e-05 394:0.0036985318 395:-0.0025391162 396:0.030117033 397:0.0097783078 398:0.00073138048 399:-0.01161223 400:0.0097059775 401:8.5762258e-05 402:-0.00085251778 403:0.0035224089 404:0.0034059759 405:0.0090171052 406:0.0057482976 407:-0.0042600203 408:0.01825585 409:0.0057626897 410:0.019259935 411:0.0082575809 413:0.00011472211 415:0.0028450424 416:0.0016704376 417:-0.0028915247 418:-0.012710923 419:0.016213194 420:-0.0028931757 421:0.0047734031 422:0.00010843492 423:8.5762258e-05 424:0.00048468116 425:0.00011179217 426:0.026205055 427:0.0079599861 428:-0.012754031 429:0.0053935368 431:0.00022790936 432:0.004330616 433:0.0032810979 434:0.00015393969 435:0.011876901 436:0.0030756723 437:0.0019107807 438:0.0040153298 439:-0.002788068 442:0.0055340845 443:0.00021896909 444:0.019177202 445:0.0041503902 446:0.0074844752 448:6.4811713e-05 449:0.0015592378 450:0.0065598842 451:-0.015606307 452:-0.0029899038 453:0.012808758 454:-0.0015423298 455:-1.8222247e-05 457:0.017595354 458:-0.0010749594 459:-0.0036147151 461:0.031461634 462:0.0025385476 463:0.0087406132 464:-0.0008944 467:-0.00020184739 469:-1.8222247e-05 470:0.0031863912 471:-0.0009542373 473:0.00087955454 474:0.003677635 476:0.0042347945 477:0.018110136 478:-9.2274444e-05 479:-9.2274444e-05 480:0.0024121797 481:0.0011172806 483:-0.001224014 484:0.025303226 485:0.011156599 486:0.0044524954 487:-0.001375905 490:-0.0005525655 491:0.0062575801 492:0.013209928 493:-9.2274444e-05 494:0.013209928 495:-0.0067562056 496:0.0101125 497:0.016885558 498:0.0054492475 499:-0.00042836956 500:0.00116193 503:0.02937033 504:-0.019892499 505:-0.010753209 506:-0.0022114085 508:0.0049880925 509:0.012198188 510:0.0086238887 511:0.017837785 513:0.0041918103 515:0.0028224194 517:0.00011179217 518:-0.0012820736 520:0.014492564 521:0.01184633 522:0.0062149912 523:0.00088165328 524:0.0047464874 526:-0.002301994 527:-0.0056507504 528:0.00067149941 530:0.0062229871 531:0.0011575217 533:0.0084550763 534:0.018583888 535:0.0017007791 536:0.0071695535 538:0.00066058262 540:0.0030864379 541:0.0025149982 542:0.0048803873 543:0.013730828 545:-0.030452395 549:-4.8926572e-06 551:0.00033750091 552:6.5042732e-05 553:0.027176244 554:0.00116193 555:-0.00013117558 556:0.021428475 558:0.003715225 559:0.011337659 560:0.012446702 561:0.0015653261 562:0.032554578 564:0.00013098989 565:0.0036985318 567:-0.00070400978 568:0.0085761696 569:0.0007791149 570:0.004278128 571:-0.00023533627 572:0.0022707167 573:-0.00070744363 574:0.0035563691 575:0.0044054319 576:-1.8954783e-05 577:8.3761122e-05 578:0.0072312616 579:0.0051139751 580:-0.0018413024 581:0.0071000289 582:0.026515292 583:0.0048761261 584:1.1022978e-05 585:-0.00080797251 586:-0.0017579261 587:0.0042142579 588:-0.0001070654 589:0.0054492475 591:8.5762258e-05 592:0.00052113656 594:0.0094657252 595:0.02819681 596:-0.015509125 597:0.00038687733 599:0.031115852 600:0.0092527652 601:0.0060585411 602:-0.0004262666 604:0.032787044 605:0.031569343 606:0.0089505212 607:0.0022927115 609:0.0017705852 610:0.0004666528 611:0.0075139794 613:0.00077795307 614:0.016995074 616:0.0043984572 617:-0.00013529112 619:0.0011248143 620:0.017650941 622:0.03345586 623:0.0022066396 625:0.00073164905 626:0.00030873864 627:-0.026352445 628:0.0027417964 629:-7.6037315e-05 631:0.011784593 632:0.00011320507 634:0.0037224765 637:0.0072761537 638:0.026930729 640:0.0010864141 641:0.0047141756 642:0.0072215577 643:0.017214119 644:-0.00013776618 646:0.0037582705 649:0.028775077 650:0.0037672133 651:0.011928182 652:0.0029957721 653:0.0037367716 654:0.0020997233 655:0.013598567 656:0.002662889 657:0.0049689854 658:0.00089688727 659:0.032068621 660:-0.0010170495 661:0.0015203379 662:0.00048817418 663:0.00014120452 665:0.00055502326 666:0.003435489 667:0.00065590924 668:0.0091159372 670:-0.0037013071 671:-0.00058119302 673:-0.0059919977 674:0.0006181192 675:-0.016841099 676:0.0015631304 677:0.0079764742 678:0.0015634332 679:-0.00095632212 680:0.00012067486 681:-0.00013117558 682:0.0045740651 684:-5.4102497e-05 686:0.00059677381 687:-0.0019921833 688:0.00011179217 689:-0.0010665217 691:-0.003013243 692:0.0094533786 693:0.004240931 694:-0.0004308561 695:-0.0021487602 696:0.00024625889 697:-0.00023929456 698:-0.002671438 699:0.017038302 700:0.005318203 #
