SVM-light Version V6.20
0 # kernel type
3 # kernel parameter -d 
1 # kernel parameter -g 
1 # kernel parameter -s 
1 # kernel parameter -r 
empty# kernel parameter -u 
701 # highest feature index 
6 # number of training documents 
2 # number of support vectors plus 1 
0 # threshold b, each following line is a SV (starting with alpha*y)
1 1:0.0023582017 2:0.0003630303 3:0.012957105 4:0.0078891302 5:0.00065512926 6:0.020115715 7:0.012572914 8:0.021290088 9:0.011052939 10:-0.00066319224 11:0.0006341071 13:0.0070303753 14:0.023373473 15:0.010835202 16:-2.5017718e-05 17:-0.0043553947 18:-0.00090165361 19:0.00036581676 20:0.012620654 21:-0.011018415 22:0.00030451381 23:0.0035263225 24:3.5511141e-05 25:0.0065299426 27:-0.00644005 30:-0.00080239074 31:0.0073787305 32:-0.0022474371 33:-0.00014734945 34:-0.0011049538 35:0.0033889078 36:-0.001315463 37:0.015310539 38:-0.002852262 40:5.4723168e-05 41:0.016034974 42:6.0644048e-05 43:0.00088981539 44:-0.0011589952 45:0.00089135184 47:0.00030451381 48:0.0017466603 49:0.013074062 50:0.0081832567 51:0.0018201144 53:6.3352891e-05 54:-0.00086654036 55:0.0013199619 56:0.00046996208 57:0.010424846 59:0.00024435617 60:0.0054325685 61:0.009020525 62:0.0031616935 64:0.0023371428 65:-0.00065725413 66:-0.0032157227 68:-0.001112903 69:-0.0034253153 70:0.0035745436 72:-0.0013549177 73:0.0043144994 74:0.00078016112 75:0.0013111967 76:0.0054457262 77:0.00049807585 79:0.0073795482 80:-0.00017563161 81:0.0040674019 82:-2.7289201e-05 83:0.0074848086 84:-0.0010888721 85:7.4333511e-05 86:-0.0010145551 87:8.7545501e-05 88:-2.3348874e-05 91:0.017937467 92:0.00046589409 93:-3.6465572e-05 94:0.024820382 95:0.0022719488 96:0.015310009 97:0.001185242 98:-0.0016847081 99:0.0022313886 100:0.016212068 101:0.00036718644 102:-0.00066164008 103:0.014859608 105:4.0026316e-05 106:-0.0012525335 108:0.0044525373 109:5.2465679e-05 112:0.00038632678 113:0.012256965 114:0.004738918 115:0.012765008 116:-0.003191327 117:2.7793625e-05 118:0.003057864 119:0.0018309099 120:0.026349889 121:0.0020864136 122:8.9607696e-05 123:0.0037597844 124:0.0040282202 126:0.0011063648 127:0.0050312737 128:0.0035438549 129:0.005101108 130:0.013032558 133:0.004067699 134:0.0020468337 135:-0.00019228495 136:0.0054170131 137:0.0073787305 138:0.0085140979 139:0.00013207803 140:0.008718512 142:-0.0014247166 143:0.0014273878 144:0.0021109269 145:-0.0051001739 146:-0.0013655386 147:-0.0015618409 148:0.021162106 149:0.00034435041 150:0.0032514867 151:0.02459388 152:0.012581254 153:0.026719825 154:4.9047663e-05 155:0.0038529916 158:0.0039691469 159:0.0034919309 162:0.0073173707 163:-0.0021411395 164:0.023965362 165:0.0041776397 168:0.0035438549 171:3.4508535e-05 172:0.00054412975 173:-0.0014489009 174:-0.00069747807 175:-0.00023579343 176:0.0019470413 177:7.9561069e-05 178:-0.0091949804 179:0.00037251724 180:0.0084055746 183:-0.0031597165 185:-0.00050268957 186:0.012969838 187:-0.01741921 188:-0.0010041022 189:0.023876002 190:-0.00027514569 192:0.0058864607 193:3.3648055e-05 194:0.0032597093 196:0.0068785828 197:-0.00067150604 198:-0.00017326733 200:-0.0016346858 201:0.0031899079 202:0.023992596 203:0.0071415193 204:0.0041433368 205:0.0035351866 206:-0.0012525335 207:0.016366852 208:0.0040449589 209:0.00061120663 210:0.013215368 211:2.6864585e-05 212:-0.002930887 213:-0.0013232721 214:0.021542197 215:0.0088661769 216:0.011055573 218:0.012150764 219:0.002643524 220:-0.013731059 221:0.0040314845 226:0.0013247 228:1.453142e-05 230:0.013579937 233:0.012517223 235:-0.013090163 236:0.001945446 237:0.021920053 239:-0.00012662257 241:0.018488528 242:-0.0018263393 243:-0.0053991773 244:0.0011147002 245:0.0027324515 247:0.001212263 248:0.02534306 249:0.0072506173 250:2.0978712e-05 251:3.9866205e-05 253:0.0099397842 254:-0.00060729904 255:0.012608586 256:0.025629653 257:0.00033745365 258:-0.0013819409 259:-7.9470221e-05 260:0.026200585 261:0.015196566 262:0.00030451381 263:0.0071008033 265:-0.0016458918 266:0.0040709758 267:-0.0012703085 268:0.024409974 269:0.00021445019 270:0.012216966 272:0.0011837658 273:0.00050459104 275:-0.00030165366 276:0.00087508047 277:-0.0015669073 278:5.3009477e-05 279:0.0031464503 280:0.025178108 281:0.0013302674 282:0.00061642611 283:0.0069403155 284:0.0073145106 285:0.01013966 286:-0.00041023426 290:0.004738918 291:-0.00014734945 292:0.002722254 294:6.3741129e-05 295:0.00050560123 296:-0.0024625307 297:0.0019365656 298:-0.00065945741 299:-0.0018381309 300:0.0032294441 302:0.0047907759 303:-0.0013331453 304:0.0086843632 305:-0.0036328118 306:0.0022478031 307:0.00032846586 308:0.0065299426 309:0.0029507712 310:0.0030111009 311:0.00046756581 312:0.015209693 313:-0.00063819403 314:0.0034263616 315:0.0037614065 316:3.9866205e-05 317:0.0072182245 318:6.1507264e-05 319:8.7545501e-05 322:0.0032929373 323:0.0014257603 324:-0.0005829499 325:0.010341356 326:0.0073212124 327:-0.00032162492 328:0.0046686213 329:-0.003565375 330:0.0071952408 332:0.012941483 334:0.00012204149 335:0.02554371 336:7.804511e-07 337:-0.00024513734 338:-0.00030538603 340:3.9866205e-05 341:-0.0049220682 342:0.014461189 343:0.0016751152 345:0.02467772 346:0.0042168126 347:-0.0014823466 348:0.0015448554 349:2.0386804e-05 350:-0.0010438409 351:0.0044653961 352:6.4353e-05 354:0.00030451381 355:0.012764237 356:0.0029260912 357:0.0013272997 358:0.00016652646 359:0.0041733664 360:0.0053736898 361:-0.0001755921 362:0.016225219 363:0.0055806995 365:0.019793337 366:0.024926895 368:0.016920326 369:-0.00017629855 371:0.019134026 372:0.015465063 373:-0.0011752347 375:0.0065299426 376:0.01913109 379:0.02524888 380:0.025913583 381:0.012050123 382:-0.00084282487 383:0.0090912636 384:-0.0036328118 385:0.0027524563 386:-0.00075331383 387:-0.0097830072 388:3.5102727e-05 389:-0.00195237 390:0.0074028969 392:-0.0012525335 394:0.0020934981 395:0.000584792 396:0.02333864 397:0.0075878338 398:-2.8450559e-05 399:-0.0065388805 400:0.0047381362 401:3.5102727e-05 402:-0.0022241059 403:0.0019927956 404:0.0034502039 405:0.0043129385 406:0.0035711029 407:-0.0021259238 408:0.014775368 409:0.0042918529 410:0.015600972 411:0.0066446178 413:-0.00031637726 415:-0.0012354507 416:0.0013628836 417:-0.0011555436 418:-0.0085514495 419:0.012737278 420:-0.0013216862 421:0.0016049941 422:4.1587493e-05 423:3.5102727e-05 424:5.8502075e-05 425:1.453142e-05 426:0.021001887 427:0.0054843794 428:-0.008839542 429:0.003023108 431:0.00072117319 432:0.0058784396 433:0.0017049776 434:-2.4211533e-05 435:0.0077420063 436:0.0024135078 437:-0.0001145672 438:-0.00012899372 439:-0.0011321148 442:0.0032677685 443:5.037371e-05 444:0.015707029 445:-0.00052557251 446:0.0058216737 448:3.9866205e-05 449:0.0014247379 450:0.0024760333 451:-0.013258265 452:-0.0011137439 453:0.010216864 454:-0.00091446802 455:8.7545501e-05 457:0.015209693 458:-0.00049837161 459:0.0015762214 461:0.02521291 462:0.0016583374 463:0.0058070961 464:0.00054504757 467:-0.00058237958 469:8.7545501e-05 470:0.0016964918 471:-0.00045714591 473:0.0011867171 474:-0.00043199732 476:-0.0004982879 477:0.014962043 478:2.7793625e-05 479:2.7793625e-05 480:0.00095203338 481:-0.00010579912 483:0.00059487467 484:0.021142848 485:0.0070539098 486:0.0015034355 487:-0.0009971722 490:-0.0021899499 491:0.0039496589 492:0.0084034419 493:2.7793625e-05 494:0.0084034419 495:-0.00063498423 496:0.005867504 497:0.013892351 498:0.0030471187 499:-0.0026874824 500:0.00048467025 503:0.022380674 504:-0.017742457 505:-0.011158145 506:-0.00091378385 508:0.0015117252 509:0.0069434238 510:0.0073726685 511:0.015128998 513:-0.00047839154 515:0.00081953069 517:1.453142e-05 518:0.00068707077 520:0.014105508 521:0.0073095276 522:0.0042108214 523:0.00042499349 524:0.0026485892 526:-0.0021966172 527:-0.001413234 528:7.2215014e-05 530:0.0042135511 531:0.00048780552 533:0.0060996478 534:0.015008229 535:-0.0008889467 536:0.006939976 538:-0.0024025897 540:0.00094392145 541:0.00076354918 542:0.0019648371 543:0.012913804 545:-0.020823758 549:1.1547172e-05 551:5.4731387e-05 552:4.0008304e-05 553:0.020384314 554:0.00048467025 555:-0.00014734945 556:0.017140832 558:8.0911515e-05 559:0.0065299426 560:0.007112083 561:0.0014266636 562:0.024485126 564:-0.00030163137 565:0.0020934981 567:-0.00040090096 568:0.0058389278 569:0.00050596916 570:0.00093056931 571:-0.00065798796 572:0.0011253189 573:-0.00040286197 574:0.00081595214 575:0.0023396006 576:8.9397407e-05 577:8.9347268e-05 578:0.0050351974 579:0.0017468028 580:-0.0011208215 581:0.0052719302 582:0.020978561 583:0.0027108348 584:-0.0014855851 585:-0.0021413406 586:-0.0014823466 587:0.004094128 588:3.2780154e-05 589:0.0030471187 591:3.5102727e-05 592:-0.00042472975 594:0.010091357 595:0.020928739 596:-0.012288969 597:-0.001145946 599:0.025290269 600:0.0058080568 601:0.0030726448 602:0.0013715135 604:0.025833189 605:0.024942953 606:0.002033791 607:0.00022342765 609:0.00180194 610:0.00041622401 611:0.0076669669 613:0.00050509075 614:0.014186721 616:0.0024214259 617:-0.00015194764 619:0.0013749603 620:0.01361076 622:0.026200585 623:0.0018793707 625:-2.0160514e-05 626:0.00037137381 627:-0.020632837 628:0.0024312597 629:-0.0012525335 631:0.0072678002 632:1.4727875e-05 634:0.0021120233 637:0.005524952 638:0.02144368 640:-0.0019528804 641:-0.0005621626 642:0.0041299569 643:0.014673265 644:-0.0018088665 646:0.0032662926 649:0.023494629 650:0.0035428677 651:0.0071086097 652:0.0032054142 653:0.0035100097 654:0.0023755983 655:0.012923786 656:0.0027025195 657:0.0039636702 658:0.0011952516 659:0.025050472 660:-0.00064471556 661:0.0013195586 662:3.0525469e-05 663:-0.00030474123 665:-0.0028796555 666:0.0019379293 667:-9.1577567e-05 668:0.0087617226 670:-0.0022478576 671:0.0012851886 673:-0.0030342627 674:-0.00017578962 675:-0.015519238 676:0.0014272028 677:0.0044159582 678:0.0014273878 679:0.00082701875 680:-8.7073e-05 681:-0.00014734945 682:0.0023911148 684:-1.722559e-05 686:3.1842632e-05 687:-0.00090479437 688:1.453142e-05 689:-0.00067292427 691:-0.0012096585 692:0.007386175 693:-0.00045389289 694:-0.0023573202 695:-0.0017816105 696:0.00057548884 697:-0.00018399564 698:-0.0034020902 699:0.013148258 700:0.0029439137 #
