SVM-light Version V6.20
0 # kernel type
3 # kernel parameter -d 
1 # kernel parameter -g 
1 # kernel parameter -s 
1 # kernel parameter -r 
empty# kernel parameter -u 
701 # highest feature index 
6 # number of training documents 
2 # number of support vectors plus 1 
0 # threshold b, each following line is a SV (starting with alpha*y)
1 1:0.001192812 2:0.00038069498 3:0.010797272 4:0.0084242625 5:0.00076172495 6:0.018542254 7:0.012285084 8:0.020537639 9:0.0096398592 10:-0.0013475133 11:-0.0011490241 13:0.0062441579 14:0.02181376 15:0.0094222706 16:-9.6330979e-05 17:-0.0047498839 18:-0.0021205689 19:0.000351486 20:0.01044414 21:-0.010539727 22:0.00028547685 23:0.0035304837 24:3.6204674e-05 25:0.0058084861 27:-0.0062212464 30:-0.0032626605 31:0.006611174 32:-0.003187231 33:-0.00015721071 34:-0.0012597721 35:0.0042251041 36:-0.0012800726 37:0.015299579 38:-0.002828164 40:2.8142167e-05 41:0.014215295 42:-0.0001158094 43:-0.0013702511 44:-0.0012588092 45:0.00031945235 47:0.00028547685 48:0.0016146057 49:0.01136179 50:0.0092180204 51:0.0018129657 53:5.8968228e-05 54:-0.0021611636 55:0.0011138733 56:0.00035796044 57:0.011054924 59:0.00016111547 60:0.0039591277 61:0.0085279969 62:0.002927793 64:0.0015201443 65:-0.00062461849 66:-0.0054970332 68:-0.00050480402 69:-0.0048678298 70:0.0035711145 72:-0.0015308853 73:0.0030794723 74:-6.9110341e-05 75:0.0013120134 76:0.0059685074 77:0.00035503344 79:0.0066158152 80:-0.00015841483 81:0.0028193812 82:-9.7923759e-05 83:0.007492302 84:-0.00049246533 85:-0.001394226 86:-0.0024859128 87:6.41074e-05 88:-9.4166309e-05 91:0.017737566 92:0.00035660237 93:-4.1804542e-05 94:0.024604259 95:0.002103294 96:0.013724272 97:0.0014372399 98:-0.0024984155 99:0.0014526178 100:0.014309878 101:-0.0012335747 102:-0.00063133251 103:0.013232114 105:4.2096814e-05 106:-0.00078654784 108:0.0044868081 109:2.5341844e-05 112:0.00030398683 113:0.012115889 114:0.0033698343 115:0.011430466 116:-0.0042120549 117:3.5401114e-05 118:0.0018176411 119:0.00069677719 120:0.024983786 121:0.0027687787 122:-0.00085921335 123:0.0037938047 124:0.0037763685 126:-0.00010896484 127:0.0046378314 128:0.0035513095 129:0.0042589554 130:0.013271397 133:0.0038262822 134:0.00091070757 135:-0.00029559163 136:0.0050858101 137:0.006611174 138:0.0088616274 139:-0.00082585879 140:0.0097699342 142:-0.00086617249 143:0.0016421502 144:0.0022051525 145:-0.0061503313 146:-0.002079139 147:-0.0025831391 148:0.018750343 149:-0.0011069666 150:0.0019198761 151:0.023010986 152:0.010571851 153:0.025173187 154:-0.0023063291 155:0.0037558498 158:0.0022903781 159:0.0030427056 162:0.0065156166 163:-0.003386406 164:0.02281436 165:0.0032840574 168:0.0035513095 171:0.00028026066 172:-4.707442e-05 173:-0.0030660257 174:-0.0013141009 175:0.0029014288 176:0.00062575738 177:-0.0016953126 178:-0.0073516439 179:-0.0016506887 180:0.008747966 183:-0.0041778735 185:-0.0001315359 186:0.011084246 187:-0.017287333 188:-0.0013881612 189:0.022494383 190:0.0009895477 192:0.0057837432 193:-0.00014569816 194:0.0018757004 196:0.0055990629 197:-0.0013141423 198:-0.00015463532 200:-0.0020362586 201:0.0018379211 202:0.023275787 203:0.0063321665 204:0.0040984401 205:0.0035421913 206:-0.00078654784 207:0.015103946 208:0.0034443419 209:0.00027974905 210:0.013497159 211:2.2508553e-05 212:-0.0040705879 213:-0.0014787647 214:0.021070972 215:0.0080694295 216:0.011638982 218:0.012141356 219:0.0022764867 220:-0.012821018 221:0.0039944793 226:0.0013256107 228:8.4688745e-06 230:0.013351772 233:0.012233338 235:-0.014420009 236:0.0015170666 237:0.020703768 239:-0.00050713687 241:0.019097457 242:-0.0026656964 243:-0.0078217825 244:0.0039258297 245:0.0026042047 247:0.00052761979 248:0.023821158 249:0.006459787 250:2.396003e-05 251:4.1928419e-05 253:0.0093974033 254:-0.0009826395 255:0.011071458 256:0.024509557 257:0.0035248019 258:-0.0014309527 259:-0.00015104517 260:0.024816314 261:0.013255619 262:0.00028547685 263:0.0044977665 265:-0.0026860395 266:0.0037024752 267:-0.001300325 268:0.023187919 269:0.00017787536 270:0.010673534 272:0.0019308019 273:0.00063006586 275:-0.00077228516 276:0.00077202969 277:0.0017563443 278:2.5596772e-05 279:0.0018595442 280:0.023700796 281:0.00080228451 282:0.00050910923 283:0.0049256003 284:0.0065270225 285:0.0095235789 286:-0.00035728191 290:0.0033698343 291:-0.00015721071 292:0.0023688152 294:-0.00018664799 295:0.00063281367 296:-0.0034270219 297:0.0013761593 298:-0.00059922913 299:-0.0015703102 300:0.0032255331 302:0.0044034789 303:-0.0014895238 304:0.0090112137 305:-0.0026761263 306:0.0025054475 307:0.00030792126 308:0.0058084861 309:0.0018592891 310:0.0015690463 311:0.00035560568 312:0.013614749 313:-0.00061155547 314:0.0029069723 315:0.0036748149 316:4.1928419e-05 317:0.0057252469 318:0.00012404179 319:6.41074e-05 322:0.0019581646 323:0.0016401169 324:-0.0005311452 325:0.0098263286 326:0.00771093 327:-0.0018743994 328:0.0044412841 329:-0.0057862224 330:0.0056996187 332:0.013019728 334:0.00028257148 335:0.024495479 336:-6.1193547e-05 337:-0.00028426154 338:-0.00081183732 340:4.1928419e-05 341:-0.0072303503 342:0.012606775 343:0.0021025746 345:0.022416592 346:0.0033599273 347:-0.00075904158 348:0.0014758477 349:-0.00071798079 350:-0.0017709037 351:0.0034011716 352:6.572518e-05 354:0.00028547685 355:0.010825184 356:0.0025594677 357:0.0013307893 358:0.00024075943 359:0.0041598622 360:0.0047210106 361:-0.00015827052 362:0.014320841 363:0.0033849592 365:0.018135637 366:0.023097727 368:0.016371766 369:-0.00015912823 371:0.017595543 372:0.013972142 373:-0.0012708015 375:0.0058084861 376:0.017734393 379:0.023975797 380:0.026303031 381:0.012935847 382:-0.0018519674 383:0.0084225992 384:-0.0026761263 385:0.0011844916 386:-0.0025645096 387:-0.0086136982 388:3.5788285e-05 389:-0.0028323971 390:0.0066454243 392:-0.00078654784 394:0.0016733272 395:0.0033754294 396:0.022471134 397:0.00809203 398:-9.9136159e-05 399:-0.0067824018 400:0.0033696422 401:3.5788285e-05 402:-0.0033319262 403:0.0015538965 404:0.0018390862 405:0.0037396243 406:0.0032024814 407:-0.00033561475 408:0.012899561 409:0.0030530102 410:0.013575357 411:0.0066020992 413:-0.00080282625 415:-0.0029663914 416:0.0014655275 417:-0.0012372872 418:-0.0091088759 419:0.011404178 420:-0.0014751329 421:0.00056323013 422:4.1828942e-05 423:3.5788285e-05 424:-1.5229128e-05 425:8.4688745e-06 426:0.021231782 427:0.0048052818 428:-0.0092179598 429:0.0021638873 431:0.00035935486 432:0.0038542375 433:0.00074888574 434:-8.9114139e-05 435:0.0077640521 436:0.0022129209 437:-0.0014977747 438:-0.0015904062 439:-0.0012074457 442:0.0024268134 443:0.00015409495 444:0.013777193 445:-0.0020044066 446:0.0059651365 448:4.1928419e-05 449:0.0016383163 450:0.0015066972 451:-0.01289086 452:-0.000632721 453:0.010228829 454:-0.0020550871 455:6.41074e-05 457:0.013614749 458:-0.00055601081 459:0.0033742744 461:0.023566347 462:0.0015025508 463:0.0055574714 464:0.00057470769 467:-0.0012078647 469:6.41074e-05 470:0.0017132664 471:-0.00014425792 473:0.00064745516 474:-0.0014246959 476:-0.0020019535 477:0.013017964 478:3.5401114e-05 479:3.5401114e-05 480:0.00036289339 481:-0.00017423491 483:0.00045766504 484:0.020164743 485:0.0048186895 486:0.0012373645 487:-0.0024756996 490:-0.0030293691 491:0.0035559251 492:0.0073517039 493:3.5401114e-05 494:0.0073517039 495:0.0025086168 496:0.0034411922 497:0.011843163 498:0.0021688438 499:-0.0029834686 500:0.00037571767 503:0.020846268 504:-0.019056911 505:-0.012546111 506:-0.00098560413 508:0.0011532761 509:0.0061785053 510:0.0076799467 511:0.013543821 513:-0.002070559 515:0.00054494268 517:8.4688745e-06 518:0.00058731664 520:0.013536924 521:0.0057997201 522:0.0043318588 523:0.00037370159 524:0.0023041109 526:-0.0023680669 527:0.00038851926 528:-0.00010833072 530:0.0043355459 531:0.0003815534 533:0.005857205 534:0.012962816 535:-0.0019686108 536:0.0078787915 538:-0.003408619 540:-0.00065769831 541:0.00020674636 542:0.0010495455 543:0.011918023 545:-0.018913962 549:1.2203661e-05 551:2.8146396e-05 552:4.2077874e-05 553:0.018712711 554:0.00037571767 555:-0.00015721071 556:0.016080813 558:-0.0012742972 559:0.0058084861 560:0.0063158851 561:0.0016419092 562:0.023000089 564:-0.00078001979 565:0.0016733272 567:-0.00035588324 568:0.0048424168 569:0.00063278887 570:-0.00083481509 571:-0.0013440397 572:0.001090356 573:-0.00035762475 574:0.0001488186 575:0.0023513732 576:6.5396358e-05 577:0.0001257387 578:0.0047455416 579:0.0010927923 580:-0.0011531146 581:0.0054191086 582:0.020384572 583:0.0023396569 584:-0.00087317993 585:-0.0032496992 586:-0.00075904158 587:0.0025660652 588:4.1764615e-05 589:0.0021688438 591:3.5788285e-05 592:-0.00063567422 594:0.0098613771 595:0.019661076 596:-0.011677147 597:-0.00066723552 599:0.024849812 600:0.0037245713 601:0.0029765849 602:0.0022706909 604:0.024215166 605:0.02318834 606:-0.00026562696 607:-0.0012747713 609:0.0025293904 610:0.00041470237 611:0.006972977 613:0.00063154887 614:0.012243221 616:0.0026026238 617:-0.00016211614 619:0.00087630091 620:0.011426438 622:0.024816314 623:0.0015450338 625:-9.1742368e-05 626:0.00045527675 627:-0.019158712 628:0.0025808373 629:-0.00078654784 631:0.0057523926 632:8.5889587e-06 634:0.0016988968 637:0.005620413 638:0.02110854 640:-0.0024579624 641:-0.0021996896 642:0.0040136157 643:0.013059165 644:-0.0026925518 646:0.0019832365 649:0.023320341 650:0.0035507327 651:0.0044781277 652:0.0014409897 653:0.003513064 654:0.0018924817 655:0.012830039 656:0.0021931406 657:0.0038755259 658:0.0006562245 659:0.024351472 660:-0.00061939302 661:0.0013205893 662:0.00013588012 663:-0.00081174861 665:-0.0041152737 666:0.0015261116 667:4.398582e-06 668:0.0097802216 670:-0.0025854346 671:0.0024062993 673:-0.002062174 674:-0.00034084718 675:-0.017150056 676:0.0016421877 677:0.0042362185 678:0.0016421502 679:0.0007429836 680:-0.00017005429 681:-0.00015721071 682:0.0014956519 684:-2.7046339e-05 686:-0.00014687046 687:-0.00098508003 688:8.4688745e-06 689:-0.00064127415 691:-0.0013122279 692:0.0078678215 693:-0.002063741 694:-0.0038113187 695:-0.0031535134 696:0.00067602377 697:-0.00019557172 698:-0.0042165294 699:0.013645398 700:0.0020238571 #
