SVM-light Version V6.20
0 # kernel type
3 # kernel parameter -d 
1 # kernel parameter -g 
1 # kernel parameter -s 
1 # kernel parameter -r 
empty# kernel parameter -u 
701 # highest feature index 
5 # number of training documents 
2 # number of support vectors plus 1 
0 # threshold b, each following line is a SV (starting with alpha*y)
1 1:0.0071823383 2:0.00028372864 3:0.01834392 4:0.0061222692 5:0.00076101191 6:0.023516895 7:0.0060477126 8:0.035637546 9:0.011917669 10:0.00030732749 11:0.0067049516 13:0.0085308915 14:0.028577924 15:0.011703673 16:-0.00066482864 17:-0.0052005816 18:0.0012798137 19:-0.00011898688 20:0.017433722 21:-0.012891509 22:0.00022099282 23:0.0029698256 25:0.007799766 27:-0.0061052651 30:0.0096280733 31:0.0089266244 32:0.0034607821 34:9.8720993e-05 35:0.00074170751 36:-4.0337971e-05 37:0.018837819 38:-0.00091436657 40:0.00064414012 41:0.016879065 42:0.0008994888 43:0.0076936362 44:-0.00081869739 45:0.0021434638 47:0.00022099282 48:0.0010522911 49:0.014144951 50:0.0036300705 51:0.0020102155 54:0.001054632 55:0.0020390067 56:0.00056214491 57:0.0083623342 59:0.00073572132 60:0.00886246 61:0.00880126 62:0.0032281619 64:0.0040721679 65:-0.00089456904 66:0.00063153409 68:-0.0017812008 69:0.0032473474 70:0.0019448278 72:0.0014150221 73:0.0077296062 74:0.0038845798 75:0.0022621297 76:0.0053111287 77:-0.0013552895 79:0.0089175431 80:-0.0002138179 81:0.011034066 82:-0.00066116446 83:0.0089747496 84:-0.0017576766 85:0.0077338223 86:0.0012991908 87:-4.6600471e-05 88:-0.00065933698 91:0.01904651 92:0.000571532 94:0.023539143 95:0.0019476527 96:0.017047171 97:0.0043519721 98:0.0014988641 99:0.0005186355 100:0.021001689 101:0.0066096443 102:-0.00085157214 103:0.016246419 105:2.3864917e-05 106:-0.0011651885 108:0.0011794589 109:7.9190555e-05 112:0.00073901122 113:0.0085307127 114:0.011060871 115:0.01510214 116:0.0032211365 117:4.0974704e-05 118:0.0058701034 119:0.0086428896 120:0.027357914 121:0.0035190517 122:0.0041992939 123:0.00076118461 124:0.010022073 126:0.0069562048 127:0.0070427633 128:0.0029835263 129:0.0087982751 130:0.0087652728 133:0.0088658659 134:0.0065402393 135:0.0009466756 136:0.0047512064 137:0.0089266244 138:0.0082271285 139:0.0011290115 140:0.0023114188 142:-0.0012876196 143:0.0023359791 144:0.0033183715 145:-0.00081175036 146:0.0033238342 147:0.0025731446 148:0.027530156 149:0.0052973307 150:0.010663896 151:0.025342382 152:0.016036425 153:0.028458297 154:0.0064296662 155:0.0044481978 158:0.0072199027 159:0.0050908257 162:0.0062792762 163:0.001802539 164:0.025264423 165:0.010228059 168:0.0029835263 171:0.00028577994 172:0.0020071522 173:0.0046277177 174:0.00033931353 175:-0.0099380938 176:0.0076758792 177:0.0026815238 178:-0.011994906 179:0.010827433 180:0.0081603387 183:0.0032880101 185:-0.0011416199 186:0.017803537 187:-0.017894356 188:-0.00047604323 189:0.028106986 190:-0.0029259587 192:0.0061056418 193:0.00089566829 194:0.0078119226 196:0.0088206613 197:0.0002612432 198:-0.00021367875 200:-0.00026744005 201:0.0079234699 202:0.024103137 203:0.0085566128 204:0.0028270795 205:0.002985467 206:-0.0011651885 207:0.019248124 208:0.0043860725 209:0.0011395835 210:0.0092122192 211:0.00028621859 212:0.0013930701 213:0.0014563401 214:0.020828655 215:0.013621663 216:0.0087747928 218:0.0091945948 219:0.0038851029 220:-0.020193323 221:0.0028386347 226:0.0022605818 228:0.00028280762 230:0.0066130324 233:0.0058914209 235:-0.006926551 236:0.002361815 237:0.020528506 239:0.0005834499 241:0.01643602 242:0.00064071617 243:0.0023028934 244:-0.0061111571 245:0.0087588793 247:0.0036803938 248:0.027043657 249:0.0086624594 250:-2.2004177e-05 251:2.3769453e-05 253:0.01053786 254:-0.0034294839 255:0.013644533 256:0.027340794 257:-0.0074460674 258:-0.0013149347 259:4.578615e-05 260:0.027149636 261:0.019215846 262:0.00022099282 263:0.010732564 265:0.0015148713 266:0.0029174208 267:0.00019394941 268:0.025937777 269:4.0399958e-05 270:0.012978697 272:-0.00070586876 273:0.00078192132 275:-0.000308399 276:0.0013108662 277:-0.0099792173 278:8.0037731e-05 279:0.0060197874 280:0.029767077 281:0.0025785491 282:-0.0015558567 283:0.011187425 284:0.0088017108 285:0.0087116221 286:-0.00054411858 290:0.011060871 292:0.0039516301 294:0.0001324465 295:0.00078459876 296:0.0040715947 297:0.0065868902 298:-0.00049693702 299:-0.0014945627 300:0.0025663991 302:0.0047506373 303:0.0014397998 304:0.0028206427 305:-0.0049316105 306:0.00094434014 307:0.0002384618 308:0.007799766 309:0.0096344296 310:0.0093712537 311:0.00057758996 312:0.016933747 313:-0.00085096806 314:0.0023410518 315:0.0030264952 316:2.3769453e-05 317:0.012955705 318:-0.00028517708 319:-4.6600471e-05 322:0.0067079272 323:0.0023331817 324:-0.00016622507 325:0.014567456 326:0.0054184054 327:0.0052583274 328:0.0075802328 329:0.00034522076 330:0.01294848 332:0.012140968 334:7.9723097e-05 335:0.027039185 336:-0.0002830654 337:0.00068701885 338:-0.00031273701 340:2.3769453e-05 341:0.0027575174 342:0.01489801 343:7.3385017e-05 345:0.027863974 346:0.010159743 347:-0.0035176945 348:0.0011269175 349:0.002271181 350:0.00088631845 351:0.011609013 352:6.4162283e-05 354:0.00022099282 355:0.016562046 356:0.0037526928 357:0.0022318959 358:1.0023894e-06 359:-0.0016086614 360:0.0072799232 361:-0.0002134964 362:0.020070901 363:0.009733865 365:0.023601543 366:0.026246419 368:0.016350562 369:-0.00021504868 371:0.024492502 372:0.017097924 373:-0.00079466746 375:0.007799766 376:0.020128088 379:0.02598748 380:0.024224389 381:0.0076855058 382:0.0021105334 383:0.012864927 384:-0.0049316105 385:0.010007937 386:0.0061858892 387:-0.0091785053 389:0.0032543766 390:0.0088187996 392:-0.0011651885 394:0.0024792831 395:-0.0043584718 396:0.025093567 397:0.0059286295 398:-0.000663021 399:-0.0067439945 400:0.01081648 402:0.0030469734 403:0.0023534936 404:0.0062715374 405:0.010381845 406:0.0038045784 407:-0.0057361526 408:0.020008929 409:0.0076373108 410:0.020408282 411:0.0049224584 413:-0.0003302902 415:0.0048264302 416:0.0023607896 417:-0.0008407124 418:-0.004229195 419:0.01506874 420:0.0014336893 421:0.006313507 424:0.00042558045 425:0.00028280762 426:0.01882245 427:0.0052967952 428:-0.0058669583 429:0.0047439472 431:-0.00090944127 432:0.0091218147 433:0.0044502439 434:-0.00060989859 435:0.008272809 436:0.0025425581 437:0.0025658375 438:0.0048807082 439:-0.00086294039 442:0.003400607 443:-2.5761326e-06 444:0.019546323 445:0.0048602461 446:0.0055433023 448:2.3769453e-05 449:0.0023368688 450:0.0053898441 451:-0.0074296524 452:-0.0038496288 453:0.010834122 454:0.0014337786 455:-4.6600471e-05 457:0.016933747 458:0.0014094269 459:-0.0017283808 461:0.02552397 462:0.0014897871 463:0.0062350063 464:0.0025773721 467:0.00033768927 469:-4.6600471e-05 470:0.002797029 471:0.00018440813 473:0.0025657874 474:0.0035816433 476:0.0049868082 477:0.019134501 478:4.0974704e-05 479:4.0974704e-05 480:0.0034060604 481:-0.00031138997 483:-0.0016720158 484:0.019593863 485:0.011389145 486:0.0021440785 487:0.0013148882 490:0.0026079151 491:0.0029415935 492:0.014591075 493:4.0974704e-05 494:0.014591075 495:-0.0094180908 496:0.010203663 497:0.018750632 498:0.004818826 499:-0.0020950355 500:0.00059537141 503:0.027225802 504:-0.015150569 505:-0.0033249257 506:-0.0024399564 508:0.0086394902 509:0.0083235018 510:0.0059606521 511:0.016604997 513:0.0052804481 515:0.0018201647 517:0.00028280762 518:-0.0015139005 520:0.011989066 521:0.013313443 522:0.0036071488 523:0.00011794415 524:0.0037851767 526:-0.0013407591 527:-0.011018737 528:0.00088836206 530:0.0036162252 531:0.00059489306 533:0.0016393665 534:0.020048711 535:0.0029229065 536:0.003457678 538:0.0031417054 540:0.0032888509 541:0.0019853627 542:0.0076030535 543:0.012388639 545:-0.024094013 549:-2.1806754e-05 551:0.00064423674 552:2.3854176e-05 553:0.024518527 554:0.00059537141 556:0.017698282 558:0.0049583334 559:0.007799766 560:0.0086379284 561:0.0023328743 562:0.029103475 564:-0.00031156896 565:0.0024792831 567:-0.00048829662 568:0.0080923904 569:0.00078195654 570:0.0032185542 571:0.00031365961 572:0.00097790745 573:-0.00049067824 574:0.0022641844 575:0.0038668707 576:-4.7969919e-05 577:4.649091e-05 578:0.0011630544 579:0.0040041818 580:-0.00087274989 581:0.003643489 582:0.0224388 583:0.0039874013 584:-0.0017177351 585:0.00307092 586:-0.0035176945 587:0.007270175 588:4.7195219e-05 589:0.004818826 592:0.00039830428 594:0.0029938957 595:0.02159993 596:-0.010467653 597:-0.00079248397 599:0.025050826 600:0.0094692949 601:0.0027385396 602:-0.00018699472 604:0.026855957 605:0.026456229 606:0.0077897743 607:0.0026017434 609:-0.00027797875 610:0.00035750787 611:0.0065579857 613:0.00078059902 614:0.018053159 616:0.0046752151 619:0.0027011028 620:0.01771554 622:0.027149636 623:0.0028286106 625:-0.00065032818 626:0.00036883101 627:-0.020290451 628:0.0044845659 629:-0.0011651885 631:0.013302264 632:0.00028638926 634:0.0024869977 637:0.0056414157 638:0.020509552 640:0.0010729431 641:0.0047368626 642:0.007123841 643:0.016418952 644:0.002815865 646:0.0067644757 649:0.021525837 650:0.0029839417 651:0.010461734 652:0.0058975173 653:0.0028925091 654:0.00026351309 655:0.0069314744 656:0.0043197437 657:0.0029624491 658:0.0025875405 659:0.025351694 660:-0.00086055585 661:0.002278154 662:-0.00011925129 663:-0.00031164443 665:0.0021673783 666:0.0022597783 667:-0.00028310093 668:0.0050554601 670:-0.002264946 671:-0.0017582672 673:-0.0054677171 674:0.0015982318 675:-0.0085707465 676:0.0023355314 677:0.0073489682 678:0.0023359791 679:-0.0018084216 680:-0.00016576635 682:0.0044098296 684:-0.00014286158 686:0.00089265942 687:0.0007501542 688:0.00028280762 689:-0.00085753435 691:-0.00083541125 692:0.005791049 693:0.0053386539 694:0.0025370719 695:-0.0025393688 696:0.0012876539 697:-0.00012111495 698:0.0010884985 699:0.013248852 700:0.0048106229 #
