SVM-light Version V6.20
0 # kernel type
3 # kernel parameter -d 
1 # kernel parameter -g 
1 # kernel parameter -s 
1 # kernel parameter -r 
empty# kernel parameter -u 
701 # highest feature index 
5 # number of training documents 
2 # number of support vectors plus 1 
0 # threshold b, each following line is a SV (starting with alpha*y)
1 1:0.0016793187 2:0.00040323299 3:0.01108858 4:0.0079700537 5:0.00081051735 6:0.018639246 7:0.012437813 8:0.020260273 9:0.0099884328 10:-0.0011103476 11:-0.00025143067 13:0.0060723107 14:0.021888323 15:0.0097780898 16:3.3829863e-06 17:-0.0047417413 18:-0.0018512474 19:0.00035431731 20:0.010681038 21:-0.010702102 22:0.00029463237 23:0.0035399271 24:3.6508456e-05 25:0.0056454525 27:-0.0061793607 30:-0.0019365087 31:0.0065931892 32:-0.0028773528 33:-0.00015069748 34:-0.0012170733 35:0.0037639313 36:-0.0014033845 37:0.014703938 38:-0.0028502354 40:3.9498787e-05 41:0.014573142 42:-5.5350698e-05 43:-0.00010118196 44:-0.0010973563 45:0.00050784729 47:0.00029463237 48:0.0016360681 49:0.011795999 50:0.0085811028 51:0.0018126527 53:5.8672034e-05 54:-0.0017978828 55:0.0015274616 56:0.00036890703 57:0.010742306 59:0.00017543322 60:0.0042202342 61:0.0083289742 62:0.0028879771 64:0.0015137272 65:-0.0005932083 66:-0.004428131 68:-0.00036039582 69:-0.0038817939 70:0.00374368 72:-0.001590169 73:0.0033321276 74:0.00015445097 75:0.0012548671 76:0.005723116 77:0.00021894887 79:0.006592507 80:-9.3304719e-05 81:0.0033336941 82:1.5254907e-06 83:0.0073851375 84:-0.00035143434 85:-0.00055689237 86:-0.0021016137 87:7.1736387e-05 88:4.811654e-06 91:0.017335203 92:0.00036530869 93:-3.8329377e-05 94:0.024217911 95:0.0023754437 96:0.014062471 97:0.0012561682 98:-0.0020972523 99:0.0016157274 100:0.014561144 101:-0.00043560984 102:-0.00060037244 103:0.013560119 105:4.1361418e-05 106:-0.00073331891 108:0.0047830283 109:1.9069819e-05 112:0.00032802235 113:0.011731525 114:0.0039556413 115:0.011552153 116:-0.0038745236 117:0.00010968712 118:0.001871345 119:0.0011237795 120:0.025231721 121:0.0025462389 122:-0.00028617019 123:0.0042510922 124:0.0042677317 126:0.00029772863 127:0.0051059481 128:0.0035616974 129:0.0044989879 130:0.013202232 133:0.0042841514 134:0.0013813537 135:-0.00031629307 136:0.0050260858 137:0.0065931892 138:0.0083283437 139:-0.00065954396 140:0.009300936 142:-0.00080105668 143:0.0016819984 144:0.0022434359 145:-0.0059147342 146:-0.0014974193 147:-0.0019542158 148:0.018842887 149:-0.00024628849 150:0.0025320961 151:0.023334067 152:0.010837451 153:0.025295304 154:-0.0011633071 155:0.0035987166 158:0.002442077 159:0.0036642256 162:0.0065253824 163:-0.0026753007 164:0.022923371 165:0.0038618518 168:0.0035616974 171:0.00026190482 172:0.00020466393 173:-0.0020874885 174:-0.0010872573 175:0.0012467447 176:0.0011651501 177:-0.0011262349 178:-0.0075378916 179:-0.00025688313 180:0.008221956 183:-0.0038427641 185:-0.00016014585 186:0.011338168 187:-0.016847 188:-0.0015567695 189:0.022579614 190:0.00079953298 192:0.0056686015 193:-8.5834683e-05 194:0.0023530575 196:0.0056074532 197:-0.0010825029 198:-8.8897541e-05 200:-0.0018516941 201:0.0023641647 202:0.023323238 203:0.0063258479 204:0.004118898 205:0.0035509628 206:-0.00073331891 207:0.01522374 208:0.0035060877 209:6.235265e-05 210:0.01343187 211:2.3093698e-05 212:-0.0038760358 213:-0.0015423743 214:0.020750321 215:0.0084238378 216:0.01138667 218:0.011797993 219:0.0020957736 220:-0.013230931 221:0.0040135533 226:0.0012689416 228:9.5827254e-06 230:0.013506635 233:0.012388142 235:-0.014123811 236:0.0014980612 237:0.020874204 239:-0.00039918549 241:0.018642815 242:-0.0024036102 243:-0.0065781022 244:0.0024455502 245:0.0029762515 247:0.00096657872 248:0.024116058 249:0.0062763663 250:2.4747247e-05 251:4.1195966e-05 253:0.0095011843 254:-0.0010347244 255:0.011439126 256:0.024536908 257:0.00209804 258:-0.0014463038 259:-8.4377039e-05 260:0.025069527 261:0.013464626 262:0.00029463237 263:0.0049626133 265:-0.0021600744 266:0.0040416881 267:-0.0013544799 268:0.023274368 269:0.00015623774 270:0.011052451 272:0.0017147841 273:0.00064232561 275:-0.00053668756 276:0.00087562378 277:0.000274288 278:1.9257228e-05 279:0.0019162883 280:0.023804054 281:0.00075731607 282:0.000404491 283:0.0054021282 284:0.0065079266 285:0.0095297331 286:-0.00039391511 290:0.0039556413 291:-0.00015069748 292:0.0021677439 294:-6.0966777e-05 295:0.00064335403 296:-0.0030995009 297:0.0017234565 298:-0.00062556745 299:-0.0014651571 300:0.0033637555 302:0.0043688826 303:-0.0015519428 304:0.0089452108 305:-0.0034403265 306:0.0020985398 307:0.00031780155 308:0.0056454525 309:0.0025115057 310:0.0020938443 311:0.00036515281 312:0.013960226 313:-0.00058350246 314:0.002654627 315:0.0036887191 316:4.1195966e-05 317:0.0062213652 318:0.00020053537 319:7.1736387e-05 322:0.0020168985 323:0.0016794752 324:-0.00057110924 325:0.0098162526 326:0.0073352107 327:-0.0011558427 328:0.004455436 329:-0.0047800788 330:0.0061950199 332:0.012972431 334:0.00023150881 335:0.024548689 336:-5.8253081e-05 337:-0.00031587767 338:-0.00056212116 340:4.1195966e-05 341:-0.0060031093 342:0.013015081 343:0.0020575484 345:0.022725804 346:0.0039247996 347:-0.0015293151 348:0.0016229731 349:-0.00020956596 350:-0.0015077678 351:0.0038916357 352:6.9535541e-05 354:0.00029463237 355:0.011089983 356:0.0031203751 357:0.0012723609 358:0.00025365988 359:0.0036614824 360:0.0045062467 361:-9.324203e-05 362:0.014514899 363:0.0037544079 365:0.018207578 366:0.023416741 368:0.016435532 369:-9.420819e-05 371:0.017847367 372:0.014276803 373:-0.0010975568 375:0.0056454525 376:0.01811971 379:0.024108386 380:0.025593732 381:0.012439196 382:-0.0009126442 383:0.0085868929 384:-0.0034403265 385:0.0025492271 386:-0.0011177988 387:-0.0087379077 388:3.6088572e-05 389:-0.0025472657 390:0.0066140615 392:-0.00073331891 394:0.0016495064 395:0.0021759016 396:0.022310307 397:0.0076329163 398:5.387044e-07 399:-0.007004831 400:0.0039419085 401:3.6088572e-05 402:-0.0031632672 403:0.001535673 404:0.0019794113 405:0.0043208934 406:0.0035506319 407:-0.0014048357 408:0.013133437 409:0.003313245 410:0.013805849 411:0.0066702822 413:-0.00055885589 415:-0.0017567059 416:0.0014794808 417:-0.0010775968 418:-0.0092185484 419:0.011526375 420:-0.0015387713 421:0.0010235241 422:4.2279022e-05 423:3.6088572e-05 424:-3.8342423e-05 425:9.5827254e-06 426:0.020867467 427:0.0048779892 428:-0.0088021113 429:0.0021223484 431:0.00046392958 432:0.0042087133 433:0.0014052902 434:-8.9820307e-05 435:0.0075714155 436:0.0022266628 437:-0.00094201427 438:-0.00089530757 439:-0.0010635167 442:0.0031678055 443:0.00016889519 444:0.013984468 445:-0.0012507892 446:0.0058613312 448:4.1195966e-05 449:0.0016794816 450:0.0018414898 451:-0.013332542 452:-0.00070034812 453:0.010069178 454:-0.0018036959 455:7.1736387e-05 457:0.013960226 458:-0.00063677132 459:0.002740968 461:0.023911662 462:0.0015960182 463:0.0054005082 464:0.00043912797 467:-0.00099131593 469:7.1736387e-05 470:0.0016518257 471:-0.00022572832 473:0.0005977028 474:-0.00084871537 476:-0.0012347418 477:0.013237516 478:0.00010968712 479:0.00010968712 480:0.0010214391 481:-0.00020813533 483:0.00037326504 484:0.020328633 485:0.0053408691 486:0.0014349641 487:-0.0020881852 490:-0.0028087064 491:0.0039086291 492:0.0078247981 493:0.00010968712 494:0.0078247981 495:0.0010205178 496:0.0040616454 497:0.012072433 498:0.0021324672 499:-0.0026130064 500:0.00038393398 503:0.021052975 504:-0.018509846 505:-0.012097374 506:-0.00082048977 508:0.0015902384 509:0.0059991898 510:0.0077178804 511:0.013840991 513:-0.0013592517 515:0.0007295236 517:9.5827254e-06 518:0.00047741883 520:0.01343094 521:0.0063164374 522:0.0042846133 523:0.00039763164 524:0.002086804 526:-0.0023453063 527:-0.0001580876 528:-4.8069065e-05 530:0.0042889882 531:0.00038880654 533:0.0061437124 534:0.013180338 535:-0.00099170476 536:0.0075366893 538:-0.0027055801 540:-0.00012361386 541:0.00056000473 542:0.0014559373 543:0.011920864 545:-0.019835364 549:1.3598952e-05 551:3.9504721e-05 552:4.1342806e-05 553:0.018813599 554:0.00038393398 555:-0.00015069748 556:0.016261401 558:-0.00061301049 559:0.0056454525 560:0.0061411415 561:0.0016808324 562:0.023099132 564:-0.0005422422 565:0.0016495064 567:-0.00034600732 568:0.0049049105 569:0.00064382923 570:-0.00027202629 571:-0.0011060421 572:0.0011325709 573:-0.00034770081 574:0.00044439457 575:0.0023158824 576:7.3206604e-05 577:0.000113227 578:0.0052806656 579:0.0015367934 580:-0.0011515039 581:0.0050961231 582:0.0201324 583:0.0021549296 584:-0.00081776438 585:-0.0025964677 586:-0.0015293151 587:0.0026981097 588:0.00012805419 589:0.0021324672 591:3.6088572e-05 592:-0.00056089362 594:0.010154324 595:0.020087935 596:-0.012210467 597:-0.00048182951 599:0.024635078 600:0.0041771787 601:0.0031598916 602:0.0020136125 604:0.024521319 605:0.023437601 606:0.00083504122 607:-0.00073748291 609:0.0020960851 610:0.00041712553 611:0.0069494876 613:0.00064264971 614:0.012476041 616:0.0026506463 617:-0.00015539957 619:0.00081712852 620:0.011830597 622:0.025069527 623:0.0013579932 625:6.2566878e-06 626:0.00052151066 627:-0.019613774 628:0.0024421734 629:-0.00073331891 631:0.0062735113 632:9.7171705e-06 634:0.0016737106 637:0.0054969345 638:0.021007689 640:-0.0019392312 641:-0.0013237923 642:0.0044062897 643:0.01339825 644:-0.0023796991 646:0.0020532471 649:0.022985023 650:0.003560917 651:0.0049774088 652:0.001611848 653:0.0035267058 654:0.0020973606 655:0.012985187 656:0.0021592875 657:0.0038833597 658:0.00060343923 659:0.0243556 660:-0.00058876764 661:0.0012630784 662:8.7105072e-06 663:-0.00056167506 665:-0.0033827114 666:0.0015110939 667:-4.7855214e-05 668:0.0093803806 670:-0.0024662332 671:0.0021213209 673:-0.0024767441 674:-0.00014126944 675:-0.016029354 676:0.0016819533 677:0.0041890536 678:0.0016819984 679:0.00058406912 680:-0.0001575639 681:-0.00015069748 682:0.0014884156 684:-2.2826347e-05 686:-8.707439e-05 687:-0.0010165481 688:9.5827254e-06 689:-0.00060995843 691:-0.0011470288 692:0.0074167997 693:-0.0013442675 694:-0.003084752 695:-0.0029559282 696:0.00048612492 697:-0.00018079064 698:-0.0039028826 699:0.013280409 700:0.00198545 #
