SVM-light Version V6.20
0 # kernel type
3 # kernel parameter -d 
1 # kernel parameter -g 
1 # kernel parameter -s 
1 # kernel parameter -r 
empty# kernel parameter -u 
701 # highest feature index 
5 # number of training documents 
2 # number of support vectors plus 1 
0 # threshold b, each following line is a SV (starting with alpha*y)
1 1:0.0021214369 2:0.00040214314 3:0.011695425 4:0.0081357546 5:0.0006687484 6:0.018971646 7:0.012594658 8:0.020856008 9:0.011044457 10:-0.00099407684 11:0.00016352396 13:0.0065791477 14:0.022454217 15:0.010826084 16:1.0236829e-05 17:-0.0046378681 18:-0.001338172 19:0.00034599952 20:0.011341515 21:-0.01103258 22:0.0002807058 23:0.0038052837 24:4.4910463e-05 25:0.0061347722 27:-0.006234122 30:-0.0014133347 31:0.0073518446 32:-0.0022039739 33:-0.00015222543 34:-0.0011805224 35:0.0037723775 36:-0.0013513563 37:0.014485766 38:-0.0024450379 40:5.335996e-05 41:0.015919173 42:3.2909142e-05 43:0.00056160922 44:-0.0011976961 45:0.00058416108 47:0.0002807058 48:0.0017651662 49:0.013058499 50:0.0088601941 51:0.0019590338 53:6.4710919e-05 54:-0.0013456822 55:0.0016552603 56:0.00041762553 57:0.010836998 59:0.00023194024 60:0.0049218005 61:0.0082394304 62:0.0032461525 64:0.0018054756 65:-0.0005642171 66:-0.0037880922 68:-0.00052086281 69:-0.0038323132 70:0.0036611159 72:-0.0015360006 73:0.0038593574 74:0.00043200262 75:0.0012972052 76:0.0057469723 77:0.00059897744 79:0.0073496876 80:-0.00016859001 81:0.0038751073 82:8.9048217e-06 83:0.0075696711 84:-0.00050847448 85:-6.556826e-05 86:-0.0015443506 87:4.6968442e-05 88:1.2449637e-05 91:0.017777454 92:0.00041364448 93:-3.5557176e-05 94:0.024196513 95:0.0025774965 96:0.015331198 97:0.0012519738 98:-0.0018876238 99:0.0019001587 100:0.015027752 101:-3.9806487e-06 102:-0.00057151279 103:0.014825398 105:4.1515897e-05 106:-0.00084734079 108:0.0045362967 109:2.6231497e-05 112:0.00036683859 113:0.011460386 114:0.0044685388 115:0.011822874 116:-0.0032103404 117:8.4206084e-05 118:0.0025530139 119:0.001557931 120:0.026143329 121:0.0021626903 122:9.2970095e-06 123:0.0037684385 124:0.0040122569 126:0.00083160208 127:0.004878168 128:0.0038238992 129:0.0049241642 130:0.013310409 133:0.0039953482 134:0.0017874531 135:-0.00031708716 136:0.0051855627 137:0.0073518446 138:0.0083907023 139:-0.00032436487 140:0.0089154374 142:-0.00093967357 143:0.0016643767 144:0.0020718542 145:-0.0053687459 146:-0.0014992565 147:-0.001789829 148:0.01989224 149:4.7817848e-05 150:0.0031065892 151:0.024341328 152:0.011363545 153:0.026384573 154:-0.00048867578 155:0.0037678254 158:0.00329461 159:0.0034156388 162:0.0073852902 163:-0.0023052164 164:0.023727193 165:0.0040835403 168:0.0038238992 171:0.00019283235 172:0.00028373965 173:-0.0019446193 174:-0.001003309 175:0.00065962283 176:0.0016714851 177:-0.00050999364 178:-0.0088235848 179:5.5127406e-05 180:0.0082849087 183:-0.0031567106 185:-0.00042881342 186:0.011787136 187:-0.017301572 188:-0.0010840202 189:0.023023484 190:0.00015017111 192:0.0058592036 193:1.2524164e-06 194:0.0028336484 196:0.0065454869 197:-0.00099187088 198:-0.00016662627 200:-0.0017593381 201:0.0028997653 202:0.023657275 203:0.0071009034 204:0.0039924211 205:0.003815566 206:-0.00084734079 207:0.015615994 208:0.0038210116 209:0.00038523728 210:0.013509789 211:2.9130897e-05 212:-0.0036037441 213:-0.0014958534 214:0.020843802 215:0.0088027399 216:0.011505244 218:0.011454885 219:0.0023235066 220:-0.013627203 221:0.0038867712 226:0.0013121524 228:1.7069979e-05 230:0.01362497 233:0.012590969 235:-0.013604999 236:0.0015985084 237:0.021692351 239:-0.00029607624 241:0.018558329 242:-0.0022915204 243:-0.0059677204 244:0.0018383889 245:0.0027550852 247:0.0010635608 248:0.02505449 249:0.006813562 250:2.3880144e-05 251:4.1349824e-05 253:0.0099187177 254:-0.0011403826 255:0.012624769 256:0.025268251 257:0.0011878958 258:-0.0013890968 259:-7.7986551e-05 260:0.025991436 261:0.013975046 262:0.0002807058 263:0.0059782309 265:-0.0018124424 266:0.0039197011 267:-0.0013289327 268:0.024068128 269:0.00020252478 270:0.012223698 272:0.0012094009 273:0.00062804815 275:-0.00037559311 276:0.00071751903 277:-0.00058521511 278:2.649508e-05 279:0.0026223909 280:0.024246566 281:0.00087912177 282:0.00076426868 283:0.0060877199 284:0.0072681331 285:0.010050201 286:-0.00038090369 290:0.0044685388 291:-0.00015222543 292:0.0024138149 294:4.155179e-05 295:0.00063006708 296:-0.0023495879 297:0.0017616235 298:-0.00062251982 299:-0.0017061626 300:0.0032304008 302:0.0045282561 303:-0.0015054584 304:0.0086774221 305:-0.0036068705 306:0.0022247573 307:0.00030278464 308:0.0061347722 309:0.0027960732 310:0.0026859529 311:0.00041465845 312:0.015229263 313:-0.00054987567 314:0.0032423704 315:0.0035862969 316:4.1349824e-05 317:0.0068847425 318:0.00018160325 319:4.6968442e-05 322:0.0027594834 323:0.0016624853 324:-0.00056304451 325:0.010113775 326:0.0075287456 327:-0.00079919933 328:0.004722293 329:-0.0041620745 330:0.0068607009 332:0.013136038 334:0.00018538136 335:0.025269937 336:-5.0501574e-05 337:-0.000303482 338:-0.00038265137 340:4.1349824e-05 341:-0.0054510543 342:0.0143814 343:0.0019276991 345:0.023978591 346:0.0041327798 347:-0.0015203446 348:0.0015247844 349:-0.00033005446 350:-0.0013743375 351:0.0043463283 352:6.9160968e-05 354:0.0002807058 355:0.011547268 356:0.0027474773 357:0.0013138122 358:0.00011158642 359:0.0039425734 360:0.004947375 361:-0.00016855747 362:0.015011963 363:0.0042764749 365:0.018639365 366:0.024419256 368:0.017180987 369:-0.00016962283 371:0.018051924 372:0.015506185 373:-0.00120809 375:0.0061347722 376:0.018814702 379:0.024840508 380:0.025856689 381:0.012578033 382:-0.00097107486 383:0.0087567149 384:-0.0036068705 385:0.0025580584 386:-0.00095455284 387:-0.0095339557 388:4.4393943e-05 389:-0.0018997692 390:0.0073601827 392:-0.00084734079 394:0.0017502431 395:0.0014016245 396:0.022666527 397:0.0077735549 398:7.8703288e-06 399:-0.0067869788 400:0.0044669257 401:4.4393943e-05 402:-0.0021737127 403:0.0016406786 404:0.0027906112 405:0.0042286059 406:0.0034977326 407:-0.0017726941 408:0.013580639 409:0.0038375927 410:0.014365831 411:0.0066493247 413:-0.00039030577 415:-0.0016449169 416:0.0015717703 417:-0.0011810021 418:-0.0093930569 419:0.011796753 420:-0.0014927803 421:0.0013381239 422:5.0834005e-05 423:4.4393943e-05 424:3.5096076e-05 425:1.7069979e-05 426:0.020938624 427:0.0051944596 428:-0.0089810491 429:0.0024233551 431:0.00080593769 432:0.0046524624 433:0.0015291398 434:-6.7310706e-05 435:0.0076306099 436:0.0023505359 437:-0.00059878506 438:-0.00048711669 439:-0.0011400854 442:0.0031568874 443:0.00016595997 444:0.014497292 445:-0.00098943594 446:0.0058404114 448:4.1349824e-05 449:0.0016611463 450:0.0021162028 451:-0.013467609 452:-0.0010003004 453:0.010331755 454:-0.0013305515 455:4.6968442e-05 457:0.015229263 458:-0.00061199901 459:0.0018975971 461:0.024954392 462:0.0015508562 463:0.0054956786 464:0.00063837646 467:-0.00090103602 469:4.6968442e-05 470:0.0016503752 471:-0.00039190252 473:0.00070503377 474:-0.00075368577 476:-0.00096381316 477:0.013717228 478:8.4206084e-05 479:8.4206084e-05 480:0.00095829152 481:-0.00018581393 483:0.00072373857 484:0.020993305 485:0.0061065056 486:0.0013100255 487:-0.0015267408 490:-0.0021477651 491:0.0037874558 492:0.0082864771 493:8.4206084e-05 494:0.0082864771 495:0.00017786698 496:0.0048547592 497:0.012650948 498:0.0024363825 499:-0.0023521618 500:0.0004328019 503:0.021327831 504:-0.018499428 505:-0.011709451 506:-0.00078360195 508:0.0016053024 509:0.0065275482 510:0.007626378 511:0.015104551 513:-0.00097275124 515:0.00073078502 517:1.7069979e-05 518:0.0008397192 520:0.01399331 521:0.0069692433 522:0.0041693659 523:0.00040454016 524:0.0023236079 526:-0.0022900533 527:-0.0009586073 528:3.9413269e-05 530:0.0041706348 531:0.00043655554 533:0.0060030678 534:0.01376 535:-0.0010097109 536:0.0074010896 538:-0.0026171198 540:0.00027835064 541:0.00072649616 542:0.0017988066 543:0.012227833 545:-0.020354379 549:1.556325e-05 551:5.336797e-05 552:4.1497216e-05 553:0.019234678 554:0.0004328019 555:-0.00015222543 556:0.01696877 558:-0.00024303998 559:0.0061347722 560:0.0066545736 561:0.0016634811 562:0.023575678 564:-0.00037696757 565:0.0017502431 567:-0.00037497628 568:0.0051889899 569:0.00063038309 570:0.00027449059 571:-0.00098851754 572:0.0011792056 573:-0.00037681122 574:0.00054759474 575:0.0022942787 576:4.7863621e-05 577:0.00010144114 578:0.004918139 579:0.0014538843 580:-0.0011098905 581:0.0052097631 582:0.020290248 583:0.0023888489 584:-0.00094738201 585:-0.0023876652 586:-0.0015203446 587:0.0035049885 588:9.8595323e-05 589:0.0024363825 591:4.4393943e-05 592:-0.00066424633 594:0.010157794 595:0.020735234 596:-0.012641531 597:-0.00062608806 599:0.024702359 600:0.004896129 601:0.0030434849 602:0.0020582967 604:0.025528196 605:0.024465857 606:0.0014138432 607:-0.00026390454 609:0.0020965934 610:0.00043167887 611:0.0077515757 613:0.00062922324 614:0.012978998 616:0.0026582743 617:-0.00015697483 619:0.00092377921 620:0.013192991 622:0.025991436 623:0.0016152099 625:1.4743908e-05 626:0.0004059741 627:-0.020334622 628:0.0025363567 629:-0.00084734079 631:0.0069269431 632:1.7296907e-05 634:0.0017730828 637:0.0055201058 638:0.021270683 640:-0.0022101712 641:-0.0010237768 642:0.0040796963 643:0.014682467 644:-0.0017534433 646:0.0027548957 649:0.022916717 650:0.0038230314 651:0.0059724897 652:0.0024904255 653:0.0037839722 654:0.0022251243 655:0.013087726 656:0.0024958765 657:0.0037833378 658:0.00070895226 659:0.024700733 660:-0.00055703335 661:0.0013055718 662:1.492164e-05 663:-0.00038184202 665:-0.0031885533 666:0.0016100575 667:-0.00014587719 668:0.0093056764 670:-0.0023736483 671:0.0017381832 673:-0.0027715792 674:-0.00014114889 675:-0.01602372 676:0.0016641814 677:0.0044685393 678:0.0016643767 679:0.00095346209 680:-9.3200499e-05 681:-0.00015222543 682:0.0017958478 684:-4.7691265e-05 686:-3.2876409e-07 687:-0.0009704 688:1.7069979e-05 689:-0.00058177329 691:-0.0012517888 692:0.0075693112 693:-0.00094943447 694:-0.0027290643 695:-0.0025223647 696:0.00058720924 697:-0.00018140418 698:-0.0032580923 699:0.013293955 700:0.0023127156 #
