SVM-light Version V6.20
0 # kernel type
3 # kernel parameter -d 
1 # kernel parameter -g 
1 # kernel parameter -s 
1 # kernel parameter -r 
empty# kernel parameter -u 
701 # highest feature index 
7 # number of training documents 
2 # number of support vectors plus 1 
0 # threshold b, each following line is a SV (starting with alpha*y)
1 1:0.0061578923 2:0.00053691777 3:0.014460795 4:0.0098924749 5:0.0010626836 6:0.026123015 7:0.016275076 8:0.033648182 9:0.011539646 10:6.0843355e-05 11:0.0050369627 13:0.012204587 14:0.032207206 15:0.011238297 16:0.00058459805 17:-0.0068718232 18:-0.001271828 19:0.0005563735 20:0.013280883 21:-0.01582315 22:0.00067562691 23:0.0026824386 24:5.8404432e-05 25:0.011384957 27:-0.009793736 30:0.0027163704 31:0.0074277939 32:-0.0043775043 33:-8.4346495e-05 34:-0.002225857 35:0.0045685577 36:-0.0029250062 37:0.027631208 38:-0.0062035765 40:0.00040297135 41:0.019268634 42:0.00032296535 43:0.0046055675 44:-0.0017216931 45:0.002271638 47:0.00067562691 48:0.0011163913 49:0.012968749 50:0.0084011657 51:0.0029008505 54:-0.0015477912 55:0.00079394341 56:0.00081232854 57:0.017126054 59:0.00092331326 60:0.005986847 61:0.0077953525 62:0.0022342356 64:0.0052975663 65:-0.00070440467 66:-0.00049094448 68:4.4193679e-05 69:-0.0008442126 70:0.0045034429 72:-0.0036438063 73:0.0034169629 74:0.002578035 75:0.0011200247 76:0.0077475547 77:-0.0013613371 79:0.0074342894 80:-0.00030661034 81:0.0085979654 82:0.00057401508 83:0.01153525 84:4.2336909e-05 85:0.0040890453 86:-0.0013019283 87:-0.00010580929 88:0.0005808479 91:0.024322588 92:0.00081272819 93:-4.7941474e-05 94:0.033143274 95:0.0019025244 96:0.016875096 97:0.00026891491 98:-0.0013650212 99:0.0024688689 100:0.019563291 101:0.004283601 102:-0.0006795082 103:0.017219938 105:9.5943076e-05 106:-0.00052791799 108:0.0062974952 109:-4.5062307e-06 112:0.00073254691 113:0.013297855 114:0.01030886 115:0.015006564 116:-0.0048321565 117:0.00034047751 118:0.00095719274 119:0.0066312058 120:0.034075391 121:0.0026410921 122:0.0013695239 123:0.0057867682 124:0.0072332914 126:0.0050953757 127:0.006288989 128:0.0026886596 129:0.009666713 130:0.016109293 133:0.0075241071 134:0.0055840272 135:-0.0012697185 136:0.0073921997 137:0.0074277939 138:0.010594742 139:0.00019696451 140:0.0046707196 142:-0.00035979546 143:0.0012550285 144:0.0039263163 145:-0.0075125084 146:-0.00099061534 147:-0.0010492067 148:0.027269095 149:0.0037875965 150:0.0076058535 151:0.031569492 152:0.013161004 153:0.036029514 154:0.0040439609 155:0.0050865058 158:0.0032655192 159:0.0052865385 162:0.0063416394 163:-0.0043317908 164:0.030090794 165:0.0099979881 168:0.0026886596 171:0.00021321375 172:0.0024157576 173:0.0017072862 174:-2.4953408e-05 175:-0.0042843912 176:0.0063948906 177:0.0014073644 178:-0.013391748 179:0.0038274871 180:0.010428026 183:-0.0048822993 185:-0.00038331811 186:0.014390761 187:-0.020937206 188:-0.0015216374 189:0.033320058 190:-0.0041942322 192:0.0071800984 193:0.00030989252 194:0.0079961875 196:0.0067726937 197:3.7850721e-05 198:-0.00030069146 200:-0.0009817949 201:0.0078287628 202:0.030406948 203:0.0069099679 204:0.0039766831 205:0.002708731 206:-0.00052791799 207:0.021616455 208:0.0056174388 209:0.0015994337 210:0.016453568 211:-6.0546139e-05 212:-0.0010215503 213:-0.0036365602 214:0.028755536 215:0.014662035 216:0.017784461 218:0.013122258 219:0.0028091052 220:-0.028105266 221:0.0038586883 226:0.0011385949 228:-7.7479577e-05 230:0.017800685 233:0.016376836 235:-0.014271963 236:0.0043115271 237:0.025481515 239:-0.00037588563 241:0.022919036 242:-0.00053143309 243:-0.0040345504 244:-0.0015681756 245:0.0074249203 247:0.0026843809 248:0.033021528 249:0.012597716 250:6.5336331e-05 251:9.5559284e-05 253:0.013546381 254:-0.002637035 255:0.013253987 256:0.032928638 257:-0.002932745 258:-0.0026122809 259:-0.00062438782 260:0.033794932 261:0.017685425 262:0.00067562691 263:0.0083764344 265:-0.0017441479 266:0.0057709981 267:-0.0023857646 268:0.030985774 269:2.6880844e-05 270:0.012501773 272:-0.0002357995 273:0.00018816185 275:0.00013103681 276:0.0014488823 277:-0.0055516628 278:-4.5266365e-06 279:0.0010066687 280:0.035226606 281:-0.00037668436 282:-0.0014077489 283:0.0080124419 284:0.0073239636 285:0.010083356 286:-0.001395474 290:0.01030886 291:-8.4346495e-05 292:0.0029278307 294:0.00035189861 295:0.00018988333 296:-0.0040837582 297:0.00421585 298:-0.00093314011 299:-0.0029012968 300:0.0036358077 302:0.007379367 303:-0.0036422873 304:0.0035128926 305:-0.005034355 306:0.0046784831 307:0.00072907476 308:0.011384957 309:0.0084301671 310:0.0074807582 311:0.00082462002 312:0.016733091 313:-0.00066297053 314:0.0042005531 315:0.0033343472 316:9.5559284e-05 317:0.013254486 318:0.00027413227 319:-0.00010580929 322:0.0011425617 323:0.0012528277 324:-0.00087141583 325:0.019736068 326:0.0093164248 327:0.0023390076 328:0.0072556618 329:-0.00083083141 330:0.013215038 332:0.015210536 334:-0.00018918453 335:0.032748234 336:-7.6862969e-05 337:-0.00093068421 338:0.00015452523 340:9.5559284e-05 341:-0.0037087721 342:0.015959634 343:0.0012995072 345:0.032464482 346:0.0099438373 347:-0.0024848671 348:0.0018746513 349:0.0021145872 350:0.0009791035 351:0.0098736528 352:8.9546906e-05 354:0.00067562691 355:0.013865748 356:0.0036309741 357:0.001129974 358:0.0004219111 359:0.0044835359 360:0.0090705073 361:-0.00030630399 362:0.019184947 363:0.0024026998 365:0.025206758 366:0.0321876 368:0.020816894 369:-0.00030466606 371:0.025263481 372:0.01705488 373:-0.0017105081 375:0.011384957 376:0.027558241 379:0.032665744 380:0.035009913 381:0.015576117 382:0.00024580225 383:0.017279824 384:-0.005034355 385:0.0061237598 386:0.002917462 387:-0.01081083 388:5.7732719e-05 389:-0.0040033497 390:0.0075282725 392:-0.00052791799 394:0.0045143687 395:-0.0013404 396:0.031493239 397:0.0094943829 398:0.00057323836 399:-0.013287738 400:0.0099404762 401:5.7732719e-05 402:-0.0030096208 403:0.004347777 404:0.0026084201 405:0.0084716743 406:0.0052510872 407:-0.0045156898 408:0.017413147 409:0.0033980187 410:0.018432654 411:0.0088042924 413:0.00012724439 415:0.00097627827 416:0.0013855317 417:-0.0017081647 418:-0.014073935 419:0.014973453 420:-0.0036161363 421:0.0044899615 422:7.4384043e-05 423:5.7732719e-05 424:0.00030633336 425:-7.7479577e-05 426:0.026141278 427:0.0077241492 428:-0.013823356 429:0.0065689376 431:-0.00035583161 432:0.0024508997 433:0.0040468774 434:8.2616723e-05 435:0.010075481 436:0.0032114049 437:0.0010003179 438:0.0022464306 439:-0.0018387242 442:0.0053410637 443:-0.00032568353 444:0.018285306 445:0.0019560801 446:0.0077468283 448:9.5559284e-05 449:0.0012511692 450:0.0046301573 451:-0.018382914 452:-0.0022462197 453:0.013613949 454:-0.0012739727 455:-0.00010580929 457:0.016733091 458:-0.0020006003 459:-0.0014663883 461:0.032150965 462:0.0026410758 463:0.0099124182 464:0.00034767197 467:5.4771815e-05 469:-0.00010580929 470:0.0024439602 471:-0.0011618556 473:-0.00064286735 474:0.0015450411 476:0.0020337743 477:0.017372467 478:0.00034047751 479:0.00034047751 480:0.0028096933 481:0.00015969414 483:-0.0013157347 484:0.024886388 485:0.0080341958 486:0.0027190333 487:-0.0012695886 490:-0.0038597346 491:0.0056363288 492:0.014934178 493:0.00034047751 494:0.014934178 495:-0.0040753633 496:0.0071051768 497:0.015644452 498:0.0066409516 499:-0.0015058799 500:0.0008433804 503:0.029962765 504:-0.02178802 505:-0.0094878133 506:-0.0026652168 508:0.005878421 509:0.012351203 510:0.009587395 511:0.017573878 513:0.0021773421 515:0.0019097496 517:-7.7479577e-05 518:-0.0012744162 520:0.013444755 521:0.013277782 522:0.0052127363 523:0.00092781772 524:0.0026742427 526:-0.0024525139 527:-0.0071074162 528:0.00036844102 530:0.0052327071 531:0.00084183767 533:0.0078966441 534:0.017585354 535:0.00054263009 536:0.0083342055 538:-0.0009617047 540:0.0024153921 541:0.0015521707 542:0.0063425098 543:0.014337213 545:-0.03463126 549:2.6758074e-05 551:0.00040303182 552:9.5899893e-05 553:0.026207758 554:0.0008433804 555:-8.4346495e-05 556:0.020662375 558:0.0019160111 559:0.011384957 560:0.012341791 561:0.0012557777 562:0.034117628 564:0.00014836524 565:0.0045143687 567:-0.00069767243 568:0.007095681 569:0.00019129885 570:0.0028693401 571:7.2441406e-05 572:0.0024075625 573:-0.00070107868 574:0.0028565091 575:0.0046993401 576:-0.00010844798 577:7.2743562e-05 578:0.0071697268 579:0.0036345723 580:-0.0020709422 581:0.0051622428 582:0.028156782 583:0.0029180876 584:-0.00073670596 585:-0.002356061 586:-0.0024848671 587:0.0036386019 588:0.00039479884 589:0.0066409516 591:5.7732719e-05 592:-0.00017903345 594:0.013000699 595:0.029393585 596:-0.017826008 597:6.8584188e-05 599:0.033844694 600:0.0066099362 601:0.0036167386 602:0.00059196068 604:0.033595208 605:0.031713165 606:0.0072783777 607:0.0013221689 609:0.0010811288 610:0.00054352282 611:0.007011842 613:0.00019045906 614:0.01601617 616:0.0052360347 617:-8.701226e-05 619:-0.00044606181 620:0.015687719 622:0.033794932 623:0.0021621455 625:0.00058050459 626:-2.6327238e-05 627:-0.027069099 628:0.0019627926 629:-0.00052791799 631:0.013172809 632:-7.8447985e-05 634:0.0045245611 637:0.0075045465 638:0.027029078 640:-0.00039020664 641:0.0029585904 642:0.0063337875 643:0.015873868 644:-0.0038938602 646:0.0011230778 649:0.031592809 650:0.0026892025 651:0.0087194992 652:0.0022759528 653:0.0026293895 654:0.0022764332 655:0.016459877 656:0.0034425168 657:0.0035631235 658:-0.00064632174 659:0.031980421 660:-0.00066575711 661:0.0011301003 662:0.00052387681 663:0.00015614108 665:-0.0015593366 666:0.0042235963 667:0.00053822953 668:0.010924248 670:-0.0030711105 671:-0.00024074082 673:-0.0060006175 674:-0.00058973144 675:-0.017090172 676:0.0012546993 677:0.0080040544 678:0.0012550285 679:-0.0011741732 680:0.00012555302 681:-8.4346495e-05 682:0.0057729054 684:-3.6564557e-05 686:0.00030769201 687:-0.0022196246 688:-7.7479577e-05 689:-0.00069196342 691:-0.0017931294 692:0.009211706 693:0.0022494907 694:-0.0020122144 695:-0.0014493911 696:0.00045726093 697:-0.00019730587 698:-0.005536898 699:0.019392315 700:0.0066139842 #
