SVM-light Version V6.20
0 # kernel type
3 # kernel parameter -d 
1 # kernel parameter -g 
1 # kernel parameter -s 
1 # kernel parameter -r 
empty# kernel parameter -u 
701 # highest feature index 
6 # number of training documents 
2 # number of support vectors plus 1 
0 # threshold b, each following line is a SV (starting with alpha*y)
1 1:0.0038652867 2:0.00066389673 3:0.011992204 4:0.0093063805 5:0.00092952704 6:0.024239767 7:0.015024837 8:0.03161807 9:0.013567981 10:-0.00052289537 11:0.0039694267 13:0.011001439 14:0.029678481 15:0.013255633 16:-0.00012779454 17:-0.0090048229 18:-0.0013193926 19:0.00050925801 20:0.011099194 21:-0.015397353 22:0.00031629967 23:0.0043157474 24:3.0469579e-05 25:0.010236206 27:-0.010027954 30:0.001424427 31:0.0087812888 32:-0.0024085226 33:-0.00048651919 34:-0.0019257425 35:0.0047973352 36:-0.0023059503 37:0.02498368 38:-0.0049085827 40:0.0001892936 41:0.021541346 42:-0.000208492 43:0.0025784418 44:-0.0027058616 45:0.00090133527 47:0.00031629967 48:0.0026539136 49:0.016056029 50:0.011375728 51:0.0026711065 54:-0.0008938188 55:-0.000771488 56:0.0010366128 57:0.018123718 59:0.00027908807 60:0.0069652726 61:0.0054481621 62:0.0042294399 64:0.0034412416 65:-0.0017534504 66:-0.0031667778 68:-0.00028510275 69:4.6399375e-05 70:0.0055283285 72:-0.0027383415 73:0.003891666 74:0.0010365642 75:0.0013474419 76:0.0089748288 77:5.1650506e-05 79:0.0087822899 80:0.00010413276 81:0.0060532521 82:-0.00013164101 83:0.011183059 84:-0.00028129009 85:0.0025137507 86:-0.0010611168 87:-3.3670971e-05 88:-0.00012434869 91:0.023732072 92:0.0010452929 93:-0.00014021105 94:0.030203963 95:0.00054592075 96:0.019943612 97:-0.00018893469 98:-0.0033776076 99:0.0016252155 100:0.017004078 101:0.0027894946 102:-0.0017641602 103:0.019228907 105:6.0940987e-05 106:-0.00064963987 108:0.0085823508 109:1.0816248e-05 112:0.00041842199 113:0.011059901 114:0.0077993111 115:0.01324697 116:-0.0033032915 117:-0.00016057485 118:0.0020995291 119:0.0037430795 120:0.035672929 121:0.0015720438 122:0.00043510407 123:0.0073436834 124:0.0064405822 126:0.0026021064 127:0.0048601464 128:0.004332195 129:0.0083959568 130:0.0161027 133:0.0063434816 134:0.0034362141 135:-0.00043463192 136:0.0083647128 137:0.0087812888 138:0.013189606 139:0.00056641985 140:0.0056489464 142:-0.00053886807 143:0.0011794501 144:0.0050182869 145:-0.0094988141 146:-0.0023270203 147:-0.0024925196 148:0.025211947 149:0.0018273378 150:0.0053268443 151:0.033302907 152:0.011388315 153:0.037651483 154:0.0012377438 155:0.005054506 158:0.0032382892 159:0.0040694866 162:0.0076553156 163:-0.0076612867 164:0.031304047 165:0.0065912022 168:0.004332195 171:-0.0010617255 172:0.00039216992 173:0.0023823082 174:-0.00074824895 175:-0.0032228075 176:0.0039222483 177:0.0011880021 178:-0.014515303 179:0.0011063059 180:0.01302183 183:-0.0032888846 185:-0.00070709788 186:0.011809988 187:-0.022914819 188:0.00011297136 189:0.030412087 190:-0.0028417248 192:0.0079883048 193:-0.00025870025 194:0.0055535231 196:0.00895645 197:-0.00061101728 198:0.00010798722 200:-0.0014260219 201:0.0055157975 202:0.032160565 203:0.0083007067 204:0.0037830002 205:0.0043271473 206:-0.00064963987 207:0.019397277 208:0.0049056779 209:0.0010691151 210:0.016486306 211:3.6416357e-06 212:-0.0040281261 213:-0.0027312634 214:0.025700836 215:0.012808545 216:0.018926891 218:0.011525397 219:0.0036417213 220:-0.028231984 221:0.0036524192 226:0.0013624908 228:-2.0087982e-06 230:0.016333118 233:0.01528857 235:-0.019141342 236:0.0028945729 237:0.027715124 239:-9.6995893e-05 241:0.025365667 242:-0.002557195 243:-0.0062046428 244:-0.00043925564 245:0.0048853429 247:0.0016126367 248:0.034626231 249:0.011346167 250:4.4906235e-05 251:6.0697213e-05 253:0.014385462 254:-0.0031816766 255:0.015581531 256:0.034591991 257:-0.002247487 258:-0.0021588516 259:6.6207504e-05 260:0.035431672 261:0.015544785 262:0.00031629967 263:0.010466469 265:-0.0034528458 266:0.0067313747 267:-0.0025820902 268:0.032570373 269:8.0735088e-05 270:0.014999823 272:0.0011488282 273:0.00071618235 275:7.4268995e-05 276:0.00060965359 277:-0.0039673867 278:1.0951825e-05 279:0.0021906188 280:0.03237937 281:0.00072187535 282:0.00018893211 283:0.0099942237 284:0.0086973347 285:0.011096973 286:-0.00041406124 290:0.0077993111 291:-0.00048651919 292:0.0037357956 294:0.00021999536 295:0.00071855518 296:-0.0019018726 297:0.0023311204 298:-0.00066693232 299:-0.0026649942 300:0.0047112317 302:0.0070685768 303:-0.0027386558 304:0.0043760617 305:-0.0027543693 306:0.0032551019 307:0.00034042 308:0.010236206 309:0.0049285106 310:0.0053592119 311:0.0010551144 312:0.019793717 313:-0.0017201107 314:0.0053572254 315:0.0034008203 316:6.0697213e-05 317:0.010987652 318:0.00010051967 319:-3.3670971e-05 322:0.002766605 323:0.0011775373 324:-0.00088101695 325:0.019616263 326:0.0087747322 327:0.00039998253 328:0.0081175454 329:-0.0037018713 330:0.010959946 332:0.016779702 334:4.4679939e-05 335:0.033900503 336:0.00013308029 337:-0.00075039052 338:0.00010263522 340:6.0697213e-05 341:-0.0057883225 342:0.018436229 343:0.0023874075 345:0.03415275 346:0.006755041 347:-0.0007531002 348:0.0015607987 349:0.0031569982 350:-0.0014183286 351:0.0072643738 352:9.74957e-05 354:0.00031629967 355:0.011587265 356:0.0026417037 357:0.0013665749 358:0.00079844741 359:0.0028426475 360:0.0091540804 361:0.00010379899 362:0.017070414 363:-0.00022163654 365:0.023326613 366:0.033707201 368:0.026519625 369:9.980872e-05 371:0.022407921 372:0.020386567 373:-0.0027882247 375:0.010236206 376:0.028573403 379:0.034720104 380:0.034212854 381:0.018356329 382:-0.00015006712 383:0.016819326 384:-0.0027543693 385:0.0043749888 386:0.0018077653 387:-0.011827631 388:3.0119147e-05 389:-0.0020613684 390:0.0088264532 392:-0.00064963987 394:0.0030854782 395:-0.0028907005 396:0.028504271 397:0.0088635804 398:-0.00013356323 399:-0.012604135 400:0.0075390814 401:3.0119147e-05 402:-0.0033475771 403:0.0029755929 404:0.0025952393 405:0.007593127 406:0.005826327 407:-0.0010758474 408:0.01478199 409:0.0039094849 410:0.015919542 411:0.0093169808 413:6.0129441e-05 415:7.2427421e-05 416:0.001164228 417:-0.0027503059 418:-0.015991312 419:0.01322186 420:-0.0027191546 421:0.0025334014 422:4.0620416e-05 423:3.0119147e-05 424:0.00030243539 425:-2.0087982e-06 426:0.028531112 427:0.0071738274 428:-0.013961771 429:0.0044565569 431:0.0004353509 432:0.00023869438 433:0.0030971908 434:-0.00023215654 435:0.012794865 436:0.0030740011 437:0.00064894842 438:-5.4882079e-05 439:-0.0028277414 442:0.0065460396 443:-0.00012425668 444:0.01624513 445:0.00033734681 446:0.0087108379 448:6.0697213e-05 449:0.0011758945 450:0.0040667243 451:-0.023692241 452:-0.0019707067 453:0.015136851 454:-0.0014846799 455:-3.3670971e-05 457:0.019793717 458:-0.00098769832 459:-0.00035269762 461:0.034300882 462:0.0027079498 463:0.0091469809 464:-0.00014617815 467:-0.00043614666 469:-3.3670971e-05 470:0.0023456505 471:-0.0012438514 473:0.00034140318 474:0.00013397858 476:0.00040401582 477:0.015125321 478:-0.00016057485 479:-0.00016057485 480:0.00092182728 481:0.00023494268 483:0.00013289682 484:0.026174417 485:0.010446209 486:0.0019303154 487:-0.0010314868 490:-0.0024881163 491:0.0065621501 492:0.012870436 493:-0.00016057485 494:0.012870436 495:-0.0032527677 496:0.0088908551 497:0.013242446 498:0.0045053861 499:-0.0019764174 500:0.0010718588 503:0.027614346 504:-0.024415364 505:-0.013486346 506:-0.0015683593 508:0.0031277165 509:0.011041796 510:0.011923878 511:0.019710639 513:-0.00021664098 515:0.00048465145 517:-2.0087982e-06 518:0.0002931387 520:0.015140954 521:0.010994975 522:0.004134567 523:0.00060622412 524:0.003627721 526:-0.0033982964 527:-0.0035645193 528:-0.00017013769 530:0.0041256426 531:0.0010680143 533:0.010861635 534:0.015061791 535:1.3709013e-05 536:0.010433607 538:-0.0036282092 540:0.0018074049 541:0.0002317914 542:0.0037687975 543:0.011410172 545:-0.035474386 549:-1.4373427e-05 551:0.000189322 552:6.0913564e-05 553:0.024296576 554:0.0010718588 555:-0.00048651919 556:0.02212964 558:1.6586622e-05 559:0.010236206 560:0.011137802 561:0.0011794813 562:0.031561598 564:8.5824344e-05 565:0.0030854782 567:-0.00062892988 568:0.0075566964 569:0.00072112004 570:0.0024927412 571:-0.00050682609 572:0.0017018019 573:-0.00063200033 574:0.00099393923 575:0.0052518533 576:-3.4794084e-05 577:9.4756855e-05 578:0.009047701 579:0.0031600648 580:-0.0019008961 581:0.0073358822 582:0.025130408 583:0.0037392932 584:-0.00048056236 585:-0.0033152809 586:-0.0007531002 587:0.0033571518 588:-0.00018601552 589:0.0045053861 591:3.0119147e-05 592:-0.00047147984 594:0.012993697 595:0.030636633 596:-0.02142204 597:-0.00010328448 599:0.031469896 600:0.0081140604 601:0.0045366986 602:-0.0005552643 604:0.035609417 605:0.033519026 606:0.0072436701 607:0.00099676137 609:0.0028075036 610:0.00059726089 611:0.0087277135 613:0.00071949331 614:0.013964687 616:0.0055113519 617:-0.00050167477 619:0.00069952459 620:0.016905909 622:0.035431672 623:0.002090896 625:-0.00012058748 626:6.4041044e-05 627:-0.028964845 628:0.0028388833 629:-0.00064963987 631:0.010856114 632:-2.0004682e-06 634:0.003101205 637:0.0082769468 638:0.028514575 640:0.00061076594 641:0.0013268202 642:0.0060686297 643:0.018985039 644:-0.0019006929 646:0.0027238366 649:0.028795708 650:0.004331192 651:0.010666772 652:0.0022159752 653:0.0042711245 654:0.0021514704 655:0.015656095 656:0.0025879282 657:0.0037413896 658:0.00033690484 659:0.03382789 660:-0.001714192 661:0.0013593266 662:-0.00011829352 663:0.00010428624 665:-0.0039515053 666:0.0028504697 667:-0.00055762957 668:0.013335701 670:-0.0027153979 671:0.0010508455 673:-0.0037392695 674:-0.0020415303 675:-0.019339848 676:0.0011790103 677:0.0083043119 678:0.0011794501 679:0.00065088569 680:-0.00014656002 681:-0.00048651919 682:0.0037128886 684:-3.633682e-05 686:-0.00026197018 687:-0.0019511596 688:-2.0087982e-06 689:-0.0017848229 691:-0.002786912 692:0.0086155338 693:-0.00012224591 694:-0.0033162723 695:-0.0024197521 696:0.0010012602 697:-0.00025645713 698:-0.0044163237 699:0.019834522 700:0.0044279979 #
