SVM-light Version V6.20
0 # kernel type
3 # kernel parameter -d 
1 # kernel parameter -g 
1 # kernel parameter -s 
1 # kernel parameter -r 
empty# kernel parameter -u 
700 # highest feature index 
348 # number of training documents 
309 # number of support vectors plus 1 
0 # threshold b, each following line is a SV (starting with alpha*y)
-0.050000000000000002775557561562891 8:0.90099001 12:0.064687997 13:0.94562 17:0.047949001 21:0.30267 25:0.88089001 27:0.029732 30:0.88748002 34:0.77288997 36:0.75339001 37:0.94682002 38:0.81146002 43:0.22927 55:0.45297 57:0.82108003 61:0.55282998 63:0.74035001 66:0.74935001 69:0.88135999 70:0.19638 72:0.98685998 81:0.28036001 90:0.22562 91:0.60879999 94:0.89646 98:0.31419 108:0.76296997 109:0.043092001 113:0.71173 119:0.28547999 120:0.53171003 123:0.74782997 126:0.54390001 127:0.12013 129:0.048097 135:0.57695001 140:0.89993 146:0.34738001 147:0.41308999 149:0.28643 150:0.26978001 151:0.46101999 153:0.48065999 154:0.15745001 159:0.13778999 162:0.46417001 164:0.57185 172:0.31814 173:0.97008997 177:0.048097 178:0.50225002 179:0.31448001 184:2.2472999e-05 187:0.68175 200:0.67458999 202:0.76854002 212:0.83823001 213:0.98944998 214:0.76694 215:0.71684998 216:0.82348001 218:0.72308999 220:0.86758 235:0.31393999 237:0.54671001 241:0.77402002 242:0.81950003 243:0.77250999 247:0.11799 248:0.46083 249:0.96878999 252:0.43184999 256:0.45073 259:0.21315999 260:0.53250003 265:0.33699 266:0.17201 267:0.52082998 268:0.45550001 276:0.2626 278:0.043552998 285:0.61590999 297:0.36041999 300:0.18100999 303:0.99311 304:0.84557998 305:0.90742999 308:0.88089001 317:0.51520002 325:0.33048999 328:0.89974999 329:0.74932998 330:0.51489002 332:0.90367001 335:0.52272999 337:0.46248999 341:0.7597 345:0.57348001 347:0.93733001 348:0.21332 349:0.95796001 350:0.48686999 351:0.71395999 356:0.16026001 359:0.55204999 360:0.95920998 366:0.46878999 370:0.1358 375:0.88089001 376:0.55649 379:0.69826001 380:0.73644 381:0.60383999 382:0.072052002 383:0.28911999 384:0.90742999 385:0.18164 386:0.45376 396:0.47253001 399:0.48734 406:0.67807001 407:0.81338 411:0.14543 415:0.10021 418:0.14348 420:0.98478001 426:0.75828999 433:0.0036245999 437:0.048097 442:0.21696 445:0.58714002 446:0.031957 450:0.49985999 451:0.47365999 458:0.70278001 460:0.23317 461:0.46081999 462:0.042029999 463:0.89393002 474:0.46704999 476:0.59362 480:0.82222998 481:0.61461997 484:0.59574002 486:0.21867999 491:0.19284999 492:0.77139002 494:0.77139002 499:0.1735 504:0.56656998 505:0.52410001 509:0.95042002 510:0.87327999 515:0.22811 516:0.00040451001 520:0.57020003 521:0.51431 533:0.94138002 535:0.070720002 536:0.69318998 538:0.42462 540:0.048097 541:0.25134 542:0.57704997 543:0.54163998 545:0.91876 547:0.096207 556:0.45603001 559:0.88089001 560:0.95920998 570:0.048097 574:0.33906999 578:0.94551003 579:0.50494999 582:0.61834002 585:0.45001 586:0.93733001 595:0.50111997 596:0.1163 599:0.76446003 601:0.20875999 604:0.46070999 605:0.46046999 606:0.15787999 607:0.048097 611:0.46147001 622:0.53250003 627:0.48908001 630:0.80419999 631:0.51356 637:0.030927001 638:0.72248 640:0.86105001 641:0.25782001 642:0.048097 649:0.92831999 659:0.79197001 665:0.48794001 668:0.89974999 672:0.00040451001 674:0.24587999 675:0.74254 687:0.23083 694:0.5043 697:0.046567 699:0.67176998 #
0.11999999999999998168132009368492 12:0.064687997 17:0.16498999 21:0.77818 27:0.71504998 30:0.75924999 38:0.49004 43:0.37983 55:0.51576 57:0.40885001 61:0.74238002 63:0.74035001 66:0.63696003 69:0.57786 70:0.15332 90:0.22562 91:0.49344999 94:0.94015002 98:0.37368 108:0.44229001 109:0.043092001 113:0.93098998 120:0.78558999 123:0.42414999 127:0.1287 129:0.048097 140:0.87002999 146:0.41716999 147:0.48291001 149:0.26201001 151:0.66368002 153:0.48065999 154:0.28600001 159:0.15577 162:0.55747002 163:0.93159002 164:0.77947998 172:0.161 173:0.60135001 177:0.048097 178:0.48052999 179:0.72843999 184:2.2472999e-05 187:0.39144 202:0.74539 212:0.94599003 214:0.89937001 216:0.44086 218:0.94665998 235:0.31393999 237:0.65296 241:0.76691997 242:0.81950003 243:0.68992001 247:0.11799 248:0.70710999 250:0.016175 252:0.43184999 256:0.73369002 260:0.79360998 265:0.39552999 266:0.11799 268:0.72841001 276:0.14395 278:0.043552998 285:0.61590999 300:0.12536 304:0.80078 305:0.61936003 325:0.31208 328:0.89974999 329:0.63642001 332:0.90600997 335:0.77451003 341:0.66553003 345:0.78635001 347:0.66494 348:0.25668001 349:0.51529998 350:0.25534999 356:0.18775 359:0.91825002 366:0.46878999 370:0.1358 376:0.79275 379:0.67848998 380:0.89247 381:0.78884 382:0.066643 383:0.26894999 384:0.61936003 385:0.62611002 386:0.41005999 396:0.93585002 399:0.72826999 406:0.54057002 407:0.54203999 411:0.15681 415:0.095818996 418:0.49855 426:0.7062 433:0.0036245999 437:0.048097 442:0.00033727 445:0.55074 446:0.034134001 450:0.46412 451:0.61791998 460:0.23317 461:0.65653998 462:0.042176001 474:0.42805001 476:0.55768001 480:0.82222998 481:0.82879001 484:0.80069 486:0.11768 491:0.13732 499:0.29631999 504:0.084158003 510:0.87327999 515:0.28470001 516:0.00040451001 520:0.57053 527:0.77818 533:0.43616 535:0.065218002 536:0.69318998 538:0.2286 540:0.048097 541:0.31143001 543:0.83130997 547:0.096207 549:0.018647 556:0.49976999 567:0.054125998 570:0.048097 573:0.054389998 574:0.17258 578:0.41262001 579:0.31933999 582:0.91667998 585:0.50468999 586:0.66494 595:0.76327997 596:0.46483001 599:0.94638997 601:0.14759 604:0.71557999 605:0.46046999 606:0.090272002 607:0.048097 611:0.57558 622:0.79360998 630:0.80419999 637:0.032666001 638:0.73246998 640:0.47523001 641:0.23519 642:0.048097 649:0.95639998 659:0.74778003 665:0.29469001 668:0.89974999 672:0.00040451001 674:0.28349 675:0.030726001 694:0.55425 697:0.046567 699:0.57432997 #
0.092984777467473786471963137501007 3:0.85360998 6:0.99392003 8:0.74949002 12:0.064687997 14:0.79126 17:0.094803996 20:0.77674001 21:0.77818 27:0.71504998 30:0.95235997 38:0.35698 43:0.32150999 55:0.59456003 57:0.40885001 61:0.84289002 63:0.74035001 66:0.54347998 69:0.67992002 70:6.7622e-06 90:0.22562 91:0.84123999 94:0.89646 98:0.25891 100:0.85887998 108:0.51717001 109:0.043092001 113:0.86748999 115:0.74669999 120:0.87121999 123:0.49511001 127:0.11204 129:0.048097 140:0.45073 146:0.22488999 147:0.28255001 148:0.71258003 149:0.20144001 151:0.73219001 152:0.75717002 153:0.80306 154:0.2385 159:0.10577 162:0.54433 164:0.87976998 172:0.095227003 173:0.91516 177:0.048097 179:0.71415001 184:2.2472999e-05 186:0.76810002 189:0.99571002 202:0.86379999 207:0.77639002 214:0.79473001 216:0.44086 218:0.87954998 220:0.74107999 235:0.048351001 237:0.67369002 241:0.89450002 243:0.6275 248:0.81663001 250:0.016175 252:0.43184999 256:0.84178001 260:0.87674999 261:0.76533997 265:0.28112 268:0.84915 278:0.043552998 280:0.99058998 285:0.61590999 300:0.077722996 304:0.89178997 305:0.74365002 325:0.36194 328:0.89974999 329:0.54014999 332:0.94363999 335:0.86739999 341:0.59324998 345:0.79723001 347:0.91360003 348:0.14173 349:0.88792998 350:0.14689 355:0.76226997 359:0.98574001 362:0.84859997 363:0.95405 365:0.75638998 366:0.91363001 370:0.1358 371:0.95380002 376:0.84640998 379:0.88725001 380:0.94097 381:0.86374998 382:0.062875003 383:0.46307999 384:0.74365002 385:0.21296 386:0.37428001 396:0.47253001 399:0.72826999 406:0.46239001 407:0.66724998 408:0.79847002 410:0.82384998 411:0.15906 415:0.091464996 418:0.37169001 419:0.74517 426:0.89287001 432:0.79917997 433:0.0036245999 437:0.048097 442:0.00033727 444:0.79813999 445:0.44529 446:0.034499001 450:0.36475 451:0.019456999 460:0.23317 461:0.72329003 462:0.042231999 474:0.32589999 476:0.45252001 477:0.79346001 481:0.89589 484:0.81765002 486:0.077581003 497:0.76924002 499:0.32587999 503:0.99304003 504:0.019996 510:0.87327999 515:0.146 516:0.00040451001 520:0.57058001 527:0.77818 533:0.82429999 534:0.78463 535:0.061324999 536:0.69318998 538:0.12624 540:0.048097 541:0.154 543:0.48978999 547:0.096207 549:0.018647 553:0.75958002 556:0.50492001 562:0.99431002 567:0.054125998 570:0.048097 573:0.054389998 574:0.095227003 578:0.81976002 579:0.22413 582:0.82841998 585:0.39311001 586:0.91360003 595:0.82490999 596:0.28016999 599:0.92539001 601:0.092656001 604:0.81476003 605:0.88738 606:0.47251999 607:0.048097 611:0.55473 614:0.75436997 622:0.87674999 630:0.80419999 637:0.032949001 638:0.86716998 640:0.60052001 641:0.17996 642:0.048097 649:0.47253001 659:0.85597998 665:0.17889 668:0.89974999 672:0.00040451001 674:0.21179 675:0.16169 694:0.45056999 697:0.046567 699:0.80732 #
-0.081965073919405412317118475584721 7:0.80870003 12:0.064687997 13:0.94562 17:0.073247999 21:0.39713001 25:0.88089001 27:0.54767001 30:0.67790997 32:0.80374002 37:0.95815003 38:0.45052999 43:0.35843 55:0.83775997 57:0.57670999 63:0.74035001 66:0.1838 69:0.62080002 70:0.49333 81:0.27581 90:0.22562 91:0.44079 98:0.40081 108:0.89798999 109:0.043092001 116:0.62664998 119:0.28540999 123:0.89331001 124:0.89810997 126:0.54390001 127:0.82683003 129:0.96446002 130:0.61316001 133:0.89859998 145:0.54218 146:0.44334 147:0.50831997 149:0.56634003 150:0.26642999 154:0.26886001 159:0.82335001 163:0.93647999 172:0.36803001 173:0.40540999 177:0.048097 178:0.54926997 179:0.62589997 183:0.66170001 184:2.2472999e-05 187:0.68175 200:0.67458999 210:0.61948001 212:0.17652 215:0.66926003 216:0.60263997 230:0.86840999 233:0.75832999 235:0.41609001 241:0.40741 242:0.81950003 243:0.2714 245:0.62681001 247:0.11799 249:0.96878999 250:0.016175 252:0.43184999 265:0.42164999 266:0.89143002 276:0.61034 278:0.043552998 296:0.78039998 297:0.36041999 300:0.43013 305:0.67154998 308:0.88089001 317:0.49577001 325:0.54926997 328:0.89974999 329:0.14681 330:0.49548 332:0.81669998 341:0.19819 347:0.44457 348:0.76406002 349:0.32797 350:0.2985 351:0.70172 356:0.88107997 359:0.60553002 360:0.95920998 370:0.1358 375:0.88089001 376:0.68180001 381:0.58091998 382:0.078318998 383:0.54926997 384:0.67154998 385:0.84722 386:0.49513 387:0.54926997 389:0.75439 399:0.29947001 402:0.78189999 405:0.55909997 406:0.89885998 407:0.58293003 411:0.14929999 415:0.10499 418:0.077395 426:0.60832 433:0.0036245999 437:0.048097 442:0.94927001 445:0.87033999 446:0.032841001 450:0.88207 451:0.038887002 460:0.23317 462:0.041783001 463:0.29758999 474:0.80899 476:0.87309003 480:0.82222998 481:0.82130003 486:0.58342999 490:0.56954002 491:0.89326 492:0.72668999 494:0.72668999 499:0.48354 504:0.66924 505:0.61856002 509:0.95042002 510:0.87327999 515:0.62870002 516:0.00040451001 521:0.49489999 533:0.86065 535:0.077353999 536:0.69318998 538:0.30386001 540:0.048097 541:0.64188999 542:0.57704997 547:0.096207 549:0.018647 559:0.88089001 560:0.95920998 570:0.048097 574:0.38771001 578:0.86045003 579:0.84065998 585:0.35137001 586:0.44457 594:0.74256003 595:0.63995999 596:0.55508 601:0.45142999 606:0.87041998 607:0.048097 627:0.54926997 630:0.80419999 631:0.49417999 637:0.031668 638:0.13245 640:0.52298999 641:0.53513998 642:0.88249999 644:0.70560998 655:0.76274002 665:0.37079 668:0.89974999 672:0.00040451001 674:0.49175 675:0.80577999 694:0.41012999 697:0.046567 698:0.61888999 699:0.88279003 #
0.060000000000000004718447854656915 7:0.80870003 12:0.064687997 13:0.94562 17:0.073247999 21:0.59325999 25:0.88089001 27:0.71504998 30:0.57424003 32:0.80374002 38:0.24411 43:0.50761998 55:0.83775997 57:0.57670999 63:0.74035001 66:0.13169 68:0.97662002 69:0.24961001 70:0.41569999 81:0.26280001 84:0.95644999 90:0.22562 91:0.42256001 94:0.47253001 98:0.38161999 106:0.81369001 108:0.84047002 116:0.62664998 119:0.28512999 123:0.87645 124:0.86223 126:0.54390001 127:0.84347999 129:0.93076003 130:0.61316001 133:0.83780998 142:0.97877997 145:0.88639998 146:0.57682002 147:0.63382 149:0.61623001 150:0.25659999 154:0.39550999 159:0.79475999 163:0.93647999 172:0.36803001 173:0.14832 177:0.048097 178:0.54926997 179:0.53788 183:0.66170001 184:2.2472999e-05 187:0.39144 200:0.67458999 206:0.81369001 210:0.61948001 212:0.28974 214:0.47253001 215:0.55300999 216:0.60263997 230:0.86840999 233:0.75832999 235:0.67837 241:0.75844997 242:0.81950003 243:0.22812 245:0.74866998 247:0.11799 249:0.96878999 250:0.016175 252:0.43184999 265:0.37981999 266:0.86936003 276:0.68159997 296:0.78039998 297:0.36041999 300:0.43013 305:0.22842 308:0.88089001 317:0.42763999 325:0.54926997 328:0.89974999 329:0.10424 330:0.42750001 332:0.81281 341:0.16082001 347:0.13467 348:0.85497999 349:0.12638 350:0.47648999 351:0.65494001 356:0.83050001 359:0.10852 360:0.95920998 370:0.1358 375:0.88089001 376:0.67497998 381:0.74423999 382:0.078941002 383:0.54926997 384:0.22842 385:0.75844002 386:0.49882001 387:0.54926997 389:0.75439 392:0.81369001 396:0.47253001 399:0.29947001 402:0.78189999 405:0.50145 406:0.92422003 407:0.20328 411:0.14925 415:0.10585 418:0.54184002 426:0.57612002 433:0.0036245999 437:0.048097 442:0.92352998 445:0.90357 446:0.032830998 450:0.91070002 451:0.44492999 460:0.23317 462:0.041738 474:0.85488999 476:0.90569001 480:0.82222998 481:0.78963 486:0.65697002 490:0.56948 491:0.87115997 492:0.61746001 494:0.61746001 499:0.56823999 504:0.16204 505:0.81488001 509:0.95042002 510:0.89515001 515:0.55283999 516:0.00040451001 521:0.42703 533:0.76499999 535:0.078079 536:0.69318998 538:0.30386001 540:0.048097 541:0.53538001 542:0.57704997 543:0.51201999 547:0.096207 549:0.018647 559:0.88089001 560:0.95920998 570:0.048097 574:0.38771001 578:0.85992998 579:0.88059998 582:0.47253001 584:0.96803999 585:0.44964001 586:0.13467 594:0.74256003 595:0.63265997 596:0.59460998 597:0.97662002 599:0.47253001 601:0.45142999 606:0.064736001 607:0.048097 627:0.54926997 629:0.81369001 630:0.80419999 631:0.42662001 637:0.031661998 638:0.078371003 640:0.19919001 641:0.58882999 642:0.80281001 644:0.70560998 649:0.47253001 655:0.76274002 665:0.37079 668:0.89974999 672:0.00040451001 674:0.70705998 675:0.51037002 694:0.50395 697:0.046567 698:0.61888999 699:0.82378 #
0.01196507391940541259467423174101 8:0.94194001 12:0.064687997 13:0.94562 17:0.018576 21:0.12578 25:0.88089001 27:0.029732 30:0.88748002 34:0.19535001 36:0.39947999 37:0.94682002 38:0.00033708999 43:0.49438 55:0.45297 57:0.82108003 61:0.70923001 63:0.74035001 66:0.74935001 69:0.21170001 70:0.19638 72:0.9928 81:0.29218999 90:0.22562 91:0.99511999 94:0.97192001 98:0.92887998 108:0.16802999 109:0.043092001 113:0.89612001 119:0.28560001 120:0.99334002 123:0.16193999 126:0.54390001 127:0.56900001 129:0.048097 135:0.61317003 140:0.45073 146:0.34738001 147:0.41308999 149:0.43698999 150:0.27695 151:0.90363002 153:0.99550998 154:0.38237 159:0.13778999 162:0.68625998 164:0.99368 172:0.31814 173:0.75906003 177:0.048097 179:0.93773001 184:2.2472999e-05 200:0.67458999 202:0.98755997 212:0.94599003 213:0.98484999 214:0.94467998 215:0.84425998 216:0.82348001 218:0.79753 235:0.11934 237:0.69520003 241:0.99634999 242:0.81950003 243:0.77250999 247:0.11799 248:0.99022001 249:0.96878999 252:0.43184999 256:0.99032003 259:0.21315999 260:0.99374998 263:0.63950998 265:0.92887998 266:0.11799 267:0.35958999 268:0.99252999 276:0.2626 278:0.043552998 283:0.81730002 285:0.61590999 297:0.36041999 300:0.18100999 303:0.98694998 304:0.45073 305:0.18488 308:0.88089001 317:0.57806998 325:0.54256999 328:0.89974999 329:0.74932998 330:0.57773 332:0.99283999 335:0.99155003 337:0.71999002 341:0.7597 345:0.99681997 347:0.8143 348:0.21332 349:0.69367999 350:0.48686999 351:0.73839998 356:0.16026001 359:0.69294 360:0.95920998 366:0.99489999 370:0.1358 375:0.88089001 376:0.99708003 379:0.98948002 380:0.99747002 381:0.86374998 382:0.072052002 383:0.54133999 384:0.18488 385:0.18164 386:0.45376 396:0.98347998 399:0.48734 406:0.67807001 407:0.2678 411:0.16012 415:0.10106 418:0.72872001 420:0.98478001 426:0.99019998 433:0.0036245999 437:0.048097 442:0.00033727 445:0.76714998 446:0.034697 450:0.75595999 451:0.47365999 458:0.36476001 460:0.23317 461:0.8951 462:0.042288002 463:0.89393002 474:0.67501998 476:0.77157998 480:0.82222998 481:0.68299001 484:0.83073997 485:0.87234002 486:0.21867999 491:0.13732 492:0.87273997 494:0.87273997 496:0.79799998 499:0.29631999 504:0.019996 505:0.34733 509:0.95042002 510:0.87327999 515:0.22811 516:0.00040451001 520:0.57063001 521:0.57712001 533:0.59091997 535:0.070720002 536:0.69318998 538:0.42462 540:0.048097 541:0.25134 542:0.57704997 543:0.83899999 547:0.096207 556:0.50975001 559:0.88089001 560:0.95920998 568:0.98756999 570:0.048097 574:0.33906999 578:0.56515998 579:0.50494999 582:0.97406 585:0.92975998 586:0.8143 595:0.99619001 596:0.0090841996 599:0.98618001 600:0.74838001 601:0.20875999 604:0.98966002 605:0.99339998 606:0.15787999 607:0.048097 611:0.66611999 622:0.99374998 630:0.80419999 631:0.57629001 637:0.033135999 638:0.98806 640:0.17223001 641:0.40242001 642:0.048097 649:0.97189999 651:0.64767998 659:0.98543 665:0.48794001 668:0.89974999 672:0.00040451001 674:0.91452003 675:0.16169 687:0.50185001 694:0.93096 697:0.046567 699:0.98025 #
0.11999999999999998168132009368492 3:0.99009001 6:0.94773 8:0.88085002 12:0.064687997 14:0.76797003 17:0.23601 20:0.99273002 21:0.77818 27:0.42087001 30:0.4508 32:0.80374002 37:0.81594998 38:0.18144999 43:0.34863001 55:0.51576 57:0.75639999 61:0.77569997 63:0.74035001 66:0.68774998 69:0.63669002 70:0.24513 90:0.22562 91:0.95880002 94:0.87432998 98:0.75935 100:0.96570998 108:0.48515999 109:0.043092001 113:0.78342998 115:0.74669999 116:0.62664998 120:0.94730997 123:0.46493 127:0.24863 129:0.048097 140:0.79623997 145:0.3973 146:0.42241001 147:0.48802999 148:0.99137998 149:0.30581999 151:0.82506001 152:0.94417 153:0.95201999 154:0.26115 159:0.15708999 162:0.55184001 163:0.93159002 164:0.97061998 172:0.21491 173:0.90758997 177:0.048097 178:0.41624999 179:0.93449003 183:0.66170001 184:2.2472999e-05 186:0.82923001 189:0.95779002 202:0.96515 207:0.77639002 212:0.60692 214:0.71911001 216:0.73118001 218:0.76059997 235:0.31393999 237:0.68987 241:0.97087002 242:0.81950003 243:0.72566998 247:0.11799 248:0.92357999 250:0.016175 252:0.43184999 256:0.97003001 260:0.94967997 261:0.93673003 263:0.63151002 265:0.76042002 266:0.17201 268:0.96358001 276:0.21644001 278:0.043552998 280:0.98193002 283:0.81730002 285:0.61590999 296:0.78039998 300:0.18100999 304:0.71319997 305:0.69102001 325:0.52964997 329:0.68760002 332:0.98122001 335:0.9745 341:0.70687997 345:0.96183997 347:0.90999001 348:0.25997999 349:0.87826002 350:0.34582001 355:0.80738002 356:0.22296999 359:0.22513001 362:0.93943 363:0.95405 365:0.73899001 366:0.94054002 370:0.1358 371:0.91277999 376:0.96315002 379:0.96925998 380:0.99198002 382:0.069167003 383:0.52647001 384:0.69102001 385:0.47481999 386:0.43123999 389:0.75439 396:0.88077998 399:0.24106 402:0.78189999 406:0.59701997 407:0.60320002 408:0.92360002 410:0.97586 411:0.15987 415:0.098488003 418:0.12027 419:0.74517 426:0.95489001 432:0.79917997 433:0.0036245999 437:0.048097 442:0.24348 444:0.95128 445:0.61464 446:0.034657001 450:0.67883998 451:0.038887002 460:0.23317 461:0.81484002 462:0.042243 463:0.30565 474:0.49610001 476:0.62103999 477:0.88612002 480:0.82222998 481:0.88879001 484:0.82740998 485:0.87234002 486:0.15180001 490:0.56959999 491:0.19284999 496:0.78239 497:0.89411002 499:0.20412 503:0.98851001 504:0.030951001 515:0.28939 516:0.00040451001 520:0.57059002 526:0.30680999 527:0.77818 533:0.80953002 534:0.96736002 535:0.067805 538:0.30386001 540:0.048097 541:0.31604999 543:0.83899999 547:0.096207 549:0.018647 553:0.73975003 556:0.50838 562:0.99384999 567:0.054125998 568:0.99444997 570:0.048097 573:0.054389998 574:0.23254 578:0.80285001 579:0.3933 582:0.76517999 585:0.78438002 586:0.90999001 595:0.95714998 596:0.12842 599:0.90959001 600:0.74838001 601:0.20875999 604:0.92092001 605:0.92097002 606:0.090272002 607:0.048097 611:0.53122997 614:0.86094999 622:0.94967997 630:0.80419999 637:0.033084001 638:0.96555001 640:0.54245001 641:0.27599001 642:0.048097 644:0.70560998 649:0.80555999 651:0.63850999 659:0.97311002 665:0.37079 672:0.00040451001 674:0.64367002 675:0.39294001 694:0.79882997 697:0.046567 698:0.61888999 699:0.89459997 #
0.080000000000000001665334536937735 7:0.80870003 12:0.064687997 13:0.94562 17:0.12054 21:0.59325999 25:0.88089001 27:0.71504998 30:0.52895999 32:0.80374002 38:0.1206 43:0.50761998 55:0.83775997 57:0.57670999 61:0.49636 63:0.74035001 66:0.26308 68:0.97662002 69:0.24961001 70:0.55397999 81:0.26280001 84:0.95644999 90:0.22562 91:0.69158 94:0.47253001 98:0.52691001 106:0.81369001 108:0.87156999 113:0.63139999 116:0.62664998 119:0.28512999 123:0.86508 124:0.84693003 126:0.54390001 127:0.90692002 129:0.93076003 130:0.61316001 133:0.83780998 142:0.97877997 145:0.88639998 146:0.55302 147:0.61198997 149:0.64464003 150:0.25659999 154:0.39550999 159:0.80765003 163:0.93647999 172:0.53865999 173:0.14390001 177:0.048097 178:0.54926997 179:0.52038002 183:0.66170001 184:2.2472999e-05 187:0.39144 200:0.67458999 206:0.81369001 210:0.61948001 212:0.26791 214:0.47253001 215:0.55300999 216:0.60263997 218:0.62783003 230:0.86840999 233:0.75832999 235:0.67837 241:0.76002002 242:0.81950003 243:0.25466001 245:0.75814003 247:0.11799 249:0.96878999 250:0.016175 252:0.43184999 265:0.54183 266:0.89143002 276:0.69472998 296:0.78039998 297:0.36041999 300:0.69827002 305:0.22842 308:0.88089001 317:0.42763999 325:0.54926997 328:0.89974999 329:0.22334 330:0.42750001 332:0.81054997 341:0.1842 347:0.12919 348:0.85459 349:0.12304 350:0.48686999 351:0.65494001 356:0.83396 359:0.094949 360:0.95920998 370:0.1358 375:0.88089001 376:0.68008 381:0.74423999 382:0.079094 383:0.54926997 384:0.22842 385:0.75525999 386:0.49970999 387:0.54926997 389:0.75439 392:0.81369001 396:0.47253001 399:0.29947001 402:0.78189999 405:0.50145 406:0.93120998 407:0.20328 411:0.14925 415:0.10602 418:0.47143 426:0.57612002 433:0.0036245999 437:0.048097 442:0.93208998 445:0.91887999 446:0.032830998 450:0.92453003 451:0.10569 460:0.23317 462:0.041760001 474:0.87681001 476:0.92071003 480:0.82222998 481:0.78963 486:0.67763001 490:0.56948 491:0.89326 492:0.61746001 494:0.61746001 499:0.79323 504:0.16204 505:0.81488001 509:0.95042002 510:0.89515001 515:0.74598002 516:0.00040451001 521:0.42703 533:0.82155001 535:0.078270003 536:0.69318998 538:0.37422001 540:0.048097 541:0.75449002 542:0.57704997 543:0.49452999 547:0.096207 549:0.018647 559:0.88089001 560:0.95920998 570:0.048097 574:0.55426002 578:0.81646001 579:0.89051998 582:0.47253001 584:0.96803999 585:0.42879 586:0.12919 594:0.74256003 595:0.63805002 596:0.62203997 597:0.97662002 599:0.47253001 601:0.69766998 606:0.65666002 607:0.048097 627:0.54926997 629:0.81369001 630:0.80419999 631:0.42662001 637:0.031661998 638:0.052747998 640:0.19919001 641:0.61900997 642:0.80281001 644:0.70560998 649:0.47253001 655:0.76274002 665:0.44071999 668:0.89974999 672:0.00040451001 674:0.68848997 675:0.39294001 694:0.48451 697:0.046567 698:0.61888999 699:0.75990999 #
-0.14999999999999999444888487687422 8:0.95406997 12:0.064687997 13:0.94562 17:0.58780003 21:0.59325999 25:0.88089001 27:0.2457 30:0.15127 32:0.80374002 37:0.64134997 38:0.0058542001 43:0.50393999 55:0.51576 57:0.79741001 61:0.98377001 63:0.74035001 66:0.23207 69:0.28775001 70:0.94269001 81:0.28878999 90:0.22562 91:0.98762 94:0.94365001 98:0.25957 108:0.94950002 109:0.043092001 113:0.97661 116:0.62664998 119:0.28505 120:0.99536997 123:0.91534001 124:0.78346997 126:0.54390001 127:0.79785001 129:0.89156997 133:0.77779001 140:0.45073 145:0.81712002 146:0.24747001 147:0.30743 149:0.40334001 150:0.27491 151:0.90938002 153:0.99664998 154:0.39186001 159:0.88111001 162:0.78641999 164:0.99479002 172:0.40728 173:0.11059 177:0.048097 179:0.67534 183:0.66170001 184:2.2472999e-05 200:0.96442997 202:0.98725998 212:0.39078999 214:0.87528002 215:0.55300999 216:0.75353998 218:0.98202997 235:0.74272001 237:0.6954 241:0.96688998 242:0.81950003 243:0.1793 245:0.65897 247:0.11799 248:0.99339002 249:0.96878999 252:0.43184999 256:0.99318999 260:0.99568999 263:0.62832999 265:0.24224 266:0.80181003 268:0.99383998 276:0.48185 278:0.043552998 283:0.81730002 285:0.61590999 296:0.78039998 297:0.36041999 300:0.84069997 304:0.45073 305:0.27221999 308:0.88089001 317:0.42763999 325:0.54329997 328:0.89974999 329:0.2295 330:0.42750001 332:0.99434 335:0.99409997 341:0.12181 345:0.99765003 347:0.086620003 348:0.58346999 349:0.097644001 350:0.42028001 351:0.73202002 356:0.91934001 359:0.10852 360:0.95920998 366:0.99631 370:0.1358 375:0.88089001 376:0.99792999 379:0.99052 380:0.99839997 381:0.95305002 382:0.077848002 383:0.54216999 384:0.27221999 385:0.91589999 386:0.49225 389:0.75439 396:0.79566002 399:0.47341999 402:0.78189999 405:0.44902 406:0.88014001 407:0.222 411:0.16012999 415:0.1037 418:0.23648 426:0.97606999 433:0.0036245999 437:0.048097 442:0.86789 445:0.73176998 446:0.034699 450:0.76590002 451:0.32396001 460:0.23317 461:0.90098 462:0.042300001 463:0.61341 474:0.63099003 476:0.73675001 480:0.82222998 481:0.68299001 484:0.83082998 485:0.87234002 486:0.53731 490:0.56950998 491:0.80549997 492:0.61746001 494:0.61746001 496:0.77547997 499:0.40917 504:4.2264001e-05 505:0.81488001 509:0.95042002 510:0.87327999 515:0.49428001 516:0.00040451001 520:0.57064003 521:0.42703 533:0.97227001 535:0.076789998 536:0.69318998 538:0.12624 540:0.048097 541:0.41905001 542:0.57704997 543:0.53487003 547:0.096207 556:0.50977999 559:0.88089001 560:0.95920998 568:0.99444997 570:0.048097 574:0.38771001 578:0.81092 579:0.81149 582:0.97812998 585:0.19632 586:0.086620003 595:0.99737 596:0.035631999 599:0.98743999 600:0.74838001 601:0.83613002 604:0.99285001 605:0.99528998 606:0.65666002 607:0.048097 611:0.74835998 622:0.99568999 630:0.80419999 631:0.42662001 637:0.033137001 638:0.99106997 640:0.22679 641:0.36750999 642:0.72241998 644:0.70560998 649:0.69881999 651:0.63486999 659:0.98667997 665:0.17889 668:0.89974999 672:0.00040451001 674:0.27625 675:0.014062 694:0.25173 697:0.046567 698:0.61888999 699:0.96319997 #
-0.14999999999999999444888487687422 3:0.92864001 6:0.98778999 7:0.80870003 8:0.60697001 12:0.064687997 13:0.94562 14:0.85483998 17:0.27526999 20:0.87895 21:0.12578 25:0.88089001 27:0.71504998 32:0.80374002 38:0.18144999 43:0.24661 57:0.43145001 61:0.89836001 63:0.74035001 66:0.35578999 69:0.84236002 70:6.7622e-06 81:0.29218999 90:0.22562 91:0.93388999 94:0.86223 98:0.095969997 100:0.82435 108:0.69766003 109:0.043092001 113:0.92013001 115:0.74669999 116:0.62664998 119:0.28560001 120:0.86993003 123:0.67741001 126:0.54390001 127:0.067587003 129:0.048097 130:0.61316001 140:0.79623997 145:0.79012001 146:0.048097 147:0.048097 148:0.94375998 149:0.10479 150:0.27695 151:0.68699998 152:0.82608002 153:0.68756002 154:0.17432 159:0.048097 162:0.56282997 164:0.93790001 172:0.048097 173:0.99813998 177:0.048097 178:0.41624999 183:0.66170001 184:2.2472999e-05 186:0.75317001 189:0.99199998 200:0.67458999 202:0.92232001 207:0.77639002 210:0.61948001 214:0.70449001 215:0.84425998 216:0.49206001 218:0.93831003 220:0.62195998 230:0.86840999 233:0.75832999 235:0.11934 237:0.67337 241:0.95795 243:0.51380998 248:0.81514001 249:0.96878999 250:0.016175 252:0.43184999 256:0.91382998 260:0.87554997 261:0.79369998 263:0.56443 265:0.10012 268:0.92137998 278:0.043552998 280:0.95538002 283:0.60039997 285:0.61590999 296:0.78039998 297:0.36041999 304:0.97096002 305:0.88663 308:0.88089001 317:0.57806998 325:0.29302999 328:0.89974999 329:0.32528001 330:0.57773 332:0.96600997 335:0.92791998 341:0.45853001 345:0.85803002 347:0.95033997 348:0.048097 349:0.99760997 350:0.048097 351:0.73839998 355:0.74655998 359:0.35947999 360:0.95920998 362:0.81404001 363:0.95405 365:0.80865997 366:0.93501002 370:0.1358 371:0.84429002 375:0.88089001 376:0.87759 379:0.90121001 380:0.97180003 381:0.84337002 382:0.057650998 383:0.47437999 384:0.88663 386:0.31110001 389:0.75439 396:0.85637999 399:0.45642999 402:0.78189999 406:0.32311001 407:0.78447002 408:0.77236003 410:0.86401999 411:0.15915 415:0.080188997 418:0.034627002 419:0.74517 426:0.91292 432:0.79917997 433:0.0036245999 437:0.048097 442:0.00033727 444:0.83425999 445:0.25907999 446:0.03452 450:0.48688999 451:0.0070250998 460:0.23317 461:0.67892998 462:0.042259999 474:0.16234 476:0.26453999 477:0.76804 481:0.81362998 484:0.81737 485:0.61302 486:0.048097 490:0.56950998 492:0.87273997 494:0.87273997 496:0.65043998 497:0.78561002 499:0.23455 503:0.97738999 504:0.030951001 505:0.34733 509:0.95042002 510:0.87327999 515:0.048097 516:0.00040451001 520:0.57059997 521:0.57712001 533:0.99773002 534:0.81975001 535:0.056251999 536:0.69318998 538:0.048097 540:0.048097 541:0.048097 542:0.57704997 543:0.82033002 547:0.096207 549:0.018647 553:0.81773001 556:0.50485998 559:0.88089001 560:0.95920998 562:0.99162 568:0.75202 570:0.048097 574:0.048097 578:0.99795997 579:0.085355997 582:0.72842002 585:0.15356 586:0.95033997 594:0.74256003 595:0.85991001 596:0.20993 599:0.88565999 600:0.74838001 604:0.74381 605:0.91400999 606:0.87041998 607:0.048097 611:0.57375997 614:0.76615 622:0.87554997 630:0.80419999 631:0.57629001 637:0.032963999 638:0.93105 640:0.81064999 641:0.098476999 642:0.048097 644:0.70560998 649:0.77631998 651:0.5661 655:0.76274002 659:0.91336 665:0.048097 668:0.89974999 672:0.00040451001 674:0.086787999 675:0.18941 694:0.20545 697:0.046567 698:0.61888999 699:0.86971003 #
0.070000000000000006661338147750939 3:0.99542999 6:0.99888998 7:0.80870003 8:0.99041998 12:0.064687997 13:0.94562 14:0.89328003 17:0.13428999 20:0.99162 21:0.59325999 25:0.88089001 27:0.54767001 30:0.36950999 32:0.80374002 37:0.95815003 38:0.026681 43:0.50761998 55:0.83775997 57:0.57670999 61:0.88600999 63:0.74035001 66:0.88249999 69:0.24961001 70:0.51245999 81:0.26280001 90:0.22562 91:0.91505003 94:0.96380001 98:0.88688999 100:0.98168999 108:0.19608 109:0.043092001 113:0.90890998 115:0.74669999 116:0.62664998 119:0.28512999 120:0.87765998 123:0.18873 126:0.54390001 127:0.43553001 129:0.048097 130:0.61316001 140:0.45073 145:0.54218 146:0.90236998 147:0.92009997 148:0.99636 149:0.60459 150:0.25659999 151:0.73633999 152:0.96389002 153:0.81585997 154:0.39550999 159:0.50151998 162:0.73483002 164:0.95793003 172:0.66755003 173:0.25457001 177:0.048097 179:0.61228001 183:0.66170001 184:2.2472999e-05 186:0.89925998 189:0.99878001 200:0.67458999 202:0.92553002 207:0.77639002 210:0.61948001 212:0.41067001 214:0.91724998 215:0.55300999 216:0.60263997 218:0.91790003 220:0.74107999 230:0.86840999 233:0.75832999 235:0.67837 237:0.67495 241:0.92352003 242:0.81950003 243:0.88770998 247:0.11799 248:0.82554001 249:0.96878999 250:0.016175 252:0.43184999 256:0.95950001 260:0.88297999 261:0.96436 263:0.56981999 265:0.88690001 266:0.53526998 268:0.94722998 276:0.56296998 278:0.043552998 280:0.98025 283:0.60039997 285:0.61590999 296:0.78039998 297:0.36041999 300:0.32894999 304:0.92897999 305:0.22842 308:0.88089001 317:0.42763999 325:0.44255999 328:0.89974999 329:0.88249999 330:0.42750001 332:0.96493 335:0.96574003 341:0.88417 345:0.94426 347:0.26546001 348:0.75410002 349:0.20689 350:0.80239999 351:0.65494001 355:0.85481 356:0.58099997 359:0.60553002 360:0.95920998 362:0.95946997 363:0.95405 365:0.84500003 366:0.94221997 370:0.1358 371:0.90382999 375:0.88089001 376:0.93967998 379:0.95731997 380:0.98926997 381:0.74423999 382:0.077653997 383:0.51745999 384:0.22842 385:0.58332002 386:0.49112999 389:0.75439 396:0.99111998 399:0.29947001 402:0.78189999 406:0.87251002 407:0.20328 408:0.96669 410:0.98623002 411:0.15926 415:0.10515 418:0.59758002 419:0.74517 426:0.89001 432:0.79917997 433:0.0036245999 437:0.048097 442:0.69015998 444:0.96726 445:0.89634001 446:0.034540001 450:0.90522999 451:0.81035 460:0.23317 461:0.72760999 462:0.042293999 463:0.29758999 474:0.84474999 476:0.8987 477:0.92764002 480:0.82222998 481:0.79767001 484:0.81879002 485:0.61302 486:0.51968002 490:0.56954002 491:0.53522998 492:0.61746001 494:0.61746001 496:0.66206002 497:0.94695997 499:0.38227001 503:0.98550999 504:0.16204 505:0.81488001 509:0.95042002 510:0.87327999 515:0.85500002 516:0.00040451001 520:0.57063001 521:0.42703 533:0.1705 534:0.98563999 535:0.076582 536:0.69318998 538:0.74677998 540:0.048097 541:0.85926002 542:0.57704997 543:0.89121002 547:0.096207 549:0.018647 553:0.85707998 556:0.50527 559:0.88089001 560:0.95920998 562:0.99700999 568:0.87101001 570:0.048097 574:0.6785 578:0.15875 579:0.79974997 582:0.97981 585:0.89001 586:0.26546001 594:0.74256003 595:0.93024999 596:0.36287001 599:0.98967999 600:0.74838001 601:0.35771999 604:0.7604 605:0.92315 606:0.049212001 607:0.048097 611:0.74147999 614:0.91311997 622:0.88297999 630:0.80419999 631:0.42662001 637:0.032983001 638:0.92821997 640:0.19919001 641:0.57604003 642:0.048097 644:0.70560998 649:0.96078998 651:0.57230002 655:0.76274002 659:0.94099998 665:0.78184998 668:0.89974999 672:0.00040451001 674:0.84969002 675:0.16169 694:0.89308 697:0.046567 698:0.61888999 699:0.93695998 #
0.17196155223083123275706896038173 12:0.064687997 17:0.49057999 21:0.77818 27:0.71504998 30:0.91009003 32:0.80374002 37:0.81594998 38:0.1206 43:0.3527 55:0.70987999 57:0.72702998 61:0.63764 63:0.74035001 66:0.68774998 69:0.62923998 70:0.13358 90:0.22562 91:0.91772002 94:0.89646 98:0.75220001 108:0.47960001 109:0.043092001 113:0.61799002 116:0.62664998 120:0.90057999 123:0.45967999 127:0.24354 129:0.048097 140:0.87002999 145:0.3973 146:0.40400001 147:0.47 149:0.30818999 151:0.78681999 153:0.90007001 154:0.26434001 159:0.15225001 162:0.53412998 163:0.93159002 164:0.93282002 172:0.21491 173:0.91102999 177:0.048097 178:0.48052999 179:0.93136001 183:0.66170001 184:2.2472999e-05 202:0.92662001 212:0.60692 214:0.79473001 216:0.71033001 218:0.58309001 235:0.31393999 237:0.67940998 241:0.97087002 242:0.81950003 243:0.72566998 247:0.11799 248:0.85768002 250:0.016175 252:0.43184999 256:0.92036003 260:0.90504003 263:0.63151002 265:0.75353998 266:0.17201 268:0.91504002 276:0.2182 278:0.043552998 283:0.81730002 285:0.61590999 296:0.78039998 300:0.12536 304:0.80078 305:0.68184 325:0.48620999 329:0.68760002 332:0.9605 335:0.93330997 341:0.70687997 345:0.93044001 347:0.91165 348:0.24827 349:0.88259 350:0.34582001 356:0.21218 359:0.35947999 366:0.87532997 370:0.1358 376:0.93072999 379:0.89872998 380:0.97416002 382:0.069167003 383:0.47237 384:0.68184 385:0.43788999 386:0.43123999 389:0.75439 396:0.61201 399:0.26914001 402:0.78189999 406:0.59701997 407:0.59491003 411:0.15942 415:0.098503999 418:0.14348 426:0.92470998 433:0.0036245999 437:0.048097 442:0.24348 445:0.61799997 446:0.034584999 450:0.68124998 451:0.015204 460:0.23317 461:0.77530003 462:0.042249002 474:0.49961999 476:0.62434 480:0.82222998 481:0.84929001 484:0.82209003 485:0.87234002 486:0.15180001 490:0.56959999 491:0.19284999 496:0.78239 499:0.14427 504:0.030951001 515:0.27327001 516:0.00040451001 520:0.57059002 526:0.30680999 527:0.77818 533:0.81615001 535:0.067805 538:0.30386001 540:0.048097 541:0.29993001 543:0.58904999 547:0.096207 549:0.018647 556:0.50639999 567:0.054125998 568:0.99444997 570:0.048097 573:0.054389998 574:0.23254 578:0.81027001 579:0.3933 582:0.60389 585:0.7791 586:0.91165 595:0.92000997 596:0.20993 599:0.63817 600:0.74838001 601:0.14759 604:0.85086 605:0.84179002 606:0.090272002 607:0.048097 611:0.53505999 622:0.90504003 630:0.80419999 637:0.033011999 638:0.91689003 640:0.53309 641:0.27827001 642:0.048097 644:0.70560998 649:0.68295002 651:0.63850999 659:0.93045002 665:0.37079 672:0.00040451001 674:0.63371003 675:0.39294001 694:0.79425001 697:0.046567 698:0.61888999 699:0.89459997 #
-0.050000000000000002775557561562891 12:0.064687997 13:0.94562 17:0.063711002 21:0.30267 25:0.88089001 27:0.029732 30:0.75924999 34:0.64459002 36:0.67502999 37:0.94682002 38:0.93175 43:0.2421 55:0.45297 57:0.82108003 61:0.69322002 63:0.74035001 66:0.77158999 69:0.85249001 70:0.29464999 72:0.99049997 81:0.28036001 90:0.22562 91:0.63190001 94:0.47253001 98:0.48947001 108:0.71375 109:0.043092001 113:0.99629003 119:0.28547999 120:0.60496998 123:0.69472998 126:0.54390001 127:0.15003 129:0.048097 135:0.46836999 140:0.79623997 146:0.44069999 147:0.50581002 149:0.33491999 150:0.26978001 151:0.54325998 153:0.48065999 154:0.17007001 159:0.16193999 162:0.52104998 164:0.66763997 172:0.36803001 173:0.96692002 177:0.048097 178:0.41624999 179:0.50999999 184:2.2472999e-05 187:0.39144 200:0.67458999 202:0.66578001 212:0.73321003 213:0.98986 214:0.47253001 215:0.71684998 216:0.82348001 218:0.99686003 220:0.62195998 235:0.31393999 237:0.59176999 241:0.74844003 242:0.81950003 243:0.79042 247:0.11799 248:0.53969002 249:0.96878999 252:0.43184999 256:0.57826 259:0.21315999 260:0.60995001 265:0.50616002 266:0.22547001 267:0.58908999 268:0.58763999 276:0.30236 278:0.043552998 285:0.61590999 297:0.36041999 300:0.24664 303:0.99756002 304:0.71319997 305:0.89244998 308:0.88089001 317:0.51520002 325:0.2617 328:0.89974999 329:0.77157998 330:0.51489002 332:0.88949001 335:0.63819999 337:0.1856 341:0.77963001 345:0.68239999 347:0.93594003 348:0.27173999 349:0.95378 350:0.54027998 351:0.71395999 356:0.19018 359:0.65244001 360:0.95920998 366:0.46878999 370:0.1358 375:0.88089001 376:0.65524 379:0.62222999 380:0.81221998 381:0.59279001 382:0.073105 383:0.21306001 384:0.89244998 385:0.25859001 386:0.46092999 396:0.47253001 399:0.48734 406:0.70836997 407:0.79153001 411:0.14909001 415:0.10128 418:0.16652 420:0.98478001 426:0.63642001 433:0.0036245999 437:0.048097 442:0.32494 445:0.65244001 446:0.032791 450:0.57198 451:0.24292 458:0.58574998 460:0.23317 461:0.53011 462:0.042109001 463:0.89393002 474:0.53793001 476:0.65842003 480:0.82222998 481:0.68299001 484:0.69972998 486:0.25220999 491:0.24885 492:0.77139002 494:0.77139002 499:0.26538 504:0.60839999 505:0.52410001 509:0.95042002 510:0.87327999 515:0.30641001 516:0.00040451001 520:0.57049 521:0.51431 533:0.93439001 535:0.071833 536:0.69318998 538:0.47604999 540:0.048097 541:0.33263999 542:0.57704997 543:0.59202999 545:0.74146998 547:0.096207 556:0.47729999 559:0.88089001 560:0.95920998 570:0.048097 574:0.38771001 578:0.93862998 579:0.54821002 582:0.47253001 585:0.59568 586:0.93594003 595:0.61185002 596:0.061028998 599:0.47253001 601:0.27805999 604:0.52715999 605:0.46046999 606:0.090272002 607:0.048097 611:0.52607 622:0.60995001 627:0.32649001 630:0.80419999 631:0.51356 637:0.031629998 638:0.65638 640:0.82393998 641:0.30274999 642:0.048097 649:0.47253001 659:0.66499001 665:0.53692001 668:0.89974999 672:0.00040451001 674:0.36506 675:0.014062 687:0.41683999 694:0.63568997 697:0.046567 699:0.63168001 #
0.11803844776916876113670440417991 3:0.99668002 6:0.94177002 8:0.93844002 12:0.064687997 14:0.86846 17:0.40437001 20:0.98723 21:0.39713001 27:0.40256 30:0.31841999 37:0.87377 38:0.92875999 43:0.52359998 55:0.45297 57:0.49397999 61:0.75920999 63:0.74035001 66:0.35578999 69:0.12283 70:0.56478 81:0.27581 90:0.22562 91:0.92944002 94:0.96380001 98:0.27089 100:0.98061001 108:0.89792001 109:0.043092001 113:0.73005998 115:0.74168998 119:0.28540999 120:0.90627003 123:0.89319998 124:0.82538998 126:0.54390001 127:0.96798003 129:0.93076003 133:0.83780998 140:0.45073 146:0.19922 147:0.25400999 148:0.99912 149:0.49458 150:0.26642999 151:0.77972001 152:0.90078002 153:0.88533002 154:0.41150001 159:0.78808999 162:0.74150997 164:0.96947998 172:0.47882 173:0.11085 177:0.048097 179:0.69501001 184:2.2472999e-05 186:0.8804 189:0.95192999 200:0.67458999 202:0.94441998 207:0.77081001 212:0.59280002 214:0.92637998 215:0.66926003 216:0.49173 218:0.76059997 220:0.74107999 235:0.41609001 237:0.68102002 241:0.86019999 242:0.81950003 243:0.24382 245:0.61887002 247:0.11799 248:0.86527002 250:0.016175 252:0.43184999 256:0.97942001 260:0.91055 261:0.96151 263:0.62832999 265:0.29337001 266:0.53526998 268:0.96209002 276:0.49459001 278:0.043552998 280:0.92843002 283:0.81730002 285:0.61590999 297:0.36041999 300:0.43013 304:0.90495002 305:0.083075002 317:0.49577001 325:0.49549001 328:0.89974999 329:0.32528001 330:0.49548 332:0.97100002 335:0.98246002 341:0.17373 345:0.94960999 347:0.086944997 348:0.35482001 349:0.097840004 350:0.34178999 351:0.70172 355:0.87059999 356:0.83385998 359:0.062564999 362:0.97352999 363:0.95405 365:0.82077998 366:0.97441 370:0.1358 371:0.80827999 376:0.94770002 379:0.97606999 380:0.99444997 381:0.84337002 382:0.077848002 383:0.53153998 384:0.083075002 385:0.84487998 386:0.49225 396:0.97856998 399:0.98290998 405:0.50145 406:0.88014001 408:0.96250999 410:0.98550999 411:0.1595 415:0.10479 418:0.96621001 419:0.74083 426:0.91916001 428:0.85952997 432:0.79917997 433:0.0036245999 437:0.048097 442:0.62400001 444:0.96587002 445:0.81880999 446:0.034596998 450:0.80751002 451:0.96828002 460:0.23317 461:0.76819003 462:0.042277001 463:0.32615 474:0.74098998 476:0.82231998 477:0.95459998 480:0.82222998 481:0.93324 484:0.82279003 485:0.87234002 486:0.53731 491:0.53522998 492:0.72668999 494:0.72668999 496:0.77547002 497:0.93413001 499:0.71816999 503:0.96618998 504:0.030951001 505:0.61856002 510:0.87327999 515:0.35440001 516:0.00040451001 520:0.57062 521:0.49489999 533:0.92997003 534:0.98404998 535:0.076789998 536:0.69318998 538:0.2286 540:0.048097 541:0.37724 542:0.57704997 543:0.94771999 547:0.096207 549:0.018647 553:0.83067 556:0.50678998 562:0.99672002 567:0.054125998 568:0.98480999 570:0.048097 573:0.054389998 574:0.49638 578:0.93415999 579:0.81149 582:0.94384998 585:0.17495 586:0.086944997 595:0.9393 596:0.60394001 599:0.97376001 600:0.74838001 601:0.45142999 604:0.86057001 605:0.96557999 606:0.87041998 607:0.048097 611:0.74353999 614:0.89883 622:0.91055 630:0.80419999 631:0.49417999 637:0.033027999 638:0.94349003 640:0.1071 641:0.46184999 642:0.80281001 649:0.93329 651:0.63485003 659:0.96569997 665:0.29469001 668:0.89974999 672:0.00040451001 674:0.24424 675:0.10518 694:0.2291 697:0.046567 699:0.33166 #
-0.022984777467473797157859749518138 7:0.80870003 12:0.064687997 13:0.94562 17:0.073247999 21:0.39713001 25:0.88089001 27:0.54767001 30:0.95235997 32:0.80374002 37:0.95815003 38:0.45052999 43:0.19102 55:0.59456003 57:0.57670999 63:0.74035001 66:0.63696003 69:0.94490999 70:6.7622e-06 81:0.30601999 90:0.22562 91:0.42256001 98:0.16125 108:0.88981003 109:0.043092001 116:0.62664998 119:0.28534999 123:0.88433999 126:0.54390001 127:0.094025001 129:0.048097 130:0.61316001 145:0.54218 146:0.25913 147:0.32007 149:0.13038 150:0.28654 154:0.12394 159:0.11468 163:0.99232 172:0.161 173:0.99624002 177:0.048097 178:0.54926997 179:0.17851 183:0.66170001 184:2.2472999e-05 187:0.39144 200:0.96442997 210:0.61948001 212:0.94599003 215:0.66926003 216:0.60263997 230:0.86840999 233:0.75832999 235:0.51818001 241:0.58125001 242:0.81950003 243:0.68992001 247:0.11799 249:0.96878999 250:0.016175 252:0.43184999 265:0.17399999 266:0.11799 276:0.18774 278:0.043552998 296:0.78039998 297:0.36041999 300:0.077722996 305:0.93462002 308:0.88089001 317:0.49577001 325:0.54926997 328:0.89974999 329:0.63642001 330:0.49548 332:0.82726002 341:0.66553003 347:0.94924998 348:0.16013999 349:0.99471003 350:0.25534999 351:0.76393002 356:0.1487 359:0.28997001 360:0.95920998 370:0.1358 375:0.88089001 376:0.54253 381:0.63138002 382:0.066643 383:0.54926997 384:0.93462002 385:0.18662 386:0.41005999 387:0.54926997 389:0.75439 399:0.29947001 402:0.78189999 406:0.54057002 407:0.86120999 411:0.14939 415:0.094774 418:0.0016914 426:0.43514001 433:0.0036245999 437:0.048097 442:0.00033727 445:0.30969 446:0.032859001 450:0.50546002 451:0.033252001 460:0.23317 462:0.041602999 463:0.29758999 474:0.20818 476:0.31619 480:0.82222998 481:0.84280002 486:0.11768 490:0.56954002 491:0.13732 492:0.72668999 494:0.72668999 499:0.068825997 504:0.43380001 505:0.61856002 509:0.95042002 510:0.87327999 515:0.16655999 516:0.00040451001 521:0.49489999 533:0.99488997 535:0.065218002 536:0.69318998 538:0.2286 540:0.048097 541:0.17904 542:0.57704997 547:0.096207 549:0.018647 559:0.88089001 560:0.95920998 570:0.048097 574:0.17258 578:0.99555999 579:0.31933999 585:0.26271001 586:0.94924998 594:0.74256003 595:0.48447999 596:0.32223001 601:0.092656001 606:0.26433 607:0.048097 627:0.54926997 630:0.80419999 631:0.49417999 637:0.031679001 638:0.23397 640:0.94115001 641:0.11944 642:0.048097 644:0.70560998 655:0.76274002 665:0.29469001 668:0.89974999 672:0.00040451001 674:0.14648999 675:0.91525 694:0.32099 697:0.046567 698:0.61888999 699:0.73065001 #
0.080000000000000001665334536937735 3:0.98266 6:0.95436001 7:0.80870003 8:0.94599003 12:0.064687997 13:0.94562 14:0.88668001 17:0.25536001 20:0.99201 21:0.39713001 25:0.88089001 27:0.37897 30:0.90798998 32:0.80374002 37:0.95815003 38:0.066294998 43:0.32056999 55:0.70987999 57:0.51726002 61:0.87247998 63:0.74035001 66:0.88249999 69:0.68990999 70:0.21097 81:0.27581 90:0.22562 91:0.82966 94:0.93602002 98:0.92190999 100:0.93826002 108:0.52495003 109:0.043092001 113:0.83515 115:0.74669999 116:0.62664998 119:0.28540999 120:0.89178997 123:0.50231999 126:0.54390001 127:0.54320002 129:0.048097 130:0.54826999 140:0.45073 145:0.93756002 146:0.8786 147:0.90006 148:0.98451 149:0.58914 150:0.26642999 151:0.69581997 152:0.93133998 153:0.69101 154:0.23769 159:0.45901999 162:0.73166001 164:0.95204002 172:0.66755003 173:0.73228002 177:0.048097 179:0.64762002 183:0.66170001 184:2.2472999e-05 186:0.81009001 189:0.96395999 200:0.67458999 202:0.91720998 207:0.77639002 210:0.55131 212:0.56525999 214:0.88158 215:0.66926003 216:0.56428999 218:0.86426002 220:0.90556002 230:0.64809 233:0.63034999 235:0.41609001 237:0.67769998 241:0.95795 242:0.81950003 243:0.88770998 247:0.11799 248:0.84495997 249:0.96878999 250:0.016175 252:0.43184999 256:0.95842999 260:0.89652997 261:0.90539998 263:0.57507998 265:0.92190999 266:0.53526998 268:0.93979001 276:0.56102002 278:0.043552998 280:0.98909998 283:0.60039997 285:0.61590999 296:0.78039998 297:0.36041999 300:0.24664 304:0.96912998 305:0.75475001 308:0.88089001 317:0.49577001 325:0.37086001 328:0.89974999 329:0.88249999 330:0.49548 332:0.96471 335:0.9648 341:0.88417 345:0.94891 347:0.79211003 348:0.71512002 349:0.66198999 350:0.80239999 351:0.70172 355:0.79606003 356:0.52122998 359:0.052159999 360:0.95920998 362:0.91576999 363:0.95405 365:0.83842999 366:0.93861002 370:0.1358 371:0.94812 375:0.88089001 376:0.94547999 379:0.958 380:0.98834997 381:0.82186002 382:0.077653997 383:0.51802999 384:0.75475001 385:0.52565002 386:0.49112999 389:0.75439 396:0.98126 399:0.52744001 402:0.78189999 406:0.87251002 407:0.66848999 408:0.87637001 410:0.95985001 411:0.15938 415:0.10526 418:0.65404999 419:0.74517 426:0.77559 432:0.79917997 433:0.0036245999 437:0.048097 442:0.63875002 444:0.93102002 445:0.88616002 446:0.034570999 450:0.88059998 451:0.58085001 460:0.23317 461:0.68612999 462:0.042282999 463:0.3317 474:0.83064997 476:0.88871002 477:0.85250998 480:0.82222998 481:0.80566001 484:0.82076001 485:0.61302 486:0.51968002 490:0.56946999 491:0.53522998 492:0.72668999 494:0.72668999 496:0.67306 497:0.87566 499:0.29631999 503:0.99238002 504:0.047042001 505:0.61856002 509:0.95042002 510:0.87327999 515:0.82191002 516:0.00040451001 520:0.57062 521:0.49489999 533:0.56121999 534:0.94063997 535:0.076582 536:0.69318998 538:0.74677998 540:0.048097 541:0.82748002 542:0.57704997 543:0.93304002 547:0.096207 549:0.018647 553:0.84982002 556:0.50595999 559:0.88089001 560:0.95920998 562:0.99317002 568:0.91497999 570:0.048097 574:0.6785 578:0.53512001 579:0.79974997 582:0.94090003 585:0.92303002 586:0.79211003 594:0.74256003 595:0.93672001 596:0.42800999 599:0.96899003 600:0.74838001 601:0.27805999 604:0.66382003 605:0.91848999 606:0.05319 607:0.048097 611:0.72522002 614:0.84274 622:0.89652997 630:0.80419999 631:0.49417999 637:0.033002 638:0.92776 640:0.61304998 641:0.55923998 642:0.048097 644:0.70560998 649:0.94353998 651:0.57833999 655:0.62590998 659:0.94155997 665:0.78184998 668:0.89974999 672:0.00040451001 674:0.90451998 675:0.26677001 694:0.92444003 697:0.046567 698:0.61888999 699:0.78290999 #
0.026541676303236449996347801061347 3:0.90862 6:0.94867003 7:0.80870003 12:0.064687997 14:0.78996998 17:0.073247999 20:0.86984003 21:0.77818 27:0.71504998 30:0.95235997 38:0.1206 43:0.30695999 55:0.97763997 57:0.62488002 61:0.93918997 63:0.74035001 66:0.19915 69:0.71661001 70:6.7622e-06 90:0.22562 91:0.94212002 94:0.79661 98:0.083315998 100:0.80614001 108:0.54861999 109:0.043092001 113:0.93098998 115:0.74669999 120:0.90815997 123:0.52437001 124:0.60851002 127:0.32025 129:0.59294999 130:0.61316001 133:0.47376001 140:0.87002999 145:0.95766002 146:0.048097 147:0.048097 148:0.94375998 149:0.17597 151:0.80353999 152:0.81914997 153:0.93229997 154:0.2261 159:0.33985999 162:0.50184 164:0.94875997 172:0.048097 173:0.78736001 177:0.048097 178:0.48052999 179:0.99563003 184:2.2472999e-05 186:0.74947 189:0.95864999 202:0.95845997 207:0.77639002 210:0.61948001 214:0.62510002 216:0.64392 218:0.94665998 220:0.74107999 230:0.86840999 233:0.75832999 235:0.11934 237:0.68181998 241:0.95327997 243:0.40399 245:0.35760999 248:0.86781001 250:0.016175 252:0.43184999 256:0.94182998 260:0.91237003 261:0.77788001 265:0.086237997 268:0.93541998 278:0.043552998 280:0.94013 285:0.61590999 300:0.077722996 304:0.84557998 305:0.78360999 325:0.50489998 328:0.89974999 329:0.1611 332:0.97702003 335:0.95112997 341:0.33304 345:0.87663001 347:0.83613998 348:0.077581003 349:0.72755003 350:0.048097 355:0.74291003 359:0.040812999 362:0.79615003 363:0.95405 365:0.75549001 366:0.9228 370:0.1358 371:0.82696003 376:0.90122998 379:0.94182003 380:0.98225999 381:0.78884 382:0.062875003 383:0.50569999 384:0.78360999 385:0.96460003 386:0.37428001 396:0.75722998 399:0.60895997 405:0.35760999 406:0.46239001 407:0.68998998 408:0.76131999 410:0.84377003 411:0.15951 415:0.089930996 418:0.26010999 419:0.74517 426:0.93782002 432:0.79917997 433:0.0036245999 437:0.048097 442:0.00033727 444:0.81557 445:0.39839 446:0.034605 450:0.44848999 451:0.16046 460:0.23317 461:0.79187 462:0.042199001 474:0.28622001 476:0.40537 477:0.75668001 481:0.77287 484:0.82297999 486:0.077581003 497:0.77665001 499:0.60492003 503:0.97223002 504:0.084158003 510:0.87327999 515:0.048097 516:0.00040451001 520:0.57055002 527:0.77818 533:0.62454998 534:0.80088001 535:0.061324999 536:0.69318998 538:0.048097 540:0.048097 541:0.048097 543:0.79422998 547:0.096207 549:0.018647 553:0.75853002 556:0.50687999 562:0.98465002 567:0.054125998 570:0.048097 573:0.054389998 574:0.048097 578:0.59978002 579:0.22413 582:0.63097 585:0.12758 586:0.83613998 594:0.74256003 595:0.88669997 596:0.081534997 599:0.80733001 601:0.092656001 604:0.86821002 605:0.89863002 606:0.87041998 607:0.048097 611:0.50185001 614:0.75937998 622:0.91237003 630:0.80419999 637:0.03303 638:0.95722997 640:0.64697999 641:0.15854999 642:0.35760999 649:0.68295002 655:0.76274002 659:0.96098 665:0.048097 668:0.89974999 672:0.00040451001 674:0.092459999 675:0.21575999 694:0.17493001 697:0.046567 699:0.92785001 #
-0.13999999999999998556710067987296 3:0.78310001 6:0.90771002 8:0.88363999 12:0.064687997 13:0.94562 14:0.80137002 17:0.094803996 20:0.75121999 21:0.30267 25:0.88089001 27:0.029732 30:0.75924999 34:0.24133 36:0.56983 37:0.94682002 38:0.00033708999 43:0.46366 55:0.45297 57:0.82108003 61:0.55963999 63:0.74035001 66:0.77158999 69:0.41464999 70:0.21131 72:0.99454999 81:0.28036001 90:0.22562 91:0.93826997 94:0.97829998 98:0.79244 100:0.90508002 108:0.31927001 109:0.043092001 113:0.80137002 115:0.74168998 119:0.28547999 120:0.90792 123:0.30695999 126:0.54390001 127:0.27779001 129:0.048097 135:0.51409 140:0.45073 146:0.38545999 147:0.45163 149:0.46188 150:0.26978001 151:0.79052001 152:0.75092 153:0.90724999 154:0.35145 159:0.14740001 162:0.66494 164:0.94227999 172:0.36803001 173:0.77661997 177:0.048097 179:0.83336997 184:2.2472999e-05 186:0.79791999 187:0.20559999 189:0.87427998 200:0.67458999 202:0.91031998 207:0.76696998 212:0.94599003 213:0.98747998 214:0.96148998 215:0.71684998 216:0.82348001 218:0.78022999 235:0.31393999 237:0.68172997 241:0.86830002 242:0.81950003 243:0.79042 247:0.11799 248:0.86742002 249:0.96878999 252:0.43184999 256:0.92278999 259:0.21315999 260:0.91213 261:0.76754999 263:0.56443 265:0.79279 266:0.11799 267:0.35958999 268:0.92711997 276:0.30592 278:0.043552998 280:0.98479998 283:0.60039997 285:0.61590999 297:0.36041999 300:0.18100999 303:0.98808002 304:0.45073 305:0.42271999 308:0.88089001 317:0.51520002 325:0.50538999 328:0.89974999 329:0.77157998 330:0.51489002 332:0.94799 335:0.93542999 337:0.86149001 341:0.77963001 345:0.94349998 347:0.82802999 348:0.2366 349:0.71472001 350:0.54027998 351:0.71395999 355:0.79288 356:0.17084 359:0.62974 360:0.95920998 362:0.88659 363:0.95405 365:0.82353997 366:0.88398999 370:0.1358 371:0.98260999 375:0.88089001 376:0.94283998 379:0.93101001 380:0.97513998 381:0.75858998 382:0.073105 383:0.49755999 384:0.42271999 385:0.19272999 386:0.46092999 396:0.93585002 399:0.48734 406:0.70836997 407:0.38956001 408:0.83949 410:0.79881001 411:0.15955 415:0.10175 418:0.45254001 419:0.74083 420:0.98478001 426:0.94050002 432:0.79917997 433:0.0036245999 437:0.048097 442:0.00033727 444:0.79934001 445:0.79086 446:0.034607999 450:0.74123001 451:0.51387 458:0.44271001 460:0.23317 461:0.77906001 462:0.042266 463:0.89393002 474:0.70485997 476:0.79487002 477:0.82718998 480:0.82222998 481:0.53052998 484:0.82296002 485:0.61302 486:0.25220999 491:0.13732 492:0.77139002 494:0.77139002 496:0.65043998 497:0.75880998 499:0.38227001 503:0.99702001 504:0.13088 505:0.52410001 509:0.95042002 510:0.87327999 515:0.25762001 516:0.00040451001 520:0.57059997 521:0.51431 533:0.61150002 534:0.76521999 535:0.071833 536:0.69318998 538:0.47604999 540:0.048097 541:0.28367001 542:0.57704997 543:0.76515001 547:0.096207 553:0.83359998 556:0.50686997 559:0.88089001 560:0.95920998 562:0.93309999 568:0.75202 570:0.048097 574:0.38771001 578:0.58621001 579:0.54821002 582:0.91477001 585:0.80953997 586:0.82802999 595:0.93374997 596:0.12842 599:0.95684999 600:0.74838001 601:0.20875999 604:0.85724998 605:0.85192001 606:0.090272002 607:0.048097 611:0.66838998 614:0.75805998 622:0.91213 630:0.80419999 631:0.51356 637:0.033034999 638:0.88084 640:0.32168001 641:0.42811999 642:0.048097 649:0.97053999 651:0.5661 659:0.90805 665:0.53692001 668:0.89974999 672:0.00040451001 674:0.69340003 675:0.052974001 687:0.41683999 694:0.82064998 697:0.046567 699:0.74759001 #
-0.0099999999999999967387198651636027 3:0.96100003 6:0.96556997 7:0.80870003 12:0.064687997 13:0.94562 14:0.76418 17:0.14945 20:0.99273998 25:0.88089001 27:0.71504998 30:0.75924999 32:0.80374002 38:0.18144999 43:0.43871999 55:0.70987999 57:0.43687999 61:0.72564 63:0.74035001 66:0.77158999 69:0.43557 70:0.21131 81:0.30373001 90:0.22562 91:0.85753 94:0.66895998 98:0.88976997 100:0.85545999 108:0.33517 109:0.043092001 113:0.67693001 115:0.74669999 116:0.62664998 119:0.28568 120:0.87636 123:0.32216001 126:0.54390001 127:0.44286001 129:0.048097 130:0.61316001 140:0.45073 145:0.66676003 146:0.59621 147:0.65158999 148:0.96695 149:0.43044001 150:0.28489 151:0.79987001 152:0.94010001 153:0.92488998 154:0.33335999 159:0.21882001 162:0.81623 164:0.83587998 172:0.36803001 173:0.68387002 177:0.048097 179:0.89962 183:0.66170001 184:2.2472999e-05 186:0.76453 189:0.97955 200:0.67458999 202:0.73935997 207:0.77639002 210:0.61948001 212:0.23300999 214:0.53059 215:0.95513999 216:0.43705001 218:0.70582998 230:0.86840999 233:0.75832999 235:0.019738 237:0.67466998 241:0.98460001 242:0.81950003 243:0.79042 247:0.11799 248:0.82384998 249:0.96878999 250:0.016175 252:0.43184999 256:0.78916001 260:0.88168001 261:0.83665001 265:0.88977998 266:0.38251001 268:0.79578 276:0.32464999 278:0.043552998 280:0.97093999 285:0.61590999 296:0.78039998 297:0.36041999 300:0.18100999 304:0.45073 305:0.44777 308:0.88089001 317:0.64739001 325:0.40061 328:0.89974999 329:0.77157998 330:0.64709997 332:0.92912 335:0.82230997 341:0.77963001 345:0.93093002 347:0.74823999 348:0.38982001 349:0.60545999 350:0.54027998 351:0.75989002 355:0.75489998 356:0.30228001 359:0.94683999 360:0.95920998 362:0.83208001 363:0.95405 365:0.73620999 366:0.90604001 370:0.1358 371:0.87718999 375:0.88089001 376:0.92873001 379:0.77794999 380:0.91895002 381:0.90925002 382:0.073105 383:0.36785001 384:0.44777 385:0.47973001 386:0.46092999 389:0.75439 396:0.73212999 399:0.22668999 402:0.78189999 406:0.70836997 407:0.42576 408:0.79535002 410:0.90989 411:0.15925001 415:0.1016 418:0.14348 419:0.74517 426:0.89287001 432:0.79917997 433:0.0036245999 437:0.048097 442:0.60889 444:0.87866002 445:0.76046002 446:0.034536 450:0.78877997 451:0.038887002 460:0.23317 461:0.78833997 462:0.042254999 474:0.66663998 476:0.76492 477:0.78114003 480:0.82222998 481:0.89249003 484:0.81853998 486:0.25220999 490:0.56953001 491:0.39449 492:0.96393001 494:0.96393001 497:0.81772 499:0.43526 503:0.98271 504:0.0056321002 509:0.95042002 510:0.87327999 515:0.46630001 516:0.00040451001 520:0.57058001 521:0.64617002 533:0.51077998 534:0.86802 535:0.071833 536:0.69318998 538:0.47604999 540:0.048097 541:0.48673001 542:0.57704997 543:0.97751999 547:0.096207 549:0.018647 553:0.73655999 556:0.50520003 559:0.88089001 560:0.95920998 562:0.99050999 570:0.048097 574:0.38771001 578:0.48557001 579:0.54821002 582:0.55778003 585:0.89266998 586:0.74823999 594:0.74256003 595:0.91779 596:0.55508 599:0.69417 601:0.20875999 604:0.83560002 605:0.87803 606:0.064736001 607:0.048097 611:0.81853998 614:0.79479998 622:0.88168001 630:0.80419999 631:0.64504999 637:0.032977998 638:0.81866002 640:0.33899999 641:0.3955 642:0.048097 644:0.70560998 649:0.64392 655:0.76274002 659:0.73316002 665:0.53692001 668:0.89974999 672:0.00040451001 674:0.85417998 675:0.052974001 694:0.89559001 697:0.046567 698:0.61888999 699:0.92785001 #
-0.08999999999999999666933092612453 12:0.064687997 13:0.94562 17:0.19907001 21:0.12578 25:0.88089001 27:0.71504998 30:0.88748002 34:0.54677999 36:0.64218998 38:0.86171001 43:0.23197 55:0.45297 57:0.82108003 63:0.74035001 66:0.74935001 69:0.87488002 70:0.19638 72:0.99147999 81:0.29218999 90:0.22562 91:0.64273 98:0.33574 108:0.75160998 109:0.043092001 119:0.28560001 120:0.72904003 123:0.73562998 126:0.54390001 127:0.1232 129:0.048097 135:0.78492999 140:0.45073 146:0.34738001 147:0.41308999 149:0.29205 150:0.27695 151:0.66368002 153:0.48065999 154:0.16012999 159:0.13778999 162:0.86058998 164:0.71600997 172:0.31814 173:0.97819 177:0.048097 179:0.34847999 184:2.2472999e-05 187:0.39144 200:0.67458999 202:0.56059003 212:0.83823001 213:0.98636001 215:0.84425998 216:0.82348001 220:0.62195998 235:0.11934 237:0.63319999 241:0.82291001 242:0.81950003 243:0.77250999 247:0.11799 248:0.65943003 249:0.96878999 252:0.43184999 256:0.64262998 259:0.21315999 260:0.73808002 265:0.35832 266:0.17201 267:0.35958999 268:0.65031999 276:0.2626 278:0.043552998 285:0.61590999 297:0.36041999 300:0.18100999 303:0.99311 304:0.80078 305:0.90421999 308:0.88089001 317:0.57806998 325:0.020291001 328:0.89974999 329:0.74932998 330:0.57773 332:0.87506998 335:0.69493002 337:0.25167 341:0.7597 345:0.76947999 347:0.94084001 348:0.21332 349:0.96881002 350:0.48686999 351:0.73839998 356:0.16026001 359:0.62974 360:0.95920998 366:0.46878999 370:0.1358 375:0.88089001 376:0.77753001 379:0.62222999 380:0.84644997 381:0.86374998 382:0.072052002 383:0.21306001 384:0.90421999 385:0.18164 386:0.45376 399:0.48734 406:0.67807001 407:0.80917001 411:0.15601 415:0.10034 418:0.42333999 420:0.98478001 426:0.81072998 433:0.0036245999 437:0.048097 442:0.21696 445:0.59555 446:0.033983 450:0.50924999 451:0.45965999 458:0.67246002 460:0.23317 461:0.65653998 462:0.042169999 474:0.47591001 476:0.60194999 480:0.82222998 481:0.59096003 484:0.78403997 486:0.21867999 491:0.19284999 492:0.87273997 494:0.87273997 499:0.20412 504:0.019996 505:0.34733 509:0.95042002 510:0.89515001 515:0.22811 516:0.00040451001 520:0.57051998 521:0.57712001 533:0.95911998 535:0.070720002 536:0.69318998 538:0.42462 540:0.048097 541:0.25134 542:0.57704997 547:0.096207 556:0.49529999 559:0.88089001 560:0.95920998 570:0.048097 574:0.33906999 578:0.96247 579:0.50494999 585:0.47064999 586:0.94084001 595:0.74580002 596:0.0025477 601:0.20875999 604:0.63920999 605:0.46046999 606:0.15787999 607:0.048097 611:0.86065 622:0.73808002 630:0.80419999 631:0.57629001 637:0.032547001 638:0.58108002 640:0.85284001 641:0.26319 642:0.048097 659:0.55317998 665:0.48794001 668:0.89974999 672:0.00040451001 674:0.25920001 675:0.13397001 687:0.29631999 694:0.52341002 697:0.046567 699:0.87509 #
-0.11999999999999998168132009368492 7:0.80870003 12:0.064687997 13:0.94562 17:0.14945 21:0.30267 25:0.88089001 27:0.54767001 30:0.57574999 32:0.80374002 37:0.95815003 38:0.24411 43:0.48625001 55:0.83775997 57:0.57670999 61:0.91069001 63:0.74035001 66:0.13265 69:0.31829 70:0.46035999 81:0.31242001 90:0.22562 91:0.40391999 94:0.79661 98:0.42096001 108:0.64012998 109:0.043092001 113:0.90890998 116:0.62664998 119:0.28540999 120:0.53171003 123:0.6171 124:0.90481001 126:0.54390001 127:0.88312 129:0.96446002 130:0.54826999 133:0.89859998 140:0.45073 145:0.54218 146:0.41457 147:0.4804 149:0.68449003 150:0.29064 151:0.46101999 153:0.48065999 154:0.37415001 159:0.83297002 162:0.86058998 163:0.85878003 164:0.57185 172:0.4454 173:0.15352 177:0.048097 179:0.45091 183:0.66170001 184:2.2472999e-05 187:0.68175 200:0.96442997 202:0.36484 210:0.55131 212:0.2113 214:0.80514002 215:0.71684998 216:0.60263997 218:0.91790003 220:0.86758 230:0.64809 233:0.63034999 235:0.41609001 237:0.54933 241:0.42570001 242:0.81950003 243:0.19191 245:0.76476997 247:0.11799 248:0.46083 249:0.96878999 250:0.016175 252:0.43184999 256:0.45073 260:0.53250003 265:0.44115999 266:0.80181003 268:0.45550001 276:0.75007999 278:0.043552998 285:0.61590999 296:0.78039998 297:0.36041999 300:0.43013 304:0.45073 305:0.30781001 308:0.88089001 317:0.51520002 325:0.078422002 328:0.89974999 329:0.10507 330:0.51489002 332:0.84561998 335:0.52272999 341:0.13135 345:0.58611 347:0.14114 348:0.89462 349:0.1304 350:0.45532 351:0.77482003 356:0.84652001 359:0.052159999 360:0.95920998 366:0.46878999 370:0.1358 375:0.88089001 376:0.70402998 379:0.47128999 380:0.81221998 381:0.59279001 382:0.079487003 383:0.045706999 384:0.30781001 385:0.73930001 386:0.50217003 389:0.75439 396:0.47253001 399:0.29947001 402:0.78189999 405:0.55909997 406:0.94612998 407:0.30142999 411:0.14779 415:0.10629 418:0.42333999 426:0.45563 433:0.0036245999 437:0.048097 442:0.88005 445:0.93871999 446:0.032568999 450:0.93493998 451:0.054343 460:0.23317 461:0.46081999 462:0.042068999 463:0.29758999 474:0.90564001 476:0.94018 480:0.82222998 481:0.81362998 484:0.59948999 486:0.72904998 490:0.56954002 491:0.80549997 492:0.77139002 494:0.77139002 499:0.40917 504:0.60839999 505:0.52410001 509:0.95042002 510:0.87327999 515:0.66719002 516:0.00040451001 520:0.57037002 521:0.51431 533:0.46496001 535:0.078667 536:0.69318998 538:0.30386001 540:0.048097 541:0.67878002 542:0.57704997 543:0.52376997 545:0.91876 547:0.096207 549:0.018647 556:0.45721 559:0.88089001 560:0.95920998 570:0.048097 574:0.46386999 578:0.44044 579:0.91395003 582:0.70311999 585:0.33157 586:0.14114 594:0.74256003 595:0.66390002 596:0.19582 599:0.47253001 601:0.45142999 604:0.46070999 605:0.46046999 606:0.87041998 607:0.048097 611:0.86065 622:0.53250003 627:0.48908001 630:0.80419999 631:0.51356 637:0.031459998 638:0.38049001 640:0.2485 641:0.66017997 642:0.88249999 644:0.70560998 649:0.80555999 655:0.62590998 659:0.36453 665:0.37079 668:0.89974999 672:0.00040451001 674:0.73663002 675:0.82683998 694:0.39063999 697:0.046567 698:0.61888999 699:0.74759001 #
-0.070000000000000006661338147750939 7:0.80870003 12:0.064687997 13:0.94562 17:0.083784997 21:0.39713001 25:0.88089001 27:0.54767001 30:0.4508 32:0.80374002 37:0.95815003 38:0.066294998 43:0.46055999 55:0.59456003 57:0.57670999 61:0.96867001 63:0.74035001 66:0.24946 69:0.44229001 70:0.33329999 81:0.30601999 90:0.22562 91:0.54088002 94:0.47253001 98:0.24552999 108:0.34033999 109:0.043092001 113:0.93098998 116:0.62664998 119:0.28534999 123:0.32705 124:0.70986003 126:0.54390001 127:0.77193999 129:0.80647999 130:0.61316001 133:0.66911 145:0.54218 146:0.34167999 147:0.40722999 149:0.38011 150:0.28654 154:0.34828001 159:0.60869002 163:0.85878003 172:0.161 173:0.38374001 177:0.048097 178:0.54926997 179:0.93068999 183:0.66170001 184:2.2472999e-05 187:0.39144 200:0.96442997 210:0.61948001 212:0.23300999 214:0.47253001 215:0.66926003 216:0.60263997 218:0.94665998 230:0.86840999 233:0.75832999 235:0.51818001 241:0.47202 242:0.81950003 243:0.44543999 245:0.45429 247:0.11799 249:0.96878999 250:0.016175 252:0.43184999 265:0.26705 266:0.38251001 276:0.23632 278:0.043552998 296:0.78039998 297:0.36041999 300:0.24664 305:0.45585001 308:0.88089001 317:0.49577001 325:0.54926997 328:0.89974999 329:0.20981 330:0.49548 332:0.82647997 341:0.37851 347:0.41926 348:0.29271999 349:0.30971 350:0.21048 351:0.76393002 356:0.77631998 359:0.19518 360:0.95920998 370:0.1358 375:0.88089001 376:0.63437003 381:0.60826999 382:0.073105 383:0.54926997 384:0.45585001 385:0.91048002 386:0.46092999 387:0.54926997 389:0.75439 396:0.47253001 399:0.29947001 402:0.78189999 405:0.41740999 406:0.70836997 407:0.39991 411:0.14939 415:0.10061 418:0.041919999 426:0.53860998 433:0.0036245999 437:0.048097 442:0.60889 445:0.70550001 446:0.032859001 450:0.74519002 451:0.0036583999 460:0.23317 462:0.041648 463:0.29758999 474:0.59942001 476:0.71082997 480:0.82222998 481:0.80566001 486:0.25220999 490:0.56954002 491:0.39449 492:0.72668999 494:0.72668999 499:0.068825997 504:0.54378003 505:0.61856002 509:0.95042002 510:0.87327999 515:0.22386 516:0.00040451001 521:0.49489999 533:0.26434001 535:0.071833 536:0.69318998 538:0.2286 540:0.048097 541:0.24643999 542:0.57704997 543:0.63327998 547:0.096207 549:0.018647 559:0.88089001 560:0.95920998 570:0.048097 574:0.17258 578:0.24796 579:0.54821002 582:0.47253001 585:0.37772 586:0.41926 594:0.74256003 595:0.58961999 596:0.56506997 599:0.47253001 601:0.27805999 606:0.87041998 607:0.048097 627:0.54926997 630:0.80419999 631:0.49417999 637:0.031679001 638:0.22644 640:0.34470001 641:0.34457999 642:0.58600003 644:0.70560998 649:0.47253001 655:0.76274002 665:0.29469001 668:0.89974999 672:0.00040451001 674:0.2703 675:0.64200997 694:0.43575001 697:0.046567 698:0.61888999 699:0.67711002 #
-0.020000000000000000416333634234434 12:0.064687997 17:0.055374999 21:0.77818 27:0.42087001 37:0.81594998 38:0.52585 57:0.75639999 63:0.74035001 70:6.7622e-06 90:0.22562 91:0.67302001 109:0.043092001 120:0.82080001 140:0.89993 151:0.73966998 153:0.82621998 162:0.50345999 164:0.86119002 175:0.75200999 178:0.50225002 184:2.2472999e-05 187:0.20559999 202:0.87528998 216:0.73118001 235:0.11934 237:0.66174001 241:0.75844997 244:0.61331999 248:0.74362999 250:0.016175 252:0.43184999 256:0.88138998 257:0.65293002 260:0.82804 268:0.82648998 277:0.69222999 278:0.043552998 285:0.61590999 304:0.84557998 305:0.95190001 325:0.45416 332:0.86763 335:0.90081 347:0.95748001 359:0.0037360999 366:0.78794003 370:0.1358 376:0.76823997 379:0.85051 380:0.95811999 383:0.43239 384:0.95190001 395:0.63704002 399:0.24106 407:0.91619003 411:0.15798 418:0.14348 426:0.63642001 433:0.0036245999 442:0.00033727 446:0.034311999 451:0.0070250998 460:0.23317 461:0.73104 462:0.042215001 463:0.30565 481:0.91215998 484:0.80844003 495:0.70788997 499:0.32587999 504:0.13088 516:0.00040451001 520:0.57056999 526:0.30680999 527:0.77818 547:0.096207 549:0.018647 556:0.50208002 567:0.054125998 573:0.054389998 586:0.95748001 595:0.73504001 596:0.48916 604:0.71767002 605:0.74633002 611:0.51156998 622:0.82804 630:0.80419999 637:0.032802999 638:0.53706998 659:0.90932 672:0.00040451001 675:0.39294001 697:0.046567 699:0.71713001 #
0.080000000000000001665334536937735 7:0.80870003 12:0.064687997 13:0.94562 17:0.10725 21:0.59325999 25:0.88089001 27:0.71504998 30:0.52895999 32:0.80374002 38:0.40604001 43:0.50761998 55:0.83775997 57:0.57670999 63:0.74035001 66:0.26308 68:0.97662002 69:0.24961001 70:0.55397999 81:0.26280001 84:0.95644999 90:0.22562 91:0.69158 98:0.52675998 106:0.81369001 108:0.87156999 116:0.62664998 119:0.28512999 123:0.86508 124:0.84693003 126:0.54390001 127:0.90517002 129:0.93076003 130:0.61316001 133:0.83780998 142:0.97877997 145:0.88639998 146:0.55302 147:0.61198997 149:0.64464003 150:0.25659999 154:0.39550999 159:0.80765003 163:0.93647999 172:0.53865999 173:0.14386 177:0.048097 178:0.54926997 179:0.52021003 183:0.66170001 184:2.2472999e-05 187:0.39144 200:0.67458999 206:0.81369001 210:0.61948001 212:0.26791 215:0.55300999 216:0.60263997 230:0.86840999 233:0.75832999 235:0.67837 241:0.76002002 242:0.81950003 243:0.25466001 245:0.75814003 247:0.11799 249:0.96878999 250:0.016175 252:0.43184999 265:0.54168999 266:0.89143002 276:0.69472998 296:0.78039998 297:0.36041999 300:0.69827002 305:0.22842 308:0.88089001 317:0.42763999 325:0.54926997 328:0.89974999 329:0.22334 330:0.42750001 332:0.80707997 341:0.1842 347:0.12914 348:0.85459 349:0.12301 350:0.48686999 351:0.65494001 356:0.83396 359:0.094949 360:0.95920998 370:0.1358 375:0.88089001 376:0.68008 381:0.74423999 382:0.079094 383:0.54926997 384:0.22842 385:0.75525999 386:0.49970999 387:0.54926997 389:0.75439 392:0.81369001 399:0.29947001 402:0.78189999 405:0.50145 406:0.93120998 407:0.20328 411:0.14925 415:0.10601 418:0.43302 426:0.57612002 433:0.0036245999 437:0.048097 442:0.93208998 445:0.91887999 446:0.032830998 450:0.92453003 451:0.16046 460:0.23317 462:0.041754998 474:0.87681001 476:0.92071003 480:0.82222998 481:0.78963 486:0.67763001 490:0.56948 491:0.89326 492:0.61746001 494:0.61746001 499:0.79323 504:0.16204 505:0.81488001 509:0.95042002 510:0.89515001 515:0.74598002 516:0.00040451001 521:0.42703 533:0.82137001 535:0.078270003 536:0.69318998 538:0.37422001 540:0.048097 541:0.75449002 542:0.57704997 547:0.096207 549:0.018647 559:0.88089001 560:0.95920998 570:0.048097 574:0.55426002 578:0.81625998 579:0.89051998 584:0.96803999 585:0.4287 586:0.12914 594:0.74256003 595:0.63805002 596:0.62203997 597:0.97662002 601:0.69766998 606:0.65666002 607:0.048097 627:0.54926997 629:0.81369001 630:0.80419999 631:0.42662001 637:0.031661998 638:0.027291 640:0.19919001 641:0.61900997 642:0.80281001 644:0.70560998 655:0.76274002 665:0.44071999 668:0.89974999 672:0.00040451001 674:0.68818998 675:0.31193 694:0.48440999 697:0.046567 698:0.61888999 699:0.77157003 #
-0.076541676303236452771905362624238 8:0.87261999 12:0.064687997 13:0.94562 17:0.33840001 21:0.39713001 25:0.88089001 27:0.029732 30:0.75924999 34:0.89721 36:0.61333001 37:0.94682002 38:0.82520998 43:0.21893001 55:0.45297 57:0.82108003 61:0.67872 63:0.74035001 66:0.77158999 69:0.90201998 70:0.21131 72:0.98793 81:0.27581 90:0.22562 91:0.74023998 94:0.66895998 98:0.32119 108:0.80109 109:0.043092001 113:0.73005998 119:0.28540999 120:0.79198998 123:0.78911 126:0.54390001 127:0.12112 129:0.048097 135:0.92234999 140:0.87002999 146:0.38545999 147:0.45163 149:0.28985 150:0.26642999 151:0.66368002 153:0.48065999 154:0.14767 159:0.14740001 162:0.55602998 164:0.78398001 172:0.36803001 173:0.9745 177:0.048097 178:0.48052999 179:0.27750999 184:2.2472999e-05 187:0.39144 200:0.67458999 202:0.75116998 212:0.86899 213:0.98772001 214:0.56374002 215:0.66926003 216:0.82348001 218:0.76059997 235:0.41609001 237:0.65486997 241:0.74844003 242:0.81950003 243:0.79042 247:0.11799 248:0.71591997 249:0.96878999 252:0.43184999 256:0.73369002 259:0.21315999 260:0.80001998 265:0.34398001 266:0.17201 267:0.69295001 268:0.73360002 276:0.30592 278:0.043552998 285:0.61590999 297:0.36041999 300:0.18100999 303:0.99607003 304:0.80078 305:0.91719002 308:0.88089001 317:0.49577001 325:0.3163 328:0.89974999 329:0.77157998 330:0.49548 332:0.92126 335:0.77451003 337:0.17123 341:0.77963001 345:0.80783999 347:0.93926001 348:0.2366 349:0.96385002 350:0.54027998 351:0.70172 356:0.17084 359:0.69294 360:0.95920998 366:0.46878999 370:0.1358 375:0.88089001 376:0.81665999 379:0.68063003 380:0.89247 381:0.62368 382:0.073105 383:0.27221999 384:0.91719002 385:0.19272999 386:0.46092999 396:0.61201 399:0.48734 406:0.70836997 407:0.82938999 411:0.15762 415:0.10091 418:0.27173999 420:0.98478001 426:0.85361999 433:0.0036245999 437:0.048097 442:0.20856 445:0.59226 446:0.034256 450:0.50559998 451:0.12293 458:0.21473999 460:0.23317 461:0.65653998 462:0.042181998 463:0.89393002 474:0.47249001 476:0.59871 480:0.82222998 481:0.87647998 484:0.80242002 486:0.25220999 491:0.19284999 492:0.72668999 494:0.72668999 499:0.14427 504:0.45629001 505:0.61856002 509:0.95042002 510:0.87327999 515:0.25762001 516:0.00040451001 520:0.57053 521:0.49489999 533:0.95085001 535:0.071833 536:0.69318998 538:0.47604999 540:0.048097 541:0.28367001 542:0.57704997 543:0.8646 547:0.096207 556:0.50024003 559:0.88089001 560:0.95920998 570:0.048097 574:0.38771001 578:0.95471001 579:0.54821002 582:0.53882003 585:0.45673001 586:0.93926001 595:0.79091001 596:0.052012999 599:0.47253001 601:0.20875999 604:0.71557999 605:0.46046999 606:0.090272002 607:0.048097 611:0.56529999 622:0.80001998 630:0.80419999 631:0.49417999 637:0.032752998 638:0.79220998 640:0.88744998 641:0.26109999 642:0.048097 649:0.64392 659:0.75411999 665:0.53692001 668:0.89974999 672:0.00040451001 674:0.25022 675:3.3708999e-05 687:0.56291002 694:0.51055998 697:0.046567 699:0.91817999 #
0.064814758935192021138682605396752 1:0.69466001 11:0.98743999 12:0.2044 17:0.25536001 18:0.76385999 21:0.050978001 27:0.71504998 29:0.98707998 30:0.66487998 38:0.45052999 43:0.89788997 45:0.77412999 54:0.90764999 57:0.34356999 63:0.74035001 64:0.76874 66:0.53288001 69:0.44229001 70:0.52530998 74:0.59476 81:0.48212001 83:0.60069001 85:0.72119999 86:0.86690998 90:0.22562 91:0.40391999 98:0.69014001 99:0.83032 101:0.97145998 108:0.6868 109:0.043092001 114:0.84976 119:0.95639002 122:0.56699002 123:0.66610003 124:0.63502002 126:0.44068 127:0.61539 129:0.59294999 133:0.61124998 134:0.57189 139:0.82723999 144:0.92320001 146:0.16556001 147:0.21887 149:0.66825998 150:0.56663001 154:0.88703001 155:0.58183998 159:0.44863001 165:0.70393002 172:0.4454 173:0.48039001 176:0.65894997 177:0.70056999 178:0.54926997 179:0.77534997 184:0.52556002 185:0.68993002 187:0.94822001 192:0.51475 194:0.55168003 201:0.68326002 208:0.54258001 212:0.21544001 216:0.37426001 222:0.99720001 235:0.11934 241:0.48548001 242:0.51766002 243:0.31075001 245:0.56130999 247:0.47266999 250:0.016175 252:0.31147 253:0.58156002 265:0.69466001 266:0.70586002 276:0.44459999 278:0.043552998 290:0.84976 300:0.43013 302:0.84643 305:0.45585001 309:0.99081999 310:0.95177001 317:0.83273 325:0.54926997 327:0.87976003 329:0.52875 330:0.83271003 332:0.066327997 341:0.23551001 346:0.67483997 347:0.53099 348:0.47508001 349:0.39477 350:0.39251 356:0.55476999 359:0.95102 370:0.82532001 376:0.36265999 382:0.3538 383:0.54926997 384:0.45585001 385:0.64626998 386:0.84742999 387:0.54926997 395:0.58262998 399:0.32979 400:0.85096002 405:0.76033998 406:0.59701997 407:0.421 411:0.77357 415:0.94819999 418:0.1899 421:0.53140002 426:0.00016313999 427:0.48155999 429:0.94103003 433:0.56704998 436:0.83846998 437:0.62020999 438:0.55492997 442:0.85136998 445:0.49603999 446:0.27794001 450:0.40401 451:0.39673999 452:0.66468 454:0.73743999 462:0.97632998 466:0.76622999 474:0.50595999 476:0.49981001 480:0.33829999 481:0.80566001 486:0.41742 487:0.86843002 491:0.70793003 498:0.94766998 499:0.62206 504:0.88507003 505:0.27271 513:0.67188001 515:0.56626999 516:0.19622999 521:0.83184999 526:0.30680999 527:0.44328001 533:0.80673999 535:0.48346001 538:0.2286 540:0.66280001 541:0.58249003 547:0.096207 549:0.018647 558:0.52689999 567:0.054125998 570:0.72981 573:0.054389998 574:0.46386999 575:0.98444998 578:0.79966003 579:0.45456001 585:0.18047 586:0.53099 589:0.94766998 595:0.18086 596:0.34937 601:0.45142999 603:0.50268 606:0.86443001 607:0.65105999 616:0.64437997 627:0.54926997 631:0.83135003 637:0.22840001 638:0.074561 640:0.34470001 641:0.74659002 642:0.58600003 665:0.29469001 672:0.19622999 673:0.52438998 674:0.56076998 675:0.98044997 677:0.95442998 682:0.84552997 693:0.67207003 694:0.23502 697:0.046567 699:0.46081001 700:0.98093998 #
-0.020000000000000000416333634234434 1:0.74141997 11:0.94142002 12:0.2044 17:0.53110999 18:0.72654003 21:0.67609 27:0.71504998 29:0.98707998 30:0.74580997 32:0.80374002 38:0.30212 43:0.85995001 44:0.93423003 54:0.86158001 55:0.59456003 57:0.096403003 60:0.87173003 63:0.74035001 64:0.76874 66:0.34838 69:0.60345 70:0.39300001 73:0.95222998 74:0.71859002 77:0.70475 81:0.44174999 83:0.90676999 85:0.80434 86:0.83668 90:0.22562 91:0.42256001 98:0.54430997 101:0.87412 108:0.46061999 109:0.043092001 114:0.55618 116:0.94665003 118:0.8294 119:0.98693001 123:0.68158001 124:0.60851002 126:0.54390001 127:0.28490999 129:0.048097 133:0.36757001 134:0.64714998 139:0.89987999 144:0.92320001 145:0.84096003 146:0.50875998 147:0.57056999 149:0.82015002 150:0.69757003 154:0.83403999 155:0.66795999 158:0.91038001 159:0.42383999 165:0.92794001 172:0.51117998 173:0.5747 176:0.72929001 177:0.70056999 178:0.54926997 179:0.43371001 183:0.94321001 184:0.52556002 185:0.74839002 187:0.20559999 192:0.87447 194:0.83613002 200:0.67458999 201:0.92641997 208:0.64296001 212:0.69779003 215:0.37121001 216:0.098608002 219:0.95358002 222:0.99720001 235:0.94559002 241:0.50976998 242:0.72523999 243:0.51008999 245:0.80369997 247:0.47266999 250:0.016175 252:0.31147 253:0.42853999 263:0.97222 265:0.42438999 266:0.53526998 276:0.59564 277:0.87265998 278:0.043552998 279:0.85790002 282:0.88427001 283:0.77586001 290:0.55618 292:0.91395003 296:0.93934 297:0.36041999 299:0.88485003 300:0.43013 305:0.65059 309:0.95889002 310:0.62529999 317:0.25406 322:0.96587002 325:0.54926997 327:0.80479002 329:0.31645 330:0.25409001 332:0.2931 341:0.45392999 346:0.90846002 347:0.63641 348:0.56832999 349:0.48763999 350:0.67957002 351:0.52148002 356:0.41670001 359:0.99032003 370:0.82532001 373:0.95245999 376:0.29372999 382:0.38424999 383:0.54926997 384:0.65059 385:0.39269 386:0.88924998 387:0.54926997 389:0.75439 395:0.63704002 399:0.51392001 400:0.54140002 402:0.92438 404:0.85137999 405:0.52811003 406:0.85540003 407:0.54203999 409:0.95297998 411:0.83964002 415:0.90706003 417:0.90713 418:0.30647001 421:0.53140002 426:0.12265 427:0.81010997 428:0.85952997 429:0.77640998 433:0.48074999 436:0.72905999 437:0.62020999 438:0.49467 439:0.84688002 442:0.54501998 445:0.75997001 446:0.35569999 450:0.78455001 451:0.054343 454:0.64629 462:0.97798002 466:0.76622999 474:0.86022002 476:0.76020002 480:0.33829999 481:0.74651003 483:0.79078001 485:0.85913998 486:0.58342999 487:0.84274 490:0.97983998 491:0.53522998 492:0.39098999 494:0.39098999 496:0.94414997 498:0.77951998 499:0.65288001 504:0.25490999 505:0.89780003 506:0.95469999 508:0.78928 513:0.62071002 515:0.52572 516:0.19622999 518:0.83519 521:0.25402001 524:0.96456999 526:0.30680999 533:0.41337001 535:0.50821 538:0.61251998 540:0.048097 541:0.39621001 542:0.57704997 547:0.096207 549:0.018647 558:0.38738 567:0.054125998 570:0.49136999 573:0.054389998 574:0.52750999 575:0.93326002 578:0.71552998 579:0.79974997 583:0.96619999 585:0.52945 586:0.63641 587:0.82962 589:0.77951998 595:0.27173001 596:0.70968997 600:0.74838001 601:0.45142999 603:0.50268 606:0.54953998 607:0.65105999 616:0.64437997 627:0.54926997 631:0.25404 637:0.34551001 638:0.32649001 640:0.50352001 641:0.80454999 642:0.35760999 644:0.70560998 646:0.92941999 651:0.96180999 652:0.94215 665:0.66192001 672:0.19622999 673:0.62923998 674:0.55010003 675:0.82179999 677:0.83478999 679:0.93221998 682:0.89725 691:0.96328998 693:0.62783998 694:0.57663 697:0.046567 698:0.95019001 699:0.66632003 700:0.81437999 #
-0.020000000000000000416333634234434 1:0.74141997 11:0.94142002 12:0.2044 17:0.63976002 18:0.72654003 21:0.67609 27:0.71504998 29:0.98707998 30:0.74580997 32:0.80374002 38:0.30212 43:0.85995001 44:0.93423003 54:0.85934001 55:0.59456003 57:0.096403003 63:0.74035001 64:0.76874 66:0.34838 69:0.60043001 70:0.32229 74:0.64559001 77:0.70475 81:0.43582001 83:0.90676999 85:0.80434 86:0.83668 90:0.22562 91:0.40391999 98:0.46313 101:0.87412 108:0.4585 109:0.043092001 114:0.55618 116:0.94775999 119:0.98705 123:0.68681002 124:0.60851002 126:0.54390001 127:0.24811 129:0.048097 133:0.36757001 134:0.64714998 139:0.85947001 144:0.92320001 145:0.82902002 146:0.50875998 147:0.57056999 149:0.81993997 150:0.69468999 154:0.83403999 155:0.66795999 159:0.40704 165:0.92794001 172:0.51117998 173:0.55526 176:0.72929001 177:0.70056999 178:0.54926997 179:0.38714001 183:0.94411999 184:0.52556002 185:0.74839002 187:0.20559999 192:0.87447 194:0.83613002 201:0.92641997 208:0.64296001 212:0.77346998 215:0.37121001 216:0.098608002 222:0.99720001 235:0.87586999 241:0.49788001 242:0.72523999 243:0.51008999 245:0.80369997 247:0.47266999 250:0.016175 252:0.31147 253:0.41391999 265:0.40773001 266:0.53526998 276:0.59252 277:0.87265998 278:0.043552998 282:0.88427001 290:0.55618 296:0.93996 297:0.36041999 299:0.88485003 300:0.32894999 305:0.64705998 309:0.95889002 310:0.62667 317:0.25619999 325:0.54926997 327:0.80069 329:0.31645 330:0.25623 332:0.2931 341:0.45392999 346:0.90846002 347:0.61519998 348:0.53033 349:0.46770999 350:0.67957002 351:0.46514001 356:0.39287001 359:0.99298 370:0.82532001 373:0.95321 376:0.27074 382:0.37992999 383:0.54926997 384:0.64705998 385:0.36919999 386:0.88852 387:0.54926997 389:0.75439 395:0.63704002 399:0.51392001 400:0.54140002 402:0.92438 405:0.52811003 406:0.85540003 407:0.54203999 411:0.80865002 415:0.90596002 417:0.90713 418:0.30647001 421:0.53140002 426:0.075232998 427:0.81010997 428:0.85952997 429:0.77640998 433:0.48074999 436:0.71741003 437:0.62020999 438:0.49467 439:0.84688002 442:0.44286999 445:0.75866997 446:0.31957 450:0.74338001 451:0.033252001 454:0.64629 462:0.97821999 466:0.76622999 474:0.85829997 476:0.75893998 480:0.33829999 481:0.71771997 483:0.79078001 486:0.58342999 487:0.84274 490:0.97987002 491:0.53522998 492:0.39098999 494:0.39098999 498:0.77951998 499:0.69428998 504:0.25490999 505:0.89780003 506:0.95469999 508:0.78928 513:0.62071002 515:0.45864001 516:0.19622999 518:0.83519 521:0.25615999 526:0.30680999 533:0.39748999 535:0.50489002 538:0.61251998 540:0.048097 541:0.39621001 542:0.57704997 547:0.096207 549:0.018647 558:0.38738 567:0.054125998 570:0.49136999 573:0.054389998 574:0.52750999 575:0.93326002 578:0.70169002 579:0.79974997 585:0.51547003 586:0.61519998 589:0.77951998 595:0.26457 596:0.68786001 601:0.35771999 603:0.50268 606:0.54953998 607:0.65105999 616:0.64437997 627:0.54926997 631:0.25617999 637:0.32043999 638:0.32649001 640:0.50027001 641:0.80454999 642:0.35760999 644:0.70560998 665:0.66192001 672:0.19622999 673:0.62923998 674:0.4817 675:0.73518002 677:0.83478999 679:0.93375999 682:0.89725 691:0.96328998 693:0.62783998 694:0.56402999 697:0.046567 698:0.95019001 699:0.70280999 700:0.81493998 #
-0.050000000000000002775557561562891 1:0.74141997 7:0.6627 11:0.94142002 12:0.2044 17:0.65634 18:0.78899997 21:0.67609 27:0.71504998 29:0.98707998 30:0.75924999 32:0.80374002 38:0.58749998 43:0.93450999 44:0.93423003 54:0.89482999 57:0.096403003 63:0.74035001 64:0.76874 66:0.77158999 69:0.39151001 70:0.34086999 74:0.72508001 77:0.70475 81:0.44174999 83:0.90676999 85:0.84985 86:0.89643002 90:0.22562 91:0.4587 98:0.55013001 101:0.87412 108:0.30155 109:0.043092001 114:0.55618 116:0.95875001 119:0.98693001 122:0.56699002 123:0.29014 124:0.38288999 126:0.54390001 127:0.25093001 129:0.048097 130:0.73203999 133:0.36757001 134:0.64714998 139:0.90292001 144:0.92320001 145:0.81712002 146:0.55124003 147:0.61036998 149:0.88690001 150:0.69757003 154:0.93300003 155:0.66795999 159:0.30230999 165:0.92794001 172:0.58947998 173:0.43461999 176:0.72929001 177:0.70056999 178:0.54926997 179:0.53274 183:0.95546001 184:0.52556002 185:0.63537002 187:0.20559999 192:0.87447 194:0.83613002 200:0.67458999 201:0.92641997 208:0.64296001 210:0.79016 212:0.80506998 215:0.37121001 216:0.098608002 222:0.99720001 230:0.69489002 233:0.75832999 235:0.94559002 241:0.36811 242:0.30511001 243:0.79042 245:0.52025002 247:0.47266999 250:0.016175 252:0.31147 253:0.42980999 265:0.56342 266:0.38251001 276:0.44901001 278:0.043552998 282:0.88427001 290:0.55618 296:0.94730997 297:0.36041999 299:0.88485003 300:0.32894999 305:0.39497 309:0.95889002 310:0.62529999 317:0.25406 325:0.54926997 327:0.85946 329:0.77157998 330:0.25409001 332:0.2931 341:0.77963001 346:0.90846002 347:0.47826999 348:0.35317999 349:0.35335001 350:0.56941998 351:0.52148002 356:0.29767999 359:0.96504998 370:0.82532001 373:0.95393002 376:0.29269001 382:0.38422 383:0.54926997 384:0.39497 385:0.35530001 386:0.87528002 387:0.54926997 389:0.75439 395:0.63704002 399:0.51392001 400:0.54140002 402:0.97245002 405:0.52811003 406:0.67807001 407:0.29209 411:0.81471997 415:0.93453002 417:0.90713 418:0.022061 421:0.53140002 426:0.30884001 427:0.81010997 428:0.85952997 429:0.77640998 433:0.61910999 436:0.73003 437:0.62020999 438:0.59701997 439:0.84688002 442:0.35396001 445:0.75673997 446:0.32584 450:0.75278997 451:0.045871999 454:0.69896001 462:0.97807002 466:0.76622999 474:0.75711 476:0.75695997 480:0.33829999 481:0.78963 483:0.79078001 486:0.46250999 487:0.90144998 490:0.98163998 491:0.39449 492:0.39098999 494:0.39098999 498:0.77951998 499:0.20412 504:0.25490999 505:0.89780003 506:0.95469999 508:0.78928 513:0.72426999 515:0.41710001 516:0.19622999 518:0.83519 521:0.25402001 526:0.30680999 533:0.30302 535:0.50818998 538:0.68146002 540:0.66280001 541:0.43915001 542:0.57704997 547:0.096207 549:0.018647 558:0.46689999 567:0.054125998 570:0.49136999 573:0.054389998 574:0.60333002 575:0.93326002 578:0.28492001 579:0.62015998 585:0.63901001 586:0.47826999 589:0.77951998 594:0.74256003 595:0.26618001 596:0.76635998 601:0.35771999 603:0.50268 606:0.442 607:0.65105999 616:0.64437997 627:0.54926997 631:0.25404 637:0.32492 638:0.32649001 640:0.30307999 641:0.87876999 642:0.35760999 644:0.70560998 655:0.91605002 665:0.72381002 672:0.19622999 673:0.41791999 674:0.41607001 675:0.95945001 677:0.83478999 679:0.93537998 682:0.89725 691:0.96328998 693:0.73074001 694:0.67364001 697:0.046567 698:0.97646999 699:0.53886998 700:0.81437999 #
0.16504707223666006954410079288209 1:0.74141997 11:0.97323 12:0.2044 17:0.31709 18:0.70714003 21:0.59325999 27:0.63319999 29:0.98707998 30:0.21405999 37:0.27566999 38:0.67554998 43:0.93961 45:0.72881001 54:0.83669001 57:0.85460001 63:0.74035001 64:0.76874 66:0.35578999 69:0.23148 70:0.49875 73:0.80707002 74:0.62194997 81:0.41791999 83:0.60069001 86:0.81809998 90:0.22562 91:0.42256001 97:0.88994998 98:0.13488001 99:0.83032 101:0.52454001 108:0.76802999 109:0.043092001 114:0.57520998 118:0.8294 119:0.98732001 122:0.56699002 123:0.75332999 124:0.59173 126:0.54390001 127:0.18459 129:0.59294999 133:0.45528999 134:0.64714998 139:0.84542 144:0.92320001 145:0.9289 146:0.19473 147:0.24897 149:0.70665002 150:0.65597999 154:0.93825001 155:0.66795999 158:0.90755999 159:0.44220001 165:0.70393002 172:0.27228001 173:0.15054999 176:0.72929001 177:0.70056999 178:0.54926997 179:0.57888001 184:0.52556002 185:0.57843 187:0.39144 192:0.87447 194:0.83613002 200:0.67458999 201:0.92641997 208:0.64296001 212:0.71214002 215:0.38597 216:0.8818 219:0.95358002 222:0.99720001 235:0.79749 241:0.21466 242:0.39517999 243:0.45914 245:0.56377 247:0.47266999 250:0.016175 252:0.31147 253:0.42466 254:0.73695999 263:0.98221999 265:0.14353 266:0.26977 276:0.1463 278:0.043552998 279:0.85790002 283:0.77099001 290:0.57520998 292:0.90951002 297:0.36041999 300:0.32894999 302:0.84643 305:0.2075 309:0.99081999 310:0.68239999 317:0.29576999 322:0.96587002 325:0.54926997 327:0.76103002 329:0.32528001 330:0.29581001 332:0.52219999 341:0.39445999 346:0.67483997 347:0.13742 348:0.16013999 349:0.12815 350:0.40035999 351:0.54154998 356:0.25459 359:0.052159999 370:0.82532001 376:0.28121001 382:0.24579 383:0.54926997 384:0.2075 385:0.76683003 386:0.80634999 387:0.54926997 399:0.63044 400:0.55579001 404:0.85137999 405:0.80267 406:0.64156997 409:0.80728 411:0.76143998 415:0.88655001 418:0.13186 421:0.53140002 426:0.53860998 427:0.81010997 429:0.78887999 433:0.59737003 436:0.72609001 437:0.62020999 438:0.46489 442:0.40560001 445:0.63902003 446:0.27485999 450:0.62800002 451:0.16046 454:0.64629 462:0.97829002 463:0.54960001 466:0.76622999 474:0.51591998 476:0.639 480:0.33829999 481:0.82130003 485:0.85631001 486:0.31257999 487:0.82264 491:0.29144001 492:0.41314 494:0.41314 496:0.96402001 498:0.79325998 499:0.62206 504:0.72351003 505:0.81488001 513:0.59108001 515:0.15317 516:0.19622999 521:0.29563999 524:0.96149999 526:0.30680999 533:0.67040998 535:0.34147 538:0.30386001 540:0.66280001 541:0.1628 542:0.57704997 547:0.096207 549:0.018647 558:0.38738 567:0.054125998 568:0.87101001 570:0.80145001 573:0.054389998 574:0.29245001 575:0.96925002 578:0.64788997 579:0.45456001 583:0.96338999 585:0.16662 586:0.13742 587:0.82477999 589:0.79325998 595:0.25626001 596:0.42800999 600:0.74838001 601:0.35771999 603:0.50268 606:0.77193999 607:0.65105999 627:0.54926997 631:0.29563001 637:0.28128001 638:0.59544998 640:0.18632001 641:0.78652 642:0.35760999 646:0.92941999 651:0.97798997 652:0.96171999 656:0.89240998 665:0.37079 672:0.19622999 673:0.30291 674:0.13451 675:0.75616997 677:0.44488999 682:0.89725 693:0.59549999 694:0.22002999 695:0.83960998 697:0.046567 699:0.37101001 700:0.84529001 #
-0.050000000000000002775557561562891 1:0.69466001 11:0.98743999 12:0.2044 17:0.16498999 18:0.73934001 21:0.050978001 27:0.71504998 29:0.98707998 30:0.61957002 38:0.45052999 43:0.89788997 45:0.72881001 54:0.89450002 57:0.34356999 63:0.74035001 64:0.76874 66:0.48087001 69:0.44229001 70:0.54403001 74:0.56888998 81:0.48212001 83:0.60069001 85:0.72119999 86:0.85425001 90:0.22562 91:0.4587 98:0.58990002 99:0.83032 101:0.97145998 108:0.68364 109:0.043092001 114:0.84976 119:0.95639002 122:0.56699002 123:0.66271001 124:0.65248001 126:0.44068 127:0.43996 129:0.59294999 133:0.61124998 134:0.57189 139:0.81198001 144:0.92320001 146:0.16556001 147:0.21887 149:0.63124001 150:0.56663001 154:0.88703001 155:0.58183998 159:0.40827999 165:0.70393002 172:0.36803001 173:0.48039001 176:0.65894997 177:0.70056999 178:0.54926997 179:0.78591001 184:0.52556002 185:0.68993002 187:0.94822001 192:0.51475 194:0.55168003 201:0.68326002 208:0.54258001 212:0.27515 216:0.37426001 222:0.99720001 235:0.11934 241:0.47202 242:0.45432001 243:0.33708 245:0.53306001 247:0.47266999 250:0.016175 252:0.31147 253:0.58076 265:0.60088998 266:0.46939999 276:0.39397001 278:0.043552998 290:0.84976 300:0.43013 302:0.84643 305:0.45585001 309:0.99081999 310:0.95177001 317:0.83273 325:0.54926997 327:0.85896999 329:0.47154999 330:0.83271003 332:0.0051393001 341:0.26299 346:0.67483997 347:0.53099 348:0.39265999 349:0.39477 350:0.33234999 356:0.52508998 359:0.90210003 370:0.82532001 376:0.36238 382:0.33597001 383:0.54926997 384:0.45585001 385:0.65968001 386:0.84775001 387:0.54926997 395:0.58262998 399:0.32979 400:0.85096002 405:0.76033998 406:0.59701997 407:0.421 411:0.76960999 415:0.92747003 418:0.12027 421:0.53140002 426:0.0030463999 427:0.48155999 429:0.94103003 433:0.56559998 436:0.83788002 437:0.62020999 438:0.51591003 442:0.66992998 445:0.49678001 446:0.27487001 450:0.40472001 451:0.62673002 452:0.66468 454:0.69896001 462:0.97628999 466:0.76622999 474:0.50695002 476:0.50053 480:0.33829999 481:0.78963 486:0.36704001 487:0.85506999 491:0.47288999 498:0.94766998 499:0.74000001 504:0.88507003 505:0.27271 513:0.65078002 515:0.46252 516:0.19622999 521:0.83184999 526:0.30680999 527:0.44328001 533:0.80175 535:0.46647999 538:0.2286 540:0.66280001 541:0.48302999 547:0.096207 549:0.018647 558:0.46689999 567:0.054125998 570:0.72981 573:0.054389998 574:0.38771001 575:0.98444998 578:0.79405999 579:0.45456001 585:0.18047 586:0.53099 589:0.94766998 595:0.18104 596:0.38938001 601:0.45142999 603:0.50268 606:0.86443001 607:0.65105999 616:0.64437997 627:0.54926997 631:0.83135003 637:0.22645 638:0.0056059002 640:0.34470001 641:0.74716997 642:0.58600003 665:0.29469001 672:0.19622999 673:0.52438998 674:0.45668 675:0.98513001 677:0.95442998 682:0.84552997 693:0.64920998 694:0.23502 697:0.046567 699:0.41755 700:0.98093998 #
-0.025213523811120110151851037016968 1:0.74141997 4:0.93717003 7:0.80870003 11:0.97323 12:0.2044 17:0.55049998 18:0.85933 21:0.47422001 27:0.71504998 29:0.98707998 30:0.54010999 32:0.79737997 37:0.26144999 38:0.63631999 43:0.91469997 44:0.93423003 45:0.84957999 54:0.91404998 57:0.30177 63:0.74035001 64:0.76874 66:0.34518 69:0.36353999 70:0.51536 73:0.80707002 74:0.87955999 77:0.70475 81:0.45241001 83:0.60069001 86:0.94841999 90:0.22562 91:0.34635001 97:0.88994998 98:0.20614 99:0.83032 101:0.52454001 108:0.28093001 109:0.043092001 114:0.59881997 116:0.91845 118:0.8294 119:0.98768002 122:0.56699002 123:0.27043 124:0.70612001 126:0.54390001 127:0.18945999 129:0.80647999 130:0.96078998 133:0.66911 134:0.64714998 139:0.96926999 144:0.92320001 145:0.70428997 146:0.30227 147:0.36612001 149:0.93769002 150:0.66724998 154:0.90754998 155:0.66795999 158:0.90755999 159:0.33250999 165:0.70393002 172:0.4454 173:0.29861 176:0.72929001 177:0.70056999 178:0.54926997 179:0.33706999 183:0.91649002 184:0.52556002 185:0.64695001 187:0.39144 192:0.87447 194:0.83613002 200:0.67458999 201:0.92641997 204:0.88736999 208:0.64296001 210:0.93884999 212:0.75406998 215:0.40551001 216:0.29846001 219:0.95358002 221:0.86796999 222:0.99720001 230:0.85886002 233:0.72526002 235:0.67837 241:0.0065239002 242:0.52797002 243:0.50828999 245:0.68946999 247:0.35495001 250:0.016175 252:0.31147 253:0.49083999 254:0.73695999 263:0.96717 265:0.22507 266:0.53526998 276:0.4752 278:0.043552998 279:0.85790002 281:0.88462001 282:0.87796003 283:0.77099001 290:0.59881997 292:0.90951002 296:0.90586001 297:0.36041999 300:0.55388999 302:0.84643 305:0.36161 309:0.99081999 310:0.76045001 315:0.95534998 317:0.41207999 322:0.96587002 325:0.54926997 326:0.78522998 327:0.88980001 329:0.31259999 330:0.41198999 332:0.18856999 341:0.45175999 346:0.67483997 347:0.31830999 348:0.22152001 349:0.24079999 350:0.48686999 351:0.64350998 356:0.29754001 359:0.96382999 370:0.82532001 373:0.96011001 376:0.37248001 382:0.35850999 383:0.54926997 384:0.36161 385:0.33645999 386:0.84364003 387:0.54926997 389:0.75439 397:0.91416001 399:0.75983 400:0.57479 402:0.78189999 404:0.85137999 405:0.88598001 406:0.67807001 407:0.31202999 409:0.80728 411:0.82675999 415:0.96853 417:0.89703 418:0.94234002 421:0.53140002 426:0.45563 427:0.81010997 429:0.80478001 431:0.88407999 433:0.43808001 436:0.77486002 437:0.62020999 438:0.71816999 439:0.84688002 442:0.4786 445:0.72867 446:0.33482999 450:0.79724997 451:0.91553998 454:0.79271001 462:0.97890002 466:0.76622999 473:0.96735001 474:0.62443 476:0.73132998 480:0.21301 481:0.71771997 483:0.77995002 485:0.85631001 486:0.51968002 487:0.95078999 490:0.97312999 491:0.53522998 492:0.43761 494:0.43761 496:0.94595999 498:0.81121999 499:0.4601 504:0.75490999 505:0.69569999 506:0.80164999 513:0.83181 515:0.1954 516:0.19622999 518:0.83519 521:0.41159999 522:0.81604999 524:0.96517998 526:0.30680999 530:0.81586999 533:0.20128 535:0.47894001 538:0.55172998 540:0.66280001 541:0.2141 542:0.57704997 547:0.096207 549:0.018647 558:0.61702001 567:0.054125998 568:0.75202 570:0.80145001 573:0.054389998 574:0.46386999 575:0.96925002 578:0.18846001 579:0.50494999 583:0.96338999 585:0.32852 586:0.31830999 587:0.82477999 589:0.81121999 594:0.74256003 595:0.30125001 596:0.63094002 600:0.74838001 601:0.56471997 603:0.50268 606:0.77077001 607:0.65105999 619:0.95896 627:0.54926997 631:0.41128001 637:0.32295999 638:0.20911001 640:0.28150001 641:0.92545998 642:0.58600003 644:0.69468999 646:0.92941999 651:0.96138 652:0.94331998 654:0.89037001 655:0.91491002 657:0.97391999 658:0.96976 665:0.60661 672:0.19622999 673:0.44150999 674:0.20829999 675:0.91276002 677:0.44488999 679:0.94700003 682:0.89725 691:0.95695001 692:0.88568997 693:0.83494997 694:0.3876 695:0.83960998 697:0.046567 698:0.61888999 699:0.59447998 700:0.88625997 #
-0.010000000000000000208166817117217 11:0.97323 12:0.2044 17:0.31709 18:0.72596997 21:0.77818 27:0.71504998 29:0.98707998 30:0.90713 38:0.83108002 43:0.10064 45:0.77412999 54:0.88338 55:0.51576 57:0.30149001 63:0.74035001 66:0.97577 69:0.81876999 70:0.24260999 74:0.54887003 86:0.83743 90:0.22562 91:0.40391999 98:0.83740997 101:0.52454001 108:0.66285998 109:0.043092001 123:0.64073002 127:0.33526999 129:0.048097 139:0.79953003 144:0.92320001 145:0.94599003 146:0.89304 147:0.91222 149:0.46764001 154:0.65140003 159:0.48387 172:0.93913001 173:0.81576997 177:0.70056999 178:0.54926997 179:0.1749 184:0.52556002 185:0.86714 187:0.86598003 212:0.94116998 216:0.28149 222:0.99720001 235:0.87586999 241:0.45771 242:0.79171002 243:0.97636998 247:0.47266999 250:0.016175 252:0.31147 253:0.36958 254:0.73695999 265:0.83747 266:0.22547001 272:0.82862002 276:0.88433999 278:0.043552998 300:0.43013 302:0.84643 305:0.87150002 325:0.54926997 327:0.84060001 329:0.97577 332:0.011743 341:0.97592002 347:0.85633999 348:0.73865002 349:0.79150999 350:0.96878999 356:0.30987 359:0.93721998 370:0.82532001 376:0.21471 382:0.45157999 383:0.54926997 384:0.87150002 385:0.14586 386:0.903 387:0.54926997 399:0.32979 406:0.97610998 407:0.76234001 411:0.82831001 415:0.93778998 418:0.10929 426:0.41304001 433:0.37935001 436:0.68313003 437:0.62020999 438:0.49368 442:0.17670999 445:0.89516002 446:0.31613001 450:0.86695999 451:0.24292 454:0.69896001 462:0.86399001 466:0.76622999 474:0.97992998 476:0.89608997 480:0.33829999 481:0.75533003 486:0.87687999 487:0.84223002 491:0.24885 499:0.96885997 504:0.56656998 513:0.62173998 515:0.84198999 516:0.19622999 526:0.30680999 527:0.77818 533:0.66123998 535:0.56086999 538:0.95585001 540:0.66280001 541:0.84679002 547:0.096207 549:0.018647 558:0.46689999 567:0.054125998 570:0.80145001 573:0.054389998 574:0.94033998 575:0.96925002 578:0.63826001 579:0.96333998 585:0.84641999 586:0.85633999 595:0.27878001 596:0.73610002 601:0.45142999 603:0.50268 606:0.25591001 607:0.65105999 627:0.54926997 637:0.20498 638:0.012973 640:0.80282003 641:0.81911999 642:0.048097 665:0.96327001 671:0.69325 672:0.19622999 673:0.81809002 674:0.76633 675:0.90192997 677:0.44488999 693:0.62682998 694:0.85324001 697:0.046567 699:0.27948001 #
